<?xml version="1.0"?>
<opencv_storage>
<stage7>
  <maxWeakCount>25</maxWeakCount>
  <stageThreshold>-1.7383309602737427e+00</stageThreshold>
  <weakClassifiers>
    <_>
      <internalNodes>
        0 -1 57844 1.4711557887494564e-03</internalNodes>
      <leafValues>
        -5.9629374742507935e-01 1.1545278131961823e-01</leafValues></_>
    <_>
      <internalNodes>
        0 -1 77758 -4.2666126973927021e-03</internalNodes>
      <leafValues>
        2.7603399753570557e-01 -3.9285126328468323e-01</leafValues></_>
    <_>
      <internalNodes>
        0 -1 47252 2.6559489779174328e-03</internalNodes>
      <leafValues>
        -2.0717917382717133e-01 4.7316816449165344e-01</leafValues></_>
    <_>
      <internalNodes>
        0 -1 56996 5.9697180404327810e-05</internalNodes>
      <leafValues>
        -5.1005738973617554e-01 1.8212060630321503e-01</leafValues></_>
    <_>
      <internalNodes>
        0 -1 73472 -1.4520784134219866e-05</internalNodes>
      <leafValues>
        2.0900116860866547e-01 -4.0421146154403687e-01</leafValues></_>
    <_>
      <internalNodes>
        0 -1 45468 9.0859513729810715e-03</internalNodes>
      <leafValues>
        -3.2975524663925171e-01 2.3688000440597534e-01</leafValues></_>
    <_>
      <internalNodes>
        0 -1 77559 -8.2457065582275391e-04</internalNodes>
      <leafValues>
        -6.0873609781265259e-01 8.2818835973739624e-02</leafValues></_>
    <_>
      <internalNodes>
        0 -1 64205 5.9933383017778397e-03</internalNodes>
      <leafValues>
        -3.8921055197715759e-01 1.8861986696720123e-01</leafValues></_>
    <_>
      <internalNodes>
        0 -1 78196 3.3755996264517307e-04</internalNodes>
      <leafValues>
        1.2656566500663757e-01 -6.7331320047378540e-01</leafValues></_>
    <_>
      <internalNodes>
        0 -1 54604 5.8964430354535580e-03</internalNodes>
      <leafValues>
        -1.7072723805904388e-01 3.8101285696029663e-01</leafValues></_>
    <_>
      <internalNodes>
        0 -1 12075 1.8932403996586800e-02</internalNodes>
      <leafValues>
        1.2385296821594238e-01 -5.3244173526763916e-01</leafValues></_>
    <_>
      <internalNodes>
        0 -1 6266 -1.4008341729640961e-01</internalNodes>
      <leafValues>
        7.3692530393600464e-01 -1.1636041104793549e-01</leafValues></_>
    <_>
      <internalNodes>
        0 -1 28752 4.1322413831949234e-02</internalNodes>
      <leafValues>
        -1.2610517442226410e-01 5.8227241039276123e-01</leafValues></_>
    <_>
      <internalNodes>
        0 -1 46546 -4.0637236088514328e-03</internalNodes>
      <leafValues>
        2.4368745088577271e-01 -2.8759798407554626e-01</leafValues></_>
    <_>
      <internalNodes>
        0 -1 73324 3.3976894337683916e-03</internalNodes>
      <leafValues>
        8.1938534975051880e-02 -8.4372395277023315e-01</leafValues></_>
    <_>
      <internalNodes>
        0 -1 76515 -1.7284684872720391e-05</internalNodes>
      <leafValues>
        1.8607732653617859e-01 -3.0395683646202087e-01</leafValues></_>
    <_>
      <internalNodes>
        0 -1 73295 4.4041499495506287e-03</internalNodes>
      <leafValues>
        6.4173340797424316e-02 -1.0487663745880127e+00</leafValues></_>
    <_>
      <internalNodes>
        0 -1 57955 1.7172789666801691e-03</internalNodes>
      <leafValues>
        -1.2667842209339142e-01 5.0737321376800537e-01</leafValues></_>
    <_>
      <internalNodes>
        0 -1 10737 -4.5802898239344358e-04</internalNodes>
      <leafValues>
        -4.6209412813186646e-01 1.2934011220932007e-01</leafValues></_>
    <_>
      <internalNodes>
        0 -1 10786 3.4579547354951501e-04</internalNodes>
      <leafValues>
        1.7373548448085785e-01 -3.4772443771362305e-01</leafValues></_>
    <_>
      <internalNodes>
        0 -1 56332 3.5756570287048817e-03</internalNodes>
      <leafValues>
        -5.4071056842803955e-01 1.1568370461463928e-01</leafValues></_>
    <_>
      <internalNodes>
        0 -1 22334 9.0556154027581215e-03</internalNodes>
      <leafValues>
        -2.6147168874740601e-01 2.2872896492481232e-01</leafValues></_>
    <_>
      <internalNodes>
        0 -1 43558 -4.4890134595334530e-03</internalNodes>
      <leafValues>
        4.4586011767387390e-01 -1.3894465565681458e-01</leafValues></_>
    <_>
      <internalNodes>
        0 -1 70689 -1.4694263882120140e-05</internalNodes>
      <leafValues>
        2.1012027561664581e-01 -2.8116968274116516e-01</leafValues></_>
    <_>
      <internalNodes>
        0 -1 75064 5.2295010536909103e-03</internalNodes>
      <leafValues>
        6.8207532167434692e-02 -9.2697352170944214e-01</leafValues></_></weakClassifiers></stage7>
</opencv_storage>
