<?xml version="1.0"?>
<opencv_storage>
<stage18>
  <maxWeakCount>71</maxWeakCount>
  <stageThreshold>-1.2589734792709351e+00</stageThreshold>
  <weakClassifiers>
    <_>
      <internalNodes>
        0 -1 205458 6.6601913422346115e-03</internalNodes>
      <leafValues>
        -2.7744361758232117e-01 3.9403671026229858e-01</leafValues></_>
    <_>
      <internalNodes>
        0 -1 353236 2.4578091688454151e-03</internalNodes>
      <leafValues>
        -4.0004736185073853e-01 1.7982651293277740e-01</leafValues></_>
    <_>
      <internalNodes>
        0 -1 280978 6.5306667238473892e-03</internalNodes>
      <leafValues>
        -2.0647759735584259e-01 2.7912837266921997e-01</leafValues></_>
    <_>
      <internalNodes>
        0 -1 66278 -2.8620686382055283e-02</internalNodes>
      <leafValues>
        4.3311589956283569e-01 -9.6747532486915588e-02</leafValues></_>
    <_>
      <internalNodes>
        0 -1 239317 -1.7246071947738528e-03</internalNodes>
      <leafValues>
        1.0033370554447174e-01 -3.8193842768669128e-01</leafValues></_>
    <_>
      <internalNodes>
        0 -1 364539 -6.0531965573318303e-06</internalNodes>
      <leafValues>
        1.6622576117515564e-01 -2.7089941501617432e-01</leafValues></_>
    <_>
      <internalNodes>
        0 -1 358317 -1.9310920833959244e-05</internalNodes>
      <leafValues>
        1.3239526748657227e-01 -2.6783180236816406e-01</leafValues></_>
    <_>
      <internalNodes>
        0 -1 263242 -4.4194748625159264e-03</internalNodes>
      <leafValues>
        2.0397371053695679e-01 -1.6189306974411011e-01</leafValues></_>
    <_>
      <internalNodes>
        0 -1 384054 3.7799945566803217e-03</internalNodes>
      <leafValues>
        -1.8988259136676788e-01 1.8063439428806305e-01</leafValues></_>
    <_>
      <internalNodes>
        0 -1 339160 -3.2754354178905487e-03</internalNodes>
      <leafValues>
        -6.1401033401489258e-01 5.9913542121648788e-02</leafValues></_>
    <_>
      <internalNodes>
        0 -1 136206 3.6157116293907166e-02</internalNodes>
      <leafValues>
        5.9012174606323242e-02 -4.6892994642257690e-01</leafValues></_>
    <_>
      <internalNodes>
        0 -1 345185 -4.1550481691956520e-03</internalNodes>
      <leafValues>
        3.4008455276489258e-01 -9.3473002314567566e-02</leafValues></_>
    <_>
      <internalNodes>
        0 -1 313476 1.3354110997170210e-03</internalNodes>
      <leafValues>
        -9.9744297564029694e-02 2.9029017686843872e-01</leafValues></_>
    <_>
      <internalNodes>
        0 -1 267537 1.9235362997278571e-03</internalNodes>
      <leafValues>
        5.6773208081722260e-02 -5.0651049613952637e-01</leafValues></_>
    <_>
      <internalNodes>
        0 -1 274171 2.7353717014193535e-03</internalNodes>
      <leafValues>
        4.4578090310096741e-02 -6.2541604042053223e-01</leafValues></_>
    <_>
      <internalNodes>
        0 -1 318485 1.0165283456444740e-03</internalNodes>
      <leafValues>
        -1.0037198662757874e-01 2.5599250197410583e-01</leafValues></_>
    <_>
      <internalNodes>
        0 -1 329088 6.1877607367932796e-04</internalNodes>
      <leafValues>
        -1.1876308917999268e-01 2.2603915631771088e-01</leafValues></_>
    <_>
      <internalNodes>
        0 -1 377625 1.0853661224246025e-03</internalNodes>
      <leafValues>
        5.6569468230009079e-02 -5.2414852380752563e-01</leafValues></_>
    <_>
      <internalNodes>
        0 -1 227842 1.3915985822677612e-02</internalNodes>
      <leafValues>
        3.9541427046060562e-02 -5.5055630207061768e-01</leafValues></_>
    <_>
      <internalNodes>
        0 -1 152690 -1.4665689319372177e-02</internalNodes>
      <leafValues>
        -5.5254006385803223e-01 4.2016305029392242e-02</leafValues></_>
    <_>
      <internalNodes>
        0 -1 183112 -3.3910768106579781e-03</internalNodes>
      <leafValues>
        -5.1862090826034546e-01 4.2861726135015488e-02</leafValues></_>
    <_>
      <internalNodes>
        0 -1 259074 -1.0653885547071695e-03</internalNodes>
      <leafValues>
        2.8117328882217407e-01 -8.7382800877094269e-02</leafValues></_>
    <_>
      <internalNodes>
        0 -1 272011 -6.1769150197505951e-03</internalNodes>
      <leafValues>
        2.0422936975955963e-01 -1.5170983970165253e-01</leafValues></_>
    <_>
      <internalNodes>
        0 -1 31121 9.0666144387796521e-04</internalNodes>
      <leafValues>
        6.8474002182483673e-02 -3.4049615263938904e-01</leafValues></_>
    <_>
      <internalNodes>
        0 -1 5487 -9.4663968775421381e-04</internalNodes>
      <leafValues>
        -3.3964350819587708e-01 8.8182166218757629e-02</leafValues></_>
    <_>
      <internalNodes>
        0 -1 224126 -7.5014792382717133e-03</internalNodes>
      <leafValues>
        3.5302567481994629e-01 -7.3707021772861481e-02</leafValues></_>
    <_>
      <internalNodes>
        0 -1 149396 1.8913226667791605e-03</internalNodes>
      <leafValues>
        -7.5583159923553467e-02 2.9516345262527466e-01</leafValues></_>
    <_>
      <internalNodes>
        0 -1 188712 -1.3827367220073938e-03</internalNodes>
      <leafValues>
        3.1386375427246094e-01 -7.9245939850807190e-02</leafValues></_>
    <_>
      <internalNodes>
        0 -1 371911 -2.7068583294749260e-03</internalNodes>
      <leafValues>
        -6.0264343023300171e-01 4.1660040616989136e-02</leafValues></_>
    <_>
      <internalNodes>
        0 -1 339704 -1.7789792036637664e-04</internalNodes>
      <leafValues>
        1.1247639358043671e-01 -2.0962703227996826e-01</leafValues></_>
    <_>
      <internalNodes>
        0 -1 186073 -4.5128107070922852e-02</internalNodes>
      <leafValues>
        -6.6738855838775635e-01 3.3291071653366089e-02</leafValues></_>
    <_>
      <internalNodes>
        0 -1 210830 -4.8357010819017887e-03</internalNodes>
      <leafValues>
        1.9764967262744904e-01 -1.1690239608287811e-01</leafValues></_>
    <_>
      <internalNodes>
        0 -1 258522 2.1097143180668354e-03</internalNodes>
      <leafValues>
        4.7801144421100616e-02 -4.9193823337554932e-01</leafValues></_>
    <_>
      <internalNodes>
        0 -1 295422 1.0143194813281298e-03</internalNodes>
      <leafValues>
        4.7014530748128891e-02 -4.5583295822143555e-01</leafValues></_>
    <_>
      <internalNodes>
        0 -1 208841 -4.4206693768501282e-02</internalNodes>
      <leafValues>
        -3.7001681327819824e-01 5.9322554618120193e-02</leafValues></_>
    <_>
      <internalNodes>
        0 -1 245524 2.0818556658923626e-03</internalNodes>
      <leafValues>
        5.0397902727127075e-02 -4.3055477738380432e-01</leafValues></_>
    <_>
      <internalNodes>
        0 -1 211700 3.7330278428271413e-04</internalNodes>
      <leafValues>
        -1.8540582060813904e-01 1.4843972027301788e-01</leafValues></_>
    <_>
      <internalNodes>
        0 -1 288544 -1.0527236387133598e-02</internalNodes>
      <leafValues>
        4.2809867858886719e-01 -6.2504909932613373e-02</leafValues></_>
    <_>
      <internalNodes>
        0 -1 263237 -3.2254476100206375e-03</internalNodes>
      <leafValues>
        4.2813664674758911e-01 -4.8817228525876999e-02</leafValues></_>
    <_>
      <internalNodes>
        0 -1 377115 9.0865872334688902e-04</internalNodes>
      <leafValues>
        5.1305271685123444e-02 -4.5891860127449036e-01</leafValues></_>
    <_>
      <internalNodes>
        0 -1 382598 -4.7582187689840794e-03</internalNodes>
      <leafValues>
        1.5866515040397644e-01 -1.5602973103523254e-01</leafValues></_>
    <_>
      <internalNodes>
        0 -1 382760 1.5449339523911476e-02</internalNodes>
      <leafValues>
        -6.3867203891277313e-02 4.1050028800964355e-01</leafValues></_>
    <_>
      <internalNodes>
        0 -1 291576 -4.3837842531502247e-04</internalNodes>
      <leafValues>
        2.2849045693874359e-01 -1.0398421436548233e-01</leafValues></_>
    <_>
      <internalNodes>
        0 -1 382495 -5.5972100199142005e-06</internalNodes>
      <leafValues>
        1.3128554821014404e-01 -1.6987679898738861e-01</leafValues></_>
    <_>
      <internalNodes>
        0 -1 74633 2.0688431686721742e-04</internalNodes>
      <leafValues>
        8.0281808972358704e-02 -2.7878841757774353e-01</leafValues></_>
    <_>
      <internalNodes>
        0 -1 326149 -2.6157882064580917e-02</internalNodes>
      <leafValues>
        -5.5945575237274170e-01 3.6773744970560074e-02</leafValues></_>
    <_>
      <internalNodes>
        0 -1 304530 -3.7395255640149117e-04</internalNodes>
      <leafValues>
        1.6638121008872986e-01 -1.4552992582321167e-01</leafValues></_>
    <_>
      <internalNodes>
        0 -1 4756 2.4156078696250916e-01</internalNodes>
      <leafValues>
        4.4224828481674194e-02 -4.9281179904937744e-01</leafValues></_>
    <_>
      <internalNodes>
        0 -1 275545 -6.0132629005238414e-04</internalNodes>
      <leafValues>
        -3.1885364651679993e-01 6.3585139811038971e-02</leafValues></_>
    <_>
      <internalNodes>
        0 -1 190640 5.4205395281314850e-04</internalNodes>
      <leafValues>
        -8.6369462311267853e-02 2.3878915607929230e-01</leafValues></_>
    <_>
      <internalNodes>
        0 -1 151350 -1.9827370997518301e-03</internalNodes>
      <leafValues>
        3.1373625993728638e-01 -7.3914043605327606e-02</leafValues></_>
    <_>
      <internalNodes>
        0 -1 318080 -1.9171665189787745e-03</internalNodes>
      <leafValues>
        -4.9195736646652222e-01 4.6145595610141754e-02</leafValues></_>
    <_>
      <internalNodes>
        0 -1 307046 -1.1491293553262949e-03</internalNodes>
      <leafValues>
        2.1836207807064056e-01 -1.0393919050693512e-01</leafValues></_>
    <_>
      <internalNodes>
        0 -1 280475 -3.0169717501848936e-03</internalNodes>
      <leafValues>
        3.2672247290611267e-01 -6.5215192735195160e-02</leafValues></_>
    <_>
      <internalNodes>
        0 -1 198186 -4.2629264295101166e-02</internalNodes>
      <leafValues>
        -4.4299048185348511e-01 5.2008621394634247e-02</leafValues></_>
    <_>
      <internalNodes>
        0 -1 372465 6.1252108025655616e-06</internalNodes>
      <leafValues>
        -1.5096034109592438e-01 1.3979430496692657e-01</leafValues></_>
    <_>
      <internalNodes>
        0 -1 329982 1.9372770562767982e-02</internalNodes>
      <leafValues>
        3.3779814839363098e-02 -6.7149233818054199e-01</leafValues></_>
    <_>
      <internalNodes>
        0 -1 373053 6.3386121764779091e-03</internalNodes>
      <leafValues>
        -1.1017642170190811e-01 1.8845960497856140e-01</leafValues></_>
    <_>
      <internalNodes>
        0 -1 189307 -3.7489011883735657e-02</internalNodes>
      <leafValues>
        -6.0031890869140625e-01 3.5471860319375992e-02</leafValues></_>
    <_>
      <internalNodes>
        0 -1 345913 5.9279578272253275e-04</internalNodes>
      <leafValues>
        -1.0874296724796295e-01 2.0507624745368958e-01</leafValues></_>
    <_>
      <internalNodes>
        0 -1 274707 -3.5415400634519756e-04</internalNodes>
      <leafValues>
        2.2652119398117065e-01 -9.1512493789196014e-02</leafValues></_>
    <_>
      <internalNodes>
        0 -1 138186 -4.2705962550826371e-04</internalNodes>
      <leafValues>
        -2.7804937958717346e-01 7.9554289579391479e-02</leafValues></_>
    <_>
      <internalNodes>
        0 -1 243211 -2.8718414250761271e-04</internalNodes>
      <leafValues>
        1.7166650295257568e-01 -1.2148606032133102e-01</leafValues></_>
    <_>
      <internalNodes>
        0 -1 363775 -2.6588171022012830e-04</internalNodes>
      <leafValues>
        -2.6891770958900452e-01 7.7167488634586334e-02</leafValues></_>
    <_>
      <internalNodes>
        0 -1 279769 1.5970137901604176e-03</internalNodes>
      <leafValues>
        -6.7850135266780853e-02 3.2942238450050354e-01</leafValues></_>
    <_>
      <internalNodes>
        0 -1 265564 -2.4372367188334465e-03</internalNodes>
      <leafValues>
        2.2882796823978424e-01 -1.0080128163099289e-01</leafValues></_>
    <_>
      <internalNodes>
        0 -1 362588 -8.0505153164267540e-03</internalNodes>
      <leafValues>
        7.6470112800598145e-01 -2.9451871290802956e-02</leafValues></_>
    <_>
      <internalNodes>
        0 -1 289407 1.2755470816046000e-03</internalNodes>
      <leafValues>
        7.8919418156147003e-02 -2.9827103018760681e-01</leafValues></_>
    <_>
      <internalNodes>
        0 -1 294433 1.2897027190774679e-03</internalNodes>
      <leafValues>
        5.4387323558330536e-02 -3.8868790864944458e-01</leafValues></_>
    <_>
      <internalNodes>
        0 -1 285871 1.8013919470831752e-03</internalNodes>
      <leafValues>
        -7.8680552542209625e-02 2.8280213475227356e-01</leafValues></_>
    <_>
      <internalNodes>
        0 -1 333562 2.7254009619355202e-03</internalNodes>
      <leafValues>
        -6.3680887222290039e-02 3.4721034765243530e-01</leafValues></_></weakClassifiers></stage18>
</opencv_storage>
