<?xml version="1.0"?>
<opencv_storage>
<stage19>
  <maxWeakCount>46</maxWeakCount>
  <stageThreshold>-5.5256175994873047e+00</stageThreshold>
  <weakClassifiers>
    <_>
      <internalNodes>
        0 -1 41076 -1739467855 18290567 -922265215 -276063097 -69469697
        -302034551 -1491616053 -2004033651</internalNodes>
      <leafValues>
        -1.0536692142486572e+00 2.1432003378868103e-01</leafValues></_>
    <_>
      <internalNodes>
        0 -1 44082 -567283985 -623277285 -620785929 -492589201
        -151053621 -285741313 1828712091 -353677817</internalNodes>
      <leafValues>
        -5.1011902093887329e-01 8.4431809186935425e-01</leafValues></_>
    <_>
      <internalNodes>
        0 -1 58245 -606618849 -639690381 1363920975 317367071 -340379307
        -88526821 -617891276 -27197760</internalNodes>
      <leafValues>
        -7.3951292037963867e-01 5.3023564815521240e-01</leafValues></_>
    <_>
      <internalNodes>
        0 -1 62815 -1278214209 -1088256929 1661053887 2132193836
        -627983737 -1472021873 1798263069 -572701492</internalNodes>
      <leafValues>
        -7.6040261983871460e-01 5.0345033407211304e-01</leafValues></_>
    <_>
      <internalNodes>
        0 -1 35726 -245249649 -20073139 2097778442 66962734 -897134706
        -640068927 -528284273 2084040874</internalNodes>
      <leafValues>
        -6.4354532957077026e-01 6.4138203859329224e-01</leafValues></_>
    <_>
      <internalNodes>
        0 -1 44780 1325875211 534360692 1342182447 -1621688225
        1140934633 1553990315 -58160197 -1081382373</internalNodes>
      <leafValues>
        -8.2018721103668213e-01 4.2707952857017517e-01</leafValues></_>
    <_>
      <internalNodes>
        0 -1 60092 -292025163 2130657248 754860023 1543446399
        -1082794028 -310575282 -541397252 -1162213681</internalNodes>
      <leafValues>
        -5.6497216224670410e-01 6.6018795967102051e-01</leafValues></_>
    <_>
      <internalNodes>
        0 -1 66388 -1097129266 1532876102 -249509642 1941685306
        -81309677 1048748549 562293622 2000873590</internalNodes>
      <leafValues>
        -9.3020945787429810e-01 3.7435048818588257e-01</leafValues></_>
    <_>
      <internalNodes>
        0 -1 42880 -97780333 -844976279 -4751566 -3576041 1442266612
        -1921663497 -717455881 -72516333</internalNodes>
      <leafValues>
        -5.2349132299423218e-01 7.0028185844421387e-01</leafValues></_>
    <_>
      <internalNodes>
        0 -1 62912 -1240891529 -84271137 -1610678479 -79860276
        -1082397297 -1091764227 1022812159 -1610693384</internalNodes>
      <leafValues>
        -5.1286131143569946e-01 7.2125357389450073e-01</leafValues></_>
    <_>
      <internalNodes>
        0 -1 48910 -17494976 2134842689 1073670655 -612639019 2105484804
        -268520067 -142657016 -1720468422</internalNodes>
      <leafValues>
        -5.6711292266845703e-01 6.6182976961135864e-01</leafValues></_>
    <_>
      <internalNodes>
        0 -1 63332 -1086587087 425695957 515719473 60404176 -1867280686
        -1411880818 1817697968 -1108546723</internalNodes>
      <leafValues>
        -6.6428965330123901e-01 5.2857160568237305e-01</leafValues></_>
    <_>
      <internalNodes>
        0 -1 51094 -2011685520 -1731180847 856216249 -1355279849
        -223419924 -641695703 -1834418693 -2005196101</internalNodes>
      <leafValues>
        -6.5235620737075806e-01 5.9925252199172974e-01</leafValues></_>
    <_>
      <internalNodes>
        0 -1 58150 -434153673 612135135 -1736277785 582933330
        -1308417472 -360007159 -885466316 -889521628</internalNodes>
      <leafValues>
        -8.9320456981658936e-01 3.4911006689071655e-01</leafValues></_>
    <_>
      <internalNodes>
        0 -1 52600 134252680 -547482219 -2147102637 -606595591
        -2138922343 -1144283000 -922170375 731384200</internalNodes>
      <leafValues>
        -8.1093955039978027e-01 4.4961625337600708e-01</leafValues></_>
    <_>
      <internalNodes>
        0 -1 24334 -1770076634 922539787 1476875012 46514395 -875966111
        2013365255 1501660834 877252926</internalNodes>
      <leafValues>
        -9.1132402420043945e-01 3.8769784569740295e-01</leafValues></_>
    <_>
      <internalNodes>
        0 -1 46614 2006463666 -697544581 -1063960302 1368525182 6084488
        640553226 1490436103 -1085296649</internalNodes>
      <leafValues>
        -7.5598424673080444e-01 4.7034659981727600e-01</leafValues></_>
    <_>
      <internalNodes>
        0 -1 35901 -184845486 991477834 -2062270156 344354 -1979676122
        -1434386174 -1016970913 2052265810</internalNodes>
      <leafValues>
        -7.3975914716720581e-01 4.3844738602638245e-01</leafValues></_>
    <_>
      <internalNodes>
        0 -1 61600 -1451014025 -1428990693 -2122098573 113160650
        998626070 -726694718 730637572 -968344368</internalNodes>
      <leafValues>
        -9.5670753717422485e-01 3.0875867605209351e-01</leafValues></_>
    <_>
      <internalNodes>
        0 -1 56256 -1743043959 -649030363 1108918775 1151899 -887807360
        -69672813 77735596 171506654</internalNodes>
      <leafValues>
        -7.1466374397277832e-01 4.7050631046295166e-01</leafValues></_>
    <_>
      <internalNodes>
        0 -1 42470 -666658676 -192380532 1409863112 -174227008
        1074223349 1967128579 1229505532 801456289</internalNodes>
      <leafValues>
        -6.6236215829849243e-01 4.8474174737930298e-01</leafValues></_>
    <_>
      <internalNodes>
        0 -1 66236 471311874 801398918 -778534889 -301546676 -853550541
        134418439 -1043656367 1509869792</internalNodes>
      <leafValues>
        -1.0517839193344116e+00 2.7989462018013000e-01</leafValues></_>
    <_>
      <internalNodes>
        0 -1 51043 1110759828 -579158244 1606414335 -1415742351
        1010826728 -270536712 1708799940 -1382060065</internalNodes>
      <leafValues>
        -5.2175682783126831e-01 5.9745746850967407e-01</leafValues></_>
    <_>
      <internalNodes>
        0 -1 43811 1798111282 -829529650 -1667837092 1161830492
        -1304949903 -77094734 -117033967 -839450159</internalNodes>
      <leafValues>
        -7.9743593931198120e-01 3.5937884449958801e-01</leafValues></_>
    <_>
      <internalNodes>
        0 -1 34233 -45058066 1398059810 1091703821 -1404308841
        -352243196 64258067 -1969616337 93800715</internalNodes>
      <leafValues>
        -7.2146499156951904e-01 4.2616778612136841e-01</leafValues></_>
    <_>
      <internalNodes>
        0 -1 24727 -486351825 -2033724946 -1857989304 -385441202
        1696203009 1082884294 -483851917 -154713853</internalNodes>
      <leafValues>
        -6.9687807559967041e-01 3.9013624191284180e-01</leafValues></_>
    <_>
      <internalNodes>
        0 -1 37659 2009400994 1071347929 -1790520626 822976592
        1480693665 -536325947 1493281689 986122147</internalNodes>
      <leafValues>
        -6.4873719215393066e-01 4.0826499462127686e-01</leafValues></_>
    <_>
      <internalNodes>
        0 -1 64511 -1047591163 1900396999 948041923 -716799935
        -519290102 -928300669 -1693791860 -317894322</internalNodes>
      <leafValues>
        -6.8147438764572144e-01 3.7260150909423828e-01</leafValues></_>
    <_>
      <internalNodes>
        0 -1 44364 -25506237 -277385225 -353456273 -274154069 1098055081
        2138488823 1073168366 -1541673146</internalNodes>
      <leafValues>
        -4.6217402815818787e-01 5.8291614055633545e-01</leafValues></_>
    <_>
      <internalNodes>
        0 -1 7435 -218013826 -154924773 1346396238 -1475469158 671711977
        2055272649 -687854792 1805285203</internalNodes>
      <leafValues>
        -6.0023492574691772e-01 4.1313818097114563e-01</leafValues></_>
    <_>
      <internalNodes>
        0 -1 8974 -2016083451 1644136726 428888652 -136817255 1576959289
        -41826622 -230100778 1416556664</internalNodes>
      <leafValues>
        -5.8574217557907104e-01 4.3787884712219238e-01</leafValues></_>
    <_>
      <internalNodes>
        0 -1 35802 1853865671 -782098916 -34218884 -1214919338
        -550175530 -1082692225 511023542 -43966593</internalNodes>
      <leafValues>
        -4.1327852010726929e-01 6.2486809492111206e-01</leafValues></_>
    <_>
      <internalNodes>
        0 -1 41750 911672972 1124141058 -1861162667 -410286071 185094282
        -1056945150 712354 390279639</internalNodes>
      <leafValues>
        -8.4020781517028809e-01 2.8024247288703918e-01</leafValues></_>
    <_>
      <internalNodes>
        0 -1 56815 1314615393 -74514091 -1740427145 -798871078
        -208969664 -628424318 -1702700656 -266687628</internalNodes>
      <leafValues>
        -5.6311434507369995e-01 3.8881725072860718e-01</leafValues></_>
    <_>
      <internalNodes>
        0 -1 52587 -1855109918 1160765517 -526823023 212137009
        -611850878 -1971089122 1908930730 -1414923893</internalNodes>
      <leafValues>
        -5.0693690776824951e-01 4.4546431303024292e-01</leafValues></_>
    <_>
      <internalNodes>
        0 -1 20587 -1054793179 1798937073 1208390095 311750866
        -799815236 -49764833 289603628 2029509379</internalNodes>
      <leafValues>
        -5.0023424625396729e-01 4.3450540304183960e-01</leafValues></_>
    <_>
      <internalNodes>
        0 -1 47573 1539513165 1130426771 -2129980843 1931215659
        -1207482323 981729293 444820462 1294602522</internalNodes>
      <leafValues>
        -4.8958867788314819e-01 4.4196817278862000e-01</leafValues></_>
    <_>
      <internalNodes>
        0 -1 46165 1590296546 492901308 -1684008889 670647200 1349320962
        1928957674 1796341986 1064927257</internalNodes>
      <leafValues>
        -5.6022739410400391e-01 3.7765681743621826e-01</leafValues></_>
    <_>
      <internalNodes>
        0 -1 37208 -410332889 -822345266 487212306 -103915135 1655284437
        1704075280 822980725 -1407928179</internalNodes>
      <leafValues>
        -5.0798332691192627e-01 4.0880399942398071e-01</leafValues></_>
    <_>
      <internalNodes>
        0 -1 49299 -773598315 1328954961 -276865211 591232953 -394814151
        -21368835 -1360101512 -1355055169</internalNodes>
      <leafValues>
        -3.6244314908981323e-01 5.8518487215042114e-01</leafValues></_>
    <_>
      <internalNodes>
        0 -1 67492 -9465989 -140513297 -150994961 -113311747 1878118166
        762765175 -1607726 -90704305</internalNodes>
      <leafValues>
        -3.6332932114601135e-01 5.6608402729034424e-01</leafValues></_>
    <_>
      <internalNodes>
        0 -1 43182 -2070864784 362217744 335547353 456757517 369668512
        -1430427640 -2008536664 134236213</internalNodes>
      <leafValues>
        -5.8597999811172485e-01 3.6278575658798218e-01</leafValues></_>
    <_>
      <internalNodes>
        0 -1 50828 -678178612 528649004 1079558356 963140224 -1610036316
        -1587047796 -2109572831 1041990066</internalNodes>
      <leafValues>
        -5.7603299617767334e-01 3.5779413580894470e-01</leafValues></_>
    <_>
      <internalNodes>
        0 -1 35610 294022610 457789731 -1541406381 756658648 403057040
        -670486392 1119978152 738411195</internalNodes>
      <leafValues>
        -6.7256700992584229e-01 3.1171771883964539e-01</leafValues></_>
    <_>
      <internalNodes>
        0 -1 6098 -570533097 1316224958 -419527818 2062413415 2101323711
        905936895 1043773043 1744823403</internalNodes>
      <leafValues>
        -3.8849860429763794e-01 5.2497857809066772e-01</leafValues></_>
    <_>
      <internalNodes>
        0 -1 46495 -2088402176 809797256 -1022557741 1078186148
        -1341560810 -419385216 -382600441 -663617689</internalNodes>
      <leafValues>
        -5.2175140380859375e-01 3.8373446464538574e-01</leafValues></_></weakClassifiers></stage19>
</opencv_storage>
