<?xml version="1.0"?>
<opencv_storage>
<stage8>
  <maxWeakCount>46</maxWeakCount>
  <stageThreshold>-8.0021820068359375e+00</stageThreshold>
  <weakClassifiers>
    <_>
      <internalNodes>
        0 -1 1800 -13313 -98613795 -17312961 -170946097 -708863233
        -158627682 -2626945 -4195445</internalNodes>
      <leafValues>
        -1.5440055131912231e+00 -2.2062350809574127e-01</leafValues></_>
    <_>
      <internalNodes>
        0 -1 40936 -144703489 1998576539 -579744493 993993099 -168053320
        -1267742503 -197412648 -2005532723</internalNodes>
      <leafValues>
        -7.7881693840026855e-01 7.2125238180160522e-01</leafValues></_>
    <_>
      <internalNodes>
        0 -1 55883 -1134985285 -1085549585 -783034409 -36833707
        1023082495 -134571353 521925105 -52951920</internalNodes>
      <leafValues>
        -7.7536869049072266e-01 6.7138087749481201e-01</leafValues></_>
    <_>
      <internalNodes>
        0 -1 36788 -268445329 -70498493 -1194731025 -1603804606
        -337651627 1857252205 -137371797 1915748183</internalNodes>
      <leafValues>
        -8.7304520606994629e-01 5.3137290477752686e-01</leafValues></_>
    <_>
      <internalNodes>
        0 -1 54409 2071924551 -552234509 873585684 -681974317 1932222212
        -1259347841 2074836766 -8662198</internalNodes>
      <leafValues>
        -9.6110230684280396e-01 5.0299829244613647e-01</leafValues></_>
    <_>
      <internalNodes>
        0 -1 39948 -207646021 -1647868230 1359070463 970396423
        1573481467 -1326892821 512180988 975785727</internalNodes>
      <leafValues>
        -7.7412784099578857e-01 6.5909618139266968e-01</leafValues></_>
    <_>
      <internalNodes>
        0 -1 52438 -260069545 -1967570471 -921478889 -1441542005
        -108401836 -3534752 -1146948752 -73662732</internalNodes>
      <leafValues>
        -7.7965778112411499e-01 6.4155393838882446e-01</leafValues></_>
    <_>
      <internalNodes>
        0 -1 33877 2054942626 -310336726 -170858381 -12185123 -484870738
        2042659402 -753806350 -67798361</internalNodes>
      <leafValues>
        -7.5604331493377686e-01 6.5545606613159180e-01</leafValues></_>
    <_>
      <internalNodes>
        0 -1 65701 -1312309773 1888719877 -2130459453 -1155605816
        -1721294170 -1430765440 -1450749232 -369493036</internalNodes>
      <leafValues>
        -8.0843466520309448e-01 5.5193561315536499e-01</leafValues></_>
    <_>
      <internalNodes>
        0 -1 13383 -287843365 382649290 -1022393491 -582348321 -89659637
        1506115995 1676105838 -1610615061</internalNodes>
      <leafValues>
        -6.4948415756225586e-01 7.3876261711120605e-01</leafValues></_>
    <_>
      <internalNodes>
        0 -1 58009 -1882198479 650396381 -1850485315 1000179197
        1785162580 -79387893 -2116150667 -388129036</internalNodes>
      <leafValues>
        -9.4963252544403076e-01 4.4824802875518799e-01</leafValues></_>
    <_>
      <internalNodes>
        0 -1 47885 -688075173 -67145733 1072644063 1253015551 795854541
        -16809986 -291530034 -1193578569</internalNodes>
      <leafValues>
        -5.4210883378982544e-01 9.0755689144134521e-01</leafValues></_>
    <_>
      <internalNodes>
        0 -1 39482 -32769 -41943121 -335610242 -143101954 -545434213
        -8945665 -34945 -273518753</internalNodes>
      <leafValues>
        -5.0223290920257568e-01 1.0043607950210571e+00</leafValues></_>
    <_>
      <internalNodes>
        0 -1 65250 -1480593629 196542326 -1078202539 -83952641
        1056951997 1853144959 -176195155 -855902509</internalNodes>
      <leafValues>
        -6.4672881364822388e-01 7.1988248825073242e-01</leafValues></_>
    <_>
      <internalNodes>
        0 -1 40876 -775685525 354676718 -1476395015 377225212 1601404666
        -126713858 217988718 1751885523</internalNodes>
      <leafValues>
        -6.5375161170959473e-01 7.1743237972259521e-01</leafValues></_>
    <_>
      <internalNodes>
        0 -1 42633 2111214562 -800243526 -1315110571 -719855312
        -859393544 -56999926 -796497169 -17329762</internalNodes>
      <leafValues>
        -6.9133394956588745e-01 6.2129551172256470e-01</leafValues></_>
    <_>
      <internalNodes>
        0 -1 64789 1980981226 2023203364 -2147082022 -607331821
        1361201329 -605683671 1804944218 -74655506</internalNodes>
      <leafValues>
        -6.6052961349487305e-01 6.1690771579742432e-01</leafValues></_>
    <_>
      <internalNodes>
        0 -1 40746 1356592960 931598342 -1877924844 1503199488
        -934517840 -297188856 -765878100 231979681</internalNodes>
      <leafValues>
        -7.6148790121078491e-01 5.4113578796386719e-01</leafValues></_>
    <_>
      <internalNodes>
        0 -1 55779 -208437281 -778368619 -1610513581 -543571940 23189164
        -1878491119 142936653 -327282572</internalNodes>
      <leafValues>
        -8.1913489103317261e-01 4.6344101428985596e-01</leafValues></_>
    <_>
      <internalNodes>
        0 -1 50779 1642224549 706248729 269496535 314753272 -624237051
        -98893822 -175909024 -143486032</internalNodes>
      <leafValues>
        -8.4068125486373901e-01 4.0227344632148743e-01</leafValues></_>
    <_>
      <internalNodes>
        0 -1 38890 -87384496 -348376 -1073774603 -536908295 -547588188
        -1883275265 -34279426 -8704834</internalNodes>
      <leafValues>
        -4.0280243754386902e-01 9.4930505752563477e-01</leafValues></_>
    <_>
      <internalNodes>
        0 -1 22336 914534070 -275361445 -2121177841 -304750575
        2003268579 -1467350726 -121099979 1871405855</internalNodes>
      <leafValues>
        -7.1622419357299805e-01 5.0891739130020142e-01</leafValues></_>
    <_>
      <internalNodes>
        0 -1 3437 -5248321 -68161538 -285245770 -84148226 -1208017090
        1996453373 -268577555 1742208190</internalNodes>
      <leafValues>
        -5.0647896528244019e-01 7.0599997043609619e-01</leafValues></_>
    <_>
      <internalNodes>
        0 -1 38477 -8330077 1540286457 -110416847 -176836746 -1929494937
        -494960641 1442805663 -1350697730</internalNodes>
      <leafValues>
        -4.6716183423995972e-01 7.0302379131317139e-01</leafValues></_>
    <_>
      <internalNodes>
        0 -1 21296 832561053 -930438701 71308279 168775758 1646454879
        -937205581 318938104 526956638</internalNodes>
      <leafValues>
        -6.1267912387847900e-01 5.2113956212997437e-01</leafValues></_>
    <_>
      <internalNodes>
        0 -1 49096 1108570827 -527105791 319150285 -1876692069
        1250759441 671907875 -844465888 -1180706453</internalNodes>
      <leafValues>
        -6.6836154460906982e-01 4.3967351317405701e-01</leafValues></_>
    <_>
      <internalNodes>
        0 -1 36306 500825945 420675911 1075941385 -1593294591 297437392
        -1900926016 -1157526787 -2010928751</internalNodes>
      <leafValues>
        -5.4333800077438354e-01 5.5465090274810791e-01</leafValues></_>
    <_>
      <internalNodes>
        0 -1 36738 -81822102 -696095935 134807567 -1475554920
        -1073648819 1024491576 -1065131392 1648053195</internalNodes>
      <leafValues>
        -7.2367638349533081e-01 3.7937170267105103e-01</leafValues></_>
    <_>
      <internalNodes>
        0 -1 58413 1632834547 -1579274039 -787426859 -1063481251
        -394196175 -897056632 411722292 -1408046110</internalNodes>
      <leafValues>
        -7.5917452573776245e-01 3.3225715160369873e-01</leafValues></_>
    <_>
      <internalNodes>
        0 -1 31253 -1810181894 -612183892 -2113372009 -984264888
        1346417151 713828865 -1056241013 878404451</internalNodes>
      <leafValues>
        -5.6419551372528076e-01 4.6050801873207092e-01</leafValues></_>
    <_>
      <internalNodes>
        0 -1 60383 -408460263 973250964 -536737247 634095001 1435207885
        176263683 13586001 -847263552</internalNodes>
      <leafValues>
        -5.6929647922515869e-01 4.7287419438362122e-01</leafValues></_>
    <_>
      <internalNodes>
        0 -1 15295 944042141 228164085 270532762 -705246578 436961759
        -310377461 12328 1817979491</internalNodes>
      <leafValues>
        -5.4304480552673340e-01 4.7499549388885498e-01</leafValues></_>
    <_>
      <internalNodes>
        0 -1 42672 -224463582 -485748577 1157910932 -122723883
        1820481814 -603905920 -438116046 -1583656374</internalNodes>
      <leafValues>
        -5.1689237356185913e-01 5.0171649456024170e-01</leafValues></_>
    <_>
      <internalNodes>
        0 -1 41047 -1071477 368574451 -268961926 1375465471 -136841996
        75497343 -16793670 -1469063175</internalNodes>
      <leafValues>
        -4.9420213699340820e-01 5.8423590660095215e-01</leafValues></_>
    <_>
      <internalNodes>
        0 -1 50002 1058192050 549732625 3153929 -1924820863 -744966003
        -180355064 335620271 787196651</internalNodes>
      <leafValues>
        -7.1128517389297485e-01 3.9820593595504761e-01</leafValues></_>
    <_>
      <internalNodes>
        0 -1 39573 -715964253 1276678225 -1869528638 -1113255750
        2013792343 944275593 -804680939 -173307505</internalNodes>
      <leafValues>
        -6.9126856327056885e-01 3.8523653149604797e-01</leafValues></_>
    <_>
      <internalNodes>
        0 -1 60691 -49589737 -1017708093 1090617496 -729415218
        -1030682285 -628129245 -920763200 -319381028</internalNodes>
      <leafValues>
        -7.4029427766799927e-01 3.4482583403587341e-01</leafValues></_>
    <_>
      <internalNodes>
        0 -1 40313 -1208970342 898957457 830488901 1023684823
        -1878042425 -1635233652 -1459008629 -23107381</internalNodes>
      <leafValues>
        -5.0589430332183838e-01 5.1635473966598511e-01</leafValues></_>
    <_>
      <internalNodes>
        0 -1 28847 -683173926 -183566293 75895040 -937193454 -838622457
        1256357889 -770720893 1198852106</internalNodes>
      <leafValues>
        -5.6005734205245972e-01 4.6352571249008179e-01</leafValues></_>
    <_>
      <internalNodes>
        0 -1 66904 -75782758 -1275363337 2141632975 -605028353
        -1108367148 -680034310 -545392658 -1080297569</internalNodes>
      <leafValues>
        -3.2749125361442566e-01 8.4825176000595093e-01</leafValues></_>
    <_>
      <internalNodes>
        0 -1 66 -1 -1 -1 -131073 -1 -1 -1 -1</internalNodes>
      <leafValues>
        1.3814535923302174e-02 10.</leafValues></_>
    <_>
      <internalNodes>
        0 -1 43205 2026078679 -1320255421 352518260 -536687594
        -2138867524 -1744101363 1353007474 -20777647</internalNodes>
      <leafValues>
        -6.3067644834518433e-01 3.8078850507736206e-01</leafValues></_>
    <_>
      <internalNodes>
        0 -1 43064 -352383211 -147594 -16842881 1899757561 -629836426
        -553812033 1742521750 -1155385546</internalNodes>
      <leafValues>
        -4.2749753594398499e-01 5.5224210023880005e-01</leafValues></_>
    <_>
      <internalNodes>
        0 -1 19426 -675683729 -186470660 1324609268 1560276479 671053311
        397406079 -42181129 1802954167</internalNodes>
      <leafValues>
        -4.4650244712829590e-01 5.0987005233764648e-01</leafValues></_>
    <_>
      <internalNodes>
        0 -1 36217 -565925470 1663176728 -1878929328 -1055903744
        -1197465053 1820622986 -1853103375 1519081998</internalNodes>
      <leafValues>
        -6.8658721446990967e-01 3.3812990784645081e-01</leafValues></_>
    <_>
      <internalNodes>
        0 -1 60857 1944013639 -528924449 1074839572 -710360821
        -371622631 -1073737536 581366241 -1724957686</internalNodes>
      <leafValues>
        -5.8580917119979858e-01 3.8459047675132751e-01</leafValues></_></weakClassifiers></stage8>
</opencv_storage>
