<?xml version="1.0"?>
<opencv_storage>
<stage18>
  <maxWeakCount>33</maxWeakCount>
  <stageThreshold>-4.5573148727416992e+00</stageThreshold>
  <weakClassifiers>
    <_>
      <internalNodes>
        0 -1 51101 -809506029 135490563 -2025988717 252951339
        -1167852885 -1418819414 -1377048949 -1349522789</internalNodes>
      <leafValues>
        -9.8846155405044556e-01 3.7882351875305176e-01</leafValues></_>
    <_>
      <internalNodes>
        0 -1 67424 -136619005 -100697410 -17302729 1402994027 -143022329
        -51544204 -1120358486 -538181637</internalNodes>
      <leafValues>
        -5.5157542228698730e-01 8.0840492248535156e-01</leafValues></_>
    <_>
      <internalNodes>
        0 -1 41835 -13776913 -1085489 -1314821 -271601906 -8913481
        -17835313 -1241518097 -76287166</internalNodes>
      <leafValues>
        -4.8611676692962646e-01 8.9774841070175171e-01</leafValues></_>
    <_>
      <internalNodes>
        0 -1 38620 1642971936 59504906 131594771 -573971759 1630131143
        1158201387 1389032176 -537957889</internalNodes>
      <leafValues>
        -7.1180903911590576e-01 5.6242549419403076e-01</leafValues></_>
    <_>
      <internalNodes>
        0 -1 63659 -104858665 -977545038 1258393813 -611055175 432329703
        -912948831 191460817 -575874576</internalNodes>
      <leafValues>
        -9.0536463260650635e-01 4.2599621415138245e-01</leafValues></_>
    <_>
      <internalNodes>
        0 -1 50834 -4203272 2131768864 -16974048 -743309536 -74353
        -1467484168 2147417391 -1422935121</internalNodes>
      <leafValues>
        -5.7786041498184204e-01 7.3143321275711060e-01</leafValues></_>
    <_>
      <internalNodes>
        0 -1 49190 -1206373744 -88186960 -1743253095 -237497187
        -1643058791 -1727540558 -1887126852 715131120</internalNodes>
      <leafValues>
        -9.7399330139160156e-01 3.7555342912673950e-01</leafValues></_>
    <_>
      <internalNodes>
        0 -1 26818 -118822340 -2131494249 438036684 3085327 -430046652
        617799439 -100557044 1898958511</internalNodes>
      <leafValues>
        -9.5011800527572632e-01 3.7731561064720154e-01</leafValues></_>
    <_>
      <internalNodes>
        0 -1 58975 -1472418347 -629334281 -285802497 -1678229513
        -269156899 -139267 -289612834 -1424442625</internalNodes>
      <leafValues>
        -5.2109211683273315e-01 7.3621588945388794e-01</leafValues></_>
    <_>
      <internalNodes>
        0 -1 35669 1081087728 4257907 1770180637 -1120987309 -1218340000
        -683482673 176284617 -350272881</internalNodes>
      <leafValues>
        -1.1565374135971069e+00 2.9681703448295593e-01</leafValues></_>
    <_>
      <internalNodes>
        0 -1 42825 -775955549 -74263513 2101581681 -620377127 -536603819
        -521920352 -1089216176 -229316203</internalNodes>
      <leafValues>
        -6.2949609756469727e-01 6.2225258350372314e-01</leafValues></_>
    <_>
      <internalNodes>
        0 -1 65161 939260343 1209540896 1883281695 411359288 941200965
        756981786 -1311835308 -596839020</internalNodes>
      <leafValues>
        -9.5205932855606079e-01 3.5836654901504517e-01</leafValues></_>
    <_>
      <internalNodes>
        0 -1 60837 1056898847 -1033240650 939294581 -1724676 -1082159121
        -353374730 -1359133505 -1999086372</internalNodes>
      <leafValues>
        -4.9485665559768677e-01 7.3086053133010864e-01</leafValues></_>
    <_>
      <internalNodes>
        0 -1 47620 1683316757 -421629361 -1239826355 1862103837
        1538015504 -24625073 -91891897 -1368700621</internalNodes>
      <leafValues>
        -7.2467643022537231e-01 4.8920223116874695e-01</leafValues></_>
    <_>
      <internalNodes>
        0 -1 39014 1124090944 403728084 1174715739 -1013777914
        1287734308 -1194114424 235064142 1078674498</internalNodes>
      <leafValues>
        -9.5132780075073242e-01 3.7153071165084839e-01</leafValues></_>
    <_>
      <internalNodes>
        0 -1 56417 -708465534 -1667776035 -1924841385 -1931618915
        -1467965815 760414220 173575864 -1437677365</internalNodes>
      <leafValues>
        -6.4326739311218262e-01 5.3131580352783203e-01</leafValues></_>
    <_>
      <internalNodes>
        0 -1 19293 -25428053 2058005860 1845473198 -1225728774 385869819
        -411715587 2004070774 -147326214</internalNodes>
      <leafValues>
        -5.3295582532882690e-01 6.5718990564346313e-01</leafValues></_>
    <_>
      <internalNodes>
        0 -1 47375 -958657248 1571850734 -83504725 -371358631
        -1455340804 -1047820286 428452234 185274095</internalNodes>
      <leafValues>
        -6.6521143913269043e-01 5.2014464139938354e-01</leafValues></_>
    <_>
      <internalNodes>
        0 -1 62716 -471108621 -273154021 1090548359 1390309590
        -1073035197 -1165243765 1065540208 -64292416</internalNodes>
      <leafValues>
        -6.9853210449218750e-01 4.5494869351387024e-01</leafValues></_>
    <_>
      <internalNodes>
        0 -1 37311 -1804882277 803796958 523234052 -1082352754
        1145027955 -27230211 1433925629 -570477377</internalNodes>
      <leafValues>
        -4.9239861965179443e-01 6.4342719316482544e-01</leafValues></_>
    <_>
      <internalNodes>
        0 -1 37566 -991399184 -347889878 1918547587 688492590 1376012484
        -1458923263 1012996901 658728583</internalNodes>
      <leafValues>
        -9.9820476770401001e-01 3.1449106335639954e-01</leafValues></_>
    <_>
      <internalNodes>
        0 -1 48048 1543527040 -2009052151 -1124005475 -1791989737
        1107517600 -1149001717 -351387744 114325167</internalNodes>
      <leafValues>
        -7.6036173105239868e-01 3.6015224456787109e-01</leafValues></_>
    <_>
      <internalNodes>
        0 -1 48959 -958606272 -1229255839 336085780 2138636343 868867664
        -1433774063 461945296 -1156966262</internalNodes>
      <leafValues>
        -5.6096136569976807e-01 5.1265525817871094e-01</leafValues></_>
    <_>
      <internalNodes>
        0 -1 22301 644732966 682852361 -1858617196 -1430163453
        1728479234 -872218582 -1386820956 2087076863</internalNodes>
      <leafValues>
        -7.4799346923828125e-01 4.1439342498779297e-01</leafValues></_>
    <_>
      <internalNodes>
        0 -1 42754 -664273989 -693387281 1628602129 -1251221507
        1895164845 -1930102785 -176701470 -850069508</internalNodes>
      <leafValues>
        -4.0132695436477661e-01 7.6965343952178955e-01</leafValues></_>
    <_>
      <internalNodes>
        0 -1 65238 -1310749703 -1640771323 1363398677 -695463030
        -1470446709 -1366253335 411910513 -925245253</internalNodes>
      <leafValues>
        -5.5014085769653320e-01 4.9879088997840881e-01</leafValues></_>
    <_>
      <internalNodes>
        0 -1 51141 1939488596 1738038546 -2138945321 1998342556
        -536526456 553879565 967571772 -555917991</internalNodes>
      <leafValues>
        -6.8515282869338989e-01 3.7619999051094055e-01</leafValues></_>
    <_>
      <internalNodes>
        0 -1 39229 -277990541 386961810 -1056243647 1713033478 273824260
        2043251332 -632684197 -602635557</internalNodes>
      <leafValues>
        -6.3585656881332397e-01 4.2554858326911926e-01</leafValues></_>
    <_>
      <internalNodes>
        0 -1 37959 -212107007 -258944045 604058127 1087619451 1171454378
        671088732 -1264457778 1880539914</internalNodes>
      <leafValues>
        -5.4540807008743286e-01 4.9473240971565247e-01</leafValues></_>
    <_>
      <internalNodes>
        0 -1 47097 -2012490880 -664334240 -1727508144 298812502
        -1241309128 -1741484016 -1559620904 -2103473605</internalNodes>
      <leafValues>
        -5.0112724304199219e-01 5.0886225700378418e-01</leafValues></_>
    <_>
      <internalNodes>
        0 -1 48644 1220740670 -1464866859 -1333440419 -124141405
        -796708809 -1437924788 -389840716 -367932610</internalNodes>
      <leafValues>
        -6.3419926166534424e-01 3.7664723396301270e-01</leafValues></_>
    <_>
      <internalNodes>
        0 -1 27458 1150149202 583291072 1497505972 1604105358
        -1822920027 -1442739565 285345297 331305419</internalNodes>
      <leafValues>
        -6.7678236961364746e-01 3.6640781164169312e-01</leafValues></_>
    <_>
      <internalNodes>
        0 -1 29699 -854128206 -129867763 -1874700022 -1155657526
        -1593059071 -935157724 -739472707 1357342799</internalNodes>
      <leafValues>
        -5.8629745244979858e-01 4.1298609972000122e-01</leafValues></_></weakClassifiers></stage18>
</opencv_storage>
