<?xml version="1.0"?>
<opencv_storage>
<stage0>
  <maxWeakCount>22</maxWeakCount>
  <stageThreshold>-3.3724536895751953e+00</stageThreshold>
  <weakClassifiers>
    <_>
      <internalNodes>
        0 -1 30694 6.1469152569770813e-02</internalNodes>
      <leafValues>
        -1.4277641773223877e+00 1.4277641773223877e+00</leafValues></_>
    <_>
      <internalNodes>
        0 -1 71370 -3.6152902990579605e-02</internalNodes>
      <leafValues>
        9.6582347154617310e-01 -9.6582347154617310e-01</leafValues></_>
    <_>
      <internalNodes>
        0 -1 36338 1.5347407199442387e-02</internalNodes>
      <leafValues>
        -7.8138542175292969e-01 7.8138542175292969e-01</leafValues></_>
    <_>
      <internalNodes>
        0 -1 46341 1.1764511000365019e-03</internalNodes>
      <leafValues>
        7.8561651706695557e-01 -7.8561651706695557e-01</leafValues></_>
    <_>
      <internalNodes>
        0 -1 68572 3.6204392090439796e-03</internalNodes>
      <leafValues>
        6.2840592861175537e-01 -6.2840592861175537e-01</leafValues></_>
    <_>
      <internalNodes>
        0 -1 1197 -2.7976486086845398e-01</internalNodes>
      <leafValues>
        4.9663975834846497e-01 -4.9663975834846497e-01</leafValues></_>
    <_>
      <internalNodes>
        0 -1 76828 3.5921260714530945e-03</internalNodes>
      <leafValues>
        5.9267032146453857e-01 -5.9267032146453857e-01</leafValues></_>
    <_>
      <internalNodes>
        0 -1 27847 3.5582944750785828e-02</internalNodes>
      <leafValues>
        -6.6445642709732056e-01 6.6445642709732056e-01</leafValues></_>
    <_>
      <internalNodes>
        0 -1 43532 3.1496994197368622e-02</internalNodes>
      <leafValues>
        5.5597108602523804e-01 -5.5597108602523804e-01</leafValues></_>
    <_>
      <internalNodes>
        0 -1 5513 -1.2489010393619537e-01</internalNodes>
      <leafValues>
        4.5985224843025208e-01 -4.5985224843025208e-01</leafValues></_>
    <_>
      <internalNodes>
        0 -1 76399 2.6119460817426443e-03</internalNodes>
      <leafValues>
        5.0397324562072754e-01 -5.0397324562072754e-01</leafValues></_>
    <_>
      <internalNodes>
        0 -1 9127 5.4270576685667038e-02</internalNodes>
      <leafValues>
        -6.4165621995925903e-01 6.4165621995925903e-01</leafValues></_>
    <_>
      <internalNodes>
        0 -1 77458 -6.5335619729012251e-04</internalNodes>
      <leafValues>
        -5.6214344501495361e-01 5.6214344501495361e-01</leafValues></_>
    <_>
      <internalNodes>
        0 -1 10888 -1.3473913073539734e-02</internalNodes>
      <leafValues>
        4.9411064386367798e-01 -4.9411064386367798e-01</leafValues></_>
    <_>
      <internalNodes>
        0 -1 743 5.0757132703438401e-04</internalNodes>
      <leafValues>
        4.3673676252365112e-01 -4.3673676252365112e-01</leafValues></_>
    <_>
      <internalNodes>
        0 -1 58850 1.9443582743406296e-02</internalNodes>
      <leafValues>
        -5.0057494640350342e-01 5.0057494640350342e-01</leafValues></_>
    <_>
      <internalNodes>
        0 -1 78458 5.7617935817688704e-04</internalNodes>
      <leafValues>
        4.2776367068290710e-01 -4.2776367068290710e-01</leafValues></_>
    <_>
      <internalNodes>
        0 -1 60657 -1.5282407402992249e-02</internalNodes>
      <leafValues>
        3.2521608471870422e-01 -3.2521608471870422e-01</leafValues></_>
    <_>
      <internalNodes>
        0 -1 58972 -8.2886102609336376e-04</internalNodes>
      <leafValues>
        -4.1049021482467651e-01 4.1049021482467651e-01</leafValues></_>
    <_>
      <internalNodes>
        0 -1 2202 -2.9009597375988960e-02</internalNodes>
      <leafValues>
        4.1489633917808533e-01 -4.1489633917808533e-01</leafValues></_>
    <_>
      <internalNodes>
        0 -1 135 2.4277761112898588e-03</internalNodes>
      <leafValues>
        4.3702772259712219e-01 -4.3702772259712219e-01</leafValues></_>
    <_>
      <internalNodes>
        0 -1 21335 -1.0186409577727318e-02</internalNodes>
      <leafValues>
        3.8926053047180176e-01 -3.8926053047180176e-01</leafValues></_></weakClassifiers></stage0>
</opencv_storage>
