<?xml version="1.0"?>
<opencv_storage>
<stage5>
  <maxWeakCount>15</maxWeakCount>
  <stageThreshold>-1.8924869298934937e+00</stageThreshold>
  <weakClassifiers>
    <_>
      <internalNodes>
        0 -1 210750 7.5065577402710915e-03</internalNodes>
      <leafValues>
        -8.5056632757186890e-01 1.7293649911880493e-01</leafValues></_>
    <_>
      <internalNodes>
        0 -1 377791 -6.9273701228667051e-06</internalNodes>
      <leafValues>
        2.9141768813133240e-01 -3.6972939968109131e-01</leafValues></_>
    <_>
      <internalNodes>
        0 -1 328079 2.5609700242057443e-04</internalNodes>
      <leafValues>
        1.1834627389907837e-01 -9.5845299959182739e-01</leafValues></_>
    <_>
      <internalNodes>
        0 -1 192899 2.4415636435151100e-03</internalNodes>
      <leafValues>
        -3.3182859420776367e-01 3.2250794768333435e-01</leafValues></_>
    <_>
      <internalNodes>
        0 -1 317100 -6.0916226357221603e-04</internalNodes>
      <leafValues>
        -9.6627229452133179e-01 1.3243219256401062e-01</leafValues></_>
    <_>
      <internalNodes>
        0 -1 214937 1.3727922923862934e-03</internalNodes>
      <leafValues>
        -1.6980239748954773e-01 6.0993874073028564e-01</leafValues></_>
    <_>
      <internalNodes>
        0 -1 248857 2.9936883947812021e-04</internalNodes>
      <leafValues>
        -3.1090199947357178e-01 3.3565744757652283e-01</leafValues></_>
    <_>
      <internalNodes>
        0 -1 222692 -5.6992657482624054e-03</internalNodes>
      <leafValues>
        2.4523022770881653e-01 -3.9723128080368042e-01</leafValues></_>
    <_>
      <internalNodes>
        0 -1 357108 -9.1237807646393776e-04</internalNodes>
      <leafValues>
        -6.8742108345031738e-01 1.6647022962570190e-01</leafValues></_>
    <_>
      <internalNodes>
        0 -1 267321 -6.8890018155798316e-04</internalNodes>
      <leafValues>
        2.8053471446037292e-01 -3.2121330499649048e-01</leafValues></_>
    <_>
      <internalNodes>
        0 -1 185771 -8.2007355988025665e-02</internalNodes>
      <leafValues>
        6.5849792957305908e-01 -1.5926082432270050e-01</leafValues></_>
    <_>
      <internalNodes>
        0 -1 3806 -8.1794962286949158e-02</internalNodes>
      <leafValues>
        5.1034200191497803e-01 -2.0019903779029846e-01</leafValues></_>
    <_>
      <internalNodes>
        0 -1 55358 -2.1875974198337644e-04</internalNodes>
      <leafValues>
        -7.0645046234130859e-01 1.3835589587688446e-01</leafValues></_>
    <_>
      <internalNodes>
        0 -1 257727 4.9150381237268448e-03</internalNodes>
      <leafValues>
        -4.3137246370315552e-01 2.3029744625091553e-01</leafValues></_>
    <_>
      <internalNodes>
        0 -1 55269 2.2604851983487606e-04</internalNodes>
      <leafValues>
        1.4721065759658813e-01 -6.5712195634841919e-01</leafValues></_></weakClassifiers></stage5>
</opencv_storage>
