<?xml version="1.0"?>
<opencv_storage>
<stage8>
  <maxWeakCount>9</maxWeakCount>
  <stageThreshold>-1.6157727241516113e+00</stageThreshold>
  <weakClassifiers>
    <_>
      <internalNodes>
        0 -1 10436 -65538 -65537 -1 -1 -1 -1 -1 -32905</internalNodes>
      <leafValues>
        -9.8545068502426147e-01 -1.8627414107322693e-01</leafValues></_>
    <_>
      <internalNodes>
        0 -1 19259 -1073774593 -1 -1 -1 -3 -1 -3 -229892</internalNodes>
      <leafValues>
        -3.9329156279563904e-01 3.1644749641418457e-01</leafValues></_>
    <_>
      <internalNodes>
        0 -1 10937 -37370 -65537 -18 -1 2147450692 -1 -32940 2147483519</internalNodes>
      <leafValues>
        -5.5989432334899902e-01 1.9032135605812073e-01</leafValues></_>
    <_>
      <internalNodes>
        0 -1 333 -1 -16777217 -1 -1 -129 -1 -129 -1</internalNodes>
      <leafValues>
        -1.2774872779846191e-01 6.2424248456954956e-01</leafValues></_>
    <_>
      <internalNodes>
        0 -1 12401 251456512 4653040 -268439916 -1175453697 232740676
        1173749237 2147483552 83752949</internalNodes>
      <leafValues>
        -1.2205542325973511e+00 9.3780763447284698e-02</leafValues></_>
    <_>
      <internalNodes>
        0 -1 19593 758021216 1056374772 2130509680 1073643516 1056339828
        2038235121 1878408500 609803620</internalNodes>
      <leafValues>
        -3.0266933441162109e+00 1.0159084200859070e-01</leafValues></_>
    <_>
      <internalNodes>
        0 -1 18667 783023904 1325301758 -17891680 -1962934298 2147450677
        2013233023 939488628 611680244</internalNodes>
      <leafValues>
        -1.2604298591613770e+00 9.2206522822380066e-02</leafValues></_>
    <_>
      <internalNodes>
        0 -1 11249 179307568 -1611043076 -1073741828 804253566
        1005600628 -41977865 1069317876 769941360</internalNodes>
      <leafValues>
        -1.5351661443710327e+00 8.7251082062721252e-02</leafValues></_>
    <_>
      <internalNodes>
        0 -1 11813 788512008 -924684626 -83886112 170323646 2146918212
        108396341 -311947 1685476661</internalNodes>
      <leafValues>
        -1.7048398256301880e+00 7.5783431529998779e-02</leafValues></_></weakClassifiers></stage8>
</opencv_storage>
