<?xml version="1.0"?>
<opencv_storage>
<stage8>
  <maxWeakCount>17</maxWeakCount>
  <stageThreshold>-1.2870181798934937e+00</stageThreshold>
  <weakClassifiers>
    <_>
      <internalNodes>
        0 -1 3650 -1 -1 -1 -1 -1 -1 -3 -3</internalNodes>
      <leafValues>
        -4.7608232498168945e-01 3.4467124938964844e-01</leafValues></_>
    <_>
      <internalNodes>
        0 -1 1576 -16843018 -1 -1 -1 -9 -1 -1 -1</internalNodes>
      <leafValues>
        -2.6094242930412292e-01 3.9691010117530823e-01</leafValues></_>
    <_>
      <internalNodes>
        0 -1 3308 -222 -1 -9 -1 -1 -1 -1 -1</internalNodes>
      <leafValues>
        -2.2322659194469452e-01 3.8490048050880432e-01</leafValues></_>
    <_>
      <internalNodes>
        0 -1 3610 -1342177292 -1359020033 -1 -16777217 -137 -1 -139 -11</internalNodes>
      <leafValues>
        -2.8524202108383179e-01 2.5757709145545959e-01</leafValues></_>
    <_>
      <internalNodes>
        0 -1 2399 -1 -1 -1 1073741823 -1 -1 2147483647 2147483647</internalNodes>
      <leafValues>
        -1.3360238075256348e-01 4.5330569148063660e-01</leafValues></_>
    <_>
      <internalNodes>
        0 -1 3912 -129 -1 -1 -1 -129 -1 -1 -1</internalNodes>
      <leafValues>
        -1.0300958901643753e-01 6.0553538799285889e-01</leafValues></_>
    <_>
      <internalNodes>
        0 -1 3837 -1094828176 -269287428 -65539 922550140 -1078626316
        -1342767113 2147382372 215766112</internalNodes>
      <leafValues>
        -9.1226959228515625e-01 1.1952083557844162e-01</leafValues></_>
    <_>
      <internalNodes>
        0 -1 2227 -30 -268500993 -1 -1 -9 2147483647 -9 -1</internalNodes>
      <leafValues>
        -1.9947737455368042e-01 3.4659776091575623e-01</leafValues></_>
    <_>
      <internalNodes>
        0 -1 1474 -16777218 -1 -2 -16777217 -9 -1 -11 -1</internalNodes>
      <leafValues>
        -1.7750562727451324e-01 3.3998697996139526e-01</leafValues></_>
    <_>
      <internalNodes>
        0 -1 2028 -16777568 1727987630 -16779424 -2106658828 2147483476
        887619444 2147483636 7798775</internalNodes>
      <leafValues>
        -7.4492329359054565e-01 1.1438431590795517e-01</leafValues></_>
    <_>
      <internalNodes>
        0 -1 2439 202321664 71966526 805252913 196820991 260005636
        1610571775 935296799 226459581</internalNodes>
      <leafValues>
        -1.3432477712631226e+00 6.7041523754596710e-02</leafValues></_>
    <_>
      <internalNodes>
        0 -1 3330 -1360263360 1290600392 -81956 788065788 2111668036
        -537067523 -4231360 542544</internalNodes>
      <leafValues>
        -1.1503499746322632e+00 5.3714182227849960e-02</leafValues></_>
    <_>
      <internalNodes>
        0 -1 3426 -32772 -1 -1 -1 -3 -1 -1 -1090584577</internalNodes>
      <leafValues>
        -1.1883515119552612e-01 4.5919784903526306e-01</leafValues></_>
    <_>
      <internalNodes>
        0 -1 1203 639806976 237173998 -1100021776 553582570 2088138500
        612204413 925990672 16662388</internalNodes>
      <leafValues>
        -1.0548406839370728e+00 7.1798890829086304e-02</leafValues></_>
    <_>
      <internalNodes>
        0 -1 3477 136317968 116981492 1073741816 251330548 -570589323
        -98307 -25274540 70278512</internalNodes>
      <leafValues>
        -1.6744395494461060e+00 5.9786804020404816e-02</leafValues></_>
    <_>
      <internalNodes>
        0 -1 2747 217988096 -1359053060 -152117488 415776316 1602174548
        1878982652 2137882192 29780</internalNodes>
      <leafValues>
        -8.9625400304794312e-01 7.7560015022754669e-02</leafValues></_>
    <_>
      <internalNodes>
        0 -1 736 -18 -285212673 -1 -268435457 -137 2147483647 -129 -1</internalNodes>
      <leafValues>
        -1.9958810508251190e-01 2.7663570642471313e-01</leafValues></_></weakClassifiers></stage8>
</opencv_storage>
