<?xml version="1.0"?>
<opencv_storage>
<stage15>
  <maxWeakCount>11</maxWeakCount>
  <stageThreshold>-1.3178851604461670e+00</stageThreshold>
  <weakClassifiers>
    <_>
      <internalNodes>
        0 -1 19710 -10487429 -1558709302 -176058177 -10837553
        -1410679873 -1348947576 436065759 -855770881</internalNodes>
      <leafValues>
        -4.5336714386940002e-01 3.0605822801589966e-01</leafValues></_>
    <_>
      <internalNodes>
        0 -1 14824 1215881208 1440760246 1146716753 -205401465
        -1945848600 -640638805 -82581825 -77354481</internalNodes>
      <leafValues>
        -5.8970773220062256e-01 1.9725234806537628e-01</leafValues></_>
    <_>
      <internalNodes>
        0 -1 11456 -540805152 1336332870 -47090944 -46833584 -1469336623
        -1995957592 -610812975 -563899467</internalNodes>
      <leafValues>
        -4.3269389867782593e-01 2.6026821136474609e-01</leafValues></_>
    <_>
      <internalNodes>
        0 -1 20274 -1664647277 -1018739965 -2129312372 -221348900
        -1683228111 -469073758 1259299268 -571147920</internalNodes>
      <leafValues>
        -5.8846712112426758e-01 2.1437488496303558e-01</leafValues></_>
    <_>
      <internalNodes>
        0 -1 14413 620364980 1559560930 -870788609 227747919 13428129
        -1472777063 176974846 195691755</internalNodes>
      <leafValues>
        -4.3691238760948181e-01 2.9156312346458435e-01</leafValues></_>
    <_>
      <internalNodes>
        0 -1 15665 1209420806 1392411512 -255543425 -96844199 -659405500
        -231186397 -368709262 -267977102</internalNodes>
      <leafValues>
        -5.1131451129913330e-01 2.3389056324958801e-01</leafValues></_>
    <_>
      <internalNodes>
        0 -1 162 -159910065 -1338275041 -1165402174 -490254325 565673843
        -1533082911 -1627135736 -364958801</internalNodes>
      <leafValues>
        -3.8454461097717285e-01 3.5310140252113342e-01</leafValues></_>
    <_>
      <internalNodes>
        0 -1 12225 -14767446 433127577 -648802120 -171652808 1208552623
        864556675 1489030123 2094225846</internalNodes>
      <leafValues>
        -4.2892563343048096e-01 2.6922658085823059e-01</leafValues></_>
    <_>
      <internalNodes>
        0 -1 17715 -1396718059 2115590733 -702574385 303226262 156443076
        -221773824 -544502944 -8738012</internalNodes>
      <leafValues>
        -4.1816389560699463e-01 2.9927453398704529e-01</leafValues></_>
    <_>
      <internalNodes>
        0 -1 15000 2130695644 2137972317 -1627431013 -1858621453 -25336
        -696287372 -1619764010 -1156369141</internalNodes>
      <leafValues>
        -3.1802716851234436e-01 4.0187007188796997e-01</leafValues></_>
    <_>
      <internalNodes>
        0 -1 10674 -938049786 -2064334764 -619997320 651788997
        -486241692 -1044340402 -1156140755 -354471850</internalNodes>
      <leafValues>
        -4.7380125522613525e-01 2.6039364933967590e-01</leafValues></_></weakClassifiers></stage15>
</opencv_storage>
