<?xml version="1.0"?>
<opencv_storage>
<stage14>
  <maxWeakCount>32</maxWeakCount>
  <stageThreshold>-1.2289395332336426e+00</stageThreshold>
  <weakClassifiers>
    <_>
      <internalNodes>
        0 -1 15322 -1 -1 -1 -1 -1 -1 -1 -32905</internalNodes>
      <leafValues>
        -1.6218818724155426e-01 5.3346055746078491e-01</leafValues></_>
    <_>
      <internalNodes>
        0 -1 15801 -65538 -1 -1 -1 -1 -1 -1 -1</internalNodes>
      <leafValues>
        -1.1841227114200592e-01 6.7889636754989624e-01</leafValues></_>
    <_>
      <internalNodes>
        0 -1 20277 -1 -1 -1 -1 -1 -1 -3 -4</internalNodes>
      <leafValues>
        -2.1204584836959839e-01 2.9595607519149780e-01</leafValues></_>
    <_>
      <internalNodes>
        0 -1 9986 -16777482 -1 -16777474 -16842753 -139 -1 2113893748
        1962934271</internalNodes>
      <leafValues>
        -3.4740704298019409e-01 1.8979954719543457e-01</leafValues></_>
    <_>
      <internalNodes>
        0 -1 17051 -285282306 -285212673 -1 -16842753 -11 -1 -9
        -17367041</internalNodes>
      <leafValues>
        -1.7391917109489441e-01 3.0600404739379883e-01</leafValues></_>
    <_>
      <internalNodes>
        0 -1 18550 -65538 -1 -1 -1 -1 -1 -1 -1073807361</internalNodes>
      <leafValues>
        -8.2560621201992035e-02 5.3330451250076294e-01</leafValues></_>
    <_>
      <internalNodes>
        0 -1 2105 -285216786 -268435457 -268435457 -268435457 2147450743
        2147483647 -1 -1</internalNodes>
      <leafValues>
        -3.2868126034736633e-01 1.3907878100872040e-01</leafValues></_>
    <_>
      <internalNodes>
        0 -1 15849 -2 -1 -1 -1073741825 -1 -1 -1 268435455</internalNodes>
      <leafValues>
        -1.2581375241279602e-01 3.6375096440315247e-01</leafValues></_>
    <_>
      <internalNodes>
        0 -1 5186 -2 -1 -1 -16777217 -129 -1 -1 -134217729</internalNodes>
      <leafValues>
        -1.1513425409793854e-01 3.9578455686569214e-01</leafValues></_>
    <_>
      <internalNodes>
        0 -1 19891 750266400 213155616 796868400 1018593268 2105507588
        2105474943 2013082960 879034228</internalNodes>
      <leafValues>
        -1.0373038053512573e+00 8.0951191484928131e-02</leafValues></_>
    <_>
      <internalNodes>
        0 -1 14130 -4 -1 -4 -1 -3 -1 -3 83755005</internalNodes>
      <leafValues>
        -2.1410144865512848e-01 1.9852958619594574e-01</leafValues></_>
    <_>
      <internalNodes>
        0 -1 493 615425538 74378766 212528748 47185839 1147627268
        72843135 1198946053 109002351</internalNodes>
      <leafValues>
        -1.5612690448760986e+00 5.8149736374616623e-02</leafValues></_>
    <_>
      <internalNodes>
        0 -1 8350 -2 -1 -1 -1 -1 -1 -1 -1</internalNodes>
      <leafValues>
        -7.8083835542201996e-02 6.0601377487182617e-01</leafValues></_>
    <_>
      <internalNodes>
        0 -1 19431 -1073741904 -1 -1 -1073741825 -1 -1 -1 -1073741825</internalNodes>
      <leafValues>
        -1.4777396619319916e-01 2.8317651152610779e-01</leafValues></_>
    <_>
      <internalNodes>
        0 -1 5616 -1360204218 572980910 -286265632 1659436778 1333229381
        1147631607 2004744036 15859541</internalNodes>
      <leafValues>
        -1.2328164577484131e+00 5.6996177881956100e-02</leafValues></_>
    <_>
      <internalNodes>
        0 -1 19160 1006595584 115802094 -285217248 1660616686 2147450437
        1451229055 1728017472 549748086</internalNodes>
      <leafValues>
        -1.2289842367172241e+00 4.2324449867010117e-02</leafValues></_>
    <_>
      <internalNodes>
        0 -1 15875 788430844 -1 -1 2147483647 -1 -1 -1 788414460</internalNodes>
      <leafValues>
        -2.0214040577411652e-01 1.8695196509361267e-01</leafValues></_>
    <_>
      <internalNodes>
        0 -1 2041 -18 -268435457 -2 -285212673 -129 2147483647 -137
        2147483647</internalNodes>
      <leafValues>
        2.1646967530250549e-01 -1.6319200396537781e-01</leafValues></_>
    <_>
      <internalNodes>
        0 -1 20885 -49292 -1 -1 -1 -1 -1 -1 -1</internalNodes>
      <leafValues>
        -1.8143709003925323e-01 2.0107443630695343e-01</leafValues></_>
    <_>
      <internalNodes>
        0 -1 12306 -4182 805306367 -1 -1 -1 -1 -1 -1</internalNodes>
      <leafValues>
        -1.3666763901710510e-01 2.6864531636238098e-01</leafValues></_>
    <_>
      <internalNodes>
        0 -1 7579 -1438242816 2277090 720153312 44097060 1146384192
        1148483429 1038478608 1080327749</internalNodes>
      <leafValues>
        -1.5683068037033081e+00 4.0847472846508026e-02</leafValues></_>
    <_>
      <internalNodes>
        0 -1 16616 1073643516 -1 -1 -1073741825 -1 -1 -1 -1073741825</internalNodes>
      <leafValues>
        -1.1748164892196655e-01 2.9423534870147705e-01</leafValues></_>
    <_>
      <internalNodes>
        0 -1 4426 -285299098 1655631598 -16847198 585248426 2013101910
        1725398903 2004842336 1415918928</internalNodes>
      <leafValues>
        -7.5293898582458496e-01 5.7189229875802994e-02</leafValues></_>
    <_>
      <internalNodes>
        0 -1 11226 8388608 202165604 654050532 266825213 537923904
        1861541855 611727283 1744650228</internalNodes>
      <leafValues>
        -1.4756481647491455e+00 3.8351189345121384e-02</leafValues></_>
    <_>
      <internalNodes>
        0 -1 11874 -2526 1722711982 -50332000 -487129478 2147448640
        1459093367 1979676164 1618313078</internalNodes>
      <leafValues>
        -1.1209017038345337e+00 4.7108463943004608e-02</leafValues></_>
    <_>
      <internalNodes>
        0 -1 19162 788428288 -1360199700 -1359053280 142146952
        2088730112 1610547067 565068800 62016</internalNodes>
      <leafValues>
        -1.6375070810317993e+00 3.9569616317749023e-02</leafValues></_>
    <_>
      <internalNodes>
        0 -1 15781 -2 -65538 -1 -1 -1 -1 -1 -1073741825</internalNodes>
      <leafValues>
        -8.3146519958972931e-02 4.7444069385528564e-01</leafValues></_>
    <_>
      <internalNodes>
        0 -1 12895 1068502048 805220140 -1073762582 196750378 805245365
        2147426303 1476333744 52494336</internalNodes>
      <leafValues>
        -9.9682235717773438e-01 4.3052580207586288e-02</leafValues></_>
    <_>
      <internalNodes>
        0 -1 12663 167915008 36241248 707161700 570576736 302413632
        174096208 1290239312 67393281</internalNodes>
      <leafValues>
        -1.3165020942687988e+00 3.9342258125543594e-02</leafValues></_>
    <_>
      <internalNodes>
        0 -1 13478 -1 -1 -1 -16777217 -1 -1 -1 2147483647</internalNodes>
      <leafValues>
        8.4044061601161957e-02 -4.3311476707458496e-01</leafValues></_>
    <_>
      <internalNodes>
        0 -1 244 -1431376340 42905326 -403706334 -1494290434 2004842342
        1148714983 2013230951 620230519</internalNodes>
      <leafValues>
        -1.1121025085449219e+00 4.2274370789527893e-02</leafValues></_>
    <_>
      <internalNodes>
        0 -1 13784 2147483647 -1 -1 2147483647 -1 -1 2147450879
        2147483647</internalNodes>
      <leafValues>
        -1.4452697336673737e-01 2.6164367794990540e-01</leafValues></_></weakClassifiers></stage14>
</opencv_storage>
