<?xml version="1.0"?>
<opencv_storage>
<stage11>
  <maxWeakCount>53</maxWeakCount>
  <stageThreshold>-3.2509474754333496e+00</stageThreshold>
  <weakClassifiers>
    <_>
      <internalNodes>
        0 -1 2749 -1 -1 -1 -2 -1 -1 -1 -1</internalNodes>
      <leafValues>
        -1.3683931827545166e+00 1.3683931827545166e+00</leafValues></_>
    <_>
      <internalNodes>
        0 -1 1906 -16842754 -65537 -1 -1 -1 -1 -129 -32897</internalNodes>
      <leafValues>
        -4.4618797302246094e-01 4.4618797302246094e-01</leafValues></_>
    <_>
      <internalNodes>
        0 -1 529 -1 -16777217 -1 -1 -129 -1 -131 -1</internalNodes>
      <leafValues>
        -3.6819398403167725e-01 3.6819398403167725e-01</leafValues></_>
    <_>
      <internalNodes>
        0 -1 2664 746063664 80805792 -65668 242548636 1337786224
        -587399176 -143327280 -23462092</internalNodes>
      <leafValues>
        -3.6668351292610168e-01 3.6668351292610168e-01</leafValues></_>
    <_>
      <internalNodes>
        0 -1 2681 -2 2147483647 -1 1073741823 -1 2147483647 -1
        2147483647</internalNodes>
      <leafValues>
        -3.8397711515426636e-01 3.8397711515426636e-01</leafValues></_>
    <_>
      <internalNodes>
        0 -1 822 -18 -1 -2 -1 -137 -1 -9 -1</internalNodes>
      <leafValues>
        -3.3047854900360107e-01 3.3047854900360107e-01</leafValues></_>
    <_>
      <internalNodes>
        0 -1 3388 -1 -1 -1 -1 -1 -1 -3 -32771</internalNodes>
      <leafValues>
        -3.7281757593154907e-01 3.7281757593154907e-01</leafValues></_>
    <_>
      <internalNodes>
        0 -1 2330 -1 -1 -1 -1 -1 -1 -9 -1</internalNodes>
      <leafValues>
        3.2417678833007812e-01 -3.2417678833007812e-01</leafValues></_>
    <_>
      <internalNodes>
        0 -1 2037 -2 -285278209 -1 -285212673 -139 2147483647 -129
        2013265791</internalNodes>
      <leafValues>
        -3.0692556500434875e-01 3.0692556500434875e-01</leafValues></_>
    <_>
      <internalNodes>
        0 -1 2215 -18 -1 -1 -1 2147483647 2147483647 -1 -1</internalNodes>
      <leafValues>
        -3.9698591828346252e-01 3.9698591828346252e-01</leafValues></_>
    <_>
      <internalNodes>
        0 -1 2252 -286331104 1157562302 2130640672 -419430488 1879047986
        1149239292 -4352 540211106</internalNodes>
      <leafValues>
        -3.0357202887535095e-01 3.0357202887535095e-01</leafValues></_>
    <_>
      <internalNodes>
        0 -1 3770 -1 -1 -1 -1 -1 -1 -11 -3</internalNodes>
      <leafValues>
        -3.6610853672027588e-01 3.6610853672027588e-01</leafValues></_>
    <_>
      <internalNodes>
        0 -1 580 -1 -268435457 -1 -285212673 -129 2147483647 -137
        2013265919</internalNodes>
      <leafValues>
        3.2877516746520996e-01 -3.2877516746520996e-01</leafValues></_>
    <_>
      <internalNodes>
        0 -1 3909 1073692670 -1 -1 -1 -32769 -1 -1 2147450879</internalNodes>
      <leafValues>
        -2.9525360465049744e-01 2.9525360465049744e-01</leafValues></_>
    <_>
      <internalNodes>
        0 -1 2192 -81924 -1 -1 -1 -3 -1 -3 -1</internalNodes>
      <leafValues>
        -3.4742301702499390e-01 3.4742301702499390e-01</leafValues></_>
    <_>
      <internalNodes>
        0 -1 2263 -286867872 1182201830 1862270500 1726676724 2147346256
        1382440822 -150999180 7487010</internalNodes>
      <leafValues>
        -2.8068161010742188e-01 2.8068161010742188e-01</leafValues></_>
    <_>
      <internalNodes>
        0 -1 607 -2 -65537 -1 -268435457 -1 -1 -32770 2147483646</internalNodes>
      <leafValues>
        -3.3574596047401428e-01 3.3574596047401428e-01</leafValues></_>
    <_>
      <internalNodes>
        0 -1 1722 -114908 787152639 -2 149946103 -172 1744830455
        -134217868 6258527</internalNodes>
      <leafValues>
        -2.6810035109519958e-01 2.6810035109519958e-01</leafValues></_>
    <_>
      <internalNodes>
        0 -1 2085 -18 -268435457 -1 -1 -129 -1 -9 -1</internalNodes>
      <leafValues>
        -3.2827046513557434e-01 3.2827046513557434e-01</leafValues></_>
    <_>
      <internalNodes>
        0 -1 2445 217320640 939524092 -1895825412 1862205438 1635013876
        -1 921993213 628161879</internalNodes>
      <leafValues>
        -2.3637995123863220e-01 2.3637995123863220e-01</leafValues></_>
    <_>
      <internalNodes>
        0 -1 3095 -65548 -1 -1 -1 -1 -1 -1 -1</internalNodes>
      <leafValues>
        -3.7582734227180481e-01 3.7582734227180481e-01</leafValues></_>
    <_>
      <internalNodes>
        0 -1 3633 -2 -1 -2 -1 -137 2147483647 -11 -1</internalNodes>
      <leafValues>
        -2.8786665201187134e-01 2.8786665201187134e-01</leafValues></_>
    <_>
      <internalNodes>
        0 -1 1584 -17 -1 -1 -1 -129 -1 -129 -1</internalNodes>
      <leafValues>
        2.7454417943954468e-01 -2.7454417943954468e-01</leafValues></_>
    <_>
      <internalNodes>
        0 -1 3905 -1342177345 -1358954497 -1 -16777217 -129 -1 -1
        2130640893</internalNodes>
      <leafValues>
        -3.2498851418495178e-01 3.2498851418495178e-01</leafValues></_>
    <_>
      <internalNodes>
        0 -1 3162 -94 -285212674 -18 -285278210 -32905 -1 2147483508
        -184614913</internalNodes>
      <leafValues>
        -2.2673907876014709e-01 2.2673907876014709e-01</leafValues></_>
    <_>
      <internalNodes>
        0 -1 2135 -2 -1073741825 -1 -1073741825 -32769 -1 -32769
        2147483647</internalNodes>
      <leafValues>
        -3.7252911925315857e-01 3.7252911925315857e-01</leafValues></_>
    <_>
      <internalNodes>
        0 -1 3313 205008384 787251198 -131212 -1963556996 1068990325
        2147483639 532643444 -1925424012</internalNodes>
      <leafValues>
        -2.1890316903591156e-01 2.1890316903591156e-01</leafValues></_>
    <_>
      <internalNodes>
        0 -1 1973 -2 -1 -2 -1 -1 -1 -1 -1</internalNodes>
      <leafValues>
        -3.6976134777069092e-01 3.6976134777069092e-01</leafValues></_>
    <_>
      <internalNodes>
        0 -1 3676 661984816 -8388611 -4 -524289 2146795380 -1 2146924532
        913588093</internalNodes>
      <leafValues>
        -3.1073322892189026e-01 3.1073322892189026e-01</leafValues></_>
    <_>
      <internalNodes>
        0 -1 3944 1073626996 -1073741825 -1 -65537 2147450741 -1
        2147450741 2146795381</internalNodes>
      <leafValues>
        3.3562082052230835e-01 -3.3562082052230835e-01</leafValues></_>
    <_>
      <internalNodes>
        0 -1 2678 684723632 1694301628 1040187388 536641533 720961468
        -65667 234798588 494813014</internalNodes>
      <leafValues>
        -2.3544362187385559e-01 2.3544362187385559e-01</leafValues></_>
    <_>
      <internalNodes>
        0 -1 2407 788299772 -65537 -65537 -65537 2138996735 -1
        2147418109 2147418109</internalNodes>
      <leafValues>
        3.1629514694213867e-01 -3.1629514694213867e-01</leafValues></_>
    <_>
      <internalNodes>
        0 -1 36 -1073774610 -268435457 -1 -1359020033 2147483517
        2147483647 2147483509 1610547189</internalNodes>
      <leafValues>
        -2.5837898254394531e-01 2.5837898254394531e-01</leafValues></_>
    <_>
      <internalNodes>
        0 -1 3021 -1 -1 -1 -65537 -32769 -1 -3 -98307</internalNodes>
      <leafValues>
        -3.3575305342674255e-01 3.3575305342674255e-01</leafValues></_>
    <_>
      <internalNodes>
        0 -1 2582 -1 -1 -2 -16777217 -129 -1 -137 2013265919</internalNodes>
      <leafValues>
        3.2025897502899170e-01 -3.2025897502899170e-01</leafValues></_>
    <_>
      <internalNodes>
        0 -1 2591 783944742 469729278 -1157627905 989249534 1874818663
        1056964607 670985268 779370485</internalNodes>
      <leafValues>
        -2.0878003537654877e-01 2.0878003537654877e-01</leafValues></_>
    <_>
      <internalNodes>
        0 -1 343 -2 -1 -1 -1 -129 -1 -1 -1</internalNodes>
      <leafValues>
        -3.7815698981285095e-01 3.7815698981285095e-01</leafValues></_>
    <_>
      <internalNodes>
        0 -1 1696 -285245726 787480558 -17825874 -2111111170 -67142316
        1970798453 -8388749 1180041079</internalNodes>
      <leafValues>
        -2.8289011120796204e-01 2.8289011120796204e-01</leafValues></_>
    <_>
      <internalNodes>
        0 -1 2706 -268435676 -268435457 -2 -1 -137 -1 -137 -1</internalNodes>
      <leafValues>
        3.3077803254127502e-01 -3.3077803254127502e-01</leafValues></_>
    <_>
      <internalNodes>
        0 -1 3640 -1 -1 -1 -65537 -137 -1 -11 -65540</internalNodes>
      <leafValues>
        -2.9356807470321655e-01 2.9356807470321655e-01</leafValues></_>
    <_>
      <internalNodes>
        0 -1 649 1073643518 -1073807361 -1 1879048191 -137 -129 -11
        1073004412</internalNodes>
      <leafValues>
        -2.6174327731132507e-01 2.6174327731132507e-01</leafValues></_>
    <_>
      <internalNodes>
        0 -1 1750 -2 -285212673 -1 -285212673 -129 -1 -137 2147483647</internalNodes>
      <leafValues>
        2.7994111180305481e-01 -2.7994111180305481e-01</leafValues></_>
    <_>
      <internalNodes>
        0 -1 2514 -18 -268435457 -22 -268435457 -1 2147483647 -2
        -301989889</internalNodes>
      <leafValues>
        -3.1304532289505005e-01 3.1304532289505005e-01</leafValues></_>
    <_>
      <internalNodes>
        0 -1 55 -336660946 250085310 -286265362 788463358 2139062087
        1988067199 2147431780 1081507701</internalNodes>
      <leafValues>
        -2.0669920742511749e-01 2.0669920742511749e-01</leafValues></_>
    <_>
      <internalNodes>
        0 -1 1636 -2 -65537 -1 -1 -1 -1 -32769 -1</internalNodes>
      <leafValues>
        -4.1243815422058105e-01 4.1243815422058105e-01</leafValues></_>
    <_>
      <internalNodes>
        0 -1 3673 1807630112 1056866303 -67108882 -150994947 938964496
        2147483519 1744794963 1882537840</internalNodes>
      <leafValues>
        -3.2163941860198975e-01 3.2163941860198975e-01</leafValues></_>
    <_>
      <internalNodes>
        0 -1 2715 -2 -1 -1 -1 2147450879 2147483647 -1 -1</internalNodes>
      <leafValues>
        -3.5118725895881653e-01 3.5118725895881653e-01</leafValues></_>
    <_>
      <internalNodes>
        0 -1 2935 176566048 708628476 -32908 1056890868 233799668
        805044220 -1208000554 1039957972</internalNodes>
      <leafValues>
        -2.8902226686477661e-01 2.8902226686477661e-01</leafValues></_>
    <_>
      <internalNodes>
        0 -1 3084 -206 -1 -1 -1342177281 -129 -1 -1 -1073741825</internalNodes>
      <leafValues>
        -3.1189739704132080e-01 3.1189739704132080e-01</leafValues></_>
    <_>
      <internalNodes>
        0 -1 393 -268435470 1325400063 -2 -268435457 -32905 2147483647
        -10 1342144373</internalNodes>
      <leafValues>
        -2.8352481126785278e-01 2.8352481126785278e-01</leafValues></_>
    <_>
      <internalNodes>
        0 -1 628 -1 -285212673 -1 -285212673 -129 2147483647 -137
        2147483647</internalNodes>
      <leafValues>
        3.2488933205604553e-01 -3.2488933205604553e-01</leafValues></_>
    <_>
      <internalNodes>
        0 -1 1742 -16516 -1090584578 -2 -16842753 -32900 2147483647
        -2180 2130182143</internalNodes>
      <leafValues>
        -2.6848459243774414e-01 2.6848459243774414e-01</leafValues></_>
    <_>
      <internalNodes>
        0 -1 3239 -1073791198 -1 -1 -1 -32905 -1 -137 -1</internalNodes>
      <leafValues>
        3.1118762493133545e-01 -3.1118762493133545e-01</leafValues></_></weakClassifiers></stage11>
</opencv_storage>
