<?xml version="1.0"?>
<opencv_storage>
<stage19>
  <maxWeakCount>83</maxWeakCount>
  <stageThreshold>-9.3896656036376953e+00</stageThreshold>
  <weakClassifiers>
    <_>
      <internalNodes>
        0 -1 3524 -170131973 -203500601 1364581599 -35808361 -1091718657
        -208493973 -1159078147 -33730083</internalNodes>
      <leafValues>
        -1.5255985260009766e+00 -4.9552237987518311e-01</leafValues></_>
    <_>
      <internalNodes>
        0 -1 558 -675283969 1389983196 -104115729 -3165226 -146298641
        -172517343 -607291041 -4220225</internalNodes>
      <leafValues>
        -6.4750641584396362e-01 6.2883257865905762e-01</leafValues></_>
    <_>
      <internalNodes>
        0 -1 3313 -1434517615 -1092681796 1091410805 -1158253699
        -611845377 -1182161757 -1819313539 -71513900</internalNodes>
      <leafValues>
        -6.9979691505432129e-01 5.3425717353820801e-01</leafValues></_>
    <_>
      <internalNodes>
        0 -1 3910 587280050 -1076406225 -716692833 -3157025 1758386681
        -1716845949 2107402651 -72392721</internalNodes>
      <leafValues>
        -7.2927325963973999e-01 4.8694494366645813e-01</leafValues></_>
    <_>
      <internalNodes>
        0 -1 2703 -536888016 -588061840 856864886 1150200212 9992116
        1018593938 -1849450657 -543424588</internalNodes>
      <leafValues>
        -7.9135596752166748e-01 4.6726262569427490e-01</leafValues></_>
    <_>
      <internalNodes>
        0 -1 2511 -16777221 1375584237 -16779 -1677873217 -403182180
        936770937 -167785268 -2003456262</internalNodes>
      <leafValues>
        -5.9327584505081177e-01 6.7191916704177856e-01</leafValues></_>
    <_>
      <internalNodes>
        0 -1 3520 -989440073 -1243921957 -712548387 -1101131348
        2062219895 -372637157 243503540 -807900752</internalNodes>
      <leafValues>
        -8.7110716104507446e-01 3.7566328048706055e-01</leafValues></_>
    <_>
      <internalNodes>
        0 -1 2526 -45639 1442840569 2113929105 -135135439 -16465
        -587468882 -8406101 -1954824257</internalNodes>
      <leafValues>
        -3.9398583769798279e-01 1.1104074716567993e+00</leafValues></_>
    <_>
      <internalNodes>
        0 -1 2548 -446714132 711093053 127766983 1223342 210266199
        1808345434 -132945686 1186691511</internalNodes>
      <leafValues>
        -8.9790427684783936e-01 3.6953109502792358e-01</leafValues></_>
    <_>
      <internalNodes>
        0 -1 1969 -81994 1869262446 -114768 -9568277 -268667412
        -335544329 -134348810 -9210450</internalNodes>
      <leafValues>
        -5.6086152791976929e-01 6.6360914707183838e-01</leafValues></_>
    <_>
      <internalNodes>
        0 -1 2715 1133437360 1036394996 348486945 -1080209203 153186439
        725715362 1944238546 -10437702</internalNodes>
      <leafValues>
        -7.0062118768692017e-01 5.0589883327484131e-01</leafValues></_>
    <_>
      <internalNodes>
        0 -1 3744 -2096264399 -669416902 -1983252203 1975563218
        -1681294723 319456642 -374542255 -587209739</internalNodes>
      <leafValues>
        -7.4170607328414917e-01 4.7052603960037231e-01</leafValues></_>
    <_>
      <internalNodes>
        0 -1 3651 -289472657 -1360527362 -16777354 2146402300 -285270385
        -1074790401 381622271 -928342593</internalNodes>
      <leafValues>
        -4.7899547219276428e-01 8.1733345985412598e-01</leafValues></_>
    <_>
      <internalNodes>
        0 -1 473 -668477973 -126203855 1475954140 -1158807386 -76381365
        1875066891 958865698 -1489272645</internalNodes>
      <leafValues>
        -7.6310849189758301e-01 4.5705565810203552e-01</leafValues></_>
    <_>
      <internalNodes>
        0 -1 2217 -1999187033 -110915125 -900160680 -1479116421
        313564113 -1275461296 -879979116 1364390160</internalNodes>
      <leafValues>
        -6.7371839284896851e-01 4.7019064426422119e-01</leafValues></_>
    <_>
      <internalNodes>
        0 -1 3048 1346708489 553424102 -2041278241 -79051951 -1187899899
        -133619686 -1449465739 2123230750</internalNodes>
      <leafValues>
        -8.9736229181289673e-01 3.4415292739868164e-01</leafValues></_>
    <_>
      <internalNodes>
        0 -1 3336 -1969624129 -1434183019 -1870540545 1218752912
        -1324676565 2065899659 -614831372 -538056176</internalNodes>
      <leafValues>
        -7.3502558469772339e-01 4.0218323469161987e-01</leafValues></_>
    <_>
      <internalNodes>
        0 -1 1779 893725179 -1387952475 -2030016151 -1354300976
        1636436719 -863830014 795579239 1801327371</internalNodes>
      <leafValues>
        -7.6016354560852051e-01 4.0206915140151978e-01</leafValues></_>
    <_>
      <internalNodes>
        0 -1 486 860926463 463352584 404050326 -548466414 -929908869
        -1081505661 2132337639 1679641516</internalNodes>
      <leafValues>
        -5.8333098888397217e-01 5.3383648395538330e-01</leafValues></_>
    <_>
      <internalNodes>
        0 -1 2889 -724270968 328421942 1896846167 92852743 -347946544
        -1862107003 -374694978 -1977697526</internalNodes>
      <leafValues>
        -5.6159257888793945e-01 5.7669579982757568e-01</leafValues></_>
    <_>
      <internalNodes>
        0 -1 3958 -1129059525 1610055103 -268517378 -1073741827
        1467973311 -1075937292 -1375765252 -596253201</internalNodes>
      <leafValues>
        -4.1483476758003235e-01 7.5012195110321045e-01</leafValues></_>
    <_>
      <internalNodes>
        0 -1 3518 -1315299517 -636452862 70283 -506031741 -1868907
        -125696830 -1177345707 -293048224</internalNodes>
      <leafValues>
        -8.8122785091400146e-01 3.3619377017021179e-01</leafValues></_>
    <_>
      <internalNodes>
        0 -1 145 -8442497 -52646298 1803140854 -403018058 -1275103374
        -134217985 -343941643 -429877320</internalNodes>
      <leafValues>
        -5.1398533582687378e-01 5.6469041109085083e-01</leafValues></_>
    <_>
      <internalNodes>
        0 -1 2449 1527056800 334602318 1901200679 286999369 -923162232
        -1196383592 -73232193 -89503092</internalNodes>
      <leafValues>
        -5.7712852954864502e-01 5.0322699546813965e-01</leafValues></_>
    <_>
      <internalNodes>
        0 -1 750 -516163151 1872679307 -788447047 -842067809 956480697
        -1702739840 -582259490 1284401885</internalNodes>
      <leafValues>
        -5.4841035604476929e-01 5.3385442495346069e-01</leafValues></_>
    <_>
      <internalNodes>
        0 -1 2547 -1208221850 -110855568 -268517447 -1959989514 -65578
        -1369079974 2147268542 -1211410057</internalNodes>
      <leafValues>
        -4.4521999359130859e-01 6.2428957223892212e-01</leafValues></_>
    <_>
      <internalNodes>
        0 -1 2355 -662461454 -162922436 -777811490 -727936538 -202682190
        1176625154 1107388483 -674037625</internalNodes>
      <leafValues>
        -5.3034657239913940e-01 5.3452730178833008e-01</leafValues></_>
    <_>
      <internalNodes>
        0 -1 2232 -1711277637 -1651113987 -536875803 1341128677
        1138610111 -235012233 -386400261 -336855065</internalNodes>
      <leafValues>
        -3.3734855055809021e-01 8.2212442159652710e-01</leafValues></_>
    <_>
      <internalNodes>
        0 -1 1906 -630263194 -1950647980 -2062811051 -179928689
        1093030346 -119992190 -1874735613 -54015162</internalNodes>
      <leafValues>
        -5.8082139492034912e-01 4.4250282645225525e-01</leafValues></_>
    <_>
      <internalNodes>
        0 -1 251 1324224373 2146955192 -25313281 -1552175364 -143147217
        -430049282 939406228 -1243841032</internalNodes>
      <leafValues>
        -4.9119389057159424e-01 5.3358536958694458e-01</leafValues></_>
    <_>
      <internalNodes>
        0 -1 3931 822736635 -1128661403 -65679 -268599561 1014382558
        -129 2012545019 -135266457</internalNodes>
      <leafValues>
        -3.7694698572158813e-01 7.5138330459594727e-01</leafValues></_>
    <_>
      <internalNodes>
        0 -1 3099 1972265890 480002250 85297041 -1495416364 -798447591
        -1426014136 -2034218787 -1098257782</internalNodes>
      <leafValues>
        -5.9499257802963257e-01 4.0123641490936279e-01</leafValues></_>
    <_>
      <internalNodes>
        0 -1 1007 -733966284 1918242933 1375945932 -1470430127
        -1602215760 665358433 -1853855396 2137706746</internalNodes>
      <leafValues>
        -6.3946312665939331e-01 3.7921458482742310e-01</leafValues></_>
    <_>
      <internalNodes>
        0 -1 764 -1079004937 1993076223 -16810510 -536936449 -134269059
        562031999 2113772734 1383982199</internalNodes>
      <leafValues>
        -4.3230044841766357e-01 5.5739647150039673e-01</leafValues></_>
    <_>
      <internalNodes>
        0 -1 3400 436752703 -1126295472 -1073620067 1234845849
        -133656389 -1095630648 -1945423587 -2136118656</internalNodes>
      <leafValues>
        -5.1561826467514038e-01 4.6594411134719849e-01</leafValues></_>
    <_>
      <internalNodes>
        0 -1 3697 2134339318 1633141959 -1836988282 -619560761 856519492
        1132499343 563081545 -1246631766</internalNodes>
      <leafValues>
        -6.1248856782913208e-01 3.9169126749038696e-01</leafValues></_>
    <_>
      <internalNodes>
        0 -1 2748 1608295306 -1637706872 17907850 1065685739 277086234
        1074897184 -1785349534 -146818278</internalNodes>
      <leafValues>
        -5.0382244586944580e-01 4.6400916576385498e-01</leafValues></_>
    <_>
      <internalNodes>
        0 -1 2555 -803548908 -1999076898 1346590669 160022749 1610656325
        1937768450 -1433386870 -1418254261</internalNodes>
      <leafValues>
        -5.3905236721038818e-01 4.1963651776313782e-01</leafValues></_>
    <_>
      <internalNodes>
        0 -1 1394 -1073811810 527826858 -1094783045 -168988741
        -268468260 -218628226 -134332500 1875212151</internalNodes>
      <leafValues>
        -4.2242446541786194e-01 5.5887061357498169e-01</leafValues></_>
    <_>
      <internalNodes>
        0 -1 1183 -1025 -1 -1 -257 -1 -1 -1 -1</internalNodes>
      <leafValues>
        -1.9300859421491623e-02 8.8187656402587891e+00</leafValues></_>
    <_>
      <internalNodes>
        0 -1 1183 1024 0 0 256 0 0 0 0</internalNodes>
      <leafValues>
        -7.5323505401611328e+00 1.2420866405591369e-03</leafValues></_>
    <_>
      <internalNodes>
        0 -1 2172 43691307 -1856470951 -1072593788 1632702866
        -1729385952 -1726461952 -2121766152 -779393919</internalNodes>
      <leafValues>
        -6.0063922405242920e-01 3.9365351200103760e-01</leafValues></_>
    <_>
      <internalNodes>
        0 -1 114 -175801553 1783139154 -754953648 1939636568 -510365159
        -1325316693 -905183301 -246937236</internalNodes>
      <leafValues>
        -4.7112745046615601e-01 5.0211614370346069e-01</leafValues></_>
    <_>
      <internalNodes>
        0 -1 525 -67389505 1332129788 -67420161 -620896258 2146828247
        -1233256457 -151561954 1563523962</internalNodes>
      <leafValues>
        -4.0295052528381348e-01 5.7244390249252319e-01</leafValues></_>
    <_>
      <internalNodes>
        0 -1 3393 1359733585 -1824280417 4247769 -129329965 -1333391360
        33849365 -1601615199 -1091942156</internalNodes>
      <leafValues>
        -7.1234345436096191e-01 3.2681605219841003e-01</leafValues></_>
    <_>
      <internalNodes>
        0 -1 138 -1 -2049 -1 -4097 -1 -1 -1 -1</internalNodes>
      <leafValues>
        -5.9836354106664658e-02 9.4253463745117188e+00</leafValues></_>
    <_>
      <internalNodes>
        0 -1 2480 1005830680 864227858 4264841 -681839680 681024910
        -7864182 -1006503381 -2019210996</internalNodes>
      <leafValues>
        -4.6052664518356323e-01 4.5925474166870117e-01</leafValues></_>
    <_>
      <internalNodes>
        0 -1 2764 1200738650 1979748540 1342898184 -554528584 438030929
        244499620 2030228328 -87272966</internalNodes>
      <leafValues>
        -6.3535761833190918e-01 3.5161557793617249e-01</leafValues></_>
    <_>
      <internalNodes>
        0 -1 2304 -1039375969 -1768498938 16491 1423692418 2059933956
        -267837438 -1602188335 1699187651</internalNodes>
      <leafValues>
        -5.4348617792129517e-01 3.9060989022254944e-01</leafValues></_>
    <_>
      <internalNodes>
        0 -1 2614 -99252087 -1291435776 -2013015805 -938141672
        2048649949 -74215414 1776622808 -1601729321</internalNodes>
      <leafValues>
        -4.9692484736442566e-01 4.6120184659957886e-01</leafValues></_>
    <_>
      <internalNodes>
        0 -1 3058 -1 -5 -1 -1 -1 -1 -524289 -1</internalNodes>
      <leafValues>
        -2.7497040107846260e-02 10.</leafValues></_>
    <_>
      <internalNodes>
        0 -1 138 -1376508602 -934493553 268515651 1724256362 1395106513
        8454802 852568679 1276967769</internalNodes>
      <leafValues>
        -9.1704779863357544e-01 2.7446219325065613e-01</leafValues></_>
    <_>
      <internalNodes>
        0 -1 3040 0 64 0 0 0 0 524288 0</internalNodes>
      <leafValues>
        -9.5848064422607422e+00 -1.8282104283571243e-02</leafValues></_>
    <_>
      <internalNodes>
        0 -1 2682 -1203256400 1420091572 -2129391475 106504419
        -492752720 163086575 -2130534353 -1429394783</internalNodes>
      <leafValues>
        -6.0261702537536621e-01 3.5261794924736023e-01</leafValues></_>
    <_>
      <internalNodes>
        0 -1 2118 130744387 -1952603920 -2143002045 230686755 1797657107
        -1198909408 161574943 1933324536</internalNodes>
      <leafValues>
        -7.0287460088729858e-01 2.7866059541702271e-01</leafValues></_>
    <_>
      <internalNodes>
        0 -1 3834 -1062247429 286523560 295377243 -858945206 -1203033259
        -1837072211 286380884 -185011472</internalNodes>
      <leafValues>
        -6.7569315433502197e-01 2.7358263731002808e-01</leafValues></_>
    <_>
      <internalNodes>
        0 -1 2631 -398309303 -766754804 1107386815 -309690358 -257776940
        -603340736 -1342150045 -1895159792</internalNodes>
      <leafValues>
        -4.9223178625106812e-01 3.6096432805061340e-01</leafValues></_>
    <_>
      <internalNodes>
        0 -1 2463 -7155552 433553557 310973715 -187547200 430514296
        -2004811624 134392733 -37189496</internalNodes>
      <leafValues>
        -4.3564900755882263e-01 4.1949948668479919e-01</leafValues></_>
    <_>
      <internalNodes>
        0 -1 3779 1708188682 75567367 193483666 -1382786277 -619535188
        688586786 1367384233 141546158</internalNodes>
      <leafValues>
        -5.6355065107345581e-01 3.2501244544982910e-01</leafValues></_>
    <_>
      <internalNodes>
        0 -1 467 -1310342140 177471647 1157922858 -1006759741
        -1416683411 -1784577695 1528713792 -1255898487</internalNodes>
      <leafValues>
        -7.3173373937606812e-01 2.5373724102973938e-01</leafValues></_>
    <_>
      <internalNodes>
        0 -1 1951 1096185052 1127127646 1342252497 771790054 -1606260412
        -1040021375 -779466247 542335583</internalNodes>
      <leafValues>
        -6.2867814302444458e-01 2.5397202372550964e-01</leafValues></_>
    <_>
      <internalNodes>
        0 -1 459 1395498600 -1625847638 -2147007265 -561495982
        1963583889 -536674112 948357864 -164564914</internalNodes>
      <leafValues>
        -4.4156378507614136e-01 3.7593775987625122e-01</leafValues></_>
    <_>
      <internalNodes>
        0 -1 3660 -1325186599 469045389 155277768 -745564584 646652496
        2020084297 151038834 683324086</internalNodes>
      <leafValues>
        -5.9728389978408813e-01 2.8603777289390564e-01</leafValues></_>
    <_>
      <internalNodes>
        0 -1 1617 -746536258 -1869341744 1073864842 -715357436
        1367486987 2083127306 1216873429 316004348</internalNodes>
      <leafValues>
        -5.3653478622436523e-01 2.9318463802337646e-01</leafValues></_>
    <_>
      <internalNodes>
        0 -1 2411 684988896 -1780719170 -1811845044 381526251 943900394
        361089667 1376618730 -340563495</internalNodes>
      <leafValues>
        -6.4276057481765747e-01 2.5226220488548279e-01</leafValues></_>
    <_>
      <internalNodes>
        0 -1 3399 -1694157189 -1784774656 -2147446443 1595371672
        168345767 -746405735 -1449804807 1021186097</internalNodes>
      <leafValues>
        -5.4191106557846069e-01 2.9276895523071289e-01</leafValues></_>
    <_>
      <internalNodes>
        0 -1 1711 -1052659577 -1483075428 -805039966 1148530713 46137350
        -1232240061 -1442206681 1926314251</internalNodes>
      <leafValues>
        -6.8115818500518799e-01 2.4213910102844238e-01</leafValues></_>
    <_>
      <internalNodes>
        0 -1 1954 -703127394 -920907520 -905313488 -1072623356
        -2124216189 -1870126974 1959602950 85137696</internalNodes>
      <leafValues>
        -7.2481268644332886e-01 2.1564826369285583e-01</leafValues></_>
    <_>
      <internalNodes>
        0 -1 1905 1141549185 464683392 1343718036 -1892568938 -257779267
        2042046592 1233662680 1590577172</internalNodes>
      <leafValues>
        -5.4180270433425903e-01 3.0258971452713013e-01</leafValues></_>
    <_>
      <internalNodes>
        0 -1 451 723000117 750850688 2097418500 1472696643 -343785427
        -70743857 415882209 384082090</internalNodes>
      <leafValues>
        -5.8107697963714600e-01 2.7252778410911560e-01</leafValues></_>
    <_>
      <internalNodes>
        0 -1 2842 570671683 -230980864 -1777155208 -653078254
        -1634189219 -1985838687 -402613684 -1272047542</internalNodes>
      <leafValues>
        -4.9902510643005371e-01 3.1098333001136780e-01</leafValues></_>
    <_>
      <internalNodes>
        0 -1 2655 2076445696 1074298947 -1056353905 -129580691
        -1056906880 -2095509994 -612136792 577761306</internalNodes>
      <leafValues>
        -5.0196433067321777e-01 3.1531703472137451e-01</leafValues></_>
    <_>
      <internalNodes>
        0 -1 2044 93630934 -658487294 272632680 -171868093 2047016356
        1263632448 -1195280114 2001573835</internalNodes>
      <leafValues>
        -3.9270642399787903e-01 4.0784475207328796e-01</leafValues></_>
    <_>
      <internalNodes>
        0 -1 3147 27107252 1214153196 134869378 1212072466 1484909267
        -108527456 236159268 -1498785584</internalNodes>
      <leafValues>
        -6.2870454788208008e-01 2.5617587566375732e-01</leafValues></_>
    <_>
      <internalNodes>
        0 -1 1655 -749262674 1998192796 293683747 -1076977128 1493361540
        -640351613 -104576834 -1230152914</internalNodes>
      <leafValues>
        -3.9888256788253784e-01 4.0295219421386719e-01</leafValues></_>
    <_>
      <internalNodes>
        0 -1 2259 -135818 -1132564 -33947787 2139060927 -170544
        -838910000 -42144262 -1447297621</internalNodes>
      <leafValues>
        -2.6897129416465759e-01 6.0640341043472290e-01</leafValues></_>
    <_>
      <internalNodes>
        0 -1 339 1024001016 -1912485669 17891392 -1434975787 -1869762275
        -1473178481 -1197213594 542528080</internalNodes>
      <leafValues>
        -7.0943218469619751e-01 2.4024865031242371e-01</leafValues></_>
    <_>
      <internalNodes>
        0 -1 2523 882953684 1345519439 -1073762656 973078511 1945608152
        -1887436801 1744793262 -1980026881</internalNodes>
      <leafValues>
        -3.8240486383438110e-01 4.5152628421783447e-01</leafValues></_>
    <_>
      <internalNodes>
        0 -1 3341 -623373961 -1203678893 -800997308 408305675 271133010
        -1147600759 1484876292 -1098202955</internalNodes>
      <leafValues>
        -6.0860592126846313e-01 2.8707313537597656e-01</leafValues></_>
    <_>
      <internalNodes>
        0 -1 2799 -803481391 -1867120554 335616408 -1684713071
        -937062247 -1416560511 -297456152 686512351</internalNodes>
      <leafValues>
        -3.8717633485794067e-01 4.6137753129005432e-01</leafValues></_>
    <_>
      <internalNodes>
        0 -1 3 -1 -1 -1 -1 -1 -1 -513 -1</internalNodes>
      <leafValues>
        -2.3001337423920631e-02 10.</leafValues></_>
    <_>
      <internalNodes>
        0 -1 2483 1106829568 1048916 822149440 1472040968 539576576
        1087537824 -1415413742 1613301888</internalNodes>
      <leafValues>
        -1.4850826263427734e+00 1.3565413653850555e-01</leafValues></_>
    <_>
      <internalNodes>
        0 -1 3021 1552107252 1389498496 419551316 -1675206317
        -1031049064 1753903536 -1060341575 -1992686012</internalNodes>
      <leafValues>
        -7.1677273511886597e-01 2.7532574534416199e-01</leafValues></_></weakClassifiers></stage19>
</opencv_storage>
