<?xml version="1.0"?>
<opencv_storage>
<stage12>
  <maxWeakCount>56</maxWeakCount>
  <stageThreshold>-7.7624068260192871e+00</stageThreshold>
  <weakClassifiers>
    <_>
      <internalNodes>
        0 -1 1949 -5242893 -949033502 -250506765 -42763 -617611265
        -7623993 -559606857 -537397507</internalNodes>
      <leafValues>
        -1.5586612224578857e+00 -4.0159839391708374e-01</leafValues></_>
    <_>
      <internalNodes>
        0 -1 3523 -139723457 -1684060773 -952926215 -82142574
        -1393870401 -1155288405 -508148491 -570564108</internalNodes>
      <leafValues>
        -8.5670053958892822e-01 5.2371555566787720e-01</leafValues></_>
    <_>
      <internalNodes>
        0 -1 94 -8519681 -1709703425 -4225 -1 -134758481 -639764617
        -534713 -16908577</internalNodes>
      <leafValues>
        -6.1002975702285767e-01 8.2678592205047607e-01</leafValues></_>
    <_>
      <internalNodes>
        0 -1 3536 2146915095 -8390145 -494799043 -3080567 2146008866
        -49164089 -1097364613 -9442305</internalNodes>
      <leafValues>
        -7.3967945575714111e-01 6.4975929260253906e-01</leafValues></_>
    <_>
      <internalNodes>
        0 -1 3653 -268435677 717225934 -553648201 -1094713349 -270532677
        -1363148841 -704774657 -923808513</internalNodes>
      <leafValues>
        -5.2775901556015015e-01 1.0228397846221924e+00</leafValues></_>
    <_>
      <internalNodes>
        0 -1 2111 389393661 1065723645 -749388661 1072637995 432682979
        -1123980899 444673533 1005260798</internalNodes>
      <leafValues>
        -8.8231533765792847e-01 4.7994449734687805e-01</leafValues></_>
    <_>
      <internalNodes>
        0 -1 3135 -271581229 -1342374154 1879047985 -4522124 -1082130441
        -1 -1611137035 -393227</internalNodes>
      <leafValues>
        -5.3885972499847412e-01 8.9187347888946533e-01</leafValues></_>
    <_>
      <internalNodes>
        0 -1 2328 -582225217 -1282907811 -1786723244 -254359106
        2023258657 -619740412 -89494659 -77443213</internalNodes>
      <leafValues>
        -7.6103878021240234e-01 5.4487198591232300e-01</leafValues></_>
    <_>
      <internalNodes>
        0 -1 2764 -805579034 1448784858 -1215049304 -537754824 10417087
        83388112 -681659398 -133245989</internalNodes>
      <leafValues>
        -7.1106314659118652e-01 6.2362527847290039e-01</leafValues></_>
    <_>
      <internalNodes>
        0 -1 3834 -2019985409 -71196691 -1714583073 -179371632
        -215237961 -1295925037 1632094180 -326203216</internalNodes>
      <leafValues>
        -6.8686997890472412e-01 6.0253733396530151e-01</leafValues></_>
    <_>
      <internalNodes>
        0 -1 2393 1979447481 1037050333 237226413 1068856549 -1332561142
        -87441175 1832583198 519300239</internalNodes>
      <leafValues>
        -6.9382601976394653e-01 6.2046587467193604e-01</leafValues></_>
    <_>
      <internalNodes>
        0 -1 3162 -451174045 686066126 857261553 1952108617 -558274221
        -1366587238 1267726640 -185799713</internalNodes>
      <leafValues>
        -8.8381898403167725e-01 4.2418888211250305e-01</leafValues></_>
    <_>
      <internalNodes>
        0 -1 1907 -47993089 -1381451396 -16779266 1845329646 2130706270
        -81921 -16818433 -277381830</internalNodes>
      <leafValues>
        -5.1824927330017090e-01 7.7662777900695801e-01</leafValues></_>
    <_>
      <internalNodes>
        0 -1 2895 -2071110015 899469767 303432149 630190480 -1794887525
        -237694966 -1455709778 713920091</internalNodes>
      <leafValues>
        -7.7000409364700317e-01 5.1270925998687744e-01</leafValues></_>
    <_>
      <internalNodes>
        0 -1 3168 -716780545 174559830 -1021242928 1822347727 1805603911
        -1358921634 2072488816 -70325328</internalNodes>
      <leafValues>
        -7.6520371437072754e-01 4.7542095184326172e-01</leafValues></_>
    <_>
      <internalNodes>
        0 -1 2650 1172037802 -775565047 140518471 -610938863 1505824768
        -47544306 1884669484 -549071539</internalNodes>
      <leafValues>
        -9.6391236782073975e-01 3.8957339525222778e-01</leafValues></_>
    <_>
      <internalNodes>
        0 -1 2022 -134807908 -185270281 -268435457 -1375731733
        2004350967 -8945689 -8388610 -268476481</internalNodes>
      <leafValues>
        -4.6710103750228882e-01 8.4546381235122681e-01</leafValues></_>
    <_>
      <internalNodes>
        0 -1 2749 -4461157 1866350573 -276856963 1831286906 687734652
        -21168134 2097085794 -889467214</internalNodes>
      <leafValues>
        -4.8237541317939758e-01 7.2435915470123291e-01</leafValues></_>
    <_>
      <internalNodes>
        0 -1 902 -319834449 -1233748227 -25248130 -67305473 2146757343
        -176750593 1987477340 -25313667</internalNodes>
      <leafValues>
        -5.4737013578414917e-01 6.3575977087020874e-01</leafValues></_>
    <_>
      <internalNodes>
        0 -1 2495 903347097 -31211517 -1707382384 2133952595 270483668
        -1966947840 2018833044 -1466107367</internalNodes>
      <leafValues>
        -6.4976280927658081e-01 5.1670163869857788e-01</leafValues></_>
    <_>
      <internalNodes>
        0 -1 459 1685014282 -1424457342 -930012963 -854167350 562758136
        1117193128 1368255420 476492334</internalNodes>
      <leafValues>
        -7.3970770835876465e-01 4.5309513807296753e-01</leafValues></_>
    <_>
      <internalNodes>
        0 -1 3510 -1847641806 122823763 -2092945068 948473996
        -1299664814 -1950839678 -786224331 -18027344</internalNodes>
      <leafValues>
        -8.8801169395446777e-01 3.0170455574989319e-01</leafValues></_>
    <_>
      <internalNodes>
        0 -1 2632 -624961857 -143015938 2147483263 -33816641 -1241582145
        -1073840265 1844837822 -881071941</internalNodes>
      <leafValues>
        -2.9615744948387146e-01 1.1650524139404297e+00</leafValues></_>
    <_>
      <internalNodes>
        0 -1 3968 -1359012729 776929210 -16826587 2130575359 1056898517
        -536936451 -1107429889 -855646212</internalNodes>
      <leafValues>
        -4.9684476852416992e-01 6.1137533187866211e-01</leafValues></_>
    <_>
      <internalNodes>
        0 -1 2342 1129816059 -543954958 -301993996 1591209981 201310200
        -555941904 -822118997 1977875792</internalNodes>
      <leafValues>
        -4.2948079109191895e-01 6.9914197921752930e-01</leafValues></_>
    <_>
      <internalNodes>
        0 -1 2946 605248770 -1957031660 -502918764 -1613803359
        -1968975690 -813037406 -708189200 -2118460</internalNodes>
      <leafValues>
        -6.3934844732284546e-01 4.3208497762680054e-01</leafValues></_>
    <_>
      <internalNodes>
        0 -1 2479 -620757863 -135274508 -167788720 -46465028 -723080017
        -186843273 -681184881 -462962851</internalNodes>
      <leafValues>
        -3.7164559960365295e-01 7.8171563148498535e-01</leafValues></_>
    <_>
      <internalNodes>
        0 -1 1918 545052958 -665435710 -1992063651 -132243146 302602549
        1484194247 298074510 -45852222</internalNodes>
      <leafValues>
        -7.4332433938980103e-01 3.9267733693122864e-01</leafValues></_>
    <_>
      <internalNodes>
        0 -1 2136 -953725704 634603074 -1014435815 1536369024 73572784
        404752458 -110910542 2140348579</internalNodes>
      <leafValues>
        -6.9574677944183350e-01 3.6447438597679138e-01</leafValues></_>
    <_>
      <internalNodes>
        0 -1 3918 -1550942685 -141686527 1360318985 -539115133
        1284176483 143589920 1800308873 -12029414</internalNodes>
      <leafValues>
        -5.0587677955627441e-01 5.3056126832962036e-01</leafValues></_>
    <_>
      <internalNodes>
        0 -1 3147 654770096 42914188 33624424 1626788316 956855105
        311058592 1385077524 -1138827152</internalNodes>
      <leafValues>
        -9.2931306362152100e-01 2.9082459211349487e-01</leafValues></_>
    <_>
      <internalNodes>
        0 -1 3756 -2083260650 -1528827701 67174517 -1626599174
        -2087806955 2055902336 -1555981884 -878069002</internalNodes>
      <leafValues>
        -6.0041832923889160e-01 3.9559254050254822e-01</leafValues></_>
    <_>
      <internalNodes>
        0 -1 3923 156845222 -753712447 1342324741 -1249795584
        -2070992755 -345996798 -991845901 -2007041138</internalNodes>
      <leafValues>
        -5.1315802335739136e-01 4.9139240384101868e-01</leafValues></_>
    <_>
      <internalNodes>
        0 -1 1892 -1233721870 1346388203 -804613321 -227082227
        -899589359 -2053694944 730304554 -1190188913</internalNodes>
      <leafValues>
        -6.3451814651489258e-01 3.9412268996238708e-01</leafValues></_>
    <_>
      <internalNodes>
        0 -1 2511 2060588348 1402476619 353386261 458818438 -929439356
        822612672 -1869893432 -1469226728</internalNodes>
      <leafValues>
        -5.8048820495605469e-01 4.0137431025505066e-01</leafValues></_>
    <_>
      <internalNodes>
        0 -1 2496 1937527293 -1059515776 760938772 -1344839278
        -1715222076 -670679040 546432478 1336390913</internalNodes>
      <leafValues>
        -4.8644778132438660e-01 4.6752774715423584e-01</leafValues></_>
    <_>
      <internalNodes>
        0 -1 1949 -842011920 -838037278 285213169 -34285388 403211306
        -762838335 1250234502 -567805400</internalNodes>
      <leafValues>
        -6.5333080291748047e-01 3.4249493479728699e-01</leafValues></_>
    <_>
      <internalNodes>
        0 -1 1776 -837693688 -826207999 -2063473944 -1239789175
        981620803 914491456 -276523754 -471865013</internalNodes>
      <leafValues>
        -8.2799535989761353e-01 2.5702565908432007e-01</leafValues></_>
    <_>
      <internalNodes>
        0 -1 3518 -1339598013 -1207725947 -1073704516 -1751301221
        -1039431435 -133521127 -1474329163 -272075524</internalNodes>
      <leafValues>
        -5.2934390306472778e-01 3.8753569126129150e-01</leafValues></_>
    <_>
      <internalNodes>
        0 -1 3093 1489012880 -1864693309 470881497 649711765 -637451868
        671121419 428012175 -1370170632</internalNodes>
      <leafValues>
        -5.4696524143218994e-01 4.2409917712211609e-01</leafValues></_>
    <_>
      <internalNodes>
        0 -1 547 -179365001 -1270332608 -784137933 -618968188 -645715076
        -125662838 1619231669 2103246792</internalNodes>
      <leafValues>
        -5.1045173406600952e-01 4.7133800387382507e-01</leafValues></_>
    <_>
      <internalNodes>
        0 -1 2790 -1 -1 -1 -1 -65 -1 -268435457 -1</internalNodes>
      <leafValues>
        -3.4633941948413849e-02 10.</leafValues></_>
    <_>
      <internalNodes>
        0 -1 3366 1074207051 1116930109 -2129210342 173150672 -904830106
        -1459419005 -18736304 41185716</internalNodes>
      <leafValues>
        -1.2278383970260620e+00 2.1239076554775238e-01</leafValues></_>
    <_>
      <internalNodes>
        0 -1 3679 -392551902 -1727774586 1086347661 -184266491
        1082788648 -1308458878 -206814408 -1282726340</internalNodes>
      <leafValues>
        -7.8096324205398560e-01 2.7985978126525879e-01</leafValues></_>
    <_>
      <internalNodes>
        0 -1 3957 -274734646 -541032239 -2011838253 1531232459 276998181
        -611876329 -745966924 -138063166</internalNodes>
      <leafValues>
        -5.0952404737472534e-01 4.7158291935920715e-01</leafValues></_>
    <_>
      <internalNodes>
        0 -1 1330 -975844955 -951844761 -1878900588 67733791 -508865948
        1817253899 16881769 1949034543</internalNodes>
      <leafValues>
        -6.8954873085021973e-01 3.5623395442962646e-01</leafValues></_>
    <_>
      <internalNodes>
        0 -1 3211 -779905096 -2067672624 -1047326374 1935380688
        151038719 -880277374 986718637 -1407434591</internalNodes>
      <leafValues>
        -4.8726657032966614e-01 5.0145286321640015e-01</leafValues></_>
    <_>
      <internalNodes>
        0 -1 1092 0 0 0 0 0 0 0 32</internalNodes>
      <leafValues>
        -10. 7.3783425614237785e-03</leafValues></_>
    <_>
      <internalNodes>
        0 -1 2695 1341350824 1434014708 1284509968 1766146845 839524818
        2046857354 -1983340257 168437831</internalNodes>
      <leafValues>
        -6.2254869937896729e-01 3.7242949008941650e-01</leafValues></_>
    <_>
      <internalNodes>
        0 -1 3420 -1 -1 -1 -1 -4097 -1 -134217729 -1</internalNodes>
      <leafValues>
        -4.8179384320974350e-02 10.</leafValues></_>
    <_>
      <internalNodes>
        0 -1 2806 0 0 536870912 0 268435456 0 0 536870912</internalNodes>
      <leafValues>
        -9.8621025085449219e+00 -1.3206333853304386e-02</leafValues></_>
    <_>
      <internalNodes>
        0 -1 792 -1327865353 -1563049730 150995399 211456291 -267799779
        1896349846 -114173197 382089184</internalNodes>
      <leafValues>
        -6.3226425647735596e-01 3.5533589124679565e-01</leafValues></_>
    <_>
      <internalNodes>
        0 -1 2346 924089403 900759941 16875950 49742225 298465670
        -1048575832 998288667 1984676539</internalNodes>
      <leafValues>
        -5.7265985012054443e-01 3.7540271878242493e-01</leafValues></_>
    <_>
      <internalNodes>
        0 -1 3468 1240642065 1796588998 -1861787466 693719070 -611473293
        -1303607006 -937454960 -992863</internalNodes>
      <leafValues>
        -5.3211063146591187e-01 3.5179707407951355e-01</leafValues></_>
    <_>
      <internalNodes>
        0 -1 3198 -748685109 452891042 -2138963375 1581560115 -226320208
        553814690 -1433417307 -620092863</internalNodes>
      <leafValues>
        -4.6932506561279297e-01 4.2452517151832581e-01</leafValues></_>
    <_>
      <internalNodes>
        0 -1 1744 -510356242 -795213742 -1995112237 353527583
        -1589049284 -1660255862 -1719530978 -1663709957</internalNodes>
      <leafValues>
        -4.5926511287689209e-01 4.5247519016265869e-01</leafValues></_></weakClassifiers></stage12>
</opencv_storage>
