<?xml version="1.0"?>
<opencv_storage>
<stage1>
  <maxWeakCount>7</maxWeakCount>
  <stageThreshold>-4.0254435539245605e+00</stageThreshold>
  <weakClassifiers>
    <_>
      <internalNodes>
        0 -1 12282 -487588886 -1061623334 -253514790 -169901329
        -1030820014 -1064248416 -2360321 -1048581</internalNodes>
      <leafValues>
        -1.6780095100402832e+00 4.2424243688583374e-01</leafValues></_>
    <_>
      <internalNodes>
        0 -1 9331 -92078338 -489791250 -107777077 -203446847 -129507005
        -890535925 -739282093 -137</internalNodes>
      <leafValues>
        -1.0566941499710083e+00 9.9821960926055908e-01</leafValues></_>
    <_>
      <internalNodes>
        0 -1 19984 -1051649 -610651669 -653026339 -540839426 -296754416
        -605865905 -610805515 -37749292</internalNodes>
      <leafValues>
        -9.6658825874328613e-01 1.0871524810791016e+00</leafValues></_>
    <_>
      <internalNodes>
        0 -1 17289 -268491262 -7482693 -551779859 -4205702 -1109709312
        -13741528 -1357926606 -1078238401</internalNodes>
      <leafValues>
        -1.2061167955398560e+00 7.5891625881195068e-01</leafValues></_>
    <_>
      <internalNodes>
        0 -1 67 -59506707 1082573470 -1059397980 -360478241 1722803281
        -1197290857 -65472396 -33025</internalNodes>
      <leafValues>
        -9.4947260618209839e-01 7.8262388706207275e-01</leafValues></_>
    <_>
      <internalNodes>
        0 -1 12314 -253376268 1970913262 2096002295 -1048585 1885631940
        1392377847 -1115817985 -2359297</internalNodes>
      <leafValues>
        -8.2666879892349243e-01 9.7008615732192993e-01</leafValues></_>
    <_>
      <internalNodes>
        0 -1 17247 -1144802315 -111402984 -805217318 -751255279
        -1560088400 -477462265 -1467991583 -1626603440</internalNodes>
      <leafValues>
        -8.5830217599868774e-01 8.6135154962539673e-01</leafValues></_></weakClassifiers></stage1>
</opencv_storage>
