<?xml version="1.0"?>
<opencv_storage>
<stage8>
  <maxWeakCount>27</maxWeakCount>
  <stageThreshold>-5.0809969902038574e+00</stageThreshold>
  <weakClassifiers>
    <_>
      <internalNodes>
        0 -1 20728 -70257733 -1129298 1092082685 -36842558 -1148454401
        -1963855682 802935281 -640690700</internalNodes>
      <leafValues>
        -1.1920199394226074e+00 4.5007452368736267e-01</leafValues></_>
    <_>
      <internalNodes>
        0 -1 20331 -46313 -671121633 -510703139 -2139325 -347120639
        -560994550 -384612770 -12321509</internalNodes>
      <leafValues>
        -8.5030692815780640e-01 7.6628631353378296e-01</leafValues></_>
    <_>
      <internalNodes>
        0 -1 14295 -603981827 368443383 -1073746563 490471293
        -1174405700 -1384267779 -889738008 -1996494642</internalNodes>
      <leafValues>
        -6.5780627727508545e-01 1.0424534082412720e+00</leafValues></_>
    <_>
      <internalNodes>
        0 -1 15153 12468308 -1667753892 -413379727 421331643 176869583
        -1163276133 250493930 716832911</internalNodes>
      <leafValues>
        -8.5791152715682983e-01 6.4747047424316406e-01</leafValues></_>
    <_>
      <internalNodes>
        0 -1 19611 -117440513 -1298448905 1127531735 -293709844
        -276828667 -366098985 -118759612 -19400262</internalNodes>
      <leafValues>
        -7.9663556814193726e-01 7.6120549440383911e-01</leafValues></_>
    <_>
      <internalNodes>
        0 -1 13008 -246090241 990187182 2039817591 495525653 300819455
        2089943705 -1688774241 995562667</internalNodes>
      <leafValues>
        -1.0393271446228027e+00 5.0931829214096069e-01</leafValues></_>
    <_>
      <internalNodes>
        0 -1 9426 -696516958 168210766 -32533353 -539917393 1882510803
        1406441474 1909572197 -67648565</internalNodes>
      <leafValues>
        -8.3023983240127563e-01 6.6485482454299927e-01</leafValues></_>
    <_>
      <internalNodes>
        0 -1 13566 -331170844 -700288176 -718318251 -636989992
        -882281392 -78845367 957049565 -17339017</internalNodes>
      <leafValues>
        -8.9764237403869629e-01 5.4003703594207764e-01</leafValues></_>
    <_>
      <internalNodes>
        0 -1 20551 -788534281 -1143504574 -262942306 -1810861594
        -908084397 -100593405 -677678860 -588334868</internalNodes>
      <leafValues>
        -8.0388545989990234e-01 6.2409102916717529e-01</leafValues></_>
    <_>
      <internalNodes>
        0 -1 15135 -559278627 -67879236 1879031791 -546291970 208562920
        -1073938563 1039887612 -1145437282</internalNodes>
      <leafValues>
        -6.0455453395843506e-01 8.0805748701095581e-01</leafValues></_>
    <_>
      <internalNodes>
        0 -1 2883 -724315149 -656223258 -963422786 -790171626 295371249
        820445591 -527526026 -789090058</internalNodes>
      <leafValues>
        -7.6218056678771973e-01 6.6674256324768066e-01</leafValues></_>
    <_>
      <internalNodes>
        0 -1 14130 2113404756 -30563 -935116072 1439668356 412203140
        -1683666303 -855600948 137277863</internalNodes>
      <leafValues>
        -8.2802468538284302e-01 5.3871887922286987e-01</leafValues></_>
    <_>
      <internalNodes>
        0 -1 1593 -332141802 -2112421197 440590912 312607049 911723280
        -803257821 2136332896 -86530754</internalNodes>
      <leafValues>
        -9.4158101081848145e-01 4.7664493322372437e-01</leafValues></_>
    <_>
      <internalNodes>
        0 -1 18212 -1904418191 -1974021751 -1048317224 1838932104
        -1169237356 -116841845 -238036972 -345309456</internalNodes>
      <leafValues>
        -8.1802701950073242e-01 4.9113872647285461e-01</leafValues></_>
    <_>
      <internalNodes>
        0 -1 15849 -657859567 -564699718 -804157804 -1987784519
        -379328038 -1346137537 -2087994744 194997162</internalNodes>
      <leafValues>
        -6.7548459768295288e-01 6.5430331230163574e-01</leafValues></_>
    <_>
      <internalNodes>
        0 -1 17181 -552876557 -779530234 1360777392 -995692206
        -761854207 -1917648574 1183734000 -1613179653</internalNodes>
      <leafValues>
        -7.5627321004867554e-01 5.6359851360321045e-01</leafValues></_>
    <_>
      <internalNodes>
        0 -1 18550 -1001764071 2102145161 -1841100711 -47180847
        -1282768752 -216071631 -1634948392 -1364694981</internalNodes>
      <leafValues>
        -6.7944818735122681e-01 6.3724225759506226e-01</leafValues></_>
    <_>
      <internalNodes>
        0 -1 17832 -306227365 -1778450450 -1224806659 -110183052
        1870487551 2138505215 779703021 -1999896172</internalNodes>
      <leafValues>
        -6.1005836725234985e-01 6.6496336460113525e-01</leafValues></_>
    <_>
      <internalNodes>
        0 -1 13959 -521907064 -14906950 -1073717615 1597489673 810078440
        2114125848 -524095399 -1276811158</internalNodes>
      <leafValues>
        -9.1830837726593018e-01 4.5921945571899414e-01</leafValues></_>
    <_>
      <internalNodes>
        0 -1 19307 1926956303 -577515050 1486052175 1901148803
        1094408456 -1096564470 -1472116099 2033962206</internalNodes>
      <leafValues>
        -7.9817217588424683e-01 4.8805093765258789e-01</leafValues></_>
    <_>
      <internalNodes>
        0 -1 8148 -503147109 -69693409 814354456 -1977200225 945299971
        -1840180968 -367851126 -1083719589</internalNodes>
      <leafValues>
        -7.0099258422851562e-01 5.7258009910583496e-01</leafValues></_>
    <_>
      <internalNodes>
        0 -1 9954 1962647314 1767580164 2097361310 2048803072 1099287184
        -1861843450 -640779352 1271908770</internalNodes>
      <leafValues>
        -7.1883863210678101e-01 4.9478188157081604e-01</leafValues></_>
    <_>
      <internalNodes>
        0 -1 15805 1861955101 -193691656 -33573832 -639081411 2113821950
        -1534722820 -5308424 -1952727621</internalNodes>
      <leafValues>
        -5.3619199991226196e-01 7.0087182521820068e-01</leafValues></_>
    <_>
      <internalNodes>
        0 -1 14721 -346037404 1553781494 42533049 1005818031 2124511944
        517505059 947913483 454238823</internalNodes>
      <leafValues>
        -7.5081259012222290e-01 4.7420415282249451e-01</leafValues></_>
    <_>
      <internalNodes>
        0 -1 4173 -138437356 170092225 -1274818356 1610852368 1770918009
        1862828106 2105759782 1987527797</internalNodes>
      <leafValues>
        -7.7006775140762329e-01 4.2916354537010193e-01</leafValues></_>
    <_>
      <internalNodes>
        0 -1 21010 -1155812905 -649361201 1409323027 -189341601
        -1820225999 -2004221304 -2102746159 -202517812</internalNodes>
      <leafValues>
        -5.6679385900497437e-01 5.7469946146011353e-01</leafValues></_>
    <_>
      <internalNodes>
        0 -1 14402 -665464557 1787417653 2102001989 -1416920670
        -1434396127 991101002 2072705410 -1436301077</internalNodes>
      <leafValues>
        -5.7919931411743164e-01 5.6698930263519287e-01</leafValues></_></weakClassifiers></stage8>
</opencv_storage>
