<?xml version="1.0"?>
<opencv_storage>
<stage12>
  <maxWeakCount>50</maxWeakCount>
  <stageThreshold>-3.2541732788085938e+00</stageThreshold>
  <weakClassifiers>
    <_>
      <internalNodes>
        0 -1 22076 6.2367558479309082e-01</internalNodes>
      <leafValues>
        -1.1496814489364624e+00 1.1496814489364624e+00</leafValues></_>
    <_>
      <internalNodes>
        0 -1 67039 5.3456722525879741e-04</internalNodes>
      <leafValues>
        -4.7102507948875427e-01 4.7102507948875427e-01</leafValues></_>
    <_>
      <internalNodes>
        0 -1 58105 -1.3398637529462576e-03</internalNodes>
      <leafValues>
        4.0021160244941711e-01 -4.0021160244941711e-01</leafValues></_>
    <_>
      <internalNodes>
        0 -1 76028 -1.5147445083130151e-05</internalNodes>
      <leafValues>
        4.1638931632041931e-01 -4.1638931632041931e-01</leafValues></_>
    <_>
      <internalNodes>
        0 -1 63615 7.4936752207577229e-04</internalNodes>
      <leafValues>
        -3.6093845963478088e-01 3.6093845963478088e-01</leafValues></_>
    <_>
      <internalNodes>
        0 -1 69087 5.9362757019698620e-03</internalNodes>
      <leafValues>
        -3.7658488750457764e-01 3.7658488750457764e-01</leafValues></_>
    <_>
      <internalNodes>
        0 -1 56912 1.4933210877643432e-05</internalNodes>
      <leafValues>
        -3.5844400525093079e-01 3.5844400525093079e-01</leafValues></_>
    <_>
      <internalNodes>
        0 -1 558 -3.0286630988121033e-01</internalNodes>
      <leafValues>
        4.0088889002799988e-01 -4.0088889002799988e-01</leafValues></_>
    <_>
      <internalNodes>
        0 -1 76380 -5.3854798898100853e-04</internalNodes>
      <leafValues>
        -3.7179872393608093e-01 3.7179872393608093e-01</leafValues></_>
    <_>
      <internalNodes>
        0 -1 58579 4.6278312802314758e-03</internalNodes>
      <leafValues>
        -4.2267209291458130e-01 4.2267209291458130e-01</leafValues></_>
    <_>
      <internalNodes>
        0 -1 3327 -3.8267194759100676e-04</internalNodes>
      <leafValues>
        -3.1745105981826782e-01 3.1745105981826782e-01</leafValues></_>
    <_>
      <internalNodes>
        0 -1 36229 4.8195095732808113e-03</internalNodes>
      <leafValues>
        -3.8867345452308655e-01 3.8867345452308655e-01</leafValues></_>
    <_>
      <internalNodes>
        0 -1 77673 9.5773511566221714e-04</internalNodes>
      <leafValues>
        2.8888314962387085e-01 -2.8888314962387085e-01</leafValues></_>
    <_>
      <internalNodes>
        0 -1 37807 -2.3587401956319809e-03</internalNodes>
      <leafValues>
        4.2745050787925720e-01 -4.2745050787925720e-01</leafValues></_>
    <_>
      <internalNodes>
        0 -1 57804 1.7929563910001889e-05</internalNodes>
      <leafValues>
        -3.4758439660072327e-01 3.4758439660072327e-01</leafValues></_>
    <_>
      <internalNodes>
        0 -1 35844 2.1417740732431412e-02</internalNodes>
      <leafValues>
        -3.5625690221786499e-01 3.5625690221786499e-01</leafValues></_>
    <_>
      <internalNodes>
        0 -1 45057 -1.6750022768974304e-02</internalNodes>
      <leafValues>
        3.8901764154434204e-01 -3.8901764154434204e-01</leafValues></_>
    <_>
      <internalNodes>
        0 -1 70905 -1.8989525269716978e-03</internalNodes>
      <leafValues>
        -4.0444901585578918e-01 4.0444901585578918e-01</leafValues></_>
    <_>
      <internalNodes>
        0 -1 8282 7.8083178959786892e-04</internalNodes>
      <leafValues>
        -3.4579664468765259e-01 3.4579664468765259e-01</leafValues></_>
    <_>
      <internalNodes>
        0 -1 45082 -6.2786242924630642e-03</internalNodes>
      <leafValues>
        3.8898500800132751e-01 -3.8898500800132751e-01</leafValues></_>
    <_>
      <internalNodes>
        0 -1 70982 1.9029420800507069e-03</internalNodes>
      <leafValues>
        3.4008216857910156e-01 -3.4008216857910156e-01</leafValues></_>
    <_>
      <internalNodes>
        0 -1 49908 3.2291281968355179e-03</internalNodes>
      <leafValues>
        -4.3432372808456421e-01 4.3432372808456421e-01</leafValues></_>
    <_>
      <internalNodes>
        0 -1 78435 -1.3728853446082212e-05</internalNodes>
      <leafValues>
        3.3926737308502197e-01 -3.3926737308502197e-01</leafValues></_>
    <_>
      <internalNodes>
        0 -1 71376 3.5827740794047713e-04</internalNodes>
      <leafValues>
        2.8052470088005066e-01 -2.8052470088005066e-01</leafValues></_>
    <_>
      <internalNodes>
        0 -1 52001 -1.2710936134681106e-03</internalNodes>
      <leafValues>
        3.4984922409057617e-01 -3.4984922409057617e-01</leafValues></_>
    <_>
      <internalNodes>
        0 -1 51634 9.1435748618096113e-04</internalNodes>
      <leafValues>
        -3.6129066348075867e-01 3.6129066348075867e-01</leafValues></_>
    <_>
      <internalNodes>
        0 -1 67808 -7.2710332460701466e-04</internalNodes>
      <leafValues>
        -3.5028585791587830e-01 3.5028585791587830e-01</leafValues></_>
    <_>
      <internalNodes>
        0 -1 46872 -1.4961659908294678e-03</internalNodes>
      <leafValues>
        3.7899038195610046e-01 -3.7899038195610046e-01</leafValues></_>
    <_>
      <internalNodes>
        0 -1 2727 1.4316561282612383e-04</internalNodes>
      <leafValues>
        3.3717322349548340e-01 -3.3717322349548340e-01</leafValues></_>
    <_>
      <internalNodes>
        0 -1 56736 5.7995051611214876e-04</internalNodes>
      <leafValues>
        -3.1698718667030334e-01 3.1698718667030334e-01</leafValues></_>
    <_>
      <internalNodes>
        0 -1 56650 1.9896151497960091e-03</internalNodes>
      <leafValues>
        -3.3872643113136292e-01 3.3872643113136292e-01</leafValues></_>
    <_>
      <internalNodes>
        0 -1 75010 -6.1759923119097948e-04</internalNodes>
      <leafValues>
        -3.0132770538330078e-01 3.0132770538330078e-01</leafValues></_>
    <_>
      <internalNodes>
        0 -1 26087 -1.1101421713829041e-01</internalNodes>
      <leafValues>
        3.4710198640823364e-01 -3.4710198640823364e-01</leafValues></_>
    <_>
      <internalNodes>
        0 -1 14038 -1.8319083750247955e-01</internalNodes>
      <leafValues>
        3.8587516546249390e-01 -3.8587516546249390e-01</leafValues></_>
    <_>
      <internalNodes>
        0 -1 67808 9.0726761845871806e-04</internalNodes>
      <leafValues>
        3.8372167944908142e-01 -3.8372167944908142e-01</leafValues></_>
    <_>
      <internalNodes>
        0 -1 27849 2.9653906822204590e-02</internalNodes>
      <leafValues>
        -3.6254808306694031e-01 3.6254808306694031e-01</leafValues></_>
    <_>
      <internalNodes>
        0 -1 73396 -9.7434374038130045e-04</internalNodes>
      <leafValues>
        -2.8534728288650513e-01 2.8534728288650513e-01</leafValues></_>
    <_>
      <internalNodes>
        0 -1 37801 5.9391173999756575e-04</internalNodes>
      <leafValues>
        -3.6620733141899109e-01 3.6620733141899109e-01</leafValues></_>
    <_>
      <internalNodes>
        0 -1 43233 -1.2371006887406111e-03</internalNodes>
      <leafValues>
        3.2298317551612854e-01 -3.2298317551612854e-01</leafValues></_>
    <_>
      <internalNodes>
        0 -1 25768 -1.1496852675918490e-04</internalNodes>
      <leafValues>
        -3.0548658967018127e-01 3.0548658967018127e-01</leafValues></_>
    <_>
      <internalNodes>
        0 -1 44370 -2.9954072088003159e-03</internalNodes>
      <leafValues>
        3.6579069495201111e-01 -3.6579069495201111e-01</leafValues></_>
    <_>
      <internalNodes>
        0 -1 14755 -1.0783321922644973e-03</internalNodes>
      <leafValues>
        -3.0897954106330872e-01 3.0897954106330872e-01</leafValues></_>
    <_>
      <internalNodes>
        0 -1 53869 8.2700466737151146e-04</internalNodes>
      <leafValues>
        -3.4616979956626892e-01 3.4616979956626892e-01</leafValues></_>
    <_>
      <internalNodes>
        0 -1 68706 -3.6480294511420652e-05</internalNodes>
      <leafValues>
        3.0758798122406006e-01 -3.0758798122406006e-01</leafValues></_>
    <_>
      <internalNodes>
        0 -1 70443 3.3911179343704134e-05</internalNodes>
      <leafValues>
        -3.0230090022087097e-01 3.0230090022087097e-01</leafValues></_>
    <_>
      <internalNodes>
        0 -1 69806 -7.5387780088931322e-04</internalNodes>
      <leafValues>
        3.0716377496719360e-01 -3.0716377496719360e-01</leafValues></_>
    <_>
      <internalNodes>
        0 -1 74812 -6.2557589262723923e-04</internalNodes>
      <leafValues>
        -2.7179577946662903e-01 2.7179577946662903e-01</leafValues></_>
    <_>
      <internalNodes>
        0 -1 13157 5.1168389618396759e-03</internalNodes>
      <leafValues>
        -4.1712468862533569e-01 4.1712468862533569e-01</leafValues></_>
    <_>
      <internalNodes>
        0 -1 19542 2.7734676375985146e-02</internalNodes>
      <leafValues>
        3.1843054294586182e-01 -3.1843054294586182e-01</leafValues></_>
    <_>
      <internalNodes>
        0 -1 17368 3.0036836862564087e-02</internalNodes>
      <leafValues>
        -3.5585054755210876e-01 3.5585054755210876e-01</leafValues></_></weakClassifiers></stage12>
</opencv_storage>
