<?xml version="1.0"?>
<opencv_storage>
<stage1>
  <maxWeakCount>6</maxWeakCount>
  <stageThreshold>-4.4469547271728516e+00</stageThreshold>
  <weakClassifiers>
    <_>
      <internalNodes>
        0 -1 437 3.4842419624328613e-01</internalNodes>
      <leafValues>
        -1.5549108982086182e+00 1.5549108982086182e+00</leafValues></_>
    <_>
      <internalNodes>
        0 -1 60531 1.3584960470325314e-05</internalNodes>
      <leafValues>
        -1.1704442501068115e+00 1.1704442501068115e+00</leafValues></_>
    <_>
      <internalNodes>
        0 -1 75816 -1.6094871170935221e-05</internalNodes>
      <leafValues>
        1.0502712726593018e+00 -1.0502712726593018e+00</leafValues></_>
    <_>
      <internalNodes>
        0 -1 579 -4.1859853267669678e-01</internalNodes>
      <leafValues>
        9.6455305814743042e-01 -9.6455305814743042e-01</leafValues></_>
    <_>
      <internalNodes>
        0 -1 76516 -1.5147445083130151e-05</internalNodes>
      <leafValues>
        9.5334261655807495e-01 -9.5334261655807495e-01</leafValues></_>
    <_>
      <internalNodes>
        0 -1 47976 5.9670535847544670e-03</internalNodes>
      <leafValues>
        -8.5397535562515259e-01 8.5397535562515259e-01</leafValues></_></weakClassifiers></stage1>
</opencv_storage>
