<?xml version="1.0"?>
<opencv_storage>
<stage19>
  <maxWeakCount>47</maxWeakCount>
  <stageThreshold>-1.6045382022857666e+00</stageThreshold>
  <weakClassifiers>
    <_>
      <internalNodes>
        0 -1 76495 -1.6764064785093069e-03</internalNodes>
      <leafValues>
        -4.8107853531837463e-01 -8.4776574373245239e-01</leafValues></_>
    <_>
      <internalNodes>
        0 -1 27660 1.2634153245016932e-04</internalNodes>
      <leafValues>
        1.0694838315248489e-01 -3.1888878345489502e-01</leafValues></_>
    <_>
      <internalNodes>
        0 -1 70823 3.1929310353007168e-05</internalNodes>
      <leafValues>
        -2.0383998751640320e-01 1.4900329709053040e-01</leafValues></_>
    <_>
      <internalNodes>
        0 -1 53445 -9.7932387143373489e-04</internalNodes>
      <leafValues>
        2.8948572278022766e-01 -9.6945591270923615e-02</leafValues></_>
    <_>
      <internalNodes>
        0 -1 26461 -6.0722045600414276e-04</internalNodes>
      <leafValues>
        -4.1656464338302612e-01 8.2546167075634003e-02</leafValues></_>
    <_>
      <internalNodes>
        0 -1 32705 2.3938948288559914e-03</internalNodes>
      <leafValues>
        -1.0364184528589249e-01 3.1383579969406128e-01</leafValues></_>
    <_>
      <internalNodes>
        0 -1 43542 -1.7967387102544308e-03</internalNodes>
      <leafValues>
        2.6851719617843628e-01 -1.2901024520397186e-01</leafValues></_>
    <_>
      <internalNodes>
        0 -1 65456 2.1283279638737440e-03</internalNodes>
      <leafValues>
        6.6198945045471191e-02 -5.7673972845077515e-01</leafValues></_>
    <_>
      <internalNodes>
        0 -1 43577 1.5599492471665144e-03</internalNodes>
      <leafValues>
        -1.1613281816244125e-01 2.5940394401550293e-01</leafValues></_>
    <_>
      <internalNodes>
        0 -1 57196 -1.7743546050041914e-03</internalNodes>
      <leafValues>
        -5.5250644683837891e-01 5.6059937924146652e-02</leafValues></_>
    <_>
      <internalNodes>
        0 -1 20332 -3.2591348281130195e-04</internalNodes>
      <leafValues>
        -2.4782097339630127e-01 1.1353203654289246e-01</leafValues></_>
    <_>
      <internalNodes>
        0 -1 15762 1.0345287621021271e-01</internalNodes>
      <leafValues>
        -6.7085750401020050e-02 4.8134008049964905e-01</leafValues></_>
    <_>
      <internalNodes>
        0 -1 52773 1.1181795271113515e-03</internalNodes>
      <leafValues>
        -2.0131450891494751e-01 1.3548462092876434e-01</leafValues></_>
    <_>
      <internalNodes>
        0 -1 61250 -8.8971521472558379e-04</internalNodes>
      <leafValues>
        -4.8737630248069763e-01 5.9394866228103638e-02</leafValues></_>
    <_>
      <internalNodes>
        0 -1 20051 1.4992584474384785e-03</internalNodes>
      <leafValues>
        -1.0908493399620056e-01 2.7251347899436951e-01</leafValues></_>
    <_>
      <internalNodes>
        0 -1 48268 -9.6068959683179855e-03</internalNodes>
      <leafValues>
        3.5538971424102783e-01 -8.6429297924041748e-02</leafValues></_>
    <_>
      <internalNodes>
        0 -1 68640 4.8400336527265608e-04</internalNodes>
      <leafValues>
        7.8469611704349518e-02 -3.7619817256927490e-01</leafValues></_>
    <_>
      <internalNodes>
        0 -1 68435 2.7669457267620601e-05</internalNodes>
      <leafValues>
        -1.8854673206806183e-01 1.4271920919418335e-01</leafValues></_>
    <_>
      <internalNodes>
        0 -1 68416 7.9784411936998367e-03</internalNodes>
      <leafValues>
        -5.4352249950170517e-02 5.8060824871063232e-01</leafValues></_>
    <_>
      <internalNodes>
        0 -1 68639 -4.2168379877693951e-05</internalNodes>
      <leafValues>
        1.1995871365070343e-01 -2.5598427653312683e-01</leafValues></_>
    <_>
      <internalNodes>
        0 -1 48279 -2.0713478326797485e-02</internalNodes>
      <leafValues>
        3.3628055453300476e-01 -8.6592659354209900e-02</leafValues></_>
    <_>
      <internalNodes>
        0 -1 42902 2.7353102341294289e-03</internalNodes>
      <leafValues>
        -1.0855214297771454e-01 2.9153576493263245e-01</leafValues></_>
    <_>
      <internalNodes>
        0 -1 47940 -1.3481929898262024e-02</internalNodes>
      <leafValues>
        -1.1611980199813843e+00 3.7227835506200790e-02</leafValues></_>
    <_>
      <internalNodes>
        0 -1 49766 -8.8119565043598413e-04</internalNodes>
      <leafValues>
        2.6234376430511475e-01 -1.1392602324485779e-01</leafValues></_>
    <_>
      <internalNodes>
        0 -1 11365 1.5931971371173859e-02</internalNodes>
      <leafValues>
        6.9666996598243713e-02 -3.9482709765434265e-01</leafValues></_>
    <_>
      <internalNodes>
        0 -1 7683 -1.0262099094688892e-03</internalNodes>
      <leafValues>
        -2.2826822102069855e-01 1.1398089677095413e-01</leafValues></_>
    <_>
      <internalNodes>
        0 -1 76392 6.5812850371003151e-03</internalNodes>
      <leafValues>
        -1.3025593757629395e-01 2.1563431620597839e-01</leafValues></_>
    <_>
      <internalNodes>
        0 -1 48311 1.6044851392507553e-02</internalNodes>
      <leafValues>
        9.7638532519340515e-02 -3.0865475535392761e-01</leafValues></_>
    <_>
      <internalNodes>
        0 -1 71423 -4.9754300562199205e-05</internalNodes>
      <leafValues>
        1.1688366532325745e-01 -2.3945529758930206e-01</leafValues></_>
    <_>
      <internalNodes>
        0 -1 58131 1.1163521558046341e-03</internalNodes>
      <leafValues>
        -1.8386797606945038e-01 1.4216528832912445e-01</leafValues></_>
    <_>
      <internalNodes>
        0 -1 48228 -1.3879258185625076e-03</internalNodes>
      <leafValues>
        1.9561693072319031e-01 -1.3947252929210663e-01</leafValues></_>
    <_>
      <internalNodes>
        0 -1 34743 -9.2357303947210312e-04</internalNodes>
      <leafValues>
        -4.5659366250038147e-01 5.7182550430297852e-02</leafValues></_>
    <_>
      <internalNodes>
        0 -1 61651 2.2293552756309509e-03</internalNodes>
      <leafValues>
        1.1355113983154297e-01 -2.3146185278892517e-01</leafValues></_>
    <_>
      <internalNodes>
        0 -1 77796 8.5865915752947330e-04</internalNodes>
      <leafValues>
        -1.2373395264148712e-01 2.0917309820652008e-01</leafValues></_>
    <_>
      <internalNodes>
        0 -1 50349 2.0676551386713982e-02</internalNodes>
      <leafValues>
        -3.0243319272994995e-01 8.4978669881820679e-02</leafValues></_>
    <_>
      <internalNodes>
        0 -1 57556 -5.2559085190296173e-02</internalNodes>
      <leafValues>
        -3.8459315896034241e-01 6.9330379366874695e-02</leafValues></_>
    <_>
      <internalNodes>
        0 -1 64202 1.6317900270223618e-02</internalNodes>
      <leafValues>
        -4.5637466013431549e-02 5.9354066848754883e-01</leafValues></_>
    <_>
      <internalNodes>
        0 -1 78272 -6.9122598506510258e-04</internalNodes>
      <leafValues>
        -4.0192386507987976e-01 6.3637174665927887e-02</leafValues></_>
    <_>
      <internalNodes>
        0 -1 65647 -4.7199795953929424e-03</internalNodes>
      <leafValues>
        3.4133246541023254e-01 -7.7339403331279755e-02</leafValues></_>
    <_>
      <internalNodes>
        0 -1 75031 1.0434612631797791e-03</internalNodes>
      <leafValues>
        7.2544306516647339e-02 -3.3958458900451660e-01</leafValues></_>
    <_>
      <internalNodes>
        0 -1 62379 -5.7173883542418480e-03</internalNodes>
      <leafValues>
        3.8332182168960571e-01 -6.5747499465942383e-02</leafValues></_>
    <_>
      <internalNodes>
        0 -1 54567 -1.2404517270624638e-02</internalNodes>
      <leafValues>
        3.8340696692466736e-01 -7.5896926224231720e-02</leafValues></_>
    <_>
      <internalNodes>
        0 -1 21101 6.7066863179206848e-02</internalNodes>
      <leafValues>
        3.3022638410329819e-02 -1.1541997194290161e+00</leafValues></_>
    <_>
      <internalNodes>
        0 -1 18378 -1.1560636572539806e-02</internalNodes>
      <leafValues>
        -4.6303901076316833e-01 5.8445598930120468e-02</leafValues></_>
    <_>
      <internalNodes>
        0 -1 32046 -1.9621602259576321e-03</internalNodes>
      <leafValues>
        1.6058139503002167e-01 -1.8671785295009613e-01</leafValues></_>
    <_>
      <internalNodes>
        0 -1 42551 -2.3595383390784264e-03</internalNodes>
      <leafValues>
        3.5328501462936401e-01 -8.9354678988456726e-02</leafValues></_>
    <_>
      <internalNodes>
        0 -1 15273 2.0681208372116089e-01</internalNodes>
      <leafValues>
        3.1819533556699753e-02 -1.0342084169387817e+00</leafValues></_></weakClassifiers></stage19>
</opencv_storage>
