<?xml version="1.0"?>
<opencv_storage>
<stage13>
  <maxWeakCount>34</maxWeakCount>
  <stageThreshold>-1.6561913490295410e+00</stageThreshold>
  <weakClassifiers>
    <_>
      <internalNodes>
        0 -1 63617 -8.6089526303112507e-04</internalNodes>
      <leafValues>
        -4.5203676819801331e-01 -9.5999079942703247e-01</leafValues></_>
    <_>
      <internalNodes>
        0 -1 75024 -3.6616384022636339e-05</internalNodes>
      <leafValues>
        1.4538720250129700e-01 -3.2174426317214966e-01</leafValues></_>
    <_>
      <internalNodes>
        0 -1 76643 4.6367415052372962e-05</internalNodes>
      <leafValues>
        -2.1398523449897766e-01 1.9902719557285309e-01</leafValues></_>
    <_>
      <internalNodes>
        0 -1 37068 1.6624611453153193e-04</internalNodes>
      <leafValues>
        1.7229241132736206e-01 -2.5367376208305359e-01</leafValues></_>
    <_>
      <internalNodes>
        0 -1 44154 5.8132782578468323e-03</internalNodes>
      <leafValues>
        -9.7378663718700409e-02 4.2828485369682312e-01</leafValues></_>
    <_>
      <internalNodes>
        0 -1 67959 7.1613851469010115e-04</internalNodes>
      <leafValues>
        8.2224458456039429e-02 -6.5963631868362427e-01</leafValues></_>
    <_>
      <internalNodes>
        0 -1 73250 2.3385477252304554e-03</internalNodes>
      <leafValues>
        7.0238128304481506e-02 -6.0373669862747192e-01</leafValues></_>
    <_>
      <internalNodes>
        0 -1 24502 2.8836401179432869e-04</internalNodes>
      <leafValues>
        1.2141789495944977e-01 -3.2035356760025024e-01</leafValues></_>
    <_>
      <internalNodes>
        0 -1 35888 3.0657151713967323e-02</internalNodes>
      <leafValues>
        -1.6057063639163971e-01 2.6771023869514465e-01</leafValues></_>
    <_>
      <internalNodes>
        0 -1 17902 2.5217458605766296e-02</internalNodes>
      <leafValues>
        -1.4459428191184998e-01 3.0749434232711792e-01</leafValues></_>
    <_>
      <internalNodes>
        0 -1 59181 -1.0891447961330414e-01</internalNodes>
      <leafValues>
        4.4049900770187378e-01 -1.0627974569797516e-01</leafValues></_>
    <_>
      <internalNodes>
        0 -1 51103 -4.6951517462730408e-02</internalNodes>
      <leafValues>
        -1.2870681285858154e+00 4.4000249356031418e-02</leafValues></_>
    <_>
      <internalNodes>
        0 -1 43843 3.0194267164915800e-03</internalNodes>
      <leafValues>
        -1.0341995954513550e-01 4.0793290734291077e-01</leafValues></_>
    <_>
      <internalNodes>
        0 -1 43843 -2.2595510818064213e-03</internalNodes>
      <leafValues>
        2.8285735845565796e-01 -1.3924358785152435e-01</leafValues></_>
    <_>
      <internalNodes>
        0 -1 65450 2.6649506762623787e-03</internalNodes>
      <leafValues>
        8.1508122384548187e-02 -4.9697461724281311e-01</leafValues></_>
    <_>
      <internalNodes>
        0 -1 48735 -5.6327082216739655e-02</internalNodes>
      <leafValues>
        -9.7289901971817017e-01 5.1021296530961990e-02</leafValues></_>
    <_>
      <internalNodes>
        0 -1 78307 1.2456909753382206e-03</internalNodes>
      <leafValues>
        -3.0088371038436890e-01 1.2498950213193893e-01</leafValues></_>
    <_>
      <internalNodes>
        0 -1 2737 1.2374378275126219e-03</internalNodes>
      <leafValues>
        1.1995534598827362e-01 -3.1882083415985107e-01</leafValues></_>
    <_>
      <internalNodes>
        0 -1 59958 -6.2241533305495977e-04</internalNodes>
      <leafValues>
        3.0070042610168457e-01 -1.3505633175373077e-01</leafValues></_>
    <_>
      <internalNodes>
        0 -1 77701 1.7397101968526840e-02</internalNodes>
      <leafValues>
        4.1875310242176056e-02 -1.2182338237762451e+00</leafValues></_>
    <_>
      <internalNodes>
        0 -1 76970 -4.1623413562774658e-03</internalNodes>
      <leafValues>
        3.0219283699989319e-01 -1.2250758707523346e-01</leafValues></_>
    <_>
      <internalNodes>
        0 -1 19491 2.9262814670801163e-02</internalNodes>
      <leafValues>
        7.2446972131729126e-02 -5.4616868495941162e-01</leafValues></_>
    <_>
      <internalNodes>
        0 -1 4941 -1.1051639914512634e-02</internalNodes>
      <leafValues>
        -5.9874844551086426e-01 6.6250428557395935e-02</leafValues></_>
    <_>
      <internalNodes>
        0 -1 38357 -3.5496437922120094e-03</internalNodes>
      <leafValues>
        2.7117604017257690e-01 -1.3666690886020660e-01</leafValues></_>
    <_>
      <internalNodes>
        0 -1 38241 4.4805067591369152e-03</internalNodes>
      <leafValues>
        -1.1168764531612396e-01 4.0788695216178894e-01</leafValues></_>
    <_>
      <internalNodes>
        0 -1 53519 8.5047772154211998e-03</internalNodes>
      <leafValues>
        6.0835644602775574e-02 -6.4422279596328735e-01</leafValues></_>
    <_>
      <internalNodes>
        0 -1 58934 -9.1213993728160858e-03</internalNodes>
      <leafValues>
        -7.0230942964553833e-01 5.3136903792619705e-02</leafValues></_>
    <_>
      <internalNodes>
        0 -1 66015 4.8989327624440193e-03</internalNodes>
      <leafValues>
        6.6019311547279358e-02 -5.6045806407928467e-01</leafValues></_>
    <_>
      <internalNodes>
        0 -1 52334 8.3063042256981134e-04</internalNodes>
      <leafValues>
        -1.1886736005544662e-01 2.8688710927963257e-01</leafValues></_>
    <_>
      <internalNodes>
        0 -1 75722 -1.8506734631955624e-03</internalNodes>
      <leafValues>
        2.4473801255226135e-01 -1.4117872714996338e-01</leafValues></_>
    <_>
      <internalNodes>
        0 -1 56152 4.5207645744085312e-03</internalNodes>
      <leafValues>
        -7.4831247329711914e-02 4.6782708168029785e-01</leafValues></_>
    <_>
      <internalNodes>
        0 -1 72920 2.7065426111221313e-03</internalNodes>
      <leafValues>
        6.9412529468536377e-02 -5.2364867925643921e-01</leafValues></_>
    <_>
      <internalNodes>
        0 -1 70616 -2.2865491919219494e-03</internalNodes>
      <leafValues>
        1.2343706935644150e-01 -2.7021366357803345e-01</leafValues></_>
    <_>
      <internalNodes>
        0 -1 38092 9.2389136552810669e-03</internalNodes>
      <leafValues>
        -1.1717766523361206e-01 4.0541300177574158e-01</leafValues></_></weakClassifiers></stage13>
</opencv_storage>
