<?xml version="1.0"?>
<opencv_storage>
<stage8>
  <maxWeakCount>27</maxWeakCount>
  <stageThreshold>-4.7930431365966797e+00</stageThreshold>
  <weakClassifiers>
    <_>
      <internalNodes>
        0 -1 1865 -537153809 -8409089 -8413137 -4224341 -872443969
        -536891649 -671110213 -1069137</internalNodes>
      <leafValues>
        -7.8245407342910767e-01 9.8261529207229614e-01</leafValues></_>
    <_>
      <internalNodes>
        0 -1 3840 -2360321 -538181907 -67110923 -536871746 -1077960769
        -1409679372 -1682049551 -536881924</internalNodes>
      <leafValues>
        -6.8710738420486450e-01 9.9680858850479126e-01</leafValues></_>
    <_>
      <internalNodes>
        0 -1 3245 -154193 -543321639 -1429615177 -404761161 -1344324821
        -100805176 -1450234357 -1363358785</internalNodes>
      <leafValues>
        -8.1928896903991699e-01 7.6798981428146362e-01</leafValues></_>
    <_>
      <internalNodes>
        0 -1 2772 -101583474 -107261451 1576663168 430176093 -1190679652
        -2068080189 -50352696 -658179602</internalNodes>
      <leafValues>
        -9.3101966381072998e-01 5.7936149835586548e-01</leafValues></_>
    <_>
      <internalNodes>
        0 -1 3661 -17873915 -76026403 -666812579 2109700479 -183808764
        -10946099 -924148580 -14942627</internalNodes>
      <leafValues>
        -8.4189778566360474e-01 5.8832234144210815e-01</leafValues></_>
    <_>
      <internalNodes>
        0 -1 2970 -72354307 1543101756 -114819 535297277 -420103024
        -1124259467 -1393451848 -1979740947</internalNodes>
      <leafValues>
        -6.4015066623687744e-01 8.3634978532791138e-01</leafValues></_>
    <_>
      <internalNodes>
        0 -1 3804 -1346847983 -1464150174 -1250569763 249426297
        -1544839760 -1353113427 -1386433880 -1459635027</internalNodes>
      <leafValues>
        -7.9337275028228760e-01 6.2133049964904785e-01</leafValues></_>
    <_>
      <internalNodes>
        0 -1 1456 -395119621 -264962306 -18126856 -1265944 -135979791
        -990707717 -137140255 -9961583</internalNodes>
      <leafValues>
        -6.2354999780654907e-01 7.7751243114471436e-01</leafValues></_>
    <_>
      <internalNodes>
        0 -1 1373 -674898961 -539495049 1900794316 581063331 -79443898
        -560492281 -62818238 1229454407</internalNodes>
      <leafValues>
        -9.2349660396575928e-01 5.0694400072097778e-01</leafValues></_>
    <_>
      <internalNodes>
        0 -1 3756 -74989577 -2040888333 -2129141263 -1600222470
        -390349209 1791725987 -1559328688 -1025840672</internalNodes>
      <leafValues>
        -8.2625728845596313e-01 5.4981809854507446e-01</leafValues></_>
    <_>
      <internalNodes>
        0 -1 3399 -1428716899 -53495306 -1022896771 -10641324
        -1544602881 -1282883197 -1123595859 -1996618644</internalNodes>
      <leafValues>
        -6.7193579673767090e-01 6.5534734725952148e-01</leafValues></_>
    <_>
      <internalNodes>
        0 -1 3177 -662035692 -1506738220 -1878758508 -121728712
        -880094295 -1533377901 -1769591300 -1416385229</internalNodes>
      <leafValues>
        -7.3236328363418579e-01 5.7596409320831299e-01</leafValues></_>
    <_>
      <internalNodes>
        0 -1 3960 -338693149 -1395604065 -751873036 -53161734 733210407
        -905525094 -613690940 -756025942</internalNodes>
      <leafValues>
        -6.3681149482727051e-01 6.4627027511596680e-01</leafValues></_>
    <_>
      <internalNodes>
        0 -1 3426 -186867467 -27524921 -1861218121 -342138373
        -1417432916 -658872061 -360040200 -2131215446</internalNodes>
      <leafValues>
        -6.4975935220718384e-01 6.2140095233917236e-01</leafValues></_>
    <_>
      <internalNodes>
        0 -1 635 -246416514 -1463350829 1007158310 -1609663933
        -471893487 -16561642 -122626232 -1000870153</internalNodes>
      <leafValues>
        -7.5902301073074341e-01 5.4854685068130493e-01</leafValues></_>
    <_>
      <internalNodes>
        0 -1 2432 -228623666 -537006402 -865048416 -1248461121
        1476943775 2084429620 2115040863 -819749185</internalNodes>
      <leafValues>
        -5.5617868900299072e-01 7.5695896148681641e-01</leafValues></_>
    <_>
      <internalNodes>
        0 -1 1638 -361808734 562600643 1452440161 2134231411 277039281
        1166207127 -1417041417 -274888489</internalNodes>
      <leafValues>
        -7.5486034154891968e-01 5.4576146602630615e-01</leafValues></_>
    <_>
      <internalNodes>
        0 -1 2807 -1638231344 -75823892 2130591741 360189177 -1212256890
        -1099432560 -1352720679 -1115749289</internalNodes>
      <leafValues>
        -5.7000678777694702e-01 6.7253094911575317e-01</leafValues></_>
    <_>
      <internalNodes>
        0 -1 3725 -1096827120 -1935909131 481089649 1014823340
        1074383381 1577755145 -1012229372 -1246963540</internalNodes>
      <leafValues>
        -9.6490794420242310e-01 4.0110737085342407e-01</leafValues></_>
    <_>
      <internalNodes>
        0 -1 2940 -935651074 -182414501 -645660262 2005504970
        -1061109095 -1661389334 -127012098 -766276439</internalNodes>
      <leafValues>
        -6.1919069290161133e-01 5.9403663873672485e-01</leafValues></_>
    <_>
      <internalNodes>
        0 -1 2988 -1921089804 1576029940 805087218 2067082517 1342045533
        -1369145603 1593749502 -1947227049</internalNodes>
      <leafValues>
        -5.5533653497695923e-01 6.6399949789047241e-01</leafValues></_>
    <_>
      <internalNodes>
        0 -1 13 -724830282 1115721941 1473376798 -435240122 1795400021
        455458898 2045612917 -336111889</internalNodes>
      <leafValues>
        -6.9852554798126221e-01 5.2072447538375854e-01</leafValues></_>
    <_>
      <internalNodes>
        0 -1 2751 -46178061 363490810 826271142 -1712071962 1995943391
        -419993609 -185346573 -1608194322</internalNodes>
      <leafValues>
        -5.1841467618942261e-01 6.6230279207229614e-01</leafValues></_>
    <_>
      <internalNodes>
        0 -1 2655 -136998841 -656947292 -276840449 -1696697282
        -109839689 -59493774 -1670293657 -89141694</internalNodes>
      <leafValues>
        -4.7355732321739197e-01 7.0424848794937134e-01</leafValues></_>
    <_>
      <internalNodes>
        0 -1 2184 1624286930 -660602868 -1567831659 -1296628453
        2063659737 1487634434 1407617705 -312641370</internalNodes>
      <leafValues>
        -8.7945038080215454e-01 3.8850760459899902e-01</leafValues></_>
    <_>
      <internalNodes>
        0 -1 3964 -281022861 -269488468 -268534021 -11567368 -8544329
        2135416829 1174384790 -646982180</internalNodes>
      <leafValues>
        -5.1131302118301392e-01 6.3829708099365234e-01</leafValues></_>
    <_>
      <internalNodes>
        0 -1 3843 -555920785 -154803261 -996052803 1956581507
        -1161223664 -671088494 1795238640 -77407715</internalNodes>
      <leafValues>
        -5.9320837259292603e-01 5.4448628425598145e-01</leafValues></_></weakClassifiers></stage8>
</opencv_storage>
