<?xml version="1.0"?>
<opencv_storage>
<stage5>
  <maxWeakCount>12</maxWeakCount>
  <stageThreshold>-3.5984380245208740e+00</stageThreshold>
  <weakClassifiers>
    <_>
      <internalNodes>
        0 -1 19711 -1 -1 -1 -1 -1 -1 -1 -3</internalNodes>
      <leafValues>
        -1.3862943649291992e+00 1.3862943649291992e+00</leafValues></_>
    <_>
      <internalNodes>
        0 -1 13148 2147483567 1073741823 -1 1073741823 2147483647
        2147483647 -1 2147483647</internalNodes>
      <leafValues>
        -8.5590070486068726e-01 8.5590070486068726e-01</leafValues></_>
    <_>
      <internalNodes>
        0 -1 9467 -18 -269484033 -2 -1 -9 2147483647 -9 -1</internalNodes>
      <leafValues>
        -7.9119992256164551e-01 7.9119992256164551e-01</leafValues></_>
    <_>
      <internalNodes>
        0 -1 10251 1828519668 1325334526 -65537 -268435457 1970665460 -1
        1970730870 1426063359</internalNodes>
      <leafValues>
        -6.7772424221038818e-01 6.7772424221038818e-01</leafValues></_>
    <_>
      <internalNodes>
        0 -1 19699 -1 -1 -1 -1 -129 -1 -11 -65548</internalNodes>
      <leafValues>
        -7.1695649623870850e-01 7.1695649623870850e-01</leafValues></_>
    <_>
      <internalNodes>
        0 -1 18438 1878994722 -1 -1 -16842753 -33007 -1 -49347
        2139045239</internalNodes>
      <leafValues>
        -6.7035299539566040e-01 6.7035299539566040e-01</leafValues></_>
    <_>
      <internalNodes>
        0 -1 17075 -1342177281 -1342177281 -1 -65537 -9 -1 -11 -65548</internalNodes>
      <leafValues>
        -7.1097362041473389e-01 7.1097362041473389e-01</leafValues></_>
    <_>
      <internalNodes>
        0 -1 6092 -129 -1 -1 788463615 -32899 -1 -129 2088763383</internalNodes>
      <leafValues>
        -6.8048655986785889e-01 6.8048655986785889e-01</leafValues></_>
    <_>
      <internalNodes>
        0 -1 12227 1290570976 770703359 -9 805273599 905274836
        2147450879 1979711485 2113896447</internalNodes>
      <leafValues>
        -6.0954129695892334e-01 6.0954129695892334e-01</leafValues></_>
    <_>
      <internalNodes>
        0 -1 10935 -18 -1 -2 -1 -129 -1 -9 -1</internalNodes>
      <leafValues>
        -6.0789865255355835e-01 6.0789865255355835e-01</leafValues></_>
    <_>
      <internalNodes>
        0 -1 20547 -32769 -1 -1 -1 -32769 -1 -3 -196620</internalNodes>
      <leafValues>
        -6.3456082344055176e-01 6.3456082344055176e-01</leafValues></_>
    <_>
      <internalNodes>
        0 -1 11747 -65666 -589826 -2 -1359020034 -32907 -1 -1 2121793526</internalNodes>
      <leafValues>
        -6.0038280487060547e-01 6.0038280487060547e-01</leafValues></_></weakClassifiers></stage5>
</opencv_storage>
