<?xml version="1.0"?>
<opencv_storage>
<stage17>
  <maxWeakCount>60</maxWeakCount>
  <stageThreshold>-2.9836449623107910e+00</stageThreshold>
  <weakClassifiers>
    <_>
      <internalNodes>
        0 -1 18402 -1 -1 -1 -1 -1 -1 -1 -33554433</internalNodes>
      <leafValues>
        -1.1524068117141724e+00 1.1524068117141724e+00</leafValues></_>
    <_>
      <internalNodes>
        0 -1 846 -1 -16777217 -1 -1 -1 -1 -129 -1</internalNodes>
      <leafValues>
        -4.0172111988067627e-01 4.0172111988067627e-01</leafValues></_>
    <_>
      <internalNodes>
        0 -1 14230 -4 -1 -1 -16777217 -139 -1 -140 880279423</internalNodes>
      <leafValues>
        -3.8580128550529480e-01 3.8580128550529480e-01</leafValues></_>
    <_>
      <internalNodes>
        0 -1 9467 -18 -269484033 -2 -1 -9 2147483647 -9 -1</internalNodes>
      <leafValues>
        -3.5241365432739258e-01 3.5241365432739258e-01</leafValues></_>
    <_>
      <internalNodes>
        0 -1 14606 2130608126 -1 -1 2130640895 -3 -1 -32772 577798014</internalNodes>
      <leafValues>
        -3.3542013168334961e-01 3.3542013168334961e-01</leafValues></_>
    <_>
      <internalNodes>
        0 -1 20533 -32771 -1 -1 -1 -3 -1 -3 -98308</internalNodes>
      <leafValues>
        -3.4766423702239990e-01 3.4766423702239990e-01</leafValues></_>
    <_>
      <internalNodes>
        0 -1 12535 -18 -1 -2 -1 -1 -1 -2 -167772161</internalNodes>
      <leafValues>
        -4.2076611518859863e-01 4.2076611518859863e-01</leafValues></_>
    <_>
      <internalNodes>
        0 -1 12180 214173700 100465919 519045095 1341128703 16012624
        1433796607 2112632188 360677375</internalNodes>
      <leafValues>
        -2.9340827465057373e-01 2.9340827465057373e-01</leafValues></_>
    <_>
      <internalNodes>
        0 -1 12659 -1 -1 -1 -268435457 -1 -1 -1 2147483647</internalNodes>
      <leafValues>
        -3.9276519417762756e-01 3.9276519417762756e-01</leafValues></_>
    <_>
      <internalNodes>
        0 -1 13000 989802154 985643951 1056927742 587186175 1199531782
        2147450879 780078961 41385327</internalNodes>
      <leafValues>
        -2.9354095458984375e-01 2.9354095458984375e-01</leafValues></_>
    <_>
      <internalNodes>
        0 -1 20146 -129 -1 -1 -1 -137 -1 -9 -1</internalNodes>
      <leafValues>
        -3.5831958055496216e-01 3.5831958055496216e-01</leafValues></_>
    <_>
      <internalNodes>
        0 -1 9922 -16781618 -285212673 -16777492 -16777218 -32939 -1
        2147450741 -524289</internalNodes>
      <leafValues>
        -2.3505280911922455e-01 2.3505280911922455e-01</leafValues></_>
    <_>
      <internalNodes>
        0 -1 13252 805252906 -1342177281 -1 -1 2147450743 -1 -32907
        2147483647</internalNodes>
      <leafValues>
        2.9333651065826416e-01 -2.9333651065826416e-01</leafValues></_>
    <_>
      <internalNodes>
        0 -1 18679 -1342177418 -1342177281 -1 -16777217 -129 -1 -11 -11</internalNodes>
      <leafValues>
        -2.8058820962905884e-01 2.8058820962905884e-01</leafValues></_>
    <_>
      <internalNodes>
        0 -1 15277 -65540 -1 -1 -65537 -1 -1 -1 1072857085</internalNodes>
      <leafValues>
        -3.0681654810905457e-01 3.0681654810905457e-01</leafValues></_>
    <_>
      <internalNodes>
        0 -1 15544 -1879052754 721354751 -16777218 553582591 -236
        1879015415 -19 587202551</internalNodes>
      <leafValues>
        -2.3342859745025635e-01 2.3342859745025635e-01</leafValues></_>
    <_>
      <internalNodes>
        0 -1 15940 -1 -1 -1 -1 -1 -1 -3 -4</internalNodes>
      <leafValues>
        -3.6081162095069885e-01 3.6081162095069885e-01</leafValues></_>
    <_>
      <internalNodes>
        0 -1 20400 805254688 1056964603 -1073741830 1073741823
        2147450740 -32769 1610577764 2138341180</internalNodes>
      <leafValues>
        -2.4681328237056732e-01 2.4681328237056732e-01</leafValues></_>
    <_>
      <internalNodes>
        0 -1 1330 -1073741826 -1 -1 -1 -1 -1 -139 2147483645</internalNodes>
      <leafValues>
        -3.2581013441085815e-01 3.2581013441085815e-01</leafValues></_>
    <_>
      <internalNodes>
        0 -1 15028 -1 -1 -1 -65537 -1 -1 -1 1073676285</internalNodes>
      <leafValues>
        2.5468471646308899e-01 -2.5468471646308899e-01</leafValues></_>
    <_>
      <internalNodes>
        0 -1 10560 -2 -268500993 -1 -1 -1 -1 -9 -1</internalNodes>
      <leafValues>
        -3.3651560544967651e-01 3.3651560544967651e-01</leafValues></_>
    <_>
      <internalNodes>
        0 -1 13229 782430114 1849360370 -65560 2147008434 787783664
        74776308 666697570 11566944</internalNodes>
      <leafValues>
        -2.4804297089576721e-01 2.4804297089576721e-01</leafValues></_>
    <_>
      <internalNodes>
        0 -1 10615 -18 -285212673 -18 -285212673 -1 2147483647 -140
        1962934271</internalNodes>
      <leafValues>
        3.2004892826080322e-01 -3.2004892826080322e-01</leafValues></_>
    <_>
      <internalNodes>
        0 -1 10678 -10 -16777218 -2 -285212673 -9 -134217729 -1
        1728053247</internalNodes>
      <leafValues>
        -2.7068641781806946e-01 2.7068641781806946e-01</leafValues></_>
    <_>
      <internalNodes>
        0 -1 7410 -1 -285212673 -1 -285278209 -129 -1 -137 2147483647</internalNodes>
      <leafValues>
        2.7332532405853271e-01 -2.7332532405853271e-01</leafValues></_>
    <_>
      <internalNodes>
        0 -1 461 805191676 -268435457 -1 -16777217 -137 -1 -1 1744732020</internalNodes>
      <leafValues>
        -2.8133428096771240e-01 2.8133428096771240e-01</leafValues></_>
    <_>
      <internalNodes>
        0 -1 8124 -1 -65537 -1 -65537 -1 -1 -32771 -129</internalNodes>
      <leafValues>
        -3.4701645374298096e-01 3.4701645374298096e-01</leafValues></_>
    <_>
      <internalNodes>
        0 -1 18474 788270136 805306367 -1 -65537 -1090682883 -1
        1056735221 242630140</internalNodes>
      <leafValues>
        -2.9480627179145813e-01 2.9480627179145813e-01</leafValues></_>
    <_>
      <internalNodes>
        0 -1 12530 -1 -1 -2 -1 -1 -1 -1 -452984833</internalNodes>
      <leafValues>
        -3.4380587935447693e-01 3.4380587935447693e-01</leafValues></_>
    <_>
      <internalNodes>
        0 -1 14535 783167008 -1610612738 784252859 784269247 532555570
        2147483639 791576354 791445302</internalNodes>
      <leafValues>
        -2.5596418976783752e-01 2.5596418976783752e-01</leafValues></_>
    <_>
      <internalNodes>
        0 -1 17675 -1 -268435457 -1 -1 -1 -1 -9 -65547</internalNodes>
      <leafValues>
        -2.9677584767341614e-01 2.9677584767341614e-01</leafValues></_>
    <_>
      <internalNodes>
        0 -1 9863 -1073774593 -1 -1 -1 -1 -1 -1 1073709053</internalNodes>
      <leafValues>
        2.2159634530544281e-01 -2.2159634530544281e-01</leafValues></_>
    <_>
      <internalNodes>
        0 -1 9931 -1 -16842753 -1 -16777217 -1 -1 -1 2147483647</internalNodes>
      <leafValues>
        -3.2435235381126404e-01 3.2435235381126404e-01</leafValues></_>
    <_>
      <internalNodes>
        0 -1 13426 -269029536 548470776 -96 116846060 -33554684
        209452926 -268443804 2555895</internalNodes>
      <leafValues>
        -2.7390328049659729e-01 2.7390328049659729e-01</leafValues></_>
    <_>
      <internalNodes>
        0 -1 13502 -2 -285212673 -2 -285212673 -1 -1 -9 2130706431</internalNodes>
      <leafValues>
        2.5266277790069580e-01 -2.5266277790069580e-01</leafValues></_>
    <_>
      <internalNodes>
        0 -1 18080 -1073741826 -1073741825 -1 -1073741825 -1 -1 -1
        -1073741825</internalNodes>
      <leafValues>
        -3.2704994082450867e-01 3.2704994082450867e-01</leafValues></_>
    <_>
      <internalNodes>
        0 -1 18827 -1 -1 -2 -16842754 -137 -1 -12 -134217737</internalNodes>
      <leafValues>
        -2.5655645132064819e-01 2.5655645132064819e-01</leafValues></_>
    <_>
      <internalNodes>
        0 -1 11154 -4356 -1 -1 -1 -11 -1 -1 2147483647</internalNodes>
      <leafValues>
        -3.0658677220344543e-01 3.0658677220344543e-01</leafValues></_>
    <_>
      <internalNodes>
        0 -1 15532 805273597 -1 -1 -1 -1 -1 -1 2147483647</internalNodes>
      <leafValues>
        2.8912946581840515e-01 -2.8912946581840515e-01</leafValues></_>
    <_>
      <internalNodes>
        0 -1 2071 -1342296212 -285278210 -1 -285278209 -137 -134217729
        2147450742 905215988</internalNodes>
      <leafValues>
        -2.2911496460437775e-01 2.2911496460437775e-01</leafValues></_>
    <_>
      <internalNodes>
        0 -1 12178 2147467263 1073741823 -1 2147483647 2147483647
        2147483647 -1 2147483647</internalNodes>
      <leafValues>
        -3.2144883275032043e-01 3.2144883275032043e-01</leafValues></_>
    <_>
      <internalNodes>
        0 -1 13908 -2 -268435457 -1 -285212673 -129 -1 -137 1995898879</internalNodes>
      <leafValues>
        2.6995339989662170e-01 -2.6995339989662170e-01</leafValues></_>
    <_>
      <internalNodes>
        0 -1 11910 -17 -268435457 -2 -1 -129 -1 -9 -1</internalNodes>
      <leafValues>
        -2.8964480757713318e-01 2.8964480757713318e-01</leafValues></_>
    <_>
      <internalNodes>
        0 -1 1302 648939356 -1358987393 -16842754 2130640894 -32906 -1
        2147483508 70258036</internalNodes>
      <leafValues>
        -2.3187604546546936e-01 2.3187604546546936e-01</leafValues></_>
    <_>
      <internalNodes>
        0 -1 10754 -2 1879048191 -1 -285212673 -32908 -1 -1 2147483647</internalNodes>
      <leafValues>
        -3.1742194294929504e-01 3.1742194294929504e-01</leafValues></_>
    <_>
      <internalNodes>
        0 -1 7595 -1 -268435457 -1 -285212673 -129 -1 -137 2147483647</internalNodes>
      <leafValues>
        2.8586682677268982e-01 -2.8586682677268982e-01</leafValues></_>
    <_>
      <internalNodes>
        0 -1 20759 1073709053 -1 -1 -1 -1 -1 -1 -1</internalNodes>
      <leafValues>
        -2.7606934309005737e-01 2.7606934309005737e-01</leafValues></_>
    <_>
      <internalNodes>
        0 -1 13652 -16814340 -285278209 -1 -16842753 -32777 -1 -12
        2130575351</internalNodes>
      <leafValues>
        -2.7194720506668091e-01 2.7194720506668091e-01</leafValues></_>
    <_>
      <internalNodes>
        0 -1 11537 -32769 -1 -1 -1 -1 -1 -1 1056735229</internalNodes>
      <leafValues>
        2.5243026018142700e-01 -2.5243026018142700e-01</leafValues></_>
    <_>
      <internalNodes>
        0 -1 10636 -65666 -16842753 -1 -16842753 -32905 -1 -1 1694466047</internalNodes>
      <leafValues>
        -2.6556038856506348e-01 2.6556038856506348e-01</leafValues></_>
    <_>
      <internalNodes>
        0 -1 8445 -1 -65537 -1 -16842753 -9 -1 -32769 -129</internalNodes>
      <leafValues>
        -2.9677727818489075e-01 2.9677727818489075e-01</leafValues></_>
    <_>
      <internalNodes>
        0 -1 9620 -1 -1 -1 -16842753 -129 -1 -1 2147483647</internalNodes>
      <leafValues>
        2.5482729077339172e-01 -2.5482729077339172e-01</leafValues></_>
    <_>
      <internalNodes>
        0 -1 15565 805273470 805306367 -1 -1342177281 2147450751
        2147483647 -32905 805273599</internalNodes>
      <leafValues>
        2.7798727154731750e-01 -2.7798727154731750e-01</leafValues></_>
    <_>
      <internalNodes>
        0 -1 19714 -1342210178 -1 -1 -1 1073741823 -1 -11 486309365</internalNodes>
      <leafValues>
        -2.7677223086357117e-01 2.7677223086357117e-01</leafValues></_>
    <_>
      <internalNodes>
        0 -1 15169 -268435458 -285278209 -1 -16842754 -129 -1 -9
        2147418101</internalNodes>
      <leafValues>
        2.4801009893417358e-01 -2.4801009893417358e-01</leafValues></_>
    <_>
      <internalNodes>
        0 -1 13755 2147418110 -1 -1 -1 -1 -1 -3 980844543</internalNodes>
      <leafValues>
        -3.1426003575325012e-01 3.1426003575325012e-01</leafValues></_>
    <_>
      <internalNodes>
        0 -1 14373 1877995120 720797630 -65922 116064116 -16883935
        -856162305 -1358971072 7876082</internalNodes>
      <leafValues>
        -2.4285934865474701e-01 2.4285934865474701e-01</leafValues></_>
    <_>
      <internalNodes>
        0 -1 15600 -1073741825 -1073741825 -1 -1 2147450751 -1 -1 -1</internalNodes>
      <leafValues>
        -3.6212041974067688e-01 3.6212041974067688e-01</leafValues></_>
    <_>
      <internalNodes>
        0 -1 177 788426596 1257242622 -1476403282 -1880096785 2139060084
        2013265791 1610579556 1342144503</internalNodes>
      <leafValues>
        -2.2366392612457275e-01 2.2366392612457275e-01</leafValues></_>
    <_>
      <internalNodes>
        0 -1 4277 -2 -1 -2 -1 -1 -1 -1 -1</internalNodes>
      <leafValues>
        -3.6683014035224915e-01 3.6683014035224915e-01</leafValues></_></weakClassifiers></stage17>
</opencv_storage>
