<?xml version="1.0"?>
<opencv_storage>
<stage6>
  <maxWeakCount>17</maxWeakCount>
  <stageThreshold>-3.1672837734222412e+00</stageThreshold>
  <weakClassifiers>
    <_>
      <internalNodes>
        0 -1 17827 -1 -1 -1 -1 -1 -1 -3 -3</internalNodes>
      <leafValues>
        -1.3402880430221558e+00 1.3402880430221558e+00</leafValues></_>
    <_>
      <internalNodes>
        0 -1 11354 -16842754 -65537 -1 -1 -1 -1 -1 -32905</internalNodes>
      <leafValues>
        -7.8333717584609985e-01 7.8333717584609985e-01</leafValues></_>
    <_>
      <internalNodes>
        0 -1 17115 -1 -285212673 -1 -285278209 -129 -1 -139 -16842764</internalNodes>
      <leafValues>
        -6.8550574779510498e-01 6.8550574779510498e-01</leafValues></_>
    <_>
      <internalNodes>
        0 -1 12949 -1 1073741823 -1 1073741823 -1 2147483647 -32769
        1073709055</internalNodes>
      <leafValues>
        -6.6138720512390137e-01 6.6138720512390137e-01</leafValues></_>
    <_>
      <internalNodes>
        0 -1 19736 2147434356 -1 -1 -1 -32779 -1 -3 -32771</internalNodes>
      <leafValues>
        -6.5057688951492310e-01 6.5057688951492310e-01</leafValues></_>
    <_>
      <internalNodes>
        0 -1 19235 -1 -1 -1 -16842754 -32905 -1 -12 -589836</internalNodes>
      <leafValues>
        -6.1160457134246826e-01 6.1160457134246826e-01</leafValues></_>
    <_>
      <internalNodes>
        0 -1 10477 -285278220 -268500994 -1 -65538 -9 -1 -11 2138406772</internalNodes>
      <leafValues>
        -5.7721495628356934e-01 5.7721495628356934e-01</leafValues></_>
    <_>
      <internalNodes>
        0 -1 16485 -1 -285212673 -2 -16777217 -129 -1 -9 -1</internalNodes>
      <leafValues>
        -5.7941555976867676e-01 5.7941555976867676e-01</leafValues></_>
    <_>
      <internalNodes>
        0 -1 3815 -2 -16777217 -1 -285212673 -137 2013265919 -1
        2013265919</internalNodes>
      <leafValues>
        -5.7317566871643066e-01 5.7317566871643066e-01</leafValues></_>
    <_>
      <internalNodes>
        0 -1 17004 805191668 -1359020033 -1 -1073741827 -3 -1 -9
        -1073938444</internalNodes>
      <leafValues>
        -5.4327368736267090e-01 5.4327368736267090e-01</leafValues></_>
    <_>
      <internalNodes>
        0 -1 11586 -1 -1 -2 -1 -9 -1 -2 83886079</internalNodes>
      <leafValues>
        -6.1220794916152954e-01 6.1220794916152954e-01</leafValues></_>
    <_>
      <internalNodes>
        0 -1 5484 1845489386 805302271 1874849510 720334830 2147446647
        1879015423 2013202276 1333157750</internalNodes>
      <leafValues>
        -5.0055539608001709e-01 5.0055539608001709e-01</leafValues></_>
    <_>
      <internalNodes>
        0 -1 18187 -1073741825 -1 -1 -1 -1 -1 -11 -3</internalNodes>
      <leafValues>
        -6.5167242288589478e-01 6.5167242288589478e-01</leafValues></_>
    <_>
      <internalNodes>
        0 -1 12231 775688190 2121449470 -67174402 -1107362050 2134048625
        2121727998 1072889723 1869676410</internalNodes>
      <leafValues>
        -5.7468634843826294e-01 5.7468634843826294e-01</leafValues></_>
    <_>
      <internalNodes>
        0 -1 20000 -1 -1 -1 -1 -1 -1 -11 -131076</internalNodes>
      <leafValues>
        -6.0440593957901001e-01 6.0440593957901001e-01</leafValues></_>
    <_>
      <internalNodes>
        0 -1 10937 -285258108 2130706430 -16777554 -16777218 -34987
        2147483631 2147450740 2147350519</internalNodes>
      <leafValues>
        -5.3107976913452148e-01 5.3107976913452148e-01</leafValues></_>
    <_>
      <internalNodes>
        0 -1 11616 -524290 -1 -2 -1 -268435593 -1 -4 653754367</internalNodes>
      <leafValues>
        -5.7253760099411011e-01 5.7253760099411011e-01</leafValues></_></weakClassifiers></stage6>
</opencv_storage>
