<?xml version="1.0"?>
<opencv_storage>
<stage12>
  <maxWeakCount>91</maxWeakCount>
  <stageThreshold>-2.5087063312530518e+00</stageThreshold>
  <weakClassifiers>
    <_>
      <internalNodes>
        0 -1 9283 2104819556 -196610 -1 -1 -1 -1 -1 -1</internalNodes>
      <leafValues>
        -6.9507086277008057e-01 6.9507086277008057e-01</leafValues></_>
    <_>
      <internalNodes>
        0 -1 19600 -32906 -268435457 -1 -16777217 -139 -1 -140 -16842764</internalNodes>
      <leafValues>
        -5.5877029895782471e-01 5.5877029895782471e-01</leafValues></_>
    <_>
      <internalNodes>
        0 -1 16620 -65540 -65540 -1 -65539 -3 -1 -1 -3</internalNodes>
      <leafValues>
        -5.3105729818344116e-01 5.3105729818344116e-01</leafValues></_>
    <_>
      <internalNodes>
        0 -1 13665 2147430398 2147463167 -32769 1878994943 1073709055 -1
        1610569599 134023155</internalNodes>
      <leafValues>
        -5.4015564918518066e-01 5.4015564918518066e-01</leafValues></_>
    <_>
      <internalNodes>
        0 -1 19462 -222 -1 -65 -1073741825 -201 -1 -65 -1073741825</internalNodes>
      <leafValues>
        -5.0708585977554321e-01 5.0708585977554321e-01</leafValues></_>
    <_>
      <internalNodes>
        0 -1 17484 -66 -1342177281 -1 -1073741825 -1 -1 -1 938999807</internalNodes>
      <leafValues>
        -4.2181986570358276e-01 4.2181986570358276e-01</leafValues></_>
    <_>
      <internalNodes>
        0 -1 10999 -210 -1 -18 -1 -137 -1 -137 -1</internalNodes>
      <leafValues>
        -4.2038750648498535e-01 4.2038750648498535e-01</leafValues></_>
    <_>
      <internalNodes>
        0 -1 16570 -4 -1 -1 -1 -1 -1 -1 788496383</internalNodes>
      <leafValues>
        -3.8896226882934570e-01 3.8896226882934570e-01</leafValues></_>
    <_>
      <internalNodes>
        0 -1 491 -268439570 -285212673 -258 788463359 2147450743
        2147483647 -2187 2013265919</internalNodes>
      <leafValues>
        -3.7839585542678833e-01 3.7839585542678833e-01</leafValues></_>
    <_>
      <internalNodes>
        0 -1 11365 -4113 2147483647 -2 -1 -1 2147483647 -1 -1</internalNodes>
      <leafValues>
        -3.4676152467727661e-01 3.4676152467727661e-01</leafValues></_>
    <_>
      <internalNodes>
        0 -1 12522 -1 -1 -1 -1 -1 -1 -1 2147418109</internalNodes>
      <leafValues>
        3.7407791614532471e-01 -3.7407791614532471e-01</leafValues></_>
    <_>
      <internalNodes>
        0 -1 14094 -81 -1 -1 -1 2147450879 2147483647 -1 -1</internalNodes>
      <leafValues>
        -3.6498379707336426e-01 3.6498379707336426e-01</leafValues></_>
    <_>
      <internalNodes>
        0 -1 1169 -402 -16777217 -258 587136766 -139 -1 -139 1962409983</internalNodes>
      <leafValues>
        -3.2379305362701416e-01 3.2379305362701416e-01</leafValues></_>
    <_>
      <internalNodes>
        0 -1 7718 -65538 -16842753 -1 1056899070 -1 -1 -1 1996488700</internalNodes>
      <leafValues>
        -3.0767953395843506e-01 3.0767953395843506e-01</leafValues></_>
    <_>
      <internalNodes>
        0 -1 19462 -1073791198 -268435457 -2 -1073741825 -32969
        2147483647 -137 1073741823</internalNodes>
      <leafValues>
        2.3246015608310699e-01 -2.3246015608310699e-01</leafValues></_>
    <_>
      <internalNodes>
        0 -1 19982 805220348 -65540 -1 -65539 -3 -1 -1073774595
        486301044</internalNodes>
      <leafValues>
        -3.5610839724540710e-01 3.5610839724540710e-01</leafValues></_>
    <_>
      <internalNodes>
        0 -1 16340 2147479534 -1 -1 -1 2147450879 -1 -1 -1</internalNodes>
      <leafValues>
        -3.1961593031883240e-01 3.1961593031883240e-01</leafValues></_>
    <_>
      <internalNodes>
        0 -1 1544 -1073774593 -1 -1 -1 -1 -1 -1 1073643517</internalNodes>
      <leafValues>
        3.1919389963150024e-01 -3.1919389963150024e-01</leafValues></_>
    <_>
      <internalNodes>
        0 -1 13182 -18 -1 -2 -1 2147483647 2147483647 -1 -1</internalNodes>
      <leafValues>
        -2.7626645565032959e-01 2.7626645565032959e-01</leafValues></_>
    <_>
      <internalNodes>
        0 -1 14912 -268533772 -65538 -65540 -65537 -32908 -1 -32779
        1039941620</internalNodes>
      <leafValues>
        -3.3146297931671143e-01 3.3146297931671143e-01</leafValues></_>
    <_>
      <internalNodes>
        0 -1 6536 -268435458 -285278209 -1 -1 -1 -1 -9 -1</internalNodes>
      <leafValues>
        -2.8009822964668274e-01 2.8009822964668274e-01</leafValues></_>
    <_>
      <internalNodes>
        0 -1 20533 -1346486276 -1073807363 -1 -1073807362 -3 -268435457
        2147450365 477912564</internalNodes>
      <leafValues>
        -3.1187301874160767e-01 3.1187301874160767e-01</leafValues></_>
    <_>
      <internalNodes>
        0 -1 17136 -65540 -65537 -1 -1 -1 -1 -1 -1073741825</internalNodes>
      <leafValues>
        -2.8613811731338501e-01 2.8613811731338501e-01</leafValues></_>
    <_>
      <internalNodes>
        0 -1 6289 -268440050 788463599 -18 1659830266 2147450694
        1971322751 -4236 1450704886</internalNodes>
      <leafValues>
        -3.3310267329216003e-01 3.3310267329216003e-01</leafValues></_>
    <_>
      <internalNodes>
        0 -1 17107 -2 -1 -2 -2 -1 -1 -1 2147483647</internalNodes>
      <leafValues>
        -2.8290161490440369e-01 2.8290161490440369e-01</leafValues></_>
    <_>
      <internalNodes>
        0 -1 4651 -18 -268435457 -18 -285212673 -129 2147483647 -137
        2147483647</internalNodes>
      <leafValues>
        2.8084275126457214e-01 -2.8084275126457214e-01</leafValues></_>
    <_>
      <internalNodes>
        0 -1 13211 805208060 -1342177281 -1 -1 -1 -1 -1 2147483647</internalNodes>
      <leafValues>
        2.6123923063278198e-01 -2.6123923063278198e-01</leafValues></_>
    <_>
      <internalNodes>
        0 -1 12005 -1090584580 -65537 -1 -65537 -1 -1 -1 -196612</internalNodes>
      <leafValues>
        -2.7649542689323425e-01 2.7649542689323425e-01</leafValues></_>
    <_>
      <internalNodes>
        0 -1 9789 -285315488 787415038 -18 1727987711 1870626628
        1736441727 -32937 1165492087</internalNodes>
      <leafValues>
        -2.8176909685134888e-01 2.8176909685134888e-01</leafValues></_>
    <_>
      <internalNodes>
        0 -1 12461 -2 -65537 -2 -1 -1 -1 -1 -1</internalNodes>
      <leafValues>
        -2.7669540047645569e-01 2.7669540047645569e-01</leafValues></_>
    <_>
      <internalNodes>
        0 -1 15875 -1090633988 -65537 -1 -1073741825 -1 -1 -1 805191676</internalNodes>
      <leafValues>
        -2.7823796868324280e-01 2.7823796868324280e-01</leafValues></_>
    <_>
      <internalNodes>
        0 -1 19672 -224 -419430417 -30 -1526726658 -153 1744830463
        1979676532 1425539063</internalNodes>
      <leafValues>
        -3.0192339420318604e-01 3.0192339420318604e-01</leafValues></_>
    <_>
      <internalNodes>
        0 -1 9336 -18 1073741823 -1 -1 -1 -1 -1 -1</internalNodes>
      <leafValues>
        -3.0018001794815063e-01 3.0018001794815063e-01</leafValues></_>
    <_>
      <internalNodes>
        0 -1 9283 1073020916 -65537 -1 -65537 -1 -1 -1 2147418111</internalNodes>
      <leafValues>
        1.9266946613788605e-01 -1.9266946613788605e-01</leafValues></_>
    <_>
      <internalNodes>
        0 -1 11572 -16974168 -319881346 -16879708 -1427193858 2012624724
        1862139903 1711240960 610598656</internalNodes>
      <leafValues>
        -2.9647049307823181e-01 2.9647049307823181e-01</leafValues></_>
    <_>
      <internalNodes>
        0 -1 20925 -1 -1 -1 -1 -129 -1 -1 -1</internalNodes>
      <leafValues>
        -2.8782582283020020e-01 2.8782582283020020e-01</leafValues></_>
    <_>
      <internalNodes>
        0 -1 4616 -18 -268435457 -1 -285212673 -129 -1 -137 2147483647</internalNodes>
      <leafValues>
        2.6710310578346252e-01 -2.6710310578346252e-01</leafValues></_>
    <_>
      <internalNodes>
        0 -1 3662 -32898 -16777217 -1 2130640895 -129 2147483647 -3
        1962934271</internalNodes>
      <leafValues>
        -2.4304252862930298e-01 2.4304252862930298e-01</leafValues></_>
    <_>
      <internalNodes>
        0 -1 9952 729681064 687763118 -8194 548843195 2147483424 -851969
        1073692456 36310560</internalNodes>
      <leafValues>
        -2.8994283080101013e-01 2.8994283080101013e-01</leafValues></_>
    <_>
      <internalNodes>
        0 -1 15247 -2 -65537 -1 -65537 -11 -1 -3 -1</internalNodes>
      <leafValues>
        -2.8819599747657776e-01 2.8819599747657776e-01</leafValues></_>
    <_>
      <internalNodes>
        0 -1 12550 788430782 -1359020033 -2 -285278210 2147450743
        2147483647 -139 1718910836</internalNodes>
      <leafValues>
        2.1899926662445068e-01 -2.1899926662445068e-01</leafValues></_>
    <_>
      <internalNodes>
        0 -1 15316 1052649984 2087600106 788459502 784232446 1342115590
        1879015197 1048542996 343687037</internalNodes>
      <leafValues>
        -3.1651017069816589e-01 3.1651017069816589e-01</leafValues></_>
    <_>
      <internalNodes>
        0 -1 15006 -2 -1 -1 -1 -3 -1 -1 268435453</internalNodes>
      <leafValues>
        -2.9197910428047180e-01 2.9197910428047180e-01</leafValues></_>
    <_>
      <internalNodes>
        0 -1 7603 -16842754 -16842754 -2 -285278209 -32908 2147483647 -2
        2012741623</internalNodes>
      <leafValues>
        -2.5723692774772644e-01 2.5723692774772644e-01</leafValues></_>
    <_>
      <internalNodes>
        0 -1 2635 -17 -268435457 -2 -285212673 -129 2147483647 -9
        2013265919</internalNodes>
      <leafValues>
        2.6548260450363159e-01 -2.6548260450363159e-01</leafValues></_>
    <_>
      <internalNodes>
        0 -1 200 -268435458 -285212673 -2 -1090519041 -137 2147483647
        -139 1979711479</internalNodes>
      <leafValues>
        -2.4957264959812164e-01 2.4957264959812164e-01</leafValues></_>
    <_>
      <internalNodes>
        0 -1 13168 805273598 -1342177281 -1 -285212673 -1 -1 -1
        2147483647</internalNodes>
      <leafValues>
        2.2016739845275879e-01 -2.2016739845275879e-01</leafValues></_>
    <_>
      <internalNodes>
        0 -1 12430 -18 -268435457 -1 -1 -1 -1 -9 -134217729</internalNodes>
      <leafValues>
        -2.2035963833332062e-01 2.2035963833332062e-01</leafValues></_>
    <_>
      <internalNodes>
        0 -1 16208 -1 -1 -1 -1 -129 -1 -137 2147483647</internalNodes>
      <leafValues>
        2.5523805618286133e-01 -2.5523805618286133e-01</leafValues></_>
    <_>
      <internalNodes>
        0 -1 9931 -1073807362 -65537 -1 -1 -1 -1 -1 -1</internalNodes>
      <leafValues>
        -2.4039813876152039e-01 2.4039813876152039e-01</leafValues></_>
    <_>
      <internalNodes>
        0 -1 18816 800735220 1073676284 -1073741827 -1073807364
        -1073840139 -1107296257 1073119100 749739316</internalNodes>
      <leafValues>
        -2.9556629061698914e-01 2.9556629061698914e-01</leafValues></_>
    <_>
      <internalNodes>
        0 -1 11414 -4113 -1 -1 -1 -1 2147483647 -1 -1</internalNodes>
      <leafValues>
        -2.7999198436737061e-01 2.7999198436737061e-01</leafValues></_>
    <_>
      <internalNodes>
        0 -1 20990 -18 -268435457 -2 -16777217 -139 2147483647
        2147483509 2012741623</internalNodes>
      <leafValues>
        -2.4693027138710022e-01 2.4693027138710022e-01</leafValues></_>
    <_>
      <internalNodes>
        0 -1 17192 -18 -268435457 -2 -16777217 -129 2147483647 -140
        2147483647</internalNodes>
      <leafValues>
        2.2594986855983734e-01 -2.2594986855983734e-01</leafValues></_>
    <_>
      <internalNodes>
        0 -1 20955 -268435666 1862270975 -2 -285278209 2147450743
        2147483647 -139 2004877303</internalNodes>
      <leafValues>
        -2.4597017467021942e-01 2.4597017467021942e-01</leafValues></_>
    <_>
      <internalNodes>
        0 -1 8055 -53250 -1 -1 -1 -32769 -1 -32769 1056931839</internalNodes>
      <leafValues>
        -2.4524468183517456e-01 2.4524468183517456e-01</leafValues></_>
    <_>
      <internalNodes>
        0 -1 13135 788409888 -1342177281 -2 -1 -137 -1 -9 2147483639</internalNodes>
      <leafValues>
        2.0078001916408539e-01 -2.0078001916408539e-01</leafValues></_>
    <_>
      <internalNodes>
        0 -1 13259 -1430327808 250540030 -16842908 -1964048386
        2138044277 1207959551 -134381711 1182027638</internalNodes>
      <leafValues>
        -2.8238016366958618e-01 2.8238016366958618e-01</leafValues></_>
    <_>
      <internalNodes>
        0 -1 7705 -1 -268435457 -1 -1 -129 -1 -1 -1</internalNodes>
      <leafValues>
        -2.7477613091468811e-01 2.7477613091468811e-01</leafValues></_>
    <_>
      <internalNodes>
        0 -1 6384 -18 -1 -18 -16777218 -129 -1 -137 2013265919</internalNodes>
      <leafValues>
        -2.4085736274719238e-01 2.4085736274719238e-01</leafValues></_>
    <_>
      <internalNodes>
        0 -1 14515 1006437538 -4097 -1 1073704958 -1073790985 -1
        536838012 905647472</internalNodes>
      <leafValues>
        -2.5923612713813782e-01 2.5923612713813782e-01</leafValues></_>
    <_>
      <internalNodes>
        0 -1 13665 805257214 -1 -1 2147483647 2147450879 -1 2147450750
        1073692663</internalNodes>
      <leafValues>
        2.3076879978179932e-01 -2.3076879978179932e-01</leafValues></_>
    <_>
      <internalNodes>
        0 -1 17040 1879044078 -16777217 -2 -1 -32769 -1 -2 -134217729</internalNodes>
      <leafValues>
        -2.6229843497276306e-01 2.6229843497276306e-01</leafValues></_>
    <_>
      <internalNodes>
        0 -1 11843 -268435474 -285212673 -2 -285278209 -32897 2147483647
        -9 2013265919</internalNodes>
      <leafValues>
        2.3476725816726685e-01 -2.3476725816726685e-01</leafValues></_>
    <_>
      <internalNodes>
        0 -1 9113 -1342177282 -285212673 -1 -285278209 -1 -1 -3
        620003189</internalNodes>
      <leafValues>
        1.9923417270183563e-01 -1.9923417270183563e-01</leafValues></_>
    <_>
      <internalNodes>
        0 -1 13009 79627816 511094718 -151048282 1073688235 134154231
        1476329471 939468144 918433761</internalNodes>
      <leafValues>
        -2.6994955539703369e-01 2.6994955539703369e-01</leafValues></_>
    <_>
      <internalNodes>
        0 -1 15801 -65538 -1 -1 -1 -1 -1 -1 -1</internalNodes>
      <leafValues>
        -2.8197616338729858e-01 2.8197616338729858e-01</leafValues></_>
    <_>
      <internalNodes>
        0 -1 317 -285233242 -286326802 -2 788463590 2013232503
        1173880831 2147448694 1954021365</internalNodes>
      <leafValues>
        -2.9016780853271484e-01 2.9016780853271484e-01</leafValues></_>
    <_>
      <internalNodes>
        0 -1 17879 -1 -1 -1 -1 -1 -1 -1 -1073741825</internalNodes>
      <leafValues>
        -2.4268969893455505e-01 2.4268969893455505e-01</leafValues></_>
    <_>
      <internalNodes>
        0 -1 8346 788148016 -1073856516 -65537 1073151996 -1073971204 -1
        -229388 586177588</internalNodes>
      <leafValues>
        -2.7724021673202515e-01 2.7724021673202515e-01</leafValues></_>
    <_>
      <internalNodes>
        0 -1 13499 -2 -1 -1 -1 -1 -1 -1 1073709055</internalNodes>
      <leafValues>
        -2.7562001347541809e-01 2.7562001347541809e-01</leafValues></_>
    <_>
      <internalNodes>
        0 -1 5519 805208060 -1342242817 -1 -1090584577 -129 -1 -1
        1073512436</internalNodes>
      <leafValues>
        2.3531535267829895e-01 -2.3531535267829895e-01</leafValues></_>
    <_>
      <internalNodes>
        0 -1 7117 785317440 -1694564354 -68223266 40173564 -25723052
        2146959359 2004178240 1561624341</internalNodes>
      <leafValues>
        -2.7107578516006470e-01 2.7107578516006470e-01</leafValues></_>
    <_>
      <internalNodes>
        0 -1 14644 -65540 -1 -1 -1 -1 -1 -1 -1</internalNodes>
      <leafValues>
        -2.5527110695838928e-01 2.5527110695838928e-01</leafValues></_>
    <_>
      <internalNodes>
        0 -1 19332 -1094816396 -65538 -1 -1073807361 -32908 -1 -4
        1073512308</internalNodes>
      <leafValues>
        -2.5593283772468567e-01 2.5593283772468567e-01</leafValues></_>
    <_>
      <internalNodes>
        0 -1 13365 -18 -1 -1 -1 -1 -1 -9 -1</internalNodes>
      <leafValues>
        -2.5071066617965698e-01 2.5071066617965698e-01</leafValues></_>
    <_>
      <internalNodes>
        0 -1 17287 -1493299712 1056862006 -285217092 1056898684
        2139032644 1155398988 1157369348 74479444</internalNodes>
      <leafValues>
        -2.7104470133781433e-01 2.7104470133781433e-01</leafValues></_>
    <_>
      <internalNodes>
        0 -1 1460 -1 -268435457 -1 -1 -1 -1 -9 -1</internalNodes>
      <leafValues>
        -2.7737531065940857e-01 2.7737531065940857e-01</leafValues></_>
    <_>
      <internalNodes>
        0 -1 19655 -1073741828 -1 -1 -1 -1 -1 -11 1073512436</internalNodes>
      <leafValues>
        2.4308486282825470e-01 -2.4308486282825470e-01</leafValues></_>
    <_>
      <internalNodes>
        0 -1 16294 -196612 -1 -1 -1 -1 -1 -1 2147287037</internalNodes>
      <leafValues>
        2.2827322781085968e-01 -2.2827322781085968e-01</leafValues></_>
    <_>
      <internalNodes>
        0 -1 18015 -65540 -1 -1 -1 -1 -1 -1 788299765</internalNodes>
      <leafValues>
        -2.3491190373897552e-01 2.3491190373897552e-01</leafValues></_>
    <_>
      <internalNodes>
        0 -1 3915 -822213118 1659780862 -268505374 551726798 1476362052
        1953988477 2147442452 342220773</internalNodes>
      <leafValues>
        -2.3847036063671112e-01 2.3847036063671112e-01</leafValues></_>
    <_>
      <internalNodes>
        0 -1 11856 -32770 -1 -1 -1 -1 -1 -1 -65537</internalNodes>
      <leafValues>
        -2.8172287344932556e-01 2.8172287344932556e-01</leafValues></_>
    <_>
      <internalNodes>
        0 -1 778 -17 -268435457 -1 -285212673 -1 2147483647 -1
        2147483647</internalNodes>
      <leafValues>
        2.0140075683593750e-01 -2.0140075683593750e-01</leafValues></_>
    <_>
      <internalNodes>
        0 -1 11791 -2 -285212673 -2 -285278209 -129 2147483647 -137
        2013265919</internalNodes>
      <leafValues>
        2.3333401978015900e-01 -2.3333401978015900e-01</leafValues></_>
    <_>
      <internalNodes>
        0 -1 12790 -17 -268435457 -1 -16777217 -129 -1 -1 -1</internalNodes>
      <leafValues>
        -2.0873995125293732e-01 2.0873995125293732e-01</leafValues></_>
    <_>
      <internalNodes>
        0 -1 14723 134233088 1153761140 -1092321444 148307956 1593210672
        2111111167 2012512080 259270229</internalNodes>
      <leafValues>
        -2.7659982442855835e-01 2.7659982442855835e-01</leafValues></_>
    <_>
      <internalNodes>
        0 -1 12530 -2 -1 -1 -1 -1 -1 -1 -1</internalNodes>
      <leafValues>
        -2.7044782042503357e-01 2.7044782042503357e-01</leafValues></_>
    <_>
      <internalNodes>
        0 -1 18697 788410232 -1359020033 -2 1056899070 -32908 -1 -140
        1048477556</internalNodes>
      <leafValues>
        -2.5839319825172424e-01 2.5839319825172424e-01</leafValues></_>
    <_>
      <internalNodes>
        0 -1 12472 -18 -1 -1 -1 -1 -1 -9 -134217729</internalNodes>
      <leafValues>
        -2.1276515722274780e-01 2.1276515722274780e-01</leafValues></_>
    <_>
      <internalNodes>
        0 -1 1699 552870400 -1560346642 -1359020190 -1359024130
        2012542816 -940048393 2138554180 1198890998</internalNodes>
      <leafValues>
        -2.6232856512069702e-01 2.6232856512069702e-01</leafValues></_></weakClassifiers></stage12>
</opencv_storage>
