<?xml version="1.0"?>
<opencv_storage>
<stage19>
  <maxWeakCount>12</maxWeakCount>
  <stageThreshold>-1.8273994922637939e+00</stageThreshold>
  <weakClassifiers>
    <_>
      <internalNodes>
        0 -1 13390 -682305076 -170191791 -1047440903 -538095359
        -46093668 -218615641 -1962830936 -1150555382</internalNodes>
      <leafValues>
        -6.6713190078735352e-01 -9.3587525188922882e-02</leafValues></_>
    <_>
      <internalNodes>
        0 -1 17115 1527746655 1056351643 -795323201 -322771482 -49580969
        -1715224277 -153626512 -84215040</internalNodes>
      <leafValues>
        -5.1913899183273315e-01 1.7266871035099030e-01</leafValues></_>
    <_>
      <internalNodes>
        0 -1 10675 -107159449 1813134398 1350686844 42280539 -639594222
        -1091213226 -888547233 1894639451</internalNodes>
      <leafValues>
        -5.2906066179275513e-01 2.0032632350921631e-01</leafValues></_>
    <_>
      <internalNodes>
        0 -1 14410 1814582728 1996426750 -268959873 902762237 -822243698
        -1233182881 -1879126102 721555118</internalNodes>
      <leafValues>
        -3.4411585330963135e-01 3.8137483596801758e-01</leafValues></_>
    <_>
      <internalNodes>
        0 -1 18861 1853818383 -2961188 -1795041025 -761488773 1753419088
        -243228632 -662181040 1930668131</internalNodes>
      <leafValues>
        -5.3103494644165039e-01 2.1417362987995148e-01</leafValues></_>
    <_>
      <internalNodes>
        0 -1 18842 1100067293 -1996381757 -1861626473 1528171634
        -1148604257 -99577133 -1115462255 1307089352</internalNodes>
      <leafValues>
        -4.1687366366386414e-01 2.9030171036720276e-01</leafValues></_>
    <_>
      <internalNodes>
        0 -1 12520 -59323888 -1207998601 -17928193 -537944952 -826481008
        -894140580 -22010436 -1693773314</internalNodes>
      <leafValues>
        -3.1627339124679565e-01 3.9967119693756104e-01</leafValues></_>
    <_>
      <internalNodes>
        0 -1 11081 -265305393 -800087894 831064095 -893337330 -206354181
        1998695043 -1841176041 1845854979</internalNodes>
      <leafValues>
        -3.8762691617012024e-01 3.1902742385864258e-01</leafValues></_>
    <_>
      <internalNodes>
        0 -1 9955 -430084394 1402598226 269390209 1368097169 1895899106
        715999401 139297342 1502523290</internalNodes>
      <leafValues>
        -4.2546203732490540e-01 3.1337362527847290e-01</leafValues></_>
    <_>
      <internalNodes>
        0 -1 15559 -45756126 -250232791 1171342725 -1382166137 487604650
        1504706696 -243197779 1372243140</internalNodes>
      <leafValues>
        -4.1358399391174316e-01 3.1244423985481262e-01</leafValues></_>
    <_>
      <internalNodes>
        0 -1 15050 -351163478 -1828797560 419431640 -2064980822
        -1574852432 35719244 -1283323744 18083903</internalNodes>
      <leafValues>
        -5.5345326662063599e-01 2.2873473167419434e-01</leafValues></_>
    <_>
      <internalNodes>
        0 -1 14550 -1499841735 1187701026 -787146681 700764749 613068624
        -838303679 -1278627550 -310839</internalNodes>
      <leafValues>
        -4.3233025074005127e-01 3.1291833519935608e-01</leafValues></_></weakClassifiers></stage19>
</opencv_storage>
