<?xml version="1.0"?>
<opencv_storage>
<stage10>
  <maxWeakCount>20</maxWeakCount>
  <stageThreshold>-3.3557894229888916e+00</stageThreshold>
  <weakClassifiers>
    <_>
      <internalNodes>
        0 -1 9018 -21761 -35803185 -719871913 -537025941 -221727813
        -70223395 -233758093 -272686437</internalNodes>
      <leafValues>
        -9.1028445959091187e-01 7.4923735857009888e-01</leafValues></_>
    <_>
      <internalNodes>
        0 -1 20726 -67109901 -137461558 1896469109 -547684897
        -1416693829 -2000427822 455070165 -639642204</internalNodes>
      <leafValues>
        -8.0117082595825195e-01 7.9666203260421753e-01</leafValues></_>
    <_>
      <internalNodes>
        0 -1 13746 -923275433 -317697 -268570633 -525605365 -16797781
        -1090523187 -184551473 -894499325</internalNodes>
      <leafValues>
        -5.8977383375167847e-01 9.4164955615997314e-01</leafValues></_>
    <_>
      <internalNodes>
        0 -1 19185 -543171497 -1436241154 -116060742 1751039474
        -203441883 -74335871 -366216640 -486738956</internalNodes>
      <leafValues>
        -1.0178619623184204e+00 4.9767532944679260e-01</leafValues></_>
    <_>
      <internalNodes>
        0 -1 10648 -69220633 -379338001 -448760845 2598651 1967786816
        -871153082 -116658609 1211091547</internalNodes>
      <leafValues>
        -8.9771866798400879e-01 5.8179634809494019e-01</leafValues></_>
    <_>
      <internalNodes>
        0 -1 15588 1296353220 288680536 -1340032515 -74382598 1369464302
        2028487343 -1429690129 -1147438421</internalNodes>
      <leafValues>
        -1.0007187128067017e+00 4.6987551450729370e-01</leafValues></_>
    <_>
      <internalNodes>
        0 -1 20896 -146583787 -141581309 -1794981565 -111025261
        1724851104 -1978080759 -628204631 -1055745</internalNodes>
      <leafValues>
        -7.3038190603256226e-01 6.9623285531997681e-01</leafValues></_>
    <_>
      <internalNodes>
        0 -1 18574 -960437068 -1718614896 -245315693 530200016
        -1161258755 -1164724193 -1886718977 -1415559862</internalNodes>
      <leafValues>
        -7.2458493709564209e-01 6.5816289186477661e-01</leafValues></_>
    <_>
      <internalNodes>
        0 -1 15135 -154659344 -543024196 -1074380801 -570740771
        -1088247886 -6356996 -272778242 -1892024072</internalNodes>
      <leafValues>
        -6.1283844709396362e-01 7.6349061727523804e-01</leafValues></_>
    <_>
      <internalNodes>
        0 -1 17244 -1581775 -664631216 -2125344548 -102055522
        -1182149899 -1147952989 -130453391 -923156332</internalNodes>
      <leafValues>
        -8.0099630355834961e-01 5.0708228349685669e-01</leafValues></_>
    <_>
      <internalNodes>
        0 -1 7492 -1619089874 -669071798 -937916412 542354642 1884563009
        1142035096 1485269540 1615708939</internalNodes>
      <leafValues>
        -1.0501924753189087e+00 3.8895997405052185e-01</leafValues></_>
    <_>
      <internalNodes>
        0 -1 11463 -595625936 1391493850 -392949644 -579743596
        -1861970434 -289273677 1896644438 299858859</internalNodes>
      <leafValues>
        -8.5391765832901001e-01 4.4571450352668762e-01</leafValues></_>
    <_>
      <internalNodes>
        0 -1 7919 -756818433 -301563701 325508550 784769416 -293231179
        -129819518 1527290269 -12460345</internalNodes>
      <leafValues>
        -6.1067533493041992e-01 6.5389531850814819e-01</leafValues></_>
    <_>
      <internalNodes>
        0 -1 14650 2116276195 2141645711 -545423873 -555319482
        -149602373 -337019278 -34078786 -895335936</internalNodes>
      <leafValues>
        -5.8803558349609375e-01 6.5458446741104126e-01</leafValues></_>
    <_>
      <internalNodes>
        0 -1 19238 -1282932741 1992655169 -1588637520 -2096754222
        1259472215 -1957557749 1749345488 -74648589</internalNodes>
      <leafValues>
        -7.4904781579971313e-01 5.5456846952438354e-01</leafValues></_>
    <_>
      <internalNodes>
        0 -1 11263 -179442391 387315057 -804937286 724628509 1384139695
        2031108249 1003725194 -98578302</internalNodes>
      <leafValues>
        -5.9932714700698853e-01 6.2938117980957031e-01</leafValues></_>
    <_>
      <internalNodes>
        0 -1 8756 -827863461 2147422194 -1607534865 -1594890627
        -833103356 1819768415 -671940865 -234893825</internalNodes>
      <leafValues>
        -5.6579273939132690e-01 6.6200035810470581e-01</leafValues></_>
    <_>
      <internalNodes>
        0 -1 13225 1886413314 -749708939 -1432329164 -1326189932
        1082487279 1629526112 -75419201 -2134164504</internalNodes>
      <leafValues>
        -8.5260182619094849e-01 4.2322608828544617e-01</leafValues></_>
    <_>
      <internalNodes>
        0 -1 18847 -1598290914 -1714860919 1499515349 -1520495655
        -1157498634 -880656225 80292319 -1920036676</internalNodes>
      <leafValues>
        -6.3170403242111206e-01 5.9710013866424561e-01</leafValues></_>
    <_>
      <internalNodes>
        0 -1 12208 -623549824 -262139815 75546846 1342469026 2063751219
        -629079915 -83533234 -98508246</internalNodes>
      <leafValues>
        -6.0643732547760010e-01 5.5159252882003784e-01</leafValues></_></weakClassifiers></stage10>
</opencv_storage>
