<?xml version="1.0"?>
<opencv_storage>
<stage2>
  <maxWeakCount>15</maxWeakCount>
  <stageThreshold>-3.2461867332458496e+00</stageThreshold>
  <weakClassifiers>
    <_>
      <internalNodes>
        0 -1 41672 -3.0761908739805222e-02</internalNodes>
      <leafValues>
        1.0700467824935913e+00 -1.0700467824935913e+00</leafValues></_>
    <_>
      <internalNodes>
        0 -1 31271 2.5535585358738899e-02</internalNodes>
      <leafValues>
        -8.9797163009643555e-01 8.9797163009643555e-01</leafValues></_>
    <_>
      <internalNodes>
        0 -1 75266 -5.0515662878751755e-03</internalNodes>
      <leafValues>
        9.2305898666381836e-01 -9.2305898666381836e-01</leafValues></_>
    <_>
      <internalNodes>
        0 -1 49098 3.1581320799887180e-03</internalNodes>
      <leafValues>
        -6.9620180130004883e-01 6.9620180130004883e-01</leafValues></_>
    <_>
      <internalNodes>
        0 -1 59924 1.8534797709435225e-04</internalNodes>
      <leafValues>
        -7.6781940460205078e-01 7.6781940460205078e-01</leafValues></_>
    <_>
      <internalNodes>
        0 -1 8622 -2.0679220557212830e-01</internalNodes>
      <leafValues>
        8.1069898605346680e-01 -8.1069898605346680e-01</leafValues></_>
    <_>
      <internalNodes>
        0 -1 76584 -1.9506636817823164e-05</internalNodes>
      <leafValues>
        7.3335927724838257e-01 -7.3335927724838257e-01</leafValues></_>
    <_>
      <internalNodes>
        0 -1 76741 -3.2737327273935080e-03</internalNodes>
      <leafValues>
        -5.7100260257720947e-01 5.7100260257720947e-01</leafValues></_>
    <_>
      <internalNodes>
        0 -1 54468 2.7460488490760326e-03</internalNodes>
      <leafValues>
        -6.4749914407730103e-01 6.4749914407730103e-01</leafValues></_>
    <_>
      <internalNodes>
        0 -1 77568 -1.4637146705354098e-05</internalNodes>
      <leafValues>
        5.7870876789093018e-01 -5.7870876789093018e-01</leafValues></_>
    <_>
      <internalNodes>
        0 -1 38417 2.9069591313600540e-02</internalNodes>
      <leafValues>
        5.0002098083496094e-01 -5.0002098083496094e-01</leafValues></_>
    <_>
      <internalNodes>
        0 -1 53921 3.5209534689784050e-03</internalNodes>
      <leafValues>
        -6.3213264942169189e-01 6.3213264942169189e-01</leafValues></_>
    <_>
      <internalNodes>
        0 -1 77461 8.8651623809710145e-04</internalNodes>
      <leafValues>
        5.6740599870681763e-01 -5.6740599870681763e-01</leafValues></_>
    <_>
      <internalNodes>
        0 -1 11520 2.3707056045532227e-01</internalNodes>
      <leafValues>
        -6.7267280817031860e-01 6.7267280817031860e-01</leafValues></_>
    <_>
      <internalNodes>
        0 -1 76707 -4.8831282183527946e-03</internalNodes>
      <leafValues>
        -5.7611417770385742e-01 5.7611417770385742e-01</leafValues></_></weakClassifiers></stage2>
</opencv_storage>
