<?xml version="1.0"?>
<opencv_storage>
<stage10>
  <maxWeakCount>46</maxWeakCount>
  <stageThreshold>-2.7562303543090820e+00</stageThreshold>
  <weakClassifiers>
    <_>
      <internalNodes>
        0 -1 47254 6.3823130913078785e-03</internalNodes>
      <leafValues>
        -6.7886567115783691e-01 6.7886567115783691e-01</leafValues></_>
    <_>
      <internalNodes>
        0 -1 61628 8.6671812459826469e-04</internalNodes>
      <leafValues>
        -5.4787319898605347e-01 5.4787319898605347e-01</leafValues></_>
    <_>
      <internalNodes>
        0 -1 73459 4.2883073911070824e-03</internalNodes>
      <leafValues>
        -4.8206403851509094e-01 4.8206403851509094e-01</leafValues></_>
    <_>
      <internalNodes>
        0 -1 63501 -6.9576767273247242e-03</internalNodes>
      <leafValues>
        4.5504236221313477e-01 -4.5504236221313477e-01</leafValues></_>
    <_>
      <internalNodes>
        0 -1 51996 1.6831379616633058e-03</internalNodes>
      <leafValues>
        -4.3527057766914368e-01 4.3527057766914368e-01</leafValues></_>
    <_>
      <internalNodes>
        0 -1 74950 -1.0326046030968428e-03</internalNodes>
      <leafValues>
        -4.0179699659347534e-01 4.0179699659347534e-01</leafValues></_>
    <_>
      <internalNodes>
        0 -1 485 4.7038167715072632e-01</internalNodes>
      <leafValues>
        -4.4267734885215759e-01 4.4267734885215759e-01</leafValues></_>
    <_>
      <internalNodes>
        0 -1 45468 8.8574448600411415e-03</internalNodes>
      <leafValues>
        -4.5630005002021790e-01 4.5630005002021790e-01</leafValues></_>
    <_>
      <internalNodes>
        0 -1 1283 -3.1846684217453003e-01</internalNodes>
      <leafValues>
        4.3103531002998352e-01 -4.3103531002998352e-01</leafValues></_>
    <_>
      <internalNodes>
        0 -1 53518 5.2603696531150490e-05</internalNodes>
      <leafValues>
        -4.3235665559768677e-01 4.3235665559768677e-01</leafValues></_>
    <_>
      <internalNodes>
        0 -1 47599 1.1488309828564525e-03</internalNodes>
      <leafValues>
        -4.0355128049850464e-01 4.0355128049850464e-01</leafValues></_>
    <_>
      <internalNodes>
        0 -1 75054 -9.5551845151931047e-04</internalNodes>
      <leafValues>
        -4.0522798895835876e-01 4.0522798895835876e-01</leafValues></_>
    <_>
      <internalNodes>
        0 -1 31645 3.5525836050510406e-02</internalNodes>
      <leafValues>
        -4.4217196106910706e-01 4.4217196106910706e-01</leafValues></_>
    <_>
      <internalNodes>
        0 -1 70458 -2.4656853638589382e-03</internalNodes>
      <leafValues>
        -4.0359252691268921e-01 4.0359252691268921e-01</leafValues></_>
    <_>
      <internalNodes>
        0 -1 6591 -1.8759113550186157e-01</internalNodes>
      <leafValues>
        3.8166281580924988e-01 -3.8166281580924988e-01</leafValues></_>
    <_>
      <internalNodes>
        0 -1 16696 7.0240408182144165e-02</internalNodes>
      <leafValues>
        -4.1227230429649353e-01 4.1227230429649353e-01</leafValues></_>
    <_>
      <internalNodes>
        0 -1 77699 -4.1953898034989834e-03</internalNodes>
      <leafValues>
        3.4758803248405457e-01 -3.4758803248405457e-01</leafValues></_>
    <_>
      <internalNodes>
        0 -1 49012 3.5847681574523449e-03</internalNodes>
      <leafValues>
        -4.3047302961349487e-01 4.3047302961349487e-01</leafValues></_>
    <_>
      <internalNodes>
        0 -1 75034 1.7988234758377075e-03</internalNodes>
      <leafValues>
        3.3369138836860657e-01 -3.3369138836860657e-01</leafValues></_>
    <_>
      <internalNodes>
        0 -1 47251 1.1276698205620050e-03</internalNodes>
      <leafValues>
        -4.0965804457664490e-01 4.0965804457664490e-01</leafValues></_>
    <_>
      <internalNodes>
        0 -1 74847 -1.0070300195366144e-03</internalNodes>
      <leafValues>
        -3.2861897349357605e-01 3.2861897349357605e-01</leafValues></_>
    <_>
      <internalNodes>
        0 -1 44681 2.4825090076774359e-03</internalNodes>
      <leafValues>
        -4.1090527176856995e-01 4.1090527176856995e-01</leafValues></_>
    <_>
      <internalNodes>
        0 -1 76471 -2.9815547168254852e-04</internalNodes>
      <leafValues>
        -3.5222703218460083e-01 3.5222703218460083e-01</leafValues></_>
    <_>
      <internalNodes>
        0 -1 20536 -5.7282401248812675e-03</internalNodes>
      <leafValues>
        3.8118088245391846e-01 -3.8118088245391846e-01</leafValues></_>
    <_>
      <internalNodes>
        0 -1 76277 -1.5203787370410282e-05</internalNodes>
      <leafValues>
        3.5560840368270874e-01 -3.5560840368270874e-01</leafValues></_>
    <_>
      <internalNodes>
        0 -1 11735 3.2611674396321177e-04</internalNodes>
      <leafValues>
        3.2052475214004517e-01 -3.2052475214004517e-01</leafValues></_>
    <_>
      <internalNodes>
        0 -1 14951 -8.9226119220256805e-02</internalNodes>
      <leafValues>
        4.0663158893585205e-01 -4.0663158893585205e-01</leafValues></_>
    <_>
      <internalNodes>
        0 -1 71085 -1.6927332617342472e-03</internalNodes>
      <leafValues>
        -3.4335857629776001e-01 3.4335857629776001e-01</leafValues></_>
    <_>
      <internalNodes>
        0 -1 21365 3.6875598132610321e-02</internalNodes>
      <leafValues>
        -3.8274577260017395e-01 3.8274577260017395e-01</leafValues></_>
    <_>
      <internalNodes>
        0 -1 62741 2.4440337438136339e-03</internalNodes>
      <leafValues>
        3.4872189164161682e-01 -3.4872189164161682e-01</leafValues></_>
    <_>
      <internalNodes>
        0 -1 29844 -2.3999104276299477e-02</internalNodes>
      <leafValues>
        4.0621817111968994e-01 -4.0621817111968994e-01</leafValues></_>
    <_>
      <internalNodes>
        0 -1 23779 -2.7173082344233990e-03</internalNodes>
      <leafValues>
        3.6960420012474060e-01 -3.6960420012474060e-01</leafValues></_>
    <_>
      <internalNodes>
        0 -1 53206 -1.4142538020678330e-05</internalNodes>
      <leafValues>
        3.4602016210556030e-01 -3.4602016210556030e-01</leafValues></_>
    <_>
      <internalNodes>
        0 -1 49841 5.2563170902431011e-03</internalNodes>
      <leafValues>
        -3.5174450278282166e-01 3.5174450278282166e-01</leafValues></_>
    <_>
      <internalNodes>
        0 -1 71559 -3.8169817999005318e-03</internalNodes>
      <leafValues>
        3.2546588778495789e-01 -3.2546588778495789e-01</leafValues></_>
    <_>
      <internalNodes>
        0 -1 29511 -4.1789188981056213e-02</internalNodes>
      <leafValues>
        3.4090369939804077e-01 -3.4090369939804077e-01</leafValues></_>
    <_>
      <internalNodes>
        0 -1 77524 4.3020903831347823e-04</internalNodes>
      <leafValues>
        3.7538591027259827e-01 -3.7538591027259827e-01</leafValues></_>
    <_>
      <internalNodes>
        0 -1 54565 5.6364922784268856e-03</internalNodes>
      <leafValues>
        -3.7690415978431702e-01 3.7690415978431702e-01</leafValues></_>
    <_>
      <internalNodes>
        0 -1 4855 2.6199858984909952e-04</internalNodes>
      <leafValues>
        3.5405683517456055e-01 -3.5405683517456055e-01</leafValues></_>
    <_>
      <internalNodes>
        0 -1 63388 2.2617818322032690e-03</internalNodes>
      <leafValues>
        -3.4287798404693604e-01 3.4287798404693604e-01</leafValues></_>
    <_>
      <internalNodes>
        0 -1 4855 -1.5951569366734475e-04</internalNodes>
      <leafValues>
        -3.6885842680931091e-01 3.6885842680931091e-01</leafValues></_>
    <_>
      <internalNodes>
        0 -1 67248 9.4792078016325831e-05</internalNodes>
      <leafValues>
        -3.3097955584526062e-01 3.3097955584526062e-01</leafValues></_>
    <_>
      <internalNodes>
        0 -1 64764 -1.4469378584180959e-05</internalNodes>
      <leafValues>
        3.3009591698646545e-01 -3.3009591698646545e-01</leafValues></_>
    <_>
      <internalNodes>
        0 -1 63388 -2.9805689118802547e-03</internalNodes>
      <leafValues>
        3.4821799397468567e-01 -3.4821799397468567e-01</leafValues></_>
    <_>
      <internalNodes>
        0 -1 76560 -1.4520784134219866e-05</internalNodes>
      <leafValues>
        3.4512612223625183e-01 -3.4512612223625183e-01</leafValues></_>
    <_>
      <internalNodes>
        0 -1 75019 -3.8538564695045352e-05</internalNodes>
      <leafValues>
        3.1284764409065247e-01 -3.1284764409065247e-01</leafValues></_></weakClassifiers></stage10>
</opencv_storage>
