<?xml version="1.0"?>
<opencv_storage>
<stage10>
  <maxWeakCount>52</maxWeakCount>
  <stageThreshold>-2.6685347557067871e+00</stageThreshold>
  <weakClassifiers>
    <_>
      <internalNodes>
        0 -1 58295 -5.6383898481726646e-03</internalNodes>
      <leafValues>
        5.8200329542160034e-01 -5.8200329542160034e-01</leafValues></_>
    <_>
      <internalNodes>
        0 -1 42598 -3.8078895304352045e-03</internalNodes>
      <leafValues>
        5.1982223987579346e-01 -5.1982223987579346e-01</leafValues></_>
    <_>
      <internalNodes>
        0 -1 60520 1.7020210623741150e-02</internalNodes>
      <leafValues>
        -5.0435709953308105e-01 5.0435709953308105e-01</leafValues></_>
    <_>
      <internalNodes>
        0 -1 484 4.2255589365959167e-01</internalNodes>
      <leafValues>
        -5.7319051027297974e-01 5.7319051027297974e-01</leafValues></_>
    <_>
      <internalNodes>
        0 -1 78220 -3.4029002563329414e-05</internalNodes>
      <leafValues>
        5.0640279054641724e-01 -5.0640279054641724e-01</leafValues></_>
    <_>
      <internalNodes>
        0 -1 48750 -5.4941489361226559e-04</internalNodes>
      <leafValues>
        4.5350351929664612e-01 -4.5350351929664612e-01</leafValues></_>
    <_>
      <internalNodes>
        0 -1 51131 5.4759653285145760e-03</internalNodes>
      <leafValues>
        -4.5828703045845032e-01 4.5828703045845032e-01</leafValues></_>
    <_>
      <internalNodes>
        0 -1 20989 -8.5987165570259094e-02</internalNodes>
      <leafValues>
        3.3885881304740906e-01 -3.3885881304740906e-01</leafValues></_>
    <_>
      <internalNodes>
        0 -1 76202 -1.3637151823786553e-05</internalNodes>
      <leafValues>
        4.5429202914237976e-01 -4.5429202914237976e-01</leafValues></_>
    <_>
      <internalNodes>
        0 -1 78221 3.3430056646466255e-05</internalNodes>
      <leafValues>
        -3.7698152661323547e-01 3.7698152661323547e-01</leafValues></_>
    <_>
      <internalNodes>
        0 -1 57872 1.6224402934312820e-03</internalNodes>
      <leafValues>
        -3.9020279049873352e-01 3.9020279049873352e-01</leafValues></_>
    <_>
      <internalNodes>
        0 -1 78105 -3.2125069992616773e-05</internalNodes>
      <leafValues>
        3.8692110776901245e-01 -3.8692110776901245e-01</leafValues></_>
    <_>
      <internalNodes>
        0 -1 31987 -1.2345919385552406e-02</internalNodes>
      <leafValues>
        3.9274778962135315e-01 -3.9274778962135315e-01</leafValues></_>
    <_>
      <internalNodes>
        0 -1 73374 -2.3365505039691925e-03</internalNodes>
      <leafValues>
        -4.3726146221160889e-01 4.3726146221160889e-01</leafValues></_>
    <_>
      <internalNodes>
        0 -1 26150 3.5556382499635220e-03</internalNodes>
      <leafValues>
        -3.6690011620521545e-01 3.6690011620521545e-01</leafValues></_>
    <_>
      <internalNodes>
        0 -1 40353 -4.5193970436230302e-04</internalNodes>
      <leafValues>
        -3.7841588258743286e-01 3.7841588258743286e-01</leafValues></_>
    <_>
      <internalNodes>
        0 -1 51041 -2.6232505217194557e-02</internalNodes>
      <leafValues>
        2.8828662633895874e-01 -2.8828662633895874e-01</leafValues></_>
    <_>
      <internalNodes>
        0 -1 61630 1.3637151823786553e-05</internalNodes>
      <leafValues>
        -4.1840687394142151e-01 4.1840687394142151e-01</leafValues></_>
    <_>
      <internalNodes>
        0 -1 73049 -1.6689402400515974e-05</internalNodes>
      <leafValues>
        3.6610931158065796e-01 -3.6610931158065796e-01</leafValues></_>
    <_>
      <internalNodes>
        0 -1 1245 -5.3233761340379715e-02</internalNodes>
      <leafValues>
        3.2854670286178589e-01 -3.2854670286178589e-01</leafValues></_>
    <_>
      <internalNodes>
        0 -1 36392 1.9701261073350906e-02</internalNodes>
      <leafValues>
        -3.9106649160385132e-01 3.9106649160385132e-01</leafValues></_>
    <_>
      <internalNodes>
        0 -1 27195 1.3861802220344543e-01</internalNodes>
      <leafValues>
        -3.3667588233947754e-01 3.3667588233947754e-01</leafValues></_>
    <_>
      <internalNodes>
        0 -1 72824 1.8356032669544220e-03</internalNodes>
      <leafValues>
        3.8909733295440674e-01 -3.8909733295440674e-01</leafValues></_>
    <_>
      <internalNodes>
        0 -1 18437 -7.8532189130783081e-02</internalNodes>
      <leafValues>
        3.3307552337646484e-01 -3.3307552337646484e-01</leafValues></_>
    <_>
      <internalNodes>
        0 -1 77891 -6.0762866633012891e-04</internalNodes>
      <leafValues>
        -3.7827152013778687e-01 3.7827152013778687e-01</leafValues></_>
    <_>
      <internalNodes>
        0 -1 62095 2.4248622357845306e-03</internalNodes>
      <leafValues>
        -3.4701830148696899e-01 3.4701830148696899e-01</leafValues></_>
    <_>
      <internalNodes>
        0 -1 73381 2.8245573048479855e-05</internalNodes>
      <leafValues>
        -3.3963668346405029e-01 3.3963668346405029e-01</leafValues></_>
    <_>
      <internalNodes>
        0 -1 78102 -1.2535618152469397e-03</internalNodes>
      <leafValues>
        3.1338182091712952e-01 -3.1338182091712952e-01</leafValues></_>
    <_>
      <internalNodes>
        0 -1 7962 8.1371858716011047e-02</internalNodes>
      <leafValues>
        -3.1709420680999756e-01 3.1709420680999756e-01</leafValues></_>
    <_>
      <internalNodes>
        0 -1 77448 1.9627218134701252e-03</internalNodes>
      <leafValues>
        4.0749707818031311e-01 -4.0749707818031311e-01</leafValues></_>
    <_>
      <internalNodes>
        0 -1 48575 -6.9400863721966743e-03</internalNodes>
      <leafValues>
        3.6922967433929443e-01 -3.6922967433929443e-01</leafValues></_>
    <_>
      <internalNodes>
        0 -1 71053 3.0733318999409676e-03</internalNodes>
      <leafValues>
        3.6825641989707947e-01 -3.6825641989707947e-01</leafValues></_>
    <_>
      <internalNodes>
        0 -1 27821 1.9760277122259140e-02</internalNodes>
      <leafValues>
        -3.3846515417098999e-01 3.3846515417098999e-01</leafValues></_>
    <_>
      <internalNodes>
        0 -1 70817 -1.1120470007881522e-03</internalNodes>
      <leafValues>
        -3.1140184402465820e-01 3.1140184402465820e-01</leafValues></_>
    <_>
      <internalNodes>
        0 -1 63534 2.4855376686900854e-03</internalNodes>
      <leafValues>
        -3.2935941219329834e-01 3.2935941219329834e-01</leafValues></_>
    <_>
      <internalNodes>
        0 -1 67451 3.0059276468819007e-05</internalNodes>
      <leafValues>
        -3.3834064006805420e-01 3.3834064006805420e-01</leafValues></_>
    <_>
      <internalNodes>
        0 -1 48848 -3.8585143629461527e-03</internalNodes>
      <leafValues>
        3.4334704279899597e-01 -3.4334704279899597e-01</leafValues></_>
    <_>
      <internalNodes>
        0 -1 77685 -1.2920782901346684e-03</internalNodes>
      <leafValues>
        3.3125317096710205e-01 -3.3125317096710205e-01</leafValues></_>
    <_>
      <internalNodes>
        0 -1 42547 1.1912700720131397e-03</internalNodes>
      <leafValues>
        -3.0345362424850464e-01 3.0345362424850464e-01</leafValues></_>
    <_>
      <internalNodes>
        0 -1 77223 -2.4410206824541092e-03</internalNodes>
      <leafValues>
        -3.5684549808502197e-01 3.5684549808502197e-01</leafValues></_>
    <_>
      <internalNodes>
        0 -1 63759 2.7347770519554615e-03</internalNodes>
      <leafValues>
        -3.5296386480331421e-01 3.5296386480331421e-01</leafValues></_>
    <_>
      <internalNodes>
        0 -1 6396 6.1804929282516241e-04</internalNodes>
      <leafValues>
        3.2101589441299438e-01 -3.2101589441299438e-01</leafValues></_>
    <_>
      <internalNodes>
        0 -1 77659 3.2287185604218394e-05</internalNodes>
      <leafValues>
        -3.2848232984542847e-01 3.2848232984542847e-01</leafValues></_>
    <_>
      <internalNodes>
        0 -1 63215 4.8444280400872231e-03</internalNodes>
      <leafValues>
        -3.0645138025283813e-01 3.0645138025283813e-01</leafValues></_>
    <_>
      <internalNodes>
        0 -1 68646 2.2522979415953159e-03</internalNodes>
      <leafValues>
        3.5974356532096863e-01 -3.5974356532096863e-01</leafValues></_>
    <_>
      <internalNodes>
        0 -1 236 -8.4623277187347412e-02</internalNodes>
      <leafValues>
        3.4046798944473267e-01 -3.4046798944473267e-01</leafValues></_>
    <_>
      <internalNodes>
        0 -1 34051 3.1623023096472025e-04</internalNodes>
      <leafValues>
        3.1568849086761475e-01 -3.1568849086761475e-01</leafValues></_>
    <_>
      <internalNodes>
        0 -1 20069 -1.7036225646734238e-02</internalNodes>
      <leafValues>
        3.1990158557891846e-01 -3.1990158557891846e-01</leafValues></_>
    <_>
      <internalNodes>
        0 -1 12596 -2.2427763906307518e-04</internalNodes>
      <leafValues>
        -3.0979782342910767e-01 3.0979782342910767e-01</leafValues></_>
    <_>
      <internalNodes>
        0 -1 47251 9.5886975759640336e-04</internalNodes>
      <leafValues>
        -3.2790619134902954e-01 3.2790619134902954e-01</leafValues></_>
    <_>
      <internalNodes>
        0 -1 75170 -1.5832802091608755e-05</internalNodes>
      <leafValues>
        3.2685506343841553e-01 -3.2685506343841553e-01</leafValues></_>
    <_>
      <internalNodes>
        0 -1 47602 -1.9983267411589622e-03</internalNodes>
      <leafValues>
        2.9176077246665955e-01 -2.9176077246665955e-01</leafValues></_></weakClassifiers></stage10>
</opencv_storage>
