<?xml version="1.0"?>
<opencv_storage>
<stage17>
  <maxWeakCount>58</maxWeakCount>
  <stageThreshold>-1.4334594011306763e+00</stageThreshold>
  <weakClassifiers>
    <_>
      <internalNodes>
        0 -1 41399 2.9758810997009277e-02</internalNodes>
      <leafValues>
        -3.9940652251243591e-01 8.6896553635597229e-02</leafValues></_>
    <_>
      <internalNodes>
        0 -1 57815 1.2038454879075289e-03</internalNodes>
      <leafValues>
        -2.5056141614913940e-01 1.8968956172466278e-01</leafValues></_>
    <_>
      <internalNodes>
        0 -1 71134 -1.1993506923317909e-03</internalNodes>
      <leafValues>
        1.3123458623886108e-01 -2.8385418653488159e-01</leafValues></_>
    <_>
      <internalNodes>
        0 -1 68580 6.8407282233238220e-03</internalNodes>
      <leafValues>
        1.0847188532352448e-01 -4.9630936980247498e-01</leafValues></_>
    <_>
      <internalNodes>
        0 -1 66856 -1.9828157965093851e-03</internalNodes>
      <leafValues>
        2.3337204754352570e-01 -1.7335940897464752e-01</leafValues></_>
    <_>
      <internalNodes>
        0 -1 66567 -2.3285443894565105e-03</internalNodes>
      <leafValues>
        3.9009541273117065e-01 -7.2166442871093750e-02</leafValues></_>
    <_>
      <internalNodes>
        0 -1 73974 8.2250097766518593e-03</internalNodes>
      <leafValues>
        -2.6577171683311462e-01 1.3598476350307465e-01</leafValues></_>
    <_>
      <internalNodes>
        0 -1 53128 2.9287897050380707e-02</internalNodes>
      <leafValues>
        6.6544570028781891e-02 -4.4584697484970093e-01</leafValues></_>
    <_>
      <internalNodes>
        0 -1 58032 2.8236445505172014e-03</internalNodes>
      <leafValues>
        -1.3843217492103577e-01 2.6564076542854309e-01</leafValues></_>
    <_>
      <internalNodes>
        0 -1 53206 -1.4142538020678330e-05</internalNodes>
      <leafValues>
        1.7521046102046967e-01 -1.8711245059967041e-01</leafValues></_>
    <_>
      <internalNodes>
        0 -1 53604 -1.7403909936547279e-02</internalNodes>
      <leafValues>
        -5.7981568574905396e-01 5.4425537586212158e-02</leafValues></_>
    <_>
      <internalNodes>
        0 -1 64801 3.0355406925082207e-03</internalNodes>
      <leafValues>
        7.6540149748325348e-02 -4.0712687373161316e-01</leafValues></_>
    <_>
      <internalNodes>
        0 -1 46882 -5.7486668229103088e-03</internalNodes>
      <leafValues>
        4.1343769431114197e-01 -8.3842277526855469e-02</leafValues></_>
    <_>
      <internalNodes>
        0 -1 70690 -7.2646304033696651e-04</internalNodes>
      <leafValues>
        -4.3213036656379700e-01 7.8307256102561951e-02</leafValues></_>
    <_>
      <internalNodes>
        0 -1 71102 -3.5891749575966969e-05</internalNodes>
      <leafValues>
        1.0308849811553955e-01 -2.6169773936271667e-01</leafValues></_>
    <_>
      <internalNodes>
        0 -1 58972 1.7825802788138390e-03</internalNodes>
      <leafValues>
        6.2634706497192383e-02 -3.8215431571006775e-01</leafValues></_>
    <_>
      <internalNodes>
        0 -1 47599 -2.2388142533600330e-03</internalNodes>
      <leafValues>
        3.9198148250579834e-01 -6.9858506321907043e-02</leafValues></_>
    <_>
      <internalNodes>
        0 -1 21107 1.8131104297935963e-04</internalNodes>
      <leafValues>
        1.1073794215917587e-01 -2.6112645864486694e-01</leafValues></_>
    <_>
      <internalNodes>
        0 -1 8307 2.9121965169906616e-01</internalNodes>
      <leafValues>
        4.5594077557325363e-02 -4.8566773533821106e-01</leafValues></_>
    <_>
      <internalNodes>
        0 -1 76428 3.5201348364353180e-03</internalNodes>
      <leafValues>
        4.4763550162315369e-02 -5.2903920412063599e-01</leafValues></_>
    <_>
      <internalNodes>
        0 -1 77581 7.5297791045159101e-04</internalNodes>
      <leafValues>
        -1.9005317986011505e-01 1.4516486227512360e-01</leafValues></_>
    <_>
      <internalNodes>
        0 -1 58972 -1.0123747633770108e-03</internalNodes>
      <leafValues>
        -2.8790050745010376e-01 8.9949987828731537e-02</leafValues></_>
    <_>
      <internalNodes>
        0 -1 49356 -6.9586015306413174e-03</internalNodes>
      <leafValues>
        2.6986765861511230e-01 -9.8576135933399200e-02</leafValues></_>
    <_>
      <internalNodes>
        0 -1 53869 1.1779234046116471e-03</internalNodes>
      <leafValues>
        -1.1299606412649155e-01 2.4414527416229248e-01</leafValues></_>
    <_>
      <internalNodes>
        0 -1 13307 2.8381586889736354e-04</internalNodes>
      <leafValues>
        1.0278154909610748e-01 -2.6236391067504883e-01</leafValues></_>
    <_>
      <internalNodes>
        0 -1 6092 -2.5445263599976897e-04</internalNodes>
      <leafValues>
        -2.5247853994369507e-01 1.0884196311235428e-01</leafValues></_>
    <_>
      <internalNodes>
        0 -1 37820 -7.5535727664828300e-03</internalNodes>
      <leafValues>
        2.5305154919624329e-01 -1.0650117695331573e-01</leafValues></_>
    <_>
      <internalNodes>
        0 -1 49873 -3.6495358217507601e-03</internalNodes>
      <leafValues>
        2.6781532168388367e-01 -1.0073151439428329e-01</leafValues></_>
    <_>
      <internalNodes>
        0 -1 37089 -6.6060228273272514e-03</internalNodes>
      <leafValues>
        2.6417896151542664e-01 -9.9606633186340332e-02</leafValues></_>
    <_>
      <internalNodes>
        0 -1 31288 3.5140886902809143e-02</internalNodes>
      <leafValues>
        -7.4595905840396881e-02 3.7221136689186096e-01</leafValues></_>
    <_>
      <internalNodes>
        0 -1 63443 3.8148672319948673e-03</internalNodes>
      <leafValues>
        -8.0554723739624023e-02 3.2270017266273499e-01</leafValues></_>
    <_>
      <internalNodes>
        0 -1 56690 -2.3480192758142948e-03</internalNodes>
      <leafValues>
        -4.4314539432525635e-01 6.5496660768985748e-02</leafValues></_>
    <_>
      <internalNodes>
        0 -1 44186 1.7448006197810173e-02</internalNodes>
      <leafValues>
        4.6388946473598480e-02 -5.0358241796493530e-01</leafValues></_>
    <_>
      <internalNodes>
        0 -1 45200 4.0324337780475616e-02</internalNodes>
      <leafValues>
        2.4005658924579620e-02 -9.0371477603912354e-01</leafValues></_>
    <_>
      <internalNodes>
        0 -1 54583 -3.8520884700119495e-03</internalNodes>
      <leafValues>
        3.4467342495918274e-01 -7.7534176409244537e-02</leafValues></_>
    <_>
      <internalNodes>
        0 -1 78189 -5.5709457956254482e-04</internalNodes>
      <leafValues>
        -3.3552676439285278e-01 7.4797548353672028e-02</leafValues></_>
    <_>
      <internalNodes>
        0 -1 63810 -2.5777323171496391e-02</internalNodes>
      <leafValues>
        2.7698615193367004e-01 -8.7788403034210205e-02</leafValues></_>
    <_>
      <internalNodes>
        0 -1 50830 8.1077948212623596e-02</internalNodes>
      <leafValues>
        3.6395527422428131e-02 -7.6838260889053345e-01</leafValues></_>
    <_>
      <internalNodes>
        0 -1 58544 -9.8807886242866516e-03</internalNodes>
      <leafValues>
        3.9689770340919495e-01 -6.5555036067962646e-02</leafValues></_>
    <_>
      <internalNodes>
        0 -1 73526 -1.4257712755352259e-03</internalNodes>
      <leafValues>
        -5.8706897497177124e-01 4.0294308215379715e-02</leafValues></_>
    <_>
      <internalNodes>
        0 -1 46487 9.0809934772551060e-04</internalNodes>
      <leafValues>
        -9.0422935783863068e-02 2.6375716924667358e-01</leafValues></_>
    <_>
      <internalNodes>
        0 -1 61251 4.3430586811155081e-04</internalNodes>
      <leafValues>
        -1.1959838122129440e-01 1.9980520009994507e-01</leafValues></_>
    <_>
      <internalNodes>
        0 -1 77569 -3.2691459637135267e-05</internalNodes>
      <leafValues>
        1.0095673054456711e-01 -2.4318724870681763e-01</leafValues></_>
    <_>
      <internalNodes>
        0 -1 62220 -2.0926054567098618e-02</internalNodes>
      <leafValues>
        -5.5833554267883301e-01 4.0498707443475723e-02</leafValues></_>
    <_>
      <internalNodes>
        0 -1 36053 1.6777673363685608e-01</internalNodes>
      <leafValues>
        4.0615316480398178e-02 -5.4547554254531860e-01</leafValues></_>
    <_>
      <internalNodes>
        0 -1 55906 7.9179782187566161e-04</internalNodes>
      <leafValues>
        -3.8160184025764465e-01 6.7312665283679962e-02</leafValues></_>
    <_>
      <internalNodes>
        0 -1 78107 -1.1645839549601078e-03</internalNodes>
      <leafValues>
        -5.9491229057312012e-01 3.2140400260686874e-02</leafValues></_>
    <_>
      <internalNodes>
        0 -1 58539 4.6671750023961067e-03</internalNodes>
      <leafValues>
        -9.9618390202522278e-02 2.4257984757423401e-01</leafValues></_>
    <_>
      <internalNodes>
        0 -1 70255 -3.5904580727219582e-03</internalNodes>
      <leafValues>
        2.9934579133987427e-01 -8.6299158632755280e-02</leafValues></_>
    <_>
      <internalNodes>
        0 -1 66063 -1.0275943204760551e-02</internalNodes>
      <leafValues>
        -5.3648227453231812e-01 5.0172995775938034e-02</leafValues></_>
    <_>
      <internalNodes>
        0 -1 56968 1.5474772080779076e-02</internalNodes>
      <leafValues>
        -7.9502686858177185e-02 3.2013618946075439e-01</leafValues></_>
    <_>
      <internalNodes>
        0 -1 54732 -4.9170590937137604e-03</internalNodes>
      <leafValues>
        1.6675981879234314e-01 -1.7819003760814667e-01</leafValues></_>
    <_>
      <internalNodes>
        0 -1 75026 2.0532710477709770e-03</internalNodes>
      <leafValues>
        4.5538332313299179e-02 -5.2205467224121094e-01</leafValues></_>
    <_>
      <internalNodes>
        0 -1 62603 -3.2714167609810829e-03</internalNodes>
      <leafValues>
        1.3137440383434296e-01 -1.8738344311714172e-01</leafValues></_>
    <_>
      <internalNodes>
        0 -1 15275 2.3408630490303040e-01</internalNodes>
      <leafValues>
        -4.0602553635835648e-02 6.6440939903259277e-01</leafValues></_>
    <_>
      <internalNodes>
        0 -1 70057 1.3525869697332382e-02</internalNodes>
      <leafValues>
        -1.0632063448429108e-01 2.0223526656627655e-01</leafValues></_>
    <_>
      <internalNodes>
        0 -1 48104 2.7397394180297852e-02</internalNodes>
      <leafValues>
        8.4159396588802338e-02 -2.6486861705780029e-01</leafValues></_>
    <_>
      <internalNodes>
        0 -1 51405 -6.7012764513492584e-02</internalNodes>
      <leafValues>
        -7.1100729703903198e-01 3.3670250326395035e-02</leafValues></_></weakClassifiers></stage17>
</opencv_storage>
