<?xml version="1.0"?>
<opencv_storage>
<stage6>
  <maxWeakCount>94</maxWeakCount>
  <stageThreshold>-7.1022977828979492e+00</stageThreshold>
  <weakClassifiers>
    <_>
      <internalNodes>
        0 -1 232713 1.1152614606544375e-03</internalNodes>
      <leafValues>
        -1.4774897098541260e+00 -3.9086294174194336e-01</leafValues></_>
    <_>
      <internalNodes>
        0 -1 123702 2.4468374252319336e-01</internalNodes>
      <leafValues>
        -4.7729444503784180e-01 1.3985704183578491e+00</leafValues></_>
    <_>
      <internalNodes>
        0 -1 358222 -6.1571913647640031e-06</internalNodes>
      <leafValues>
        4.0527203679084778e-01 -7.3785239458084106e-01</leafValues></_>
    <_>
      <internalNodes>
        0 -1 313100 -9.9501153454184532e-04</internalNodes>
      <leafValues>
        4.3489953875541687e-01 -6.9434928894042969e-01</leafValues></_>
    <_>
      <internalNodes>
        0 -1 99129 -1.3514217734336853e-01</internalNodes>
      <leafValues>
        1.1528378725051880e+00 -3.7855923175811768e-01</leafValues></_>
    <_>
      <internalNodes>
        0 -1 225118 1.2690940871834755e-02</internalNodes>
      <leafValues>
        -5.7022917270660400e-01 5.6157088279724121e-01</leafValues></_>
    <_>
      <internalNodes>
        0 -1 232211 1.0392903350293636e-03</internalNodes>
      <leafValues>
        -3.5600736737251282e-01 9.4407576322555542e-01</leafValues></_>
    <_>
      <internalNodes>
        0 -1 187849 -5.8011211454868317e-02</internalNodes>
      <leafValues>
        1.2805525064468384e+00 -2.9598996043205261e-01</leafValues></_>
    <_>
      <internalNodes>
        0 -1 190680 1.2750336900353432e-02</internalNodes>
      <leafValues>
        -4.0877383947372437e-01 9.5219415426254272e-01</leafValues></_>
    <_>
      <internalNodes>
        0 -1 331991 -5.6908261030912399e-02</internalNodes>
      <leafValues>
        4.4890615344047546e-01 -6.2970322370529175e-01</leafValues></_>
    <_>
      <internalNodes>
        0 -1 249377 5.3245585877448320e-04</internalNodes>
      <leafValues>
        -4.2115139961242676e-01 6.6428506374359131e-01</leafValues></_>
    <_>
      <internalNodes>
        0 -1 371757 -1.6854716523084790e-04</internalNodes>
      <leafValues>
        -1.1605623960494995e+00 1.9510677456855774e-01</leafValues></_>
    <_>
      <internalNodes>
        0 -1 234461 -1.6097225015982985e-03</internalNodes>
      <leafValues>
        4.3692269921302795e-01 -5.6783258914947510e-01</leafValues></_>
    <_>
      <internalNodes>
        0 -1 17744 1.0786917846417055e-04</internalNodes>
      <leafValues>
        2.7339804172515869e-01 -7.7575910091400146e-01</leafValues></_>
    <_>
      <internalNodes>
        0 -1 281569 -1.8750756280496716e-03</internalNodes>
      <leafValues>
        7.0234626531600952e-01 -3.4503400325775146e-01</leafValues></_>
    <_>
      <internalNodes>
        0 -1 370487 -4.3445799383334816e-04</internalNodes>
      <leafValues>
        -1.1022548675537109e+00 1.6262564063072205e-01</leafValues></_>
    <_>
      <internalNodes>
        0 -1 256964 -5.8900685980916023e-03</internalNodes>
      <leafValues>
        5.2717030048370361e-01 -4.4083774089813232e-01</leafValues></_>
    <_>
      <internalNodes>
        0 -1 96001 2.9556738445535302e-04</internalNodes>
      <leafValues>
        2.3802985250949860e-01 -7.6335316896438599e-01</leafValues></_>
    <_>
      <internalNodes>
        0 -1 340957 -7.1648701123194769e-06</internalNodes>
      <leafValues>
        3.1141054630279541e-01 -5.9921050071716309e-01</leafValues></_>
    <_>
      <internalNodes>
        0 -1 8944 -4.9525564908981323e-01</internalNodes>
      <leafValues>
        1.1477750539779663e+00 -2.0740814507007599e-01</leafValues></_>
    <_>
      <internalNodes>
        0 -1 212955 3.7720825639553368e-04</internalNodes>
      <leafValues>
        -3.0030208826065063e-01 7.2027605772018433e-01</leafValues></_>
    <_>
      <internalNodes>
        0 -1 365514 -5.8699341025203466e-04</internalNodes>
      <leafValues>
        -9.4518333673477173e-01 1.9033351540565491e-01</leafValues></_>
    <_>
      <internalNodes>
        0 -1 193941 -9.5423869788646698e-04</internalNodes>
      <leafValues>
        8.1847429275512695e-01 -2.6108914613723755e-01</leafValues></_>
    <_>
      <internalNodes>
        0 -1 258265 5.3556053899228573e-03</internalNodes>
      <leafValues>
        -7.5048345327377319e-01 2.2547607123851776e-01</leafValues></_>
    <_>
      <internalNodes>
        0 -1 14686 9.1151027008891106e-03</internalNodes>
      <leafValues>
        2.3091952502727509e-01 -6.8805634975433350e-01</leafValues></_>
    <_>
      <internalNodes>
        0 -1 382970 -2.8654033667407930e-04</internalNodes>
      <leafValues>
        -9.2191106081008911e-01 1.5627905726432800e-01</leafValues></_>
    <_>
      <internalNodes>
        0 -1 250477 6.5633771009743214e-04</internalNodes>
      <leafValues>
        -2.6866239309310913e-01 6.8224179744720459e-01</leafValues></_>
    <_>
      <internalNodes>
        0 -1 328365 -2.0523604471236467e-03</internalNodes>
      <leafValues>
        -1.2840247154235840e+00 1.1051172018051147e-01</leafValues></_>
    <_>
      <internalNodes>
        0 -1 265389 6.1538792215287685e-04</internalNodes>
      <leafValues>
        -2.2852958738803864e-01 8.6336052417755127e-01</leafValues></_>
    <_>
      <internalNodes>
        0 -1 48901 2.0020306692458689e-04</internalNodes>
      <leafValues>
        1.8315671384334564e-01 -8.1746441125869751e-01</leafValues></_>
    <_>
      <internalNodes>
        0 -1 265743 6.4443913288414478e-04</internalNodes>
      <leafValues>
        -1.9406078755855560e-01 9.9159258604049683e-01</leafValues></_>
    <_>
      <internalNodes>
        0 -1 378157 -6.7262712400406599e-04</internalNodes>
      <leafValues>
        -8.2332158088684082e-01 1.9414176046848297e-01</leafValues></_>
    <_>
      <internalNodes>
        0 -1 365358 -3.9383528928738087e-05</internalNodes>
      <leafValues>
        2.6948329806327820e-01 -5.2989846467971802e-01</leafValues></_>
    <_>
      <internalNodes>
        0 -1 330220 1.7262832261621952e-03</internalNodes>
      <leafValues>
        9.3759424984455109e-02 -1.2786539793014526e+00</leafValues></_>
    <_>
      <internalNodes>
        0 -1 256632 5.4595712572336197e-04</internalNodes>
      <leafValues>
        -2.4102143943309784e-01 6.3691395521163940e-01</leafValues></_>
    <_>
      <internalNodes>
        0 -1 36224 -1.4919177920091897e-04</internalNodes>
      <leafValues>
        -6.5470755100250244e-01 1.9319567084312439e-01</leafValues></_>
    <_>
      <internalNodes>
        0 -1 267457 1.5925129409879446e-03</internalNodes>
      <leafValues>
        -1.7030313611030579e-01 8.3820360898971558e-01</leafValues></_>
    <_>
      <internalNodes>
        0 -1 248326 -2.3411609232425690e-02</internalNodes>
      <leafValues>
        -1.1150773763656616e+00 1.1336618661880493e-01</leafValues></_>
    <_>
      <internalNodes>
        0 -1 228204 -2.8558517806231976e-04</internalNodes>
      <leafValues>
        6.6466248035430908e-01 -2.2122834622859955e-01</leafValues></_>
    <_>
      <internalNodes>
        0 -1 72153 -2.6106147561222315e-04</internalNodes>
      <leafValues>
        -6.0768759250640869e-01 2.2759190201759338e-01</leafValues></_>
    <_>
      <internalNodes>
        0 -1 287000 1.0661913082003593e-02</internalNodes>
      <leafValues>
        -4.5393168926239014e-01 3.0632743239402771e-01</leafValues></_>
    <_>
      <internalNodes>
        0 -1 310168 4.5410189777612686e-03</internalNodes>
      <leafValues>
        -3.4048938751220703e-01 4.0208211541175842e-01</leafValues></_>
    <_>
      <internalNodes>
        0 -1 378217 -2.0923638658132404e-05</internalNodes>
      <leafValues>
        3.3830720186233521e-01 -4.0695852041244507e-01</leafValues></_>
    <_>
      <internalNodes>
        0 -1 136232 2.8288912028074265e-02</internalNodes>
      <leafValues>
        1.6955898702144623e-01 -6.7446154356002808e-01</leafValues></_>
    <_>
      <internalNodes>
        0 -1 261228 3.1556049361824989e-04</internalNodes>
      <leafValues>
        -3.7090402841567993e-01 3.3421289920806885e-01</leafValues></_>
    <_>
      <internalNodes>
        0 -1 347392 -4.7857628669589758e-04</internalNodes>
      <leafValues>
        -8.5504245758056641e-01 1.3274745643138885e-01</leafValues></_>
    <_>
      <internalNodes>
        0 -1 220971 -2.8305724263191223e-03</internalNodes>
      <leafValues>
        7.3196953535079956e-01 -1.9427016377449036e-01</leafValues></_>
    <_>
      <internalNodes>
        0 -1 5277 1.6210746765136719e-01</internalNodes>
      <leafValues>
        -1.8616940826177597e-02 8.5707025527954102e+00</leafValues></_>
    <_>
      <internalNodes>
        0 -1 386837 -1.3358599971979856e-05</internalNodes>
      <leafValues>
        3.1567448377609253e-01 -4.5140668749809265e-01</leafValues></_>
    <_>
      <internalNodes>
        0 -1 25746 -6.0148723423480988e-03</internalNodes>
      <leafValues>
        5.0412923097610474e-01 -2.7290239930152893e-01</leafValues></_>
    <_>
      <internalNodes>
        0 -1 247868 1.0202163830399513e-02</internalNodes>
      <leafValues>
        -2.5794669985771179e-02 10.</leafValues></_>
    <_>
      <internalNodes>
        0 -1 330197 -6.5521026044734754e-06</internalNodes>
      <leafValues>
        3.2216751575469971e-01 -4.0934851765632629e-01</leafValues></_>
    <_>
      <internalNodes>
        0 -1 198334 -8.8355336338281631e-03</internalNodes>
      <leafValues>
        4.6508464217185974e-01 -3.0051353573799133e-01</leafValues></_>
    <_>
      <internalNodes>
        0 -1 193170 1.1474039638414979e-03</internalNodes>
      <leafValues>
        -1.9297285377979279e-01 7.9700493812561035e-01</leafValues></_>
    <_>
      <internalNodes>
        0 -1 258672 7.1792560629546642e-04</internalNodes>
      <leafValues>
        -2.4477873742580414e-01 5.5656999349594116e-01</leafValues></_>
    <_>
      <internalNodes>
        0 -1 247873 2.1996732801198959e-02</internalNodes>
      <leafValues>
        6.4660566858947277e-03 -10.</leafValues></_>
    <_>
      <internalNodes>
        0 -1 392886 -2.2643660486210138e-04</internalNodes>
      <leafValues>
        -7.2421842813491821e-01 1.7464508116245270e-01</leafValues></_>
    <_>
      <internalNodes>
        0 -1 295258 4.8126196488738060e-03</internalNodes>
      <leafValues>
        -2.1227434277534485e-01 6.2394171953201294e-01</leafValues></_>
    <_>
      <internalNodes>
        0 -1 119553 5.9035858139395714e-03</internalNodes>
      <leafValues>
        -2.4011553823947906e-01 5.5903089046478271e-01</leafValues></_>
    <_>
      <internalNodes>
        0 -1 275208 1.2680534273386002e-03</internalNodes>
      <leafValues>
        -3.1917607784271240e-01 3.4741112589836121e-01</leafValues></_>
    <_>
      <internalNodes>
        0 -1 355272 -1.0854466818273067e-03</internalNodes>
      <leafValues>
        -8.6135214567184448e-01 1.2318506836891174e-01</leafValues></_>
    <_>
      <internalNodes>
        0 -1 329046 1.1643511970760301e-04</internalNodes>
      <leafValues>
        1.4165334403514862e-01 -7.2593504190444946e-01</leafValues></_>
    <_>
      <internalNodes>
        0 -1 214983 -2.5343792513012886e-03</internalNodes>
      <leafValues>
        7.8844547271728516e-01 -1.7350874841213226e-01</leafValues></_>
    <_>
      <internalNodes>
        0 -1 243206 -9.0410414850339293e-04</internalNodes>
      <leafValues>
        8.0960059165954590e-01 -1.5230540931224823e-01</leafValues></_>
    <_>
      <internalNodes>
        0 -1 211712 -4.0728701278567314e-03</internalNodes>
      <leafValues>
        4.6093380451202393e-01 -2.4945358932018280e-01</leafValues></_>
    <_>
      <internalNodes>
        0 -1 354140 2.8018129523843527e-03</internalNodes>
      <leafValues>
        1.0616369545459747e-01 -1.0471938848495483e+00</leafValues></_>
    <_>
      <internalNodes>
        0 -1 15656 2.5202264077961445e-04</internalNodes>
      <leafValues>
        1.4792026579380035e-01 -7.0537596940994263e-01</leafValues></_>
    <_>
      <internalNodes>
        0 -1 268754 9.3432422727346420e-03</internalNodes>
      <leafValues>
        -2.9293558001518250e-01 4.0704634785652161e-01</leafValues></_>
    <_>
      <internalNodes>
        0 -1 309347 -1.9445547368377447e-03</internalNodes>
      <leafValues>
        -9.6376937627792358e-01 1.0145233571529388e-01</leafValues></_>
    <_>
      <internalNodes>
        0 -1 377454 1.3590006157755852e-02</internalNodes>
      <leafValues>
        -3.4428622573614120e-02 8.7056665420532227e+00</leafValues></_>
    <_>
      <internalNodes>
        0 -1 377454 1.3569766655564308e-02</internalNodes>
      <leafValues>
        1.4878659276291728e-03 -4.3723802566528320e+00</leafValues></_>
    <_>
      <internalNodes>
        0 -1 369079 7.1725301677361131e-04</internalNodes>
      <leafValues>
        -2.7570608258247375e-01 3.9388319849967957e-01</leafValues></_>
    <_>
      <internalNodes>
        0 -1 120338 4.9497328291181475e-05</internalNodes>
      <leafValues>
        2.1066036820411682e-01 -5.1833081245422363e-01</leafValues></_>
    <_>
      <internalNodes>
        0 -1 20124 3.2036392949521542e-03</internalNodes>
      <leafValues>
        -1.6510127484798431e-01 7.4741560220718384e-01</leafValues></_>
    <_>
      <internalNodes>
        0 -1 268079 -1.0960975289344788e-01</internalNodes>
      <leafValues>
        5.7666784524917603e-01 -2.0382834970951080e-01</leafValues></_>
    <_>
      <internalNodes>
        0 -1 205456 -6.8003356456756592e-02</internalNodes>
      <leafValues>
        4.7438921928405762e+00 -2.2776780650019646e-02</leafValues></_>
    <_>
      <internalNodes>
        0 -1 5799 3.4008821845054626e-01</internalNodes>
      <leafValues>
        -1.6781685873866081e-02 -9.2847099304199219e+00</leafValues></_>
    <_>
      <internalNodes>
        0 -1 308922 1.9529295386746526e-03</internalNodes>
      <leafValues>
        1.2289222329854965e-01 -9.7262638807296753e-01</leafValues></_>
    <_>
      <internalNodes>
        0 -1 324133 1.3263856992125511e-02</internalNodes>
      <leafValues>
        -1.6588991880416870e-01 7.5398796796798706e-01</leafValues></_>
    <_>
      <internalNodes>
        0 -1 5721 -5.0538170337677002e-01</internalNodes>
      <leafValues>
        8.2960863113403320e+00 -1.3670682907104492e-02</leafValues></_>
    <_>
      <internalNodes>
        0 -1 332608 -2.9886991251260042e-03</internalNodes>
      <leafValues>
        1.6199409961700439e-01 -6.6268658638000488e-01</leafValues></_>
    <_>
      <internalNodes>
        0 -1 695 -6.0831892490386963e-01</internalNodes>
      <leafValues>
        -9.2409257888793945e+00 -7.6058013364672661e-03</leafValues></_>
    <_>
      <internalNodes>
        0 -1 378112 -1.7792044673115015e-05</internalNodes>
      <leafValues>
        2.7658626437187195e-01 -3.8545322418212891e-01</leafValues></_>
    <_>
      <internalNodes>
        0 -1 357918 3.0274814344011247e-04</internalNodes>
      <leafValues>
        1.0997617989778519e-01 -8.7264400720596313e-01</leafValues></_>
    <_>
      <internalNodes>
        0 -1 1329 -5.7791590690612793e-01</internalNodes>
      <leafValues>
        10. -3.2764840871095657e-02</leafValues></_>
    <_>
      <internalNodes>
        0 -1 4585 -5.1584488153457642e-01</internalNodes>
      <leafValues>
        -8.0510797500610352e+00 -1.8430780619382858e-02</leafValues></_>
    <_>
      <internalNodes>
        0 -1 293895 2.1091986855026335e-04</internalNodes>
      <leafValues>
        -3.4131702780723572e-01 3.3675509691238403e-01</leafValues></_>
    <_>
      <internalNodes>
        0 -1 67967 -6.0266873333603144e-04</internalNodes>
      <leafValues>
        -4.7961667180061340e-01 2.4619503319263458e-01</leafValues></_>
    <_>
      <internalNodes>
        0 -1 226684 -1.7292161937803030e-03</internalNodes>
      <leafValues>
        4.9570250511169434e-01 -2.2241427004337311e-01</leafValues></_>
    <_>
      <internalNodes>
        0 -1 240726 1.4976740349084139e-03</internalNodes>
      <leafValues>
        -1.9659779965877533e-01 6.1550784111022949e-01</leafValues></_>
    <_>
      <internalNodes>
        0 -1 329520 1.3064889935776591e-03</internalNodes>
      <leafValues>
        1.0792955011129379e-01 -9.5161235332489014e-01</leafValues></_>
    <_>
      <internalNodes>
        0 -1 81906 -7.9312905669212341e-02</internalNodes>
      <leafValues>
        -1.0255950689315796e+00 7.1142457425594330e-02</leafValues></_>
    <_>
      <internalNodes>
        0 -1 323288 1.0884820949286222e-03</internalNodes>
      <leafValues>
        9.0535163879394531e-02 -8.7061327695846558e-01</leafValues></_>
    <_>
      <internalNodes>
        0 -1 356545 -1.2946430615556892e-05</internalNodes>
      <leafValues>
        2.4779716134071350e-01 -3.6106261610984802e-01</leafValues></_></weakClassifiers></stage6>
</opencv_storage>
