<?xml version="1.0"?>
<opencv_storage>
<stage19>
  <maxWeakCount>92</maxWeakCount>
  <stageThreshold>-2.2919569015502930e+00</stageThreshold>
  <weakClassifiers>
    <_>
      <internalNodes>
        0 -1 19090 -206 -1 -9 -1 -1 -1 -9 -1</internalNodes>
      <leafValues>
        -4.6185925602912903e-01 4.6185925602912903e-01</leafValues></_>
    <_>
      <internalNodes>
        0 -1 12321 1962734820 -1 -1 -1 -134217729 -1 -1 -1</internalNodes>
      <leafValues>
        -4.3393272161483765e-01 4.3393272161483765e-01</leafValues></_>
    <_>
      <internalNodes>
        0 -1 4490 -1 -16777217 -1 -285212673 -1 -1 -1 2013265919</internalNodes>
      <leafValues>
        -3.5861837863922119e-01 3.5861837863922119e-01</leafValues></_>
    <_>
      <internalNodes>
        0 -1 5938 805302126 -1342177281 -268435457 -268435457 2147450743
        2147483647 -1 -1</internalNodes>
      <leafValues>
        -3.3959650993347168e-01 3.3959650993347168e-01</leafValues></_>
    <_>
      <internalNodes>
        0 -1 19276 -1 -1 -1 -1 -1 -1 -3 -3</internalNodes>
      <leafValues>
        -3.6170616745948792e-01 3.6170616745948792e-01</leafValues></_>
    <_>
      <internalNodes>
        0 -1 18745 -268435586 -285212673 -1 2130640894 -139 -1 -140
        2130378740</internalNodes>
      <leafValues>
        -3.3535072207450867e-01 3.3535072207450867e-01</leafValues></_>
    <_>
      <internalNodes>
        0 -1 13731 2147483647 -1 -1 2147483647 -1 -1 2147450751
        1610579967</internalNodes>
      <leafValues>
        -3.3157750964164734e-01 3.3157750964164734e-01</leafValues></_>
    <_>
      <internalNodes>
        0 -1 20747 -32897 -1 -1 -1 -32769 -1 -1 -1</internalNodes>
      <leafValues>
        -3.0858647823333740e-01 3.0858647823333740e-01</leafValues></_>
    <_>
      <internalNodes>
        0 -1 14022 -855834630 -16973826 -1 -1 -720898 -1 -1 -1</internalNodes>
      <leafValues>
        -3.2711404561996460e-01 3.2711404561996460e-01</leafValues></_>
    <_>
      <internalNodes>
        0 -1 13331 -4 -65538 -4 -65538 -11 -1 -140 234881013</internalNodes>
      <leafValues>
        -3.0423679947853088e-01 3.0423679947853088e-01</leafValues></_>
    <_>
      <internalNodes>
        0 -1 16293 788299772 -1 -1 -1 -3 -1 -1 1073741823</internalNodes>
      <leafValues>
        2.7049577236175537e-01 -2.7049577236175537e-01</leafValues></_>
    <_>
      <internalNodes>
        0 -1 10111 -10 -16777217 -2 -285278209 -139 2147483647
        1979676532 1157562367</internalNodes>
      <leafValues>
        -2.8069111704826355e-01 2.8069111704826355e-01</leafValues></_>
    <_>
      <internalNodes>
        0 -1 8934 -65538 -285278210 -1 -65538 -9 -1 -9 -1</internalNodes>
      <leafValues>
        -3.0533155798912048e-01 3.0533155798912048e-01</leafValues></_>
    <_>
      <internalNodes>
        0 -1 14721 2147483628 2147483647 -1 2147483647 -17 -1 -1
        2147483647</internalNodes>
      <leafValues>
        -2.4469625949859619e-01 2.4469625949859619e-01</leafValues></_>
    <_>
      <internalNodes>
        0 -1 19550 788414260 -1073807361 -1 -65537 -131 -1 -11 -196620</internalNodes>
      <leafValues>
        -2.9330185055732727e-01 2.9330185055732727e-01</leafValues></_>
    <_>
      <internalNodes>
        0 -1 13499 -65538 -1 -1 -1 -1 -1 -1 1073708927</internalNodes>
      <leafValues>
        -2.8366649150848389e-01 2.8366649150848389e-01</leafValues></_>
    <_>
      <internalNodes>
        0 -1 8626 -2 -16842754 -1 -285278209 -140 2012741623 -9
        2013265919</internalNodes>
      <leafValues>
        -2.8442001342773438e-01 2.8442001342773438e-01</leafValues></_>
    <_>
      <internalNodes>
        0 -1 15119 -268435460 788463614 -2 -285278210 -1 -1 -1
        2096955388</internalNodes>
      <leafValues>
        2.2372014820575714e-01 -2.2372014820575714e-01</leafValues></_>
    <_>
      <internalNodes>
        0 -1 15084 -2 -16842754 -2 -1 -1 -1 -1 -1</internalNodes>
      <leafValues>
        -2.6000773906707764e-01 2.6000773906707764e-01</leafValues></_>
    <_>
      <internalNodes>
        0 -1 10511 1055850444 -353435666 -269549590 720043762 2138373911
        1878982518 2137947970 16128</internalNodes>
      <leafValues>
        -3.4019380807876587e-01 3.4019380807876587e-01</leafValues></_>
    <_>
      <internalNodes>
        0 -1 16554 -1 -1 -2 -1 -1 -1 -1 536870911</internalNodes>
      <leafValues>
        -2.8330487012863159e-01 2.8330487012863159e-01</leafValues></_>
    <_>
      <internalNodes>
        0 -1 325 -1 -268435457 -1 -16777217 -1 -1 -1 -1</internalNodes>
      <leafValues>
        2.6314270496368408e-01 -2.6314270496368408e-01</leafValues></_>
    <_>
      <internalNodes>
        0 -1 19295 -1 -1 -1 -1 -129 -1 -1 -1</internalNodes>
      <leafValues>
        -2.9669904708862305e-01 2.9669904708862305e-01</leafValues></_>
    <_>
      <internalNodes>
        0 -1 13127 805273599 -1073741825 -1 -1 -1 -1 -1 1073741823</internalNodes>
      <leafValues>
        2.5640973448753357e-01 -2.5640973448753357e-01</leafValues></_>
    <_>
      <internalNodes>
        0 -1 17403 -1073807364 -1 -1 -65537 -1 -1 -1 805076989</internalNodes>
      <leafValues>
        -2.8966465592384338e-01 2.8966465592384338e-01</leafValues></_>
    <_>
      <internalNodes>
        0 -1 15162 -18 -268435457 -18 -285212673 -1 -1 -138 2147483647</internalNodes>
      <leafValues>
        2.5497072935104370e-01 -2.5497072935104370e-01</leafValues></_>
    <_>
      <internalNodes>
        0 -1 19190 -2 -268435457 -2 -285212674 -137 2147483647 -140
        -184549377</internalNodes>
      <leafValues>
        -2.8689542412757874e-01 2.8689542412757874e-01</leafValues></_>
    <_>
      <internalNodes>
        0 -1 13637 -65540 -1 -1 -1 -1 -1 -1 -32769</internalNodes>
      <leafValues>
        -2.7957835793495178e-01 2.7957835793495178e-01</leafValues></_>
    <_>
      <internalNodes>
        0 -1 17813 -2 -1 -10 -1 -9 -1 -2059 -134217737</internalNodes>
      <leafValues>
        -2.7944275736808777e-01 2.7944275736808777e-01</leafValues></_>
    <_>
      <internalNodes>
        0 -1 10293 -32770 -1 -1 -1 -1 -1 -1 -1</internalNodes>
      <leafValues>
        -2.6844459772109985e-01 2.6844459772109985e-01</leafValues></_>
    <_>
      <internalNodes>
        0 -1 10888 721292972 -1359024386 -2 721333996 1878982526 -1
        1073536862 4473924</internalNodes>
      <leafValues>
        -3.1457442045211792e-01 3.1457442045211792e-01</leafValues></_>
    <_>
      <internalNodes>
        0 -1 19468 -1 -1 -1 -1 -1 -1 -1 -1073807361</internalNodes>
      <leafValues>
        -2.6929768919944763e-01 2.6929768919944763e-01</leafValues></_>
    <_>
      <internalNodes>
        0 -1 16597 -1 -1 -2 -1 -1 -1 -9 -1</internalNodes>
      <leafValues>
        2.8833600878715515e-01 -2.8833600878715515e-01</leafValues></_>
    <_>
      <internalNodes>
        0 -1 18799 -18 -1358954497 -2 -285212673 -137 -1 -12 -1</internalNodes>
      <leafValues>
        -2.5151175260543823e-01 2.5151175260543823e-01</leafValues></_>
    <_>
      <internalNodes>
        0 -1 7071 788430716 -285212673 -1 -1359020033 2147450751 -1 -139
        788299773</internalNodes>
      <leafValues>
        2.3822046816349030e-01 -2.3822046816349030e-01</leafValues></_>
    <_>
      <internalNodes>
        0 -1 11936 1325215422 1342173183 -1 251637759 2147450870 -1
        1073708919 91572087</internalNodes>
      <leafValues>
        -2.4010886251926422e-01 2.4010886251926422e-01</leafValues></_>
    <_>
      <internalNodes>
        0 -1 4092 -2 -16842753 -1 -1 -1 -1 -9 -1</internalNodes>
      <leafValues>
        -2.5722137093544006e-01 2.5722137093544006e-01</leafValues></_>
    <_>
      <internalNodes>
        0 -1 11193 234882336 1073430527 -1 1073692671 2147450872 -1
        -32779 247150516</internalNodes>
      <leafValues>
        -2.7775537967681885e-01 2.7775537967681885e-01</leafValues></_>
    <_>
      <internalNodes>
        0 -1 14897 -18 2147483647 -1 -1 2147450879 -1 -1 -1</internalNodes>
      <leafValues>
        -2.7845621109008789e-01 2.7845621109008789e-01</leafValues></_>
    <_>
      <internalNodes>
        0 -1 18142 805252910 805306367 -1 -1358954497 2147450751
        2147483647 -1 2147483647</internalNodes>
      <leafValues>
        2.0879819989204407e-01 -2.0879819989204407e-01</leafValues></_>
    <_>
      <internalNodes>
        0 -1 5867 -1342247382 720306158 -285213074 1861152750 2147448614
        1400373119 1979676484 74937206</internalNodes>
      <leafValues>
        -2.6896446943283081e-01 2.6896446943283081e-01</leafValues></_>
    <_>
      <internalNodes>
        0 -1 13361 -2 -65537 -1 -1 -1 -1 -1 -32769</internalNodes>
      <leafValues>
        -2.6774001121520996e-01 2.6774001121520996e-01</leafValues></_>
    <_>
      <internalNodes>
        0 -1 6309 -18 -285212673 -1 -285212673 -137 2013265919 -1
        2013265919</internalNodes>
      <leafValues>
        -2.6291030645370483e-01 2.6291030645370483e-01</leafValues></_>
    <_>
      <internalNodes>
        0 -1 17171 -18 -285212673 -2 -285278210 -3 -1 -140 83689468</internalNodes>
      <leafValues>
        2.1203035116195679e-01 -2.1203035116195679e-01</leafValues></_>
    <_>
      <internalNodes>
        0 -1 20513 -3 -1 -1 -1 -3 -1 -3 -196612</internalNodes>
      <leafValues>
        -2.3667262494564056e-01 2.3667262494564056e-01</leafValues></_>
    <_>
      <internalNodes>
        0 -1 16125 -65540 -1 -1 -1 -1 -1 -1 -1</internalNodes>
      <leafValues>
        2.0609167218208313e-01 -2.0609167218208313e-01</leafValues></_>
    <_>
      <internalNodes>
        0 -1 7810 -18 -268435457 -1 -1 -129 -1 -1 -1</internalNodes>
      <leafValues>
        -2.3779077827930450e-01 2.3779077827930450e-01</leafValues></_>
    <_>
      <internalNodes>
        0 -1 14960 216985262 -855703554 -6 -822153220 1291616236
        1291124732 -2097176 201645888</internalNodes>
      <leafValues>
        -2.6310685276985168e-01 2.6310685276985168e-01</leafValues></_>
    <_>
      <internalNodes>
        0 -1 17116 -65540 -65537 -1 -65537 -1 -1 -1 -1</internalNodes>
      <leafValues>
        -2.8787034749984741e-01 2.8787034749984741e-01</leafValues></_>
    <_>
      <internalNodes>
        0 -1 17116 -65538 -1 -1 -65537 -1 -1 -1 1073676287</internalNodes>
      <leafValues>
        2.3253822326660156e-01 -2.3253822326660156e-01</leafValues></_>
    <_>
      <internalNodes>
        0 -1 16589 -4 -1 -1 -1 -1 -1 -1 805306367</internalNodes>
      <leafValues>
        -2.3454634845256805e-01 2.3454634845256805e-01</leafValues></_>
    <_>
      <internalNodes>
        0 -1 7292 -16777434 2121989754 -16777618 585952878 -32908
        2139062141 -202 1148481364</internalNodes>
      <leafValues>
        -2.6129257678985596e-01 2.6129257678985596e-01</leafValues></_>
    <_>
      <internalNodes>
        0 -1 11498 -2 -65537 -1 -1 -1 -1 -1 -1</internalNodes>
      <leafValues>
        -2.5909778475761414e-01 2.5909778475761414e-01</leafValues></_>
    <_>
      <internalNodes>
        0 -1 12524 -1 -1 -1 -1 -1 -1 -1 1073512444</internalNodes>
      <leafValues>
        2.3343092203140259e-01 -2.3343092203140259e-01</leafValues></_>
    <_>
      <internalNodes>
        0 -1 15717 -268500998 -285278210 -30 -278200334 -5 -285278210
        -144 772472688</internalNodes>
      <leafValues>
        -2.4576768279075623e-01 2.4576768279075623e-01</leafValues></_>
    <_>
      <internalNodes>
        0 -1 10232 -49154 -1 -1 -1 -32769 -1 -1 1056866303</internalNodes>
      <leafValues>
        -2.6285094022750854e-01 2.6285094022750854e-01</leafValues></_>
    <_>
      <internalNodes>
        0 -1 11139 788037492 -65537 -1 -65537 -1 -1 -1 1073676287</internalNodes>
      <leafValues>
        2.2308641672134399e-01 -2.2308641672134399e-01</leafValues></_>
    <_>
      <internalNodes>
        0 -1 7683 -18 -1 -2 -16777218 -137 2147483647 -137 2013265911</internalNodes>
      <leafValues>
        -2.3916088044643402e-01 2.3916088044643402e-01</leafValues></_>
    <_>
      <internalNodes>
        0 -1 1285 -18 -285212673 -2 -285212673 -137 2147483647 -137
        2013265919</internalNodes>
      <leafValues>
        2.3395666480064392e-01 -2.3395666480064392e-01</leafValues></_>
    <_>
      <internalNodes>
        0 -1 7419 -65666 -1 -2 788463615 -32908 -1 -130 1416921086</internalNodes>
      <leafValues>
        -2.3573118448257446e-01 2.3573118448257446e-01</leafValues></_>
    <_>
      <internalNodes>
        0 -1 20862 -1 -1 -1 -1 -137 -1 -9 -3</internalNodes>
      <leafValues>
        -2.3965226113796234e-01 2.3965226113796234e-01</leafValues></_>
    <_>
      <internalNodes>
        0 -1 13655 503055530 2147421615 -33026 1056910014 536806623
        2147450879 402589181 354353202</internalNodes>
      <leafValues>
        -2.6452288031578064e-01 2.6452288031578064e-01</leafValues></_>
    <_>
      <internalNodes>
        0 -1 13078 -2 -1 -1 -16777217 -1 -1 -1 -16777217</internalNodes>
      <leafValues>
        -3.1204447150230408e-01 3.1204447150230408e-01</leafValues></_>
    <_>
      <internalNodes>
        0 -1 11825 -2 -1 -2 -1 -1 -1 -9 -1</internalNodes>
      <leafValues>
        2.2002358734607697e-01 -2.2002358734607697e-01</leafValues></_>
    <_>
      <internalNodes>
        0 -1 15110 -2 -65538 -1 -65538 -1 -1 -1 -1</internalNodes>
      <leafValues>
        -2.3181661963462830e-01 2.3181661963462830e-01</leafValues></_>
    <_>
      <internalNodes>
        0 -1 17723 -282068446 788463615 -16777440 553316086 2113929040
        1962213215 -35056 276234096</internalNodes>
      <leafValues>
        -2.9461210966110229e-01 2.9461210966110229e-01</leafValues></_>
    <_>
      <internalNodes>
        0 -1 10387 -4 -1 -1 -1 -1 -1 -1 -1</internalNodes>
      <leafValues>
        -2.7799957990646362e-01 2.7799957990646362e-01</leafValues></_>
    <_>
      <internalNodes>
        0 -1 20108 -1342231006 -1 -16777242 -16777217 -45244 2147483519
        -396 1996357631</internalNodes>
      <leafValues>
        -2.4673946201801300e-01 2.4673946201801300e-01</leafValues></_>
    <_>
      <internalNodes>
        0 -1 18121 -82 -268435457 -1 -1073741825 -1 -1 -1 2147483647</internalNodes>
      <leafValues>
        -2.3556439578533173e-01 2.3556439578533173e-01</leafValues></_>
    <_>
      <internalNodes>
        0 -1 12540 -18 -268435457 -2 -285212673 -1 2147483647 -1
        1962934271</internalNodes>
      <leafValues>
        2.3335903882980347e-01 -2.3335903882980347e-01</leafValues></_>
    <_>
      <internalNodes>
        0 -1 11690 -16843094 -1359282185 -1 -1493238017 -32956
        1870495742 -32908 2520958</internalNodes>
      <leafValues>
        -2.3385247588157654e-01 2.3385247588157654e-01</leafValues></_>
    <_>
      <internalNodes>
        0 -1 9884 -2 -1 -1 -1073741825 -1 -1 -1 2147483647</internalNodes>
      <leafValues>
        -2.3211936652660370e-01 2.3211936652660370e-01</leafValues></_>
    <_>
      <internalNodes>
        0 -1 9785 -1 -268435457 -1 -16777217 -1 -1 -1 2147483647</internalNodes>
      <leafValues>
        2.4691471457481384e-01 -2.4691471457481384e-01</leafValues></_>
    <_>
      <internalNodes>
        0 -1 8856 -268435458 -285278209 -1 -268435457 -1 -1 -9 -1</internalNodes>
      <leafValues>
        -2.5020322203636169e-01 2.5020322203636169e-01</leafValues></_>
    <_>
      <internalNodes>
        0 -1 11684 -2 -1 -2 -285278210 -137 -1 -137 2013265911</internalNodes>
      <leafValues>
        2.1902486681938171e-01 -2.1902486681938171e-01</leafValues></_>
    <_>
      <internalNodes>
        0 -1 8256 -2 -16777217 -2 1828651006 -129 -1 -129 1451163647</internalNodes>
      <leafValues>
        -2.4557955563068390e-01 2.4557955563068390e-01</leafValues></_>
    <_>
      <internalNodes>
        0 -1 2954 -1 -285212673 -1 -16777217 -1 -1 -9 2147483647</internalNodes>
      <leafValues>
        2.1072296798229218e-01 -2.1072296798229218e-01</leafValues></_>
    <_>
      <internalNodes>
        0 -1 9650 -2 -1 -2 -16842754 -129 -1 -139 2147483647</internalNodes>
      <leafValues>
        -2.5149932503700256e-01 2.5149932503700256e-01</leafValues></_>
    <_>
      <internalNodes>
        0 -1 9681 -1073861004 -32769 -2 2130608126 -32780 -1 -98308
        79462396</internalNodes>
      <leafValues>
        -2.0445545017719269e-01 2.0445545017719269e-01</leafValues></_>
    <_>
      <internalNodes>
        0 -1 11615 -2 -16777217 -2 -1 -1 -1 -1 -1</internalNodes>
      <leafValues>
        -2.2632756829261780e-01 2.2632756829261780e-01</leafValues></_>
    <_>
      <internalNodes>
        0 -1 3915 -286643712 116326126 -285413714 552529578 1568110144
        1182269286 2113369972 1155792743</internalNodes>
      <leafValues>
        -2.6457980275154114e-01 2.6457980275154114e-01</leafValues></_>
    <_>
      <internalNodes>
        0 -1 20589 -1 -268435457 -1 -1 -1 -1 -1 -1</internalNodes>
      <leafValues>
        -2.6443713903427124e-01 2.6443713903427124e-01</leafValues></_>
    <_>
      <internalNodes>
        0 -1 15806 801005092 779370228 -16843009 783953508 -1073758212
        1039958014 -285540611 137497776</internalNodes>
      <leafValues>
        -2.5942188501358032e-01 2.5942188501358032e-01</leafValues></_>
    <_>
      <internalNodes>
        0 -1 8713 -18 -285212673 -2 -285278210 -137 2147483647 -137
        1995964415</internalNodes>
      <leafValues>
        2.4802947044372559e-01 -2.4802947044372559e-01</leafValues></_>
    <_>
      <internalNodes>
        0 -1 17135 -1073741826 -1342177281 -1 -285278209 -1 -1 -1
        1073545213</internalNodes>
      <leafValues>
        2.3213917016983032e-01 -2.3213917016983032e-01</leafValues></_>
    <_>
      <internalNodes>
        0 -1 16456 -285212674 -1 -2 -285278210 -1 -1 -1 528351229</internalNodes>
      <leafValues>
        -2.3041568696498871e-01 2.3041568696498871e-01</leafValues></_>
    <_>
      <internalNodes>
        0 -1 9437 -285216982 -1358954497 -2 -16777217 2147483511
        2147483647 -9 -134217729</internalNodes>
      <leafValues>
        -2.3271058499813080e-01 2.3271058499813080e-01</leafValues></_>
    <_>
      <internalNodes>
        0 -1 14045 -17 -1 -2 -1 2147450751 2147483647 -1 -1</internalNodes>
      <leafValues>
        -2.7291974425315857e-01 2.7291974425315857e-01</leafValues></_>
    <_>
      <internalNodes>
        0 -1 10899 -1073795398 -1073741825 -1 805302254 -1 -1 2147450864
        796855978</internalNodes>
      <leafValues>
        -2.5325107574462891e-01 2.5325107574462891e-01</leafValues></_>
    <_>
      <internalNodes>
        0 -1 10309 805252650 -1342177281 -4370 -268435457 2147450743
        2147483519 -32777 2147483647</internalNodes>
      <leafValues>
        2.3189058899879456e-01 -2.3189058899879456e-01</leafValues></_>
    <_>
      <internalNodes>
        0 -1 10987 117196296 1325199086 -1342249217 -1392513282
        1760978934 2130706431 930510645 106178036</internalNodes>
      <leafValues>
        -2.5598967075347900e-01 2.5598967075347900e-01</leafValues></_>
    <_>
      <internalNodes>
        0 -1 14510 -1 -268435457 -1 -285212673 -129 -1 -9 -1</internalNodes>
      <leafValues>
        -2.5945436954498291e-01 2.5945436954498291e-01</leafValues></_></weakClassifiers></stage19>
</opencv_storage>
