<?xml version="1.0"?>
<opencv_storage>
<stage15>
  <maxWeakCount>37</maxWeakCount>
  <stageThreshold>-1.5085642337799072e+00</stageThreshold>
  <weakClassifiers>
    <_>
      <internalNodes>
        0 -1 306185 -2.8635822236537933e-03</internalNodes>
      <leafValues>
        8.4475807845592499e-02 -5.2501171827316284e-01</leafValues></_>
    <_>
      <internalNodes>
        0 -1 330580 -4.8182224854826927e-03</internalNodes>
      <leafValues>
        2.5242599844932556e-01 -2.7321624755859375e-01</leafValues></_>
    <_>
      <internalNodes>
        0 -1 393148 -1.2821464333683252e-03</internalNodes>
      <leafValues>
        2.0644243061542511e-01 -2.7974256873130798e-01</leafValues></_>
    <_>
      <internalNodes>
        0 -1 241830 -1.5299578662961721e-03</internalNodes>
      <leafValues>
        1.7505332827568054e-01 -3.0440279841423035e-01</leafValues></_>
    <_>
      <internalNodes>
        0 -1 228465 3.7365063326433301e-04</internalNodes>
      <leafValues>
        -3.4233570098876953e-01 1.8355961143970490e-01</leafValues></_>
    <_>
      <internalNodes>
        0 -1 263254 -5.4839206859469414e-03</internalNodes>
      <leafValues>
        -5.0410026311874390e-01 1.3486504554748535e-01</leafValues></_>
    <_>
      <internalNodes>
        0 -1 300172 2.0316356793045998e-02</internalNodes>
      <leafValues>
        1.0201454907655716e-01 -4.8067486286163330e-01</leafValues></_>
    <_>
      <internalNodes>
        0 -1 328401 -2.3616359103471041e-03</internalNodes>
      <leafValues>
        -8.8586431741714478e-01 4.4522704556584358e-03</leafValues></_>
    <_>
      <internalNodes>
        0 -1 6221 -1.6176277771592140e-02</internalNodes>
      <leafValues>
        2.1337455511093140e-01 -2.0859546959400177e-01</leafValues></_>
    <_>
      <internalNodes>
        0 -1 383272 -2.4604076315881684e-05</internalNodes>
      <leafValues>
        1.1245752125978470e-01 -3.4604871273040771e-01</leafValues></_>
    <_>
      <internalNodes>
        0 -1 340550 8.5084307938814163e-03</internalNodes>
      <leafValues>
        1.0788454860448837e-01 -5.0237172842025757e-01</leafValues></_>
    <_>
      <internalNodes>
        0 -1 334702 1.1283764615654945e-03</internalNodes>
      <leafValues>
        -1.0818350315093994e-01 4.4146493077278137e-01</leafValues></_>
    <_>
      <internalNodes>
        0 -1 344517 -9.1710104607045650e-04</internalNodes>
      <leafValues>
        3.8218921422958374e-01 -1.5750074386596680e-01</leafValues></_>
    <_>
      <internalNodes>
        0 -1 3358 -5.6798098376020789e-04</internalNodes>
      <leafValues>
        -4.3359845876693726e-01 1.1238937824964523e-01</leafValues></_>
    <_>
      <internalNodes>
        0 -1 280360 -2.9457447817549109e-04</internalNodes>
      <leafValues>
        3.4623157978057861e-01 -1.1644335091114044e-01</leafValues></_>
    <_>
      <internalNodes>
        0 -1 191966 2.1053235977888107e-02</internalNodes>
      <leafValues>
        7.1858741343021393e-02 -6.9892835617065430e-01</leafValues></_>
    <_>
      <internalNodes>
        0 -1 290323 4.1773874545469880e-04</internalNodes>
      <leafValues>
        -2.6849597692489624e-01 1.5557183325290680e-01</leafValues></_>
    <_>
      <internalNodes>
        0 -1 293925 8.7270396761596203e-04</internalNodes>
      <leafValues>
        -1.3937503099441528e-01 2.8958496451377869e-01</leafValues></_>
    <_>
      <internalNodes>
        0 -1 377645 1.0379663435742259e-03</internalNodes>
      <leafValues>
        6.3330277800559998e-02 -8.7199491262435913e-01</leafValues></_>
    <_>
      <internalNodes>
        0 -1 306072 2.5502149946987629e-03</internalNodes>
      <leafValues>
        4.4924128800630569e-02 -1.0445237159729004e+00</leafValues></_>
    <_>
      <internalNodes>
        0 -1 7956 -1.1046403960790485e-04</internalNodes>
      <leafValues>
        -3.7411609292030334e-01 1.0069850087165833e-01</leafValues></_>
    <_>
      <internalNodes>
        0 -1 267318 1.3943937607109547e-02</internalNodes>
      <leafValues>
        -1.1238793283700943e-01 3.5191121697425842e-01</leafValues></_>
    <_>
      <internalNodes>
        0 -1 330812 1.0697075631469488e-03</internalNodes>
      <leafValues>
        7.5368314981460571e-02 -5.6909966468811035e-01</leafValues></_>
    <_>
      <internalNodes>
        0 -1 392702 1.9637630321085453e-03</internalNodes>
      <leafValues>
        6.4085878431797028e-02 -6.3400721549987793e-01</leafValues></_>
    <_>
      <internalNodes>
        0 -1 212971 -2.7586296200752258e-03</internalNodes>
      <leafValues>
        4.1485127806663513e-01 -9.4458676874637604e-02</leafValues></_>
    <_>
      <internalNodes>
        0 -1 93726 2.0785191736649722e-04</internalNodes>
      <leafValues>
        1.0149587690830231e-01 -3.5511547327041626e-01</leafValues></_>
    <_>
      <internalNodes>
        0 -1 292664 -3.1873352825641632e-02</internalNodes>
      <leafValues>
        -7.7825647592544556e-01 6.0332749038934708e-02</leafValues></_>
    <_>
      <internalNodes>
        0 -1 318450 4.5473984209820628e-04</internalNodes>
      <leafValues>
        -1.2160535156726837e-01 2.9503560066223145e-01</leafValues></_>
    <_>
      <internalNodes>
        0 -1 249961 -4.8021711409091949e-03</internalNodes>
      <leafValues>
        4.2707037925720215e-01 -9.8313964903354645e-02</leafValues></_>
    <_>
      <internalNodes>
        0 -1 349447 1.5550637617707253e-03</internalNodes>
      <leafValues>
        5.8287099003791809e-02 -7.5513333082199097e-01</leafValues></_>
    <_>
      <internalNodes>
        0 -1 389881 -2.5964481756091118e-04</internalNodes>
      <leafValues>
        1.3247631490230560e-01 -2.9085507988929749e-01</leafValues></_>
    <_>
      <internalNodes>
        0 -1 334175 -2.2076761815696955e-03</internalNodes>
      <leafValues>
        1.4040324091911316e-01 -2.5314056873321533e-01</leafValues></_>
    <_>
      <internalNodes>
        0 -1 308137 1.3306925538927317e-03</internalNodes>
      <leafValues>
        6.9054782390594482e-02 -5.2925330400466919e-01</leafValues></_>
    <_>
      <internalNodes>
        0 -1 347910 -1.5819587133591995e-05</internalNodes>
      <leafValues>
        1.6335056722164154e-01 -2.1013994514942169e-01</leafValues></_>
    <_>
      <internalNodes>
        0 -1 250420 8.7998982053250074e-04</internalNodes>
      <leafValues>
        -1.0579100996255875e-01 3.6435896158218384e-01</leafValues></_>
    <_>
      <internalNodes>
        0 -1 280359 -6.4370455220341682e-04</internalNodes>
      <leafValues>
        4.0840828418731689e-01 -9.7428940236568451e-02</leafValues></_>
    <_>
      <internalNodes>
        0 -1 340525 -6.3760844059288502e-03</internalNodes>
      <leafValues>
        -5.9660828113555908e-01 7.1591280400753021e-02</leafValues></_></weakClassifiers></stage15>
</opencv_storage>
