<?xml version="1.0"?>
<opencv_storage>
<stage13>
  <maxWeakCount>66</maxWeakCount>
  <stageThreshold>-2.8409349918365479e+00</stageThreshold>
  <weakClassifiers>
    <_>
      <internalNodes>
        0 -1 2511 -1 -1 -1 -1 -1 -1 -1 -1073741825</internalNodes>
      <leafValues>
        -1.1524068117141724e+00 1.1524068117141724e+00</leafValues></_>
    <_>
      <internalNodes>
        0 -1 1969 -2 -268500994 -1 -1 -1 -1 -9 -1</internalNodes>
      <leafValues>
        -4.0325015783309937e-01 4.0325015783309937e-01</leafValues></_>
    <_>
      <internalNodes>
        0 -1 2451 -285278216 -318832642 -65538 -1 1559953392 -730529794
        -2 -16842753</internalNodes>
      <leafValues>
        -3.5059762001037598e-01 3.5059762001037598e-01</leafValues></_>
    <_>
      <internalNodes>
        0 -1 3809 -4 -1 -1 -1 -32771 -1 -3 -3</internalNodes>
      <leafValues>
        -3.4456211328506470e-01 3.4456211328506470e-01</leafValues></_>
    <_>
      <internalNodes>
        0 -1 2656 519974432 1056849791 -49220 867663869 1073618032
        2147450751 1878461948 41039216</internalNodes>
      <leafValues>
        -3.5946005582809448e-01 3.5946005582809448e-01</leafValues></_>
    <_>
      <internalNodes>
        0 -1 58 -1 -16777217 -1 -16777217 -129 -1 -137 -1</internalNodes>
      <leafValues>
        -3.6121731996536255e-01 3.6121731996536255e-01</leafValues></_>
    <_>
      <internalNodes>
        0 -1 2434 -18 1073741823 -1 1073741823 -1 2147483647 -1
        2147483647</internalNodes>
      <leafValues>
        -3.4057745337486267e-01 3.4057745337486267e-01</leafValues></_>
    <_>
      <internalNodes>
        0 -1 3526 1073709054 -1 -1 -16842754 -1073741825 -1 2147450869
        503078228</internalNodes>
      <leafValues>
        -3.1137692928314209e-01 3.1137692928314209e-01</leafValues></_>
    <_>
      <internalNodes>
        0 -1 3273 -94 -1 -1 -268435457 -193 -1 -1 -1073741825</internalNodes>
      <leafValues>
        -3.2856985926628113e-01 3.2856985926628113e-01</leafValues></_>
    <_>
      <internalNodes>
        0 -1 2212 -285282448 -196610 -12 -131076 2147450876 -1 -139
        2104590196</internalNodes>
      <leafValues>
        -2.9305905103683472e-01 2.9305905103683472e-01</leafValues></_>
    <_>
      <internalNodes>
        0 -1 722 -1 -1 -1 -268435457 -1 -1 -129 2147483647</internalNodes>
      <leafValues>
        -3.4266772866249084e-01 3.4266772866249084e-01</leafValues></_>
    <_>
      <internalNodes>
        0 -1 2603 267323904 -16777217 -1358958678 1862262511 -1652609536
        2139029375 511381250 1043279730</internalNodes>
      <leafValues>
        -2.6502680778503418e-01 2.6502680778503418e-01</leafValues></_>
    <_>
      <internalNodes>
        0 -1 3898 -1 -1 -1 -1 -1 -1 -3 -4</internalNodes>
      <leafValues>
        -3.3433941006660461e-01 3.3433941006660461e-01</leafValues></_>
    <_>
      <internalNodes>
        0 -1 2775 -2 805240831 -2 -1 -1 1073741823 -9 268435455</internalNodes>
      <leafValues>
        -3.2867354154586792e-01 3.2867354154586792e-01</leafValues></_>
    <_>
      <internalNodes>
        0 -1 669 -1 -268435457 -1 -285212673 -129 -1 -137 2147483647</internalNodes>
      <leafValues>
        2.7499604225158691e-01 -2.7499604225158691e-01</leafValues></_>
    <_>
      <internalNodes>
        0 -1 3159 -1073741825 -285212673 -1 -16842754 -129 -1 -139
        -65548</internalNodes>
      <leafValues>
        -2.5239095091819763e-01 2.5239095091819763e-01</leafValues></_>
    <_>
      <internalNodes>
        0 -1 1659 -2 -1 -1 -285212674 -137 -1 -129 2013233023</internalNodes>
      <leafValues>
        -2.8822863101959229e-01 2.8822863101959229e-01</leafValues></_>
    <_>
      <internalNodes>
        0 -1 3273 -1342230750 -268435457 -1 -1342177281 -201 -1 -137
        1073741823</internalNodes>
      <leafValues>
        2.8052526712417603e-01 -2.8052526712417603e-01</leafValues></_>
    <_>
      <internalNodes>
        0 -1 2100 804204040 -1073741825 783232810 247398399 1878998790
        -1 1063206675 511704927</internalNodes>
      <leafValues>
        -2.3858055472373962e-01 2.3858055472373962e-01</leafValues></_>
    <_>
      <internalNodes>
        0 -1 600 -1 -1 -1 -16777217 -129 -1 -9 2147483645</internalNodes>
      <leafValues>
        -3.1113073229789734e-01 3.1113073229789734e-01</leafValues></_>
    <_>
      <internalNodes>
        0 -1 1074 -18 -16777217 -2 -285212673 -137 -134217729 -1
        2147483647</internalNodes>
      <leafValues>
        -2.6420480012893677e-01 2.6420480012893677e-01</leafValues></_>
    <_>
      <internalNodes>
        0 -1 276 -1 -285212673 -1 -285212673 -129 -1 -137 2013265919</internalNodes>
      <leafValues>
        2.9239675402641296e-01 -2.9239675402641296e-01</leafValues></_>
    <_>
      <internalNodes>
        0 -1 962 -268439570 -268435457 -2 -1 -9 2147483647 -9 -1</internalNodes>
      <leafValues>
        -2.5421205163002014e-01 2.5421205163002014e-01</leafValues></_>
    <_>
      <internalNodes>
        0 -1 712 -1 -1 -2 -16777217 -1 -1 -9 -1</internalNodes>
      <leafValues>
        2.5614982843399048e-01 -2.5614982843399048e-01</leafValues></_>
    <_>
      <internalNodes>
        0 -1 1677 -2 -285212673 -2 -285278210 -129 -1 -137 2147483639</internalNodes>
      <leafValues>
        3.0085113644599915e-01 -3.0085113644599915e-01</leafValues></_>
    <_>
      <internalNodes>
        0 -1 2091 -268435474 -285212673 -2 -1 2147483511 -1 -137 -1</internalNodes>
      <leafValues>
        -2.4714614450931549e-01 2.4714614450931549e-01</leafValues></_>
    <_>
      <internalNodes>
        0 -1 1953 -18 -1 -2 -1 -1 -1 -1 -1</internalNodes>
      <leafValues>
        -3.3693969249725342e-01 3.3693969249725342e-01</leafValues></_>
    <_>
      <internalNodes>
        0 -1 2786 -268468366 -268436482 -264 -1157955592 -134255260
        2146959358 -100560 2113169380</internalNodes>
      <leafValues>
        -2.5948104262351990e-01 2.5948104262351990e-01</leafValues></_>
    <_>
      <internalNodes>
        0 -1 2196 -1342230738 805306367 -1 -268435457 2147450743
        2147483647 -32905 2013265919</internalNodes>
      <leafValues>
        3.2965484261512756e-01 -3.2965484261512756e-01</leafValues></_>
    <_>
      <internalNodes>
        0 -1 763 1073708972 -1359020033 -2 -1090519041 2147483509
        2147483647 -32899 1996259197</internalNodes>
      <leafValues>
        -2.6826775074005127e-01 2.6826775074005127e-01</leafValues></_>
    <_>
      <internalNodes>
        0 -1 2752 -2 -16777218 -2 -16777218 -1 -1 -2 -50331650</internalNodes>
      <leafValues>
        -2.8909409046173096e-01 2.8909409046173096e-01</leafValues></_>
    <_>
      <internalNodes>
        0 -1 1732 -269571036 754876414 -30 716111871 2147441988
        1065189367 -8958156 1148649462</internalNodes>
      <leafValues>
        -2.2625508904457092e-01 2.2625508904457092e-01</leafValues></_>
    <_>
      <internalNodes>
        0 -1 61 -1 -1 -2 -268435457 -1 -1 -129 2147483647</internalNodes>
      <leafValues>
        -3.3200037479400635e-01 3.3200037479400635e-01</leafValues></_>
    <_>
      <internalNodes>
        0 -1 3232 145753168 -1092157441 1023344637 1257168892 805178396
        2147467135 754847540 179840112</internalNodes>
      <leafValues>
        -2.2161763906478882e-01 2.2161763906478882e-01</leafValues></_>
    <_>
      <internalNodes>
        0 -1 2934 1879048191 -1073741825 -1 -1 2147450879 -1 -1 -1</internalNodes>
      <leafValues>
        -3.3016407489776611e-01 3.3016407489776611e-01</leafValues></_>
    <_>
      <internalNodes>
        0 -1 3638 -18 -1 -2 -16842754 -137 -1 -139 -134217732</internalNodes>
      <leafValues>
        -2.4328380823135376e-01 2.4328380823135376e-01</leafValues></_>
    <_>
      <internalNodes>
        0 -1 3469 -1342242828 -1073807361 -1 -3 -1 -1 -11 -11</internalNodes>
      <leafValues>
        -2.2491425275802612e-01 2.2491425275802612e-01</leafValues></_>
    <_>
      <internalNodes>
        0 -1 2410 2147483630 2147483647 -1 2147483647 -1 -1 -1
        2147483647</internalNodes>
      <leafValues>
        -2.8116285800933838e-01 2.8116285800933838e-01</leafValues></_>
    <_>
      <internalNodes>
        0 -1 435 1861109348 250346238 1862270118 -1360007170 2105365872
        1476362239 1828680756 1862232822</internalNodes>
      <leafValues>
        -2.4309124052524567e-01 2.4309124052524567e-01</leafValues></_>
    <_>
      <internalNodes>
        0 -1 1503 -18 -1 -1 -1 -137 -1 -9 -1</internalNodes>
      <leafValues>
        -2.6012700796127319e-01 2.6012700796127319e-01</leafValues></_>
    <_>
      <internalNodes>
        0 -1 2102 -268501152 -16842753 -2 -65537 -140 -1 -137 -1</internalNodes>
      <leafValues>
        2.7731612324714661e-01 -2.7731612324714661e-01</leafValues></_>
    <_>
      <internalNodes>
        0 -1 2144 1878949874 -16842754 -1 -65537 -144 -524289 -2 -1</internalNodes>
      <leafValues>
        -2.3875218629837036e-01 2.3875218629837036e-01</leafValues></_>
    <_>
      <internalNodes>
        0 -1 2715 805269366 805306367 -1 -1 2147450743 2147483647 -32777
        2147483647</internalNodes>
      <leafValues>
        2.8441640734672546e-01 -2.8441640734672546e-01</leafValues></_>
    <_>
      <internalNodes>
        0 -1 879 -1 -268435457 -1 -285212673 -129 -1 -137 2147483647</internalNodes>
      <leafValues>
        2.3744381964206696e-01 -2.3744381964206696e-01</leafValues></_>
    <_>
      <internalNodes>
        0 -1 1378 -212 1862270975 -1 788463615 -32908 -134217729 -139
        1970798591</internalNodes>
      <leafValues>
        -2.4725297093391418e-01 2.4725297093391418e-01</leafValues></_>
    <_>
      <internalNodes>
        0 -1 757 1073708927 -1090519041 -1 -1090519041 -1 -1 -3
        2147287037</internalNodes>
      <leafValues>
        -2.8591144084930420e-01 2.8591144084930420e-01</leafValues></_>
    <_>
      <internalNodes>
        0 -1 475 -1 -1 -1 -268435457 -1 -1 -1 2147483647</internalNodes>
      <leafValues>
        -2.9485768079757690e-01 2.9485768079757690e-01</leafValues></_>
    <_>
      <internalNodes>
        0 -1 447 1862201122 -286326786 -1342246994 -1358954498
        2147448644 2147483519 2147450710 1879048191</internalNodes>
      <leafValues>
        -2.6103028655052185e-01 2.6103028655052185e-01</leafValues></_>
    <_>
      <internalNodes>
        0 -1 2747 -2 -16777217 -2 -16777217 -9 -1 -9 -167772161</internalNodes>
      <leafValues>
        -2.9665887355804443e-01 2.9665887355804443e-01</leafValues></_>
    <_>
      <internalNodes>
        0 -1 2697 146801856 175833079 1828617721 251527164 76830164
        1073545205 86793692 573497181</internalNodes>
      <leafValues>
        -2.0568199455738068e-01 2.0568199455738068e-01</leafValues></_>
    <_>
      <internalNodes>
        0 -1 358 -2 -1 -1 -1 -137 -1 -129 -1</internalNodes>
      <leafValues>
        -3.1877920031547546e-01 3.1877920031547546e-01</leafValues></_>
    <_>
      <internalNodes>
        0 -1 2775 -2 -1342177281 -1 -285278209 -1 -1 -9 805306367</internalNodes>
      <leafValues>
        2.5623673200607300e-01 -2.5623673200607300e-01</leafValues></_>
    <_>
      <internalNodes>
        0 -1 706 -18 -268435457 -1 -285212673 -129 -1 -137 2013265919</internalNodes>
      <leafValues>
        2.4550110101699829e-01 -2.4550110101699829e-01</leafValues></_>
    <_>
      <internalNodes>
        0 -1 2136 178539616 251457534 -1342177281 788520959 1677030900
        1073741695 2113175028 1576761215</internalNodes>
      <leafValues>
        -1.8599779903888702e-01 1.8599779903888702e-01</leafValues></_>
    <_>
      <internalNodes>
        0 -1 3774 -1 -1 -1 -1 -1 -1 -3 -3</internalNodes>
      <leafValues>
        -3.4403499960899353e-01 3.4403499960899353e-01</leafValues></_>
    <_>
      <internalNodes>
        0 -1 132 1722744358 683212796 -17825940 -285278209 1985281285
        -176947209 2000060260 -981532674</internalNodes>
      <leafValues>
        -1.9762752950191498e-01 1.9762752950191498e-01</leafValues></_>
    <_>
      <internalNodes>
        0 -1 1044 -1073741826 -1 -1 -268435457 -129 -1 -1 2147483647</internalNodes>
      <leafValues>
        -3.3591684699058533e-01 3.3591684699058533e-01</leafValues></_>
    <_>
      <internalNodes>
        0 -1 650 805056300 788463599 -2 -285294593 -142705289 2147418111
        2147415925 75242940</internalNodes>
      <leafValues>
        -1.9354148209095001e-01 1.9354148209095001e-01</leafValues></_>
    <_>
      <internalNodes>
        0 -1 2166 -2 -1 -2 -1 -1 -1 -1 2147483647</internalNodes>
      <leafValues>
        -3.2096919417381287e-01 3.2096919417381287e-01</leafValues></_>
    <_>
      <internalNodes>
        0 -1 1905 246023456 804191716 -557069 804192254 1279227888
        536870910 1325236016 132472180</internalNodes>
      <leafValues>
        -2.5411802530288696e-01 2.5411802530288696e-01</leafValues></_>
    <_>
      <internalNodes>
        0 -1 3375 -1 -1 -1 -16842753 -129 -1 -9 -1</internalNodes>
      <leafValues>
        -3.0309849977493286e-01 3.0309849977493286e-01</leafValues></_>
    <_>
      <internalNodes>
        0 -1 2834 -1 -1 -1 -1 -1 -1 -9 -1</internalNodes>
      <leafValues>
        2.2080686688423157e-01 -2.2080686688423157e-01</leafValues></_>
    <_>
      <internalNodes>
        0 -1 1879 805257070 -1358954497 -1 -1359020033 2147450743
        2147483647 -32908 746487669</internalNodes>
      <leafValues>
        2.8170728683471680e-01 -2.8170728683471680e-01</leafValues></_>
    <_>
      <internalNodes>
        0 -1 3745 641469968 -268894470 -16844809 775356408 1060642052
        -98313 268193396 846744628</internalNodes>
      <leafValues>
        -2.0650413632392883e-01 2.0650413632392883e-01</leafValues></_>
    <_>
      <internalNodes>
        0 -1 1330 -1 -1 -1 -16777217 -129 -1 -1 -1</internalNodes>
      <leafValues>
        -3.1016439199447632e-01 3.1016439199447632e-01</leafValues></_>
    <_>
      <internalNodes>
        0 -1 1441 -1 -1 -1 -16777217 -129 -1 -9 2147483647</internalNodes>
      <leafValues>
        2.4409089982509613e-01 -2.4409089982509613e-01</leafValues></_></weakClassifiers></stage13>
</opencv_storage>
