<?xml version="1.0"?>
<opencv_storage>
<stage11>
  <maxWeakCount>45</maxWeakCount>
  <stageThreshold>-2.9376296997070312e+00</stageThreshold>
  <weakClassifiers>
    <_>
      <internalNodes>
        0 -1 2262 -1 -1 -1 -1 -1 -1 -1 -301989889</internalNodes>
      <leafValues>
        -1.1951545476913452e+00 1.1951545476913452e+00</leafValues></_>
    <_>
      <internalNodes>
        0 -1 3104 -94 -1 -1 -1 -1 -1 -1 -1</internalNodes>
      <leafValues>
        -4.8034009337425232e-01 4.8034009337425232e-01</leafValues></_>
    <_>
      <internalNodes>
        0 -1 1638 -268439578 -286326786 -2 -268435457 -9 2147483647
        -524425 -524289</internalNodes>
      <leafValues>
        -3.9563283324241638e-01 3.9563283324241638e-01</leafValues></_>
    <_>
      <internalNodes>
        0 -1 2854 -65540 -1 -1 -65537 -1 -1 -1 980451316</internalNodes>
      <leafValues>
        -3.8695767521858215e-01 3.8695767521858215e-01</leafValues></_>
    <_>
      <internalNodes>
        0 -1 2271 -268468354 -1 -1 -1 -9 -1 -1 1828683775</internalNodes>
      <leafValues>
        -3.8413539528846741e-01 3.8413539528846741e-01</leafValues></_>
    <_>
      <internalNodes>
        0 -1 3642 -1 -1 -2 -65538 -137 -1 -12 -11</internalNodes>
      <leafValues>
        -3.9763897657394409e-01 3.9763897657394409e-01</leafValues></_>
    <_>
      <internalNodes>
        0 -1 2431 1286930360 -839057409 -65537 -33554433 1559560176
        -537001985 -1 -1</internalNodes>
      <leafValues>
        -3.5072895884513855e-01 3.5072895884513855e-01</leafValues></_>
    <_>
      <internalNodes>
        0 -1 3476 -1073741833 -1342177281 -1 -1 -1 -1 -11 -3</internalNodes>
      <leafValues>
        -3.8051074743270874e-01 3.8051074743270874e-01</leafValues></_>
    <_>
      <internalNodes>
        0 -1 2511 754433920 754384878 -1090519044 1006567166 2147352404
        1039630076 -631808 7347216</internalNodes>
      <leafValues>
        -3.3520066738128662e-01 3.3520066738128662e-01</leafValues></_>
    <_>
      <internalNodes>
        0 -1 2514 -2 -1 -2 -1 -1 2147483647 -1 -973078529</internalNodes>
      <leafValues>
        -4.1980403661727905e-01 4.1980403661727905e-01</leafValues></_>
    <_>
      <internalNodes>
        0 -1 721 -220 579534718 -18 -1564540929 -167821564 1467449205
        -134217916 1157562359</internalNodes>
      <leafValues>
        -2.9114705324172974e-01 2.9114705324172974e-01</leafValues></_>
    <_>
      <internalNodes>
        0 -1 1954 -2 -1 -2 -268435457 -1 -1 -1 2147483647</internalNodes>
      <leafValues>
        -3.9565044641494751e-01 3.9565044641494751e-01</leafValues></_>
    <_>
      <internalNodes>
        0 -1 1745 -18 -16777217 -1 -1 -137 2147483647 -1 -1</internalNodes>
      <leafValues>
        -3.6512914299964905e-01 3.6512914299964905e-01</leafValues></_>
    <_>
      <internalNodes>
        0 -1 3226 805244424 -17 -260 2146959295 2147442436 2139095039
        2138005076 2004647764</internalNodes>
      <leafValues>
        -3.7506189942359924e-01 3.7506189942359924e-01</leafValues></_>
    <_>
      <internalNodes>
        0 -1 3648 -10 -1 -1 -65537 -9 -1 -11 -196620</internalNodes>
      <leafValues>
        -3.4871798753738403e-01 3.4871798753738403e-01</leafValues></_>
    <_>
      <internalNodes>
        0 -1 2463 805252898 -1342177281 -1 -1 2147450743 2147483647
        -32905 2147483647</internalNodes>
      <leafValues>
        3.7825238704681396e-01 -3.7825238704681396e-01</leafValues></_>
    <_>
      <internalNodes>
        0 -1 3439 -1073840334 -1 -1 -1073741825 -129 -1 -1 -1342177281</internalNodes>
      <leafValues>
        -3.0395305156707764e-01 3.0395305156707764e-01</leafValues></_>
    <_>
      <internalNodes>
        0 -1 3335 -2 -1 -1 -1 -137 -1 -11 -3</internalNodes>
      <leafValues>
        3.0500957369804382e-01 -3.0500957369804382e-01</leafValues></_>
    <_>
      <internalNodes>
        0 -1 494 -1090535620 -16842753 -1 -1 -32769 -1 -1 2130706303</internalNodes>
      <leafValues>
        -3.0836078524589539e-01 3.0836078524589539e-01</leafValues></_>
    <_>
      <internalNodes>
        0 -1 2504 -268501086 1761542124 -24 -553648146 -65758
        -2068382273 -512 553435104</internalNodes>
      <leafValues>
        -2.8201895952224731e-01 2.8201895952224731e-01</leafValues></_>
    <_>
      <internalNodes>
        0 -1 787 -2 -1 -2 -1 -1 -1 -9 -1</internalNodes>
      <leafValues>
        -3.7684735655784607e-01 3.7684735655784607e-01</leafValues></_>
    <_>
      <internalNodes>
        0 -1 1105 788406120 -268435457 -2 -285278209 2147450743
        2147483647 -12 477904500</internalNodes>
      <leafValues>
        -2.5218412280082703e-01 2.5218412280082703e-01</leafValues></_>
    <_>
      <internalNodes>
        0 -1 2215 -18 -1 -1 -1 2147483647 -1 -1 -1</internalNodes>
      <leafValues>
        -3.6484080553054810e-01 3.6484080553054810e-01</leafValues></_>
    <_>
      <internalNodes>
        0 -1 3354 -285212892 -268500994 -285315552 -83951618 2013232964
        1602191231 2147482452 1691746165</internalNodes>
      <leafValues>
        -3.0785539746284485e-01 3.0785539746284485e-01</leafValues></_>
    <_>
      <internalNodes>
        0 -1 609 -1 -16777217 -1 -1 -1 -1 -129 -1</internalNodes>
      <leafValues>
        -3.5293942689895630e-01 3.5293942689895630e-01</leafValues></_>
    <_>
      <internalNodes>
        0 -1 604 -1 -268435457 -1 -285212673 -1 2147483647 -137
        2147483647</internalNodes>
      <leafValues>
        3.2437050342559814e-01 -3.2437050342559814e-01</leafValues></_>
    <_>
      <internalNodes>
        0 -1 1674 -1 -285278209 -1 -285278209 -32897 -1 -137 2130640895</internalNodes>
      <leafValues>
        2.8579899668693542e-01 -2.8579899668693542e-01</leafValues></_>
    <_>
      <internalNodes>
        0 -1 1055 -146 -268500993 -1 -1426128897 -139 -129 -129
        896794623</internalNodes>
      <leafValues>
        -2.7993768453598022e-01 2.7993768453598022e-01</leafValues></_>
    <_>
      <internalNodes>
        0 -1 3210 -1 -1 -1 -65537 -1 -1 -3 2147319804</internalNodes>
      <leafValues>
        -3.2214465737342834e-01 3.2214465737342834e-01</leafValues></_>
    <_>
      <internalNodes>
        0 -1 3159 -1342177298 -1359020033 -1 -16842754 -137 -1 -140
        -65548</internalNodes>
      <leafValues>
        -2.8456196188926697e-01 2.8456196188926697e-01</leafValues></_>
    <_>
      <internalNodes>
        0 -1 1141 -1073742038 1861156863 -1 -16842754 2147450743
        2147483647 -139 2013265911</internalNodes>
      <leafValues>
        -2.5242835283279419e-01 2.5242835283279419e-01</leafValues></_>
    <_>
      <internalNodes>
        0 -1 2291 -2 -1 -2 -65538 -1 -1 -129 2121793535</internalNodes>
      <leafValues>
        -3.2674387097358704e-01 3.2674387097358704e-01</leafValues></_>
    <_>
      <internalNodes>
        0 -1 2265 -18 -285212673 -18 -285212673 -129 1442840575 -140
        1627389951</internalNodes>
      <leafValues>
        3.2121738791465759e-01 -3.2121738791465759e-01</leafValues></_>
    <_>
      <internalNodes>
        0 -1 505 36499244 -1469251597 -286458263 -1426259970 2012413220
        -696385665 911507285 -331939850</internalNodes>
      <leafValues>
        -2.6177120208740234e-01 2.6177120208740234e-01</leafValues></_>
    <_>
      <internalNodes>
        0 -1 3840 -1 -1 -1 -1 -1 -1 -1 -3</internalNodes>
      <leafValues>
        -3.6601829528808594e-01 3.6601829528808594e-01</leafValues></_>
    <_>
      <internalNodes>
        0 -1 2412 3698208 1089798140 -805634177 -168230916 1282473840
        527499263 1600978798 1845231071</internalNodes>
      <leafValues>
        -2.7498596906661987e-01 2.7498596906661987e-01</leafValues></_>
    <_>
      <internalNodes>
        0 -1 2499 -2 -1342177281 -2 -2 -32769 1979711487 -10 -452984833</internalNodes>
      <leafValues>
        -3.1966757774353027e-01 3.1966757774353027e-01</leafValues></_>
    <_>
      <internalNodes>
        0 -1 2274 -2 -1 -1 -1 -1 -1 -1 1744830463</internalNodes>
      <leafValues>
        -3.4886592626571655e-01 3.4886592626571655e-01</leafValues></_>
    <_>
      <internalNodes>
        0 -1 2334 1060768928 -1077985665 2147467262 805252216
        -1207994556 -1073741825 -134517260 360004724</internalNodes>
      <leafValues>
        -3.2952502369880676e-01 3.2952502369880676e-01</leafValues></_>
    <_>
      <internalNodes>
        0 -1 3709 -32769 -1 -1 -1 -3 -1 -3 -1</internalNodes>
      <leafValues>
        -3.3476799726486206e-01 3.3476799726486206e-01</leafValues></_>
    <_>
      <internalNodes>
        0 -1 62 788524772 268414207 -822137146 787480318 2147428213
        1342177279 1073706820 1207858815</internalNodes>
      <leafValues>
        -2.6640459895133972e-01 2.6640459895133972e-01</leafValues></_>
    <_>
      <internalNodes>
        0 -1 3197 -10 -1 -2 -65538 -137 -1 -140 -12</internalNodes>
      <leafValues>
        3.1073817610740662e-01 -3.1073817610740662e-01</leafValues></_>
    <_>
      <internalNodes>
        0 -1 2314 -65670 -285278210 -2 -285278212 -139 -524297 -32900
        2138570743</internalNodes>
      <leafValues>
        -2.4535733461380005e-01 2.4535733461380005e-01</leafValues></_>
    <_>
      <internalNodes>
        0 -1 1332 -285212930 -285278210 -2 -285278210 -137 2013265919
        -137 2013265919</internalNodes>
      <leafValues>
        3.0865147709846497e-01 -3.0865147709846497e-01</leafValues></_>
    <_>
      <internalNodes>
        0 -1 3391 -26 -1 -2 -16842754 -138 -1 -2060 -168296459</internalNodes>
      <leafValues>
        -2.4912521243095398e-01 2.4912521243095398e-01</leafValues></_></weakClassifiers></stage11>
</opencv_storage>
