<?xml version="1.0"?>
<opencv_storage>
<stage17>
  <maxWeakCount>100</maxWeakCount>
  <stageThreshold>-4.8326978683471680e+00</stageThreshold>
  <weakClassifiers>
    <_>
      <internalNodes>
        0 -1 208419 1.2445596978068352e-02</internalNodes>
      <leafValues>
        -4.9391797184944153e-01 1.0634146928787231e+00</leafValues></_>
    <_>
      <internalNodes>
        0 -1 318762 -6.2845200300216675e-03</internalNodes>
      <leafValues>
        7.3594003915786743e-01 -6.0881340503692627e-01</leafValues></_>
    <_>
      <internalNodes>
        0 -1 284022 1.1693768203258514e-02</internalNodes>
      <leafValues>
        -7.4152189493179321e-01 5.3747302293777466e-01</leafValues></_>
    <_>
      <internalNodes>
        0 -1 366930 -2.6550767943263054e-02</internalNodes>
      <leafValues>
        4.7483709454536438e-01 -6.0784268379211426e-01</leafValues></_>
    <_>
      <internalNodes>
        0 -1 249098 2.5730021297931671e-03</internalNodes>
      <leafValues>
        -3.5292315483093262e-01 8.0543434619903564e-01</leafValues></_>
    <_>
      <internalNodes>
        0 -1 265055 1.1649610241875052e-03</internalNodes>
      <leafValues>
        -3.9374804496765137e-01 7.2092223167419434e-01</leafValues></_>
    <_>
      <internalNodes>
        0 -1 108112 2.3276101797819138e-02</internalNodes>
      <leafValues>
        -9.2834240198135376e-01 2.6753428578376770e-01</leafValues></_>
    <_>
      <internalNodes>
        0 -1 3606 -4.1935257613658905e-02</internalNodes>
      <leafValues>
        7.0687597990036011e-01 -3.1078684329986572e-01</leafValues></_>
    <_>
      <internalNodes>
        0 -1 260681 1.9444547593593597e-02</internalNodes>
      <leafValues>
        1.5407350659370422e-01 -1.2669615745544434e+00</leafValues></_>
    <_>
      <internalNodes>
        0 -1 265564 3.6059760022908449e-03</internalNodes>
      <leafValues>
        -2.2783099114894867e-01 9.1038769483566284e-01</leafValues></_>
    <_>
      <internalNodes>
        0 -1 349522 -3.5548623418435454e-04</internalNodes>
      <leafValues>
        3.2117992639541626e-01 -5.5300045013427734e-01</leafValues></_>
    <_>
      <internalNodes>
        0 -1 324403 1.0319696739315987e-02</internalNodes>
      <leafValues>
        -7.4727010726928711e-01 2.0984417200088501e-01</leafValues></_>
    <_>
      <internalNodes>
        0 -1 142945 2.9961187392473221e-03</internalNodes>
      <leafValues>
        -5.9694838523864746e-01 2.6611956954002380e-01</leafValues></_>
    <_>
      <internalNodes>
        0 -1 327766 -7.8793591819703579e-04</internalNodes>
      <leafValues>
        4.3245151638984680e-01 -3.8543725013732910e-01</leafValues></_>
    <_>
      <internalNodes>
        0 -1 371691 4.4923145323991776e-03</internalNodes>
      <leafValues>
        1.2515491247177124e-01 -1.2555719614028931e+00</leafValues></_>
    <_>
      <internalNodes>
        0 -1 382497 3.5842932993546128e-04</internalNodes>
      <leafValues>
        1.3204291462898254e-01 -1.1786866188049316e+00</leafValues></_>
    <_>
      <internalNodes>
        0 -1 376 8.2387000322341919e-02</internalNodes>
      <leafValues>
        -1.9516415894031525e-01 8.5694891214370728e-01</leafValues></_>
    <_>
      <internalNodes>
        0 -1 19965 -1.8067711591720581e-01</internalNodes>
      <leafValues>
        1.3296973705291748e+00 -1.0349830240011215e-01</leafValues></_>
    <_>
      <internalNodes>
        0 -1 293924 2.6534576900303364e-03</internalNodes>
      <leafValues>
        -1.4571726322174072e-01 9.4497579336166382e-01</leafValues></_>
    <_>
      <internalNodes>
        0 -1 180155 8.6607104167342186e-03</internalNodes>
      <leafValues>
        -1.9946633279323578e-01 6.8941336870193481e-01</leafValues></_>
    <_>
      <internalNodes>
        0 -1 372330 1.2986247893422842e-03</internalNodes>
      <leafValues>
        1.6424207389354706e-01 -8.6430305242538452e-01</leafValues></_>
    <_>
      <internalNodes>
        0 -1 152562 -1.1104075238108635e-02</internalNodes>
      <leafValues>
        -9.4801419973373413e-01 1.3110072910785675e-01</leafValues></_>
    <_>
      <internalNodes>
        0 -1 217126 5.7668646331876516e-04</internalNodes>
      <leafValues>
        -2.5117933750152588e-01 5.4287737607955933e-01</leafValues></_>
    <_>
      <internalNodes>
        0 -1 370938 -6.9576199166476727e-04</internalNodes>
      <leafValues>
        -8.5503280162811279e-01 1.5375621616840363e-01</leafValues></_>
    <_>
      <internalNodes>
        0 -1 241607 -1.4207100030034781e-03</internalNodes>
      <leafValues>
        5.2923572063446045e-01 -2.3283654451370239e-01</leafValues></_>
    <_>
      <internalNodes>
        0 -1 258396 -2.1661603823304176e-03</internalNodes>
      <leafValues>
        6.4753484725952148e-01 -2.3512110114097595e-01</leafValues></_>
    <_>
      <internalNodes>
        0 -1 235847 -1.5990843530744314e-03</internalNodes>
      <leafValues>
        -9.9614220857620239e-01 1.3294994831085205e-01</leafValues></_>
    <_>
      <internalNodes>
        0 -1 9688 -5.9267389588057995e-03</internalNodes>
      <leafValues>
        -8.3803248405456543e-01 1.4513473212718964e-01</leafValues></_>
    <_>
      <internalNodes>
        0 -1 194747 -7.8093231422826648e-04</internalNodes>
      <leafValues>
        3.7454316020011902e-01 -3.3328634500503540e-01</leafValues></_>
    <_>
      <internalNodes>
        0 -1 306749 -1.4180920552462339e-03</internalNodes>
      <leafValues>
        5.5062955617904663e-01 -2.0859591662883759e-01</leafValues></_>
    <_>
      <internalNodes>
        0 -1 316661 -1.7058104276657104e-02</internalNodes>
      <leafValues>
        -1.0432648658752441e+00 1.2951038777828217e-01</leafValues></_>
    <_>
      <internalNodes>
        0 -1 296262 -1.0618409141898155e-03</internalNodes>
      <leafValues>
        -1.0524065494537354e+00 1.0516782850027084e-01</leafValues></_>
    <_>
      <internalNodes>
        0 -1 149476 9.0002943761646748e-04</internalNodes>
      <leafValues>
        -2.3579882085323334e-01 4.8120129108428955e-01</leafValues></_>
    <_>
      <internalNodes>
        0 -1 138226 1.2576058506965637e-03</internalNodes>
      <leafValues>
        1.2289664149284363e-01 -9.3977838754653931e-01</leafValues></_>
    <_>
      <internalNodes>
        0 -1 227887 6.3928170129656792e-04</internalNodes>
      <leafValues>
        -4.8424518108367920e-01 2.1174815297126770e-01</leafValues></_>
    <_>
      <internalNodes>
        0 -1 380551 1.2028098106384277e-02</internalNodes>
      <leafValues>
        6.4519815146923065e-02 -1.3978192806243896e+00</leafValues></_>
    <_>
      <internalNodes>
        0 -1 277759 1.2757461518049240e-03</internalNodes>
      <leafValues>
        -2.1202179789543152e-01 5.2000659704208374e-01</leafValues></_>
    <_>
      <internalNodes>
        0 -1 278640 9.2718400992453098e-04</internalNodes>
      <leafValues>
        -1.9608840346336365e-01 6.4302253723144531e-01</leafValues></_>
    <_>
      <internalNodes>
        0 -1 365436 1.4071585610508919e-03</internalNodes>
      <leafValues>
        1.1399803310632706e-01 -9.3964785337448120e-01</leafValues></_>
    <_>
      <internalNodes>
        0 -1 379388 -1.7058752709999681e-03</internalNodes>
      <leafValues>
        -8.2331818342208862e-01 1.1947401612997055e-01</leafValues></_>
    <_>
      <internalNodes>
        0 -1 318714 7.5561093399301171e-04</internalNodes>
      <leafValues>
        -2.0923070609569550e-01 5.3638809919357300e-01</leafValues></_>
    <_>
      <internalNodes>
        0 -1 387175 7.3548726504668593e-04</internalNodes>
      <leafValues>
        1.5361286699771881e-01 -6.5848875045776367e-01</leafValues></_>
    <_>
      <internalNodes>
        0 -1 383016 9.9493600428104401e-03</internalNodes>
      <leafValues>
        -1.6123493015766144e-01 6.6662681102752686e-01</leafValues></_>
    <_>
      <internalNodes>
        0 -1 373891 -6.9636994339816738e-06</internalNodes>
      <leafValues>
        2.7565252780914307e-01 -3.7938350439071655e-01</leafValues></_>
    <_>
      <internalNodes>
        0 -1 318928 2.5556618347764015e-03</internalNodes>
      <leafValues>
        9.1227553784847260e-02 -1.1125468015670776e+00</leafValues></_>
    <_>
      <internalNodes>
        0 -1 277395 -2.7067102491855621e-02</internalNodes>
      <leafValues>
        -6.8990832567214966e-01 1.3837423920631409e-01</leafValues></_>
    <_>
      <internalNodes>
        0 -1 315899 3.0733427032828331e-02</internalNodes>
      <leafValues>
        5.7479072362184525e-02 -1.6135315895080566e+00</leafValues></_>
    <_>
      <internalNodes>
        0 -1 288754 2.9583310242742300e-03</internalNodes>
      <leafValues>
        -3.1986090540885925e-01 3.2103189826011658e-01</leafValues></_>
    <_>
      <internalNodes>
        0 -1 243299 -2.9255545232445002e-03</internalNodes>
      <leafValues>
        5.9441465139389038e-01 -1.9362467527389526e-01</leafValues></_>
    <_>
      <internalNodes>
        0 -1 274029 7.4833777034655213e-04</internalNodes>
      <leafValues>
        -2.0766019821166992e-01 5.1514518260955811e-01</leafValues></_>
    <_>
      <internalNodes>
        0 -1 235842 1.9288125913590193e-03</internalNodes>
      <leafValues>
        9.7669064998626709e-02 -1.0481945276260376e+00</leafValues></_>
    <_>
      <internalNodes>
        0 -1 342358 -3.1393200624734163e-03</internalNodes>
      <leafValues>
        -9.7870028018951416e-01 8.8655747473239899e-02</leafValues></_>
    <_>
      <internalNodes>
        0 -1 364969 -6.6411653278919403e-06</internalNodes>
      <leafValues>
        2.7543723583221436e-01 -3.4025683999061584e-01</leafValues></_>
    <_>
      <internalNodes>
        0 -1 255960 -1.6359658911824226e-02</internalNodes>
      <leafValues>
        5.5147439241409302e-01 -1.7906308174133301e-01</leafValues></_>
    <_>
      <internalNodes>
        0 -1 293485 1.8401775741949677e-03</internalNodes>
      <leafValues>
        -2.0295539498329163e-01 4.7972628474235535e-01</leafValues></_>
    <_>
      <internalNodes>
        0 -1 46818 6.4355303766205907e-04</internalNodes>
      <leafValues>
        1.5365087985992432e-01 -6.1559027433395386e-01</leafValues></_>
    <_>
      <internalNodes>
        0 -1 170051 8.4801822900772095e-02</internalNodes>
      <leafValues>
        7.4622444808483124e-02 -1.1740862131118774e+00</leafValues></_>
    <_>
      <internalNodes>
        0 -1 324592 -1.0043877409771085e-03</internalNodes>
      <leafValues>
        3.2451930642127991e-01 -2.8511145710945129e-01</leafValues></_>
    <_>
      <internalNodes>
        0 -1 335445 1.3140027876943350e-03</internalNodes>
      <leafValues>
        -1.8424339592456818e-01 5.8900374174118042e-01</leafValues></_>
    <_>
      <internalNodes>
        0 -1 282667 7.4640512466430664e-03</internalNodes>
      <leafValues>
        7.6463185250759125e-02 -1.1774380207061768e+00</leafValues></_>
    <_>
      <internalNodes>
        0 -1 15591 1.0988523717969656e-04</internalNodes>
      <leafValues>
        1.8806537985801697e-01 -5.1362061500549316e-01</leafValues></_>
    <_>
      <internalNodes>
        0 -1 360980 2.4145413772203028e-04</internalNodes>
      <leafValues>
        -2.0803368091583252e-01 4.3488240242004395e-01</leafValues></_>
    <_>
      <internalNodes>
        0 -1 385676 8.7384274229407310e-03</internalNodes>
      <leafValues>
        8.1853866577148438e-02 -1.0432933568954468e+00</leafValues></_>
    <_>
      <internalNodes>
        0 -1 265135 -3.9550280198454857e-03</internalNodes>
      <leafValues>
        7.8575628995895386e-01 -1.2017346918582916e-01</leafValues></_>
    <_>
      <internalNodes>
        0 -1 138888 1.1104531586170197e-02</internalNodes>
      <leafValues>
        8.8937632739543915e-02 -1.0877391099929810e+00</leafValues></_>
    <_>
      <internalNodes>
        0 -1 111452 1.6695447266101837e-02</internalNodes>
      <leafValues>
        -8.7177731096744537e-02 1.1365094184875488e+00</leafValues></_>
    <_>
      <internalNodes>
        0 -1 156575 1.3045033439993858e-02</internalNodes>
      <leafValues>
        -1.4868785440921783e-01 6.0173445940017700e-01</leafValues></_>
    <_>
      <internalNodes>
        0 -1 312862 8.8869308819994330e-04</internalNodes>
      <leafValues>
        -2.2120499610900879e-01 4.2495825886726379e-01</leafValues></_>
    <_>
      <internalNodes>
        0 -1 245146 3.0495726969093084e-04</internalNodes>
      <leafValues>
        -4.8368981480598450e-01 1.7948275804519653e-01</leafValues></_>
    <_>
      <internalNodes>
        0 -1 97247 -6.2487412244081497e-02</internalNodes>
      <leafValues>
        6.0319715738296509e-01 -1.5422478318214417e-01</leafValues></_>
    <_>
      <internalNodes>
        0 -1 295514 4.3271837057545781e-04</internalNodes>
      <leafValues>
        1.2930448353290558e-01 -6.5786617994308472e-01</leafValues></_>
    <_>
      <internalNodes>
        0 -1 299179 1.9950042478740215e-03</internalNodes>
      <leafValues>
        -2.0075333118438721e-01 4.3612152338027954e-01</leafValues></_>
    <_>
      <internalNodes>
        0 -1 378099 -1.3278471669764258e-05</internalNodes>
      <leafValues>
        2.5120702385902405e-01 -3.5285368561744690e-01</leafValues></_>
    <_>
      <internalNodes>
        0 -1 196028 -6.6715883804135956e-06</internalNodes>
      <leafValues>
        2.6357707381248474e-01 -3.5953831672668457e-01</leafValues></_>
    <_>
      <internalNodes>
        0 -1 188961 8.0444388091564178e-02</internalNodes>
      <leafValues>
        2.7462036814540625e-03 -9.0619373321533203e+00</leafValues></_>
    <_>
      <internalNodes>
        0 -1 285562 -3.1097372993826866e-02</internalNodes>
      <leafValues>
        -9.7349685430526733e-01 9.0260580182075500e-02</leafValues></_>
    <_>
      <internalNodes>
        0 -1 291565 -2.8637105599045753e-02</internalNodes>
      <leafValues>
        -1.6178419589996338e+00 4.5404437929391861e-02</leafValues></_>
    <_>
      <internalNodes>
        0 -1 304922 -4.8947439063340425e-04</internalNodes>
      <leafValues>
        7.6849603652954102e-01 -1.1703046411275864e-01</leafValues></_>
    <_>
      <internalNodes>
        0 -1 16543 3.0165201425552368e-01</internalNodes>
      <leafValues>
        -8.5864700376987457e-03 9.8671712875366211e+00</leafValues></_>
    <_>
      <internalNodes>
        0 -1 376835 -8.6843356257304549e-06</internalNodes>
      <leafValues>
        2.3744687438011169e-01 -3.5323762893676758e-01</leafValues></_>
    <_>
      <internalNodes>
        0 -1 196687 -4.3129597906954587e-04</internalNodes>
      <leafValues>
        -4.8584708571434021e-01 1.5340276062488556e-01</leafValues></_>
    <_>
      <internalNodes>
        0 -1 82108 -2.3924072738736868e-03</internalNodes>
      <leafValues>
        4.0774461627006531e-01 -1.9108434021472931e-01</leafValues></_>
    <_>
      <internalNodes>
        0 -1 26534 2.8831832110881805e-02</internalNodes>
      <leafValues>
        -1.3347762823104858e-01 5.4769241809844971e-01</leafValues></_>
    <_>
      <internalNodes>
        0 -1 224897 -1.1125355958938599e-03</internalNodes>
      <leafValues>
        3.6245295405387878e-01 -2.1325293183326721e-01</leafValues></_>
    <_>
      <internalNodes>
        0 -1 168775 -1.0224585980176926e-01</internalNodes>
      <leafValues>
        -1.0085191726684570e+00 7.3806293308734894e-02</leafValues></_>
    <_>
      <internalNodes>
        0 -1 309646 -4.3021980673074722e-04</internalNodes>
      <leafValues>
        -6.5405046939849854e-01 1.0547496378421783e-01</leafValues></_>
    <_>
      <internalNodes>
        0 -1 128474 9.6236065030097961e-02</internalNodes>
      <leafValues>
        1.0269418358802795e-01 -7.1845912933349609e-01</leafValues></_>
    <_>
      <internalNodes>
        0 -1 86655 -1.1463686823844910e-03</internalNodes>
      <leafValues>
        8.1628322601318359e-01 -9.5627270638942719e-02</leafValues></_>
    <_>
      <internalNodes>
        0 -1 5487 -2.5827428326010704e-03</internalNodes>
      <leafValues>
        -8.1361132860183716e-01 9.4348497688770294e-02</leafValues></_>
    <_>
      <internalNodes>
        0 -1 273406 4.7388527309522033e-04</internalNodes>
      <leafValues>
        -2.3160563409328461e-01 3.1254243850708008e-01</leafValues></_>
    <_>
      <internalNodes>
        0 -1 364972 -1.3254776604298968e-05</internalNodes>
      <leafValues>
        3.2625320553779602e-01 -2.2829619050025940e-01</leafValues></_>
    <_>
      <internalNodes>
        0 -1 271963 -1.4890518505126238e-03</internalNodes>
      <leafValues>
        2.9783031344413757e-01 -2.5008139014244080e-01</leafValues></_>
    <_>
      <internalNodes>
        0 -1 223592 1.0038807988166809e-01</internalNodes>
      <leafValues>
        6.9372378289699554e-02 -1.1036512851715088e+00</leafValues></_>
    <_>
      <internalNodes>
        0 -1 345254 -3.3631804399192333e-03</internalNodes>
      <leafValues>
        5.2407652139663696e-01 -1.4043335616588593e-01</leafValues></_>
    <_>
      <internalNodes>
        0 -1 388832 -1.1230660602450371e-03</internalNodes>
      <leafValues>
        -7.0852994918823242e-01 1.1325633525848389e-01</leafValues></_>
    <_>
      <internalNodes>
        0 -1 393854 1.3755743857473135e-03</internalNodes>
      <leafValues>
        -1.6088384389877319e-01 4.9381107091903687e-01</leafValues></_>
    <_>
      <internalNodes>
        0 -1 62234 1.6365915536880493e-01</internalNodes>
      <leafValues>
        -1.9625455141067505e-02 4.0545058250427246e+00</leafValues></_>
    <_>
      <internalNodes>
        0 -1 127750 -8.7094552814960480e-02</internalNodes>
      <leafValues>
        -1.6805347204208374e+00 3.6325100809335709e-02</leafValues></_>
    <_>
      <internalNodes>
        0 -1 218422 -2.1365249995142221e-03</internalNodes>
      <leafValues>
        4.9722969532012939e-01 -1.5414491295814514e-01</leafValues></_>
    <_>
      <internalNodes>
        0 -1 11839 4.7815111279487610e-01</internalNodes>
      <leafValues>
        1.3552402146160603e-02 -10.</leafValues></_></weakClassifiers></stage17>
</opencv_storage>
