<?xml version="1.0"?>
<opencv_storage>
<stage8>
  <maxWeakCount>56</maxWeakCount>
  <stageThreshold>-5.8823175430297852e+00</stageThreshold>
  <weakClassifiers>
    <_>
      <internalNodes>
        0 -1 1555 -268457025 -12603585 -33619269 -546133 -2097173825
        -268455937 -1346401605 -1070199</internalNodes>
      <leafValues>
        -6.7834395170211792e-01 1.3886839151382446e+00</leafValues></_>
    <_>
      <internalNodes>
        0 -1 2844 530530271 -2412629 -1788874497 2145192638 1811497167
        -2098237 798884091 431949035</internalNodes>
      <leafValues>
        -1.0604925155639648e+00 6.5134936571121216e-01</leafValues></_>
    <_>
      <internalNodes>
        0 -1 3741 -538970185 -637547310 -355672208 -88679649 -202384639
        -21368643 -236595964 -152633370</internalNodes>
      <leafValues>
        -9.3619036674499512e-01 7.2132897377014160e-01</leafValues></_>
    <_>
      <internalNodes>
        0 -1 3388 -1623665164 -9152140 -714899971 -35727884 -1079317575
        -1076631384 -1136656387 -6366732</internalNodes>
      <leafValues>
        -8.1757277250289917e-01 6.4286375045776367e-01</leafValues></_>
    <_>
      <internalNodes>
        0 -1 62 -408883329 -444009331 -827748825 254027469 -590285441
        -71828549 -41898165 1878591247</internalNodes>
      <leafValues>
        -8.7655484676361084e-01 6.1742371320724487e-01</leafValues></_>
    <_>
      <internalNodes>
        0 -1 3685 -25311741 2072982396 -508247601 -704789171 1006314764
        1059310100 -296101364 -268435457</internalNodes>
      <leafValues>
        -7.3343038558959961e-01 6.9170141220092773e-01</leafValues></_>
    <_>
      <internalNodes>
        0 -1 3744 1717558805 115782397 51268093 -194095652 -1083199162
        -1162884455 -621021612 -1191248908</internalNodes>
      <leafValues>
        -8.1417554616928101e-01 5.9730178117752075e-01</leafValues></_>
    <_>
      <internalNodes>
        0 -1 1009 -144777921 1400800331 -111171082 303102514 -130068908
        -537280252 -793812818 -63903266</internalNodes>
      <leafValues>
        -7.3435449600219727e-01 6.2566220760345459e-01</leafValues></_>
    <_>
      <internalNodes>
        0 -1 2430 -422201644 -693263243 115133542 -840438882 -1553534978
        759499785 -1550766465 -1254153459</internalNodes>
      <leafValues>
        -7.6103985309600830e-01 5.8329296112060547e-01</leafValues></_>
    <_>
      <internalNodes>
        0 -1 3773 -1077171521 -1568521233 -565981765 -1511589795
        2065391163 -2001808404 1100956933 -1937245823</internalNodes>
      <leafValues>
        -6.8339520692825317e-01 6.0118383169174194e-01</leafValues></_>
    <_>
      <internalNodes>
        0 -1 3031 -1330241275 -244055210 -870164617 -1105574951
        -292919995 -3755057 -659996475 -285714529</internalNodes>
      <leafValues>
        -6.8626606464385986e-01 6.2615489959716797e-01</leafValues></_>
    <_>
      <internalNodes>
        0 -1 3114 1183892462 366796253 -2129890988 -58634319 250235503
        -340260725 -133690024 -872611062</internalNodes>
      <leafValues>
        -7.2196340560913086e-01 5.2253770828247070e-01</leafValues></_>
    <_>
      <internalNodes>
        0 -1 3522 -135267589 -1717371151 2041528245 -1177193995
        -1094941007 -542114057 -1791044143 -807430955</internalNodes>
      <leafValues>
        -4.7064903378486633e-01 8.3555138111114502e-01</leafValues></_>
    <_>
      <internalNodes>
        0 -1 3399 -1616186063 -1644290970 -272728587 1333753789
        -1094760579 679472639 2079645019 -1902341896</internalNodes>
      <leafValues>
        -5.5065762996673584e-01 6.6847646236419678e-01</leafValues></_>
    <_>
      <internalNodes>
        0 -1 2593 1499549382 -1522760036 -40134180 1573693650 1343277533
        -3026545 1564849328 1161897237</internalNodes>
      <leafValues>
        -8.2416236400604248e-01 4.3371558189392090e-01</leafValues></_>
    <_>
      <internalNodes>
        0 -1 3943 -509102813 -2019248083 -1610610876 -926548156
        -250512639 51708682 1940476736 1978597082</internalNodes>
      <leafValues>
        -8.2432442903518677e-01 4.4450953602790833e-01</leafValues></_>
    <_>
      <internalNodes>
        0 -1 2134 1918804427 -1783474231 -566849233 274490037 -267857752
        -108021577 1994352778 571346568</internalNodes>
      <leafValues>
        -7.8397738933563232e-01 4.5588719844818115e-01</leafValues></_>
    <_>
      <internalNodes>
        0 -1 2287 -176425229 -109866193 2005324691 251113919 -1883688644
        680530064 -378908839 247679127</internalNodes>
      <leafValues>
        -6.1891311407089233e-01 5.8343565464019775e-01</leafValues></_>
    <_>
      <internalNodes>
        0 -1 487 -355874649 13898434 -1833449104 4351318 1132721234
        1124566022 -1026561498 1677719235</internalNodes>
      <leafValues>
        -6.3210970163345337e-01 5.5886697769165039e-01</leafValues></_>
    <_>
      <internalNodes>
        0 -1 2854 795376389 -1248324297 1210046655 -485874702 -554877835
        -238333477 -341091853 -32889307</internalNodes>
      <leafValues>
        -6.7238497734069824e-01 5.0840342044830322e-01</leafValues></_>
    <_>
      <internalNodes>
        0 -1 274 -59274745 1913821983 1451887098 -1234247660 -334384812
        1997925931 -1299457775 114418526</internalNodes>
      <leafValues>
        -7.3857808113098145e-01 4.4811049103736877e-01</leafValues></_>
    <_>
      <internalNodes>
        0 -1 1773 2098268441 -1294732706 1884379995 807136344 1810608553
        405651691 -83244256 271419403</internalNodes>
      <leafValues>
        -8.0710101127624512e-01 4.1997751593589783e-01</leafValues></_>
    <_>
      <internalNodes>
        0 -1 1195 -1409564901 -1482512480 2063564539 -613667046
        1585414141 1677229951 -671117835 -805964364</internalNodes>
      <leafValues>
        -4.8471918702125549e-01 7.1316891908645630e-01</leafValues></_>
    <_>
      <internalNodes>
        0 -1 3673 -906023680 -1051207171 2043793559 1527694301
        -494206911 2014018843 -619318616 -834946129</internalNodes>
      <leafValues>
        -6.1767923831939697e-01 5.3080886602401733e-01</leafValues></_>
    <_>
      <internalNodes>
        0 -1 3305 1249696764 -678373601 -1327836210 1168004311
        -1067912527 -633208741 2064843052 -1751667296</internalNodes>
      <leafValues>
        -6.4925181865692139e-01 4.8093268275260925e-01</leafValues></_>
    <_>
      <internalNodes>
        0 -1 3378 429354291 748344746 1471503666 765629858 -1260928462
        671521154 685340546 -862528204</internalNodes>
      <leafValues>
        -6.6231513023376465e-01 4.4850242137908936e-01</leafValues></_>
    <_>
      <internalNodes>
        0 -1 670 1140744835 -1783213456 -2146910118 -2138324982
        303192662 1662869878 365493953 -262554653</internalNodes>
      <leafValues>
        -6.0985553264617920e-01 4.6538299322128296e-01</leafValues></_>
    <_>
      <internalNodes>
        0 -1 1963 1846173879 2050149257 -1852667655 -525689698
        -1609694675 -301265143 -50081395 -1919973164</internalNodes>
      <leafValues>
        -5.0053501129150391e-01 5.8418434858322144e-01</leafValues></_>
    <_>
      <internalNodes>
        0 -1 3192 1641271633 465263640 -1057345 -74756295 1031688113
        -277102873 587202553 -1914043175</internalNodes>
      <leafValues>
        -4.8591309785842896e-01 6.4977753162384033e-01</leafValues></_>
    <_>
      <internalNodes>
        0 -1 2732 -1320245590 1989837156 -1986571882 -28389032
        -1038545820 -74579829 -909188748 -606141644</internalNodes>
      <leafValues>
        -6.0945725440979004e-01 4.5288702845573425e-01</leafValues></_>
    <_>
      <internalNodes>
        0 -1 1427 1860258431 -633966747 -964771877 322109135 -1787511195
        -466135041 -1342940164 -1502372073</internalNodes>
      <leafValues>
        -4.8525154590606689e-01 5.8382356166839600e-01</leafValues></_>
    <_>
      <internalNodes>
        0 -1 1034 -316156072 1849131212 -1005729792 -1560526182
        1073878605 65733505 1225719960 39813267</internalNodes>
      <leafValues>
        -7.6165813207626343e-01 3.4222471714019775e-01</leafValues></_>
    <_>
      <internalNodes>
        0 -1 2868 2052929426 -782610091 -1073294537 311792461 998804318
        1754005515 1764053784 1567580345</internalNodes>
      <leafValues>
        -6.3441556692123413e-01 3.8952413201332092e-01</leafValues></_>
    <_>
      <internalNodes>
        0 -1 3844 201085013 1037019806 -1475198375 1590355407 1216945984
        -901611512 -754528228 -1911328952</internalNodes>
      <leafValues>
        -6.5368992090225220e-01 3.6625525355339050e-01</leafValues></_>
    <_>
      <internalNodes>
        0 -1 2089 299282170 1129989068 -1874533819 349225293 -92814958
        -629095784 -93601260 -33355354</internalNodes>
      <leafValues>
        -5.9516555070877075e-01 4.3590721487998962e-01</leafValues></_>
    <_>
      <internalNodes>
        0 -1 1141 653051507 -118832712 -852488746 260752654 2039081881
        -1165311469 -435938572 -1413070641</internalNodes>
      <leafValues>
        -4.9681681394577026e-01 5.0245451927185059e-01</leafValues></_>
    <_>
      <internalNodes>
        0 -1 3877 -1550076157 1263304799 -804550372 1589277508
        1481374726 -1743880183 -1280797148 2010352308</internalNodes>
      <leafValues>
        -5.6331485509872437e-01 4.5089137554168701e-01</leafValues></_>
    <_>
      <internalNodes>
        0 -1 327 -580146721 -67412099 -385916995 1880813102 -411718347
        1146840951 -1929429192 -296374543</internalNodes>
      <leafValues>
        -4.1187343001365662e-01 5.7244390249252319e-01</leafValues></_>
    <_>
      <internalNodes>
        0 -1 2435 278937716 247636863 -2023913341 2131083288 -1335811206
        -360478067 1938332044 2074683779</internalNodes>
      <leafValues>
        -7.3803031444549561e-01 3.3978363871574402e-01</leafValues></_>
    <_>
      <internalNodes>
        0 -1 3387 181481249 1342181569 303120513 -854884204 -1744213966
        -1143748429 152214261 -538193544</internalNodes>
      <leafValues>
        -4.8689010739326477e-01 4.7520640492439270e-01</leafValues></_>
    <_>
      <internalNodes>
        0 -1 3569 2115161302 1482068121 -598748161 1208868015 -123162360
        -1072918375 213101338 -1934390857</internalNodes>
      <leafValues>
        -4.6945402026176453e-01 4.7340458631515503e-01</leafValues></_>
    <_>
      <internalNodes>
        0 -1 2566 -1767228364 -895952028 -1862155988 941808034
        -1052747247 -212819400 -73663500 -1665920692</internalNodes>
      <leafValues>
        -6.9330263137817383e-01 3.0955505371093750e-01</leafValues></_>
    <_>
      <internalNodes>
        0 -1 1257 -1071487454 -161699582 -536051560 927112093 824532340
        -1560076277 -45862328 1476393603</internalNodes>
      <leafValues>
        -6.6113650798797607e-01 3.3247020840644836e-01</leafValues></_>
    <_>
      <internalNodes>
        0 -1 2277 999526576 18618808 -1840658731 -989855546 -628588397
        -516619743 -1157069250 1327958603</internalNodes>
      <leafValues>
        -4.6353015303611755e-01 4.1920101642608643e-01</leafValues></_>
    <_>
      <internalNodes>
        0 -1 2842 -1361890661 1505909662 -2011909363 -1168227566
        -1986353055 -659634905 -1329077044 -1359693919</internalNodes>
      <leafValues>
        -4.4966083765029907e-01 4.4926115870475769e-01</leafValues></_>
    <_>
      <internalNodes>
        0 -1 51 -325845080 -2132515872 -737984449 242958530 -1836484029
        1778526723 1484965924 1656827375</internalNodes>
      <leafValues>
        -6.5105521678924561e-01 3.0152839422225952e-01</leafValues></_>
    <_>
      <internalNodes>
        0 -1 3760 1569935571 -1953261864 -2130198332 -1635741427
        -494694479 -939511756 1619083328 612886258</internalNodes>
      <leafValues>
        -5.8711403608322144e-01 3.1142348051071167e-01</leafValues></_>
    <_>
      <internalNodes>
        0 -1 3151 1657196522 -783462185 -107949570 -657512046 1707082913
        -2086141746 -343176349 -1861919201</internalNodes>
      <leafValues>
        -4.9415349960327148e-01 4.1620439291000366e-01</leafValues></_>
    <_>
      <internalNodes>
        0 -1 3375 -1029994144 -1043046016 1073805328 -4386607 -622018512
        -1450475385 710654152 415894712</internalNodes>
      <leafValues>
        -5.7536923885345459e-01 3.7461000680923462e-01</leafValues></_>
    <_>
      <internalNodes>
        0 -1 2110 -1270338429 -1584607038 -1320569565 442262406
        1630724558 -335765271 1902900175 -487061556</internalNodes>
      <leafValues>
        -5.1347541809082031e-01 4.0798899531364441e-01</leafValues></_>
    <_>
      <internalNodes>
        0 -1 347 -1 -1 -65537 -65 -1 -1 -1 -1</internalNodes>
      <leafValues>
        -2.4016069248318672e-02 10.</leafValues></_>
    <_>
      <internalNodes>
        0 -1 347 0 0 65536 64 0 0 0 0</internalNodes>
      <leafValues>
        -4.1351313591003418e+00 4.2143341852352023e-04</leafValues></_>
    <_>
      <internalNodes>
        0 -1 2740 -907366917 -792739883 -33886735 -237174817 -715883387
        -1003094551 -236453909 -343729716</internalNodes>
      <leafValues>
        -3.4644889831542969e-01 5.8677446842193604e-01</leafValues></_>
    <_>
      <internalNodes>
        0 -1 3610 -1970636288 -1474666286 1091580113 403472732
        1502300468 -1299676397 -79942304 -357943112</internalNodes>
      <leafValues>
        -5.9210073947906494e-01 3.2637727260589600e-01</leafValues></_>
    <_>
      <internalNodes>
        0 -1 3200 -1308626813 -1801339008 -1074790479 -351339088
        -1080429130 -1253261321 1098808544 -1075905545</internalNodes>
      <leafValues>
        -3.6104577779769897e-01 5.0337278842926025e-01</leafValues></_>
    <_>
      <internalNodes>
        0 -1 2451 887909492 1778864668 -1608722480 1458229567 1002445640
        306327561 -14651081 1748253180</internalNodes>
      <leafValues>
        -7.2760081291198730e-01 2.5204852223396301e-01</leafValues></_></weakClassifiers></stage8>
</opencv_storage>
