<?xml version="1.0"?>
<opencv_storage>
<stage10>
  <maxWeakCount>23</maxWeakCount>
  <stageThreshold>-1.6097197532653809e+00</stageThreshold>
  <weakClassifiers>
    <_>
      <internalNodes>
        0 -1 210816 1.1455697938799858e-02</internalNodes>
      <leafValues>
        -6.1953574419021606e-01 4.9786627292633057e-02</leafValues></_>
    <_>
      <internalNodes>
        0 -1 232713 9.1893639182671905e-04</internalNodes>
      <leafValues>
        -2.8194800019264221e-01 3.1151384115219116e-01</leafValues></_>
    <_>
      <internalNodes>
        0 -1 390421 -6.0132510952826124e-06</internalNodes>
      <leafValues>
        1.9578914344310760e-01 -3.4561824798583984e-01</leafValues></_>
    <_>
      <internalNodes>
        0 -1 383930 -8.5964813479222357e-05</internalNodes>
      <leafValues>
        1.4858953654766083e-01 -3.9944586157798767e-01</leafValues></_>
    <_>
      <internalNodes>
        0 -1 36441 1.7745840887073427e-04</internalNodes>
      <leafValues>
        1.6769796609878540e-01 -3.6141198873519897e-01</leafValues></_>
    <_>
      <internalNodes>
        0 -1 211527 -1.0127213317900896e-03</internalNodes>
      <leafValues>
        3.3537387847900391e-01 -1.7393553256988525e-01</leafValues></_>
    <_>
      <internalNodes>
        0 -1 36291 -6.6871529270429164e-05</internalNodes>
      <leafValues>
        -3.4868687391281128e-01 1.7031414806842804e-01</leafValues></_>
    <_>
      <internalNodes>
        0 -1 212956 3.0874283402226865e-04</internalNodes>
      <leafValues>
        -1.2891753017902374e-01 4.6002840995788574e-01</leafValues></_>
    <_>
      <internalNodes>
        0 -1 274401 3.3824397251009941e-03</internalNodes>
      <leafValues>
        -4.2270126938819885e-01 1.5276682376861572e-01</leafValues></_>
    <_>
      <internalNodes>
        0 -1 316592 8.7749562226235867e-04</internalNodes>
      <leafValues>
        7.0063963532447815e-02 -7.5858688354492188e-01</leafValues></_>
    <_>
      <internalNodes>
        0 -1 306366 1.0551341809332371e-02</internalNodes>
      <leafValues>
        4.4321730732917786e-02 -8.5729259252548218e-01</leafValues></_>
    <_>
      <internalNodes>
        0 -1 265424 5.2429805509746075e-04</internalNodes>
      <leafValues>
        -1.7978492379188538e-01 3.3929216861724854e-01</leafValues></_>
    <_>
      <internalNodes>
        0 -1 341128 -1.2985948706045747e-04</internalNodes>
      <leafValues>
        2.3325563967227936e-01 -2.3102247714996338e-01</leafValues></_>
    <_>
      <internalNodes>
        0 -1 81313 -2.8593045473098755e-01</internalNodes>
      <leafValues>
        5.8591681718826294e-01 -1.0300506651401520e-01</leafValues></_>
    <_>
      <internalNodes>
        0 -1 185575 1.6208488494157791e-02</internalNodes>
      <leafValues>
        -1.5221334993839264e-01 3.5447898507118225e-01</leafValues></_>
    <_>
      <internalNodes>
        0 -1 185107 -2.9039176180958748e-02</internalNodes>
      <leafValues>
        3.4018591046333313e-01 -1.9009119272232056e-01</leafValues></_>
    <_>
      <internalNodes>
        0 -1 277234 3.7029082886874676e-04</internalNodes>
      <leafValues>
        -3.0130234360694885e-01 2.0929038524627686e-01</leafValues></_>
    <_>
      <internalNodes>
        0 -1 347280 -6.1199948504508939e-06</internalNodes>
      <leafValues>
        2.2440280020236969e-01 -2.5513121485710144e-01</leafValues></_>
    <_>
      <internalNodes>
        0 -1 348751 4.6170112909749150e-04</internalNodes>
      <leafValues>
        8.0758586525917053e-02 -6.8993163108825684e-01</leafValues></_>
    <_>
      <internalNodes>
        0 -1 234436 9.6706044860184193e-04</internalNodes>
      <leafValues>
        -1.6125343739986420e-01 3.3102229237556458e-01</leafValues></_>
    <_>
      <internalNodes>
        0 -1 328012 -1.3226327719166875e-03</internalNodes>
      <leafValues>
        -6.8152236938476562e-01 7.6926343142986298e-02</leafValues></_>
    <_>
      <internalNodes>
        0 -1 231621 6.3832744490355253e-04</internalNodes>
      <leafValues>
        -1.6203062236309052e-01 3.3450630307197571e-01</leafValues></_>
    <_>
      <internalNodes>
        0 -1 115115 -1.8156263977289200e-03</internalNodes>
      <leafValues>
        3.5702261328697205e-01 -1.7271406948566437e-01</leafValues></_></weakClassifiers></stage10>
</opencv_storage>
