<?xml version="1.0"?>
<opencv_storage>
<stage14>
  <maxWeakCount>74</maxWeakCount>
  <stageThreshold>-1.3105111122131348e+00</stageThreshold>
  <weakClassifiers>
    <_>
      <internalNodes>
        0 -1 36720 1.1461572721600533e-02</internalNodes>
      <leafValues>
        -2.8473803400993347e-01 3.9443683624267578e-01</leafValues></_>
    <_>
      <internalNodes>
        0 -1 66680 -1.8056368455290794e-02</internalNodes>
      <leafValues>
        3.3603820204734802e-01 -2.5267153978347778e-01</leafValues></_>
    <_>
      <internalNodes>
        0 -1 65380 -4.0198499336838722e-03</internalNodes>
      <leafValues>
        2.4409174919128418e-01 -2.7530705928802490e-01</leafValues></_>
    <_>
      <internalNodes>
        0 -1 75272 -3.2564386725425720e-02</internalNodes>
      <leafValues>
        2.8889828920364380e-01 -1.8945097923278809e-01</leafValues></_>
    <_>
      <internalNodes>
        0 -1 52011 8.0616157501935959e-03</internalNodes>
      <leafValues>
        -1.2426619976758957e-01 4.0006414055824280e-01</leafValues></_>
    <_>
      <internalNodes>
        0 -1 342 1.2737756967544556e-01</internalNodes>
      <leafValues>
        -1.1575304716825485e-01 4.0339890122413635e-01</leafValues></_>
    <_>
      <internalNodes>
        0 -1 53478 -3.1405272893607616e-03</internalNodes>
      <leafValues>
        3.0063554644584656e-01 -1.0080510377883911e-01</leafValues></_>
    <_>
      <internalNodes>
        0 -1 26286 -2.2185107693076134e-02</internalNodes>
      <leafValues>
        -5.6505447626113892e-01 5.6725256145000458e-02</leafValues></_>
    <_>
      <internalNodes>
        0 -1 57509 -2.7041241526603699e-02</internalNodes>
      <leafValues>
        -4.2990899085998535e-01 4.6160001307725906e-02</leafValues></_>
    <_>
      <internalNodes>
        0 -1 66676 -4.9151554703712463e-03</internalNodes>
      <leafValues>
        3.0480739474296570e-01 -9.0523488819599152e-02</leafValues></_>
    <_>
      <internalNodes>
        0 -1 74933 2.0578694529831409e-03</internalNodes>
      <leafValues>
        6.3354745507240295e-02 -4.6054509282112122e-01</leafValues></_>
    <_>
      <internalNodes>
        0 -1 32649 5.7174907997250557e-03</internalNodes>
      <leafValues>
        -7.2334378957748413e-02 4.0207594633102417e-01</leafValues></_>
    <_>
      <internalNodes>
        0 -1 61332 2.3719070479273796e-02</internalNodes>
      <leafValues>
        6.7134141921997070e-02 -5.0056087970733643e-01</leafValues></_>
    <_>
      <internalNodes>
        0 -1 64574 4.2375755583634600e-05</internalNodes>
      <leafValues>
        -2.1867877244949341e-01 1.1731738597154617e-01</leafValues></_>
    <_>
      <internalNodes>
        0 -1 51991 1.0870355367660522e-01</internalNodes>
      <leafValues>
        7.1438960731029510e-02 -4.0510770678520203e-01</leafValues></_>
    <_>
      <internalNodes>
        0 -1 52729 -1.2585609219968319e-03</internalNodes>
      <leafValues>
        -3.7298771739006042e-01 6.6357098519802094e-02</leafValues></_>
    <_>
      <internalNodes>
        0 -1 929 2.7788404840976000e-03</internalNodes>
      <leafValues>
        7.2988562285900116e-02 -3.4822916984558105e-01</leafValues></_>
    <_>
      <internalNodes>
        0 -1 65204 8.8068784680217505e-04</internalNodes>
      <leafValues>
        -1.0051723569631577e-01 2.5155889987945557e-01</leafValues></_>
    <_>
      <internalNodes>
        0 -1 61790 -1.7469567246735096e-03</internalNodes>
      <leafValues>
        2.7001896500587463e-01 -9.4430029392242432e-02</leafValues></_>
    <_>
      <internalNodes>
        0 -1 58215 2.0009245723485947e-02</internalNodes>
      <leafValues>
        6.7872740328311920e-02 -3.9255684614181519e-01</leafValues></_>
    <_>
      <internalNodes>
        0 -1 75071 5.4534444643650204e-05</internalNodes>
      <leafValues>
        -1.6402092576026917e-01 1.6583722829818726e-01</leafValues></_>
    <_>
      <internalNodes>
        0 -1 57786 -2.7474337257444859e-03</internalNodes>
      <leafValues>
        3.7175381183624268e-01 -6.1271771788597107e-02</leafValues></_>
    <_>
      <internalNodes>
        0 -1 63045 3.1266007572412491e-03</internalNodes>
      <leafValues>
        5.5279325693845749e-02 -4.2704582214355469e-01</leafValues></_>
    <_>
      <internalNodes>
        0 -1 53825 2.6049111038446426e-03</internalNodes>
      <leafValues>
        -1.4268162846565247e-01 1.6677713394165039e-01</leafValues></_>
    <_>
      <internalNodes>
        0 -1 57045 4.5306749641895294e-02</internalNodes>
      <leafValues>
        3.8913555443286896e-02 -6.3413780927658081e-01</leafValues></_>
    <_>
      <internalNodes>
        0 -1 74812 1.5312531031668186e-03</internalNodes>
      <leafValues>
        7.9608395695686340e-02 -2.7636533975601196e-01</leafValues></_>
    <_>
      <internalNodes>
        0 -1 70689 -1.4166336040943861e-04</internalNodes>
      <leafValues>
        1.2202947586774826e-01 -1.7535108327865601e-01</leafValues></_>
    <_>
      <internalNodes>
        0 -1 63812 -4.6598587185144424e-02</internalNodes>
      <leafValues>
        5.4983627796173096e-01 -4.4698722660541534e-02</leafValues></_>
    <_>
      <internalNodes>
        0 -1 51610 4.4705579057335854e-03</internalNodes>
      <leafValues>
        -3.1077411770820618e-01 8.6520321667194366e-02</leafValues></_>
    <_>
      <internalNodes>
        0 -1 33473 -5.6326976045966148e-03</internalNodes>
      <leafValues>
        -4.6224427223205566e-01 4.3594188988208771e-02</leafValues></_>
    <_>
      <internalNodes>
        0 -1 21399 -1.2433400005102158e-01</internalNodes>
      <leafValues>
        3.8310870528221130e-01 -5.9431675821542740e-02</leafValues></_>
    <_>
      <internalNodes>
        0 -1 75068 -1.9413469999562949e-05</internalNodes>
      <leafValues>
        1.2789471447467804e-01 -1.8954190611839294e-01</leafValues></_>
    <_>
      <internalNodes>
        0 -1 40558 2.7192709967494011e-04</internalNodes>
      <leafValues>
        -1.9178634881973267e-01 1.1262162029743195e-01</leafValues></_>
    <_>
      <internalNodes>
        0 -1 929 -4.4865822419524193e-03</internalNodes>
      <leafValues>
        -3.8531291484832764e-01 5.2372831851243973e-02</leafValues></_>
    <_>
      <internalNodes>
        0 -1 760 -1.1703359894454479e-02</internalNodes>
      <leafValues>
        4.2448607087135315e-01 -5.3001094609498978e-02</leafValues></_>
    <_>
      <internalNodes>
        0 -1 61800 5.5020889267325401e-03</internalNodes>
      <leafValues>
        4.3475557118654251e-02 -5.1323437690734863e-01</leafValues></_>
    <_>
      <internalNodes>
        0 -1 58105 -1.3766384217888117e-03</internalNodes>
      <leafValues>
        1.9739599525928497e-01 -1.0351480543613434e-01</leafValues></_>
    <_>
      <internalNodes>
        0 -1 13799 1.5855887532234192e-01</internalNodes>
      <leafValues>
        -7.9685859382152557e-02 2.5026494264602661e-01</leafValues></_>
    <_>
      <internalNodes>
        0 -1 24746 4.6008810400962830e-02</internalNodes>
      <leafValues>
        4.4465556740760803e-02 -5.3516393899917603e-01</leafValues></_>
    <_>
      <internalNodes>
        0 -1 55744 4.6518826857209206e-03</internalNodes>
      <leafValues>
        -7.7901668846607208e-02 3.2486313581466675e-01</leafValues></_>
    <_>
      <internalNodes>
        0 -1 56118 -3.3357650972902775e-03</internalNodes>
      <leafValues>
        1.4450691640377045e-01 -1.6529260575771332e-01</leafValues></_>
    <_>
      <internalNodes>
        0 -1 66037 2.3531040642410517e-03</internalNodes>
      <leafValues>
        5.5167276412248611e-02 -4.1576227545738220e-01</leafValues></_>
    <_>
      <internalNodes>
        0 -1 62542 -2.7808840386569500e-03</internalNodes>
      <leafValues>
        1.3130250573158264e-01 -1.5816782414913177e-01</leafValues></_>
    <_>
      <internalNodes>
        0 -1 49436 3.4679549280554056e-03</internalNodes>
      <leafValues>
        -8.3769612014293671e-02 2.5231724977493286e-01</leafValues></_>
    <_>
      <internalNodes>
        0 -1 2725 5.9744872851297259e-04</internalNodes>
      <leafValues>
        7.9531036317348480e-02 -2.4999633431434631e-01</leafValues></_>
    <_>
      <internalNodes>
        0 -1 54639 5.7311542332172394e-03</internalNodes>
      <leafValues>
        4.2733456939458847e-02 -4.3735906481742859e-01</leafValues></_>
    <_>
      <internalNodes>
        0 -1 12652 2.9811104759573936e-02</internalNodes>
      <leafValues>
        -4.4054668396711349e-02 4.5791238546371460e-01</leafValues></_>
    <_>
      <internalNodes>
        0 -1 32637 1.7640666555962525e-05</internalNodes>
      <leafValues>
        -1.5532153844833374e-01 1.2184781581163406e-01</leafValues></_>
    <_>
      <internalNodes>
        0 -1 47254 -3.2833013683557510e-03</internalNodes>
      <leafValues>
        2.7535027265548706e-01 -6.7553393542766571e-02</leafValues></_>
    <_>
      <internalNodes>
        0 -1 47269 8.8981389999389648e-03</internalNodes>
      <leafValues>
        -6.8071722984313965e-02 3.2601714134216309e-01</leafValues></_>
    <_>
      <internalNodes>
        0 -1 65450 -9.0729072690010071e-03</internalNodes>
      <leafValues>
        -7.0110458135604858e-01 3.0129814520478249e-02</leafValues></_>
    <_>
      <internalNodes>
        0 -1 14695 -6.2367011560127139e-04</internalNodes>
      <leafValues>
        -2.5999784469604492e-01 6.8875588476657867e-02</leafValues></_>
    <_>
      <internalNodes>
        0 -1 18453 2.3446206003427505e-02</internalNodes>
      <leafValues>
        4.1305113583803177e-02 -4.8163676261901855e-01</leafValues></_>
    <_>
      <internalNodes>
        0 -1 66983 2.6546707376837730e-03</internalNodes>
      <leafValues>
        -7.9106271266937256e-02 2.4820064008235931e-01</leafValues></_>
    <_>
      <internalNodes>
        0 -1 60216 -6.0740596381947398e-04</internalNodes>
      <leafValues>
        1.3234904408454895e-01 -1.4931128919124603e-01</leafValues></_>
    <_>
      <internalNodes>
        0 -1 67201 1.9937336910516024e-03</internalNodes>
      <leafValues>
        -9.6089236438274384e-02 2.0888124406337738e-01</leafValues></_>
    <_>
      <internalNodes>
        0 -1 73078 -4.0792954678181559e-05</internalNodes>
      <leafValues>
        1.0699337720870972e-01 -1.8771775066852570e-01</leafValues></_>
    <_>
      <internalNodes>
        0 -1 73300 7.6788244768977165e-03</internalNodes>
      <leafValues>
        3.1671255826950073e-02 -5.8368009328842163e-01</leafValues></_>
    <_>
      <internalNodes>
        0 -1 65457 -2.3441719822585583e-03</internalNodes>
      <leafValues>
        2.5546407699584961e-01 -8.3864793181419373e-02</leafValues></_>
    <_>
      <internalNodes>
        0 -1 65312 -2.9410820454359055e-02</internalNodes>
      <leafValues>
        -4.7806823253631592e-01 4.0461715310811996e-02</leafValues></_>
    <_>
      <internalNodes>
        0 -1 39872 -2.0528733730316162e-03</internalNodes>
      <leafValues>
        -2.6098206639289856e-01 6.9435760378837585e-02</leafValues></_>
    <_>
      <internalNodes>
        0 -1 65167 2.7334893820807338e-04</internalNodes>
      <leafValues>
        -1.4786235988140106e-01 1.2499411404132843e-01</leafValues></_>
    <_>
      <internalNodes>
        0 -1 71408 -9.0910205617547035e-03</internalNodes>
      <leafValues>
        -5.7524478435516357e-01 3.0309127643704414e-02</leafValues></_>
    <_>
      <internalNodes>
        0 -1 39647 1.7014241311699152e-03</internalNodes>
      <leafValues>
        -1.0664454102516174e-01 1.8499949574470520e-01</leafValues></_>
    <_>
      <internalNodes>
        0 -1 74783 1.5728358179330826e-02</internalNodes>
      <leafValues>
        3.0399061739444733e-02 -5.8811646699905396e-01</leafValues></_>
    <_>
      <internalNodes>
        0 -1 54390 6.7032771185040474e-03</internalNodes>
      <leafValues>
        -7.6123923063278198e-02 2.4514204263687134e-01</leafValues></_>
    <_>
      <internalNodes>
        0 -1 32758 -1.2129507958889008e-01</internalNodes>
      <leafValues>
        -6.2470120191574097e-01 2.8874887153506279e-02</leafValues></_>
    <_>
      <internalNodes>
        0 -1 20176 -2.5137919187545776e-01</internalNodes>
      <leafValues>
        4.9610674381256104e-01 -4.4337842613458633e-02</leafValues></_>
    <_>
      <internalNodes>
        0 -1 36219 9.6117623616009951e-04</internalNodes>
      <leafValues>
        -6.3192047178745270e-02 2.6388746500015259e-01</leafValues></_>
    <_>
      <internalNodes>
        0 -1 38454 -6.7231310531497002e-03</internalNodes>
      <leafValues>
        -8.2380920648574829e-01 2.4209348484873772e-02</leafValues></_>
    <_>
      <internalNodes>
        0 -1 66363 -2.5390065275132656e-03</internalNodes>
      <leafValues>
        2.5535312294960022e-01 -7.4743695557117462e-02</leafValues></_>
    <_>
      <internalNodes>
        0 -1 35685 1.3129971921443939e-02</internalNodes>
      <leafValues>
        -4.0021207183599472e-02 4.7714602947235107e-01</leafValues></_>
    <_>
      <internalNodes>
        0 -1 60307 7.3428670875728130e-03</internalNodes>
      <leafValues>
        3.1531035900115967e-02 -6.3897907733917236e-01</leafValues></_>
    <_>
      <internalNodes>
        0 -1 11819 4.8416033387184143e-03</internalNodes>
      <leafValues>
        3.5034272819757462e-02 -4.3273994326591492e-01</leafValues></_></weakClassifiers></stage14>
</opencv_storage>
