<?xml version="1.0"?>
<opencv_storage>
<stage16>
  <maxWeakCount>77</maxWeakCount>
  <stageThreshold>-1.2672089338302612e+00</stageThreshold>
  <weakClassifiers>
    <_>
      <internalNodes>
        0 -1 64090 1.7646044492721558e-02</internalNodes>
      <leafValues>
        -2.5948640704154968e-01 3.7565177679061890e-01</leafValues></_>
    <_>
      <internalNodes>
        0 -1 15109 1.0054562985897064e-01</internalNodes>
      <leafValues>
        -1.7772343754768372e-01 4.1479396820068359e-01</leafValues></_>
    <_>
      <internalNodes>
        0 -1 53758 6.7049697972834110e-03</internalNodes>
      <leafValues>
        -1.5457697212696075e-01 3.8270598649978638e-01</leafValues></_>
    <_>
      <internalNodes>
        0 -1 42229 -6.4881150610744953e-03</internalNodes>
      <leafValues>
        1.6967491805553436e-01 -2.4763488769531250e-01</leafValues></_>
    <_>
      <internalNodes>
        0 -1 27847 4.1106827557086945e-02</internalNodes>
      <leafValues>
        -1.5447168052196503e-01 2.8985479474067688e-01</leafValues></_>
    <_>
      <internalNodes>
        0 -1 67634 1.6053138097049668e-05</internalNodes>
      <leafValues>
        -2.5788947939872742e-01 1.5464289486408234e-01</leafValues></_>
    <_>
      <internalNodes>
        0 -1 52942 3.5234715323895216e-03</internalNodes>
      <leafValues>
        -1.1931488662958145e-01 2.9689928889274597e-01</leafValues></_>
    <_>
      <internalNodes>
        0 -1 37926 -2.1436814218759537e-02</internalNodes>
      <leafValues>
        -5.6840723752975464e-01 4.7657206654548645e-02</leafValues></_>
    <_>
      <internalNodes>
        0 -1 76280 1.1495419312268496e-03</internalNodes>
      <leafValues>
        5.8237910270690918e-02 -4.4822484254837036e-01</leafValues></_>
    <_>
      <internalNodes>
        0 -1 42272 8.2194330170750618e-03</internalNodes>
      <leafValues>
        -2.7372416853904724e-01 1.0707100480794907e-01</leafValues></_>
    <_>
      <internalNodes>
        0 -1 57955 1.8535302951931953e-03</internalNodes>
      <leafValues>
        -1.0587501525878906e-01 2.8269454836845398e-01</leafValues></_>
    <_>
      <internalNodes>
        0 -1 63885 1.2254968285560608e-02</internalNodes>
      <leafValues>
        6.7922011017799377e-02 -4.5143038034439087e-01</leafValues></_>
    <_>
      <internalNodes>
        0 -1 76312 -1.7092428170144558e-03</internalNodes>
      <leafValues>
        -4.1833671927452087e-01 5.2266597747802734e-02</leafValues></_>
    <_>
      <internalNodes>
        0 -1 36036 -2.9360102489590645e-03</internalNodes>
      <leafValues>
        1.4923946559429169e-01 -1.6912545263767242e-01</leafValues></_>
    <_>
      <internalNodes>
        0 -1 37802 2.1233602892607450e-03</internalNodes>
      <leafValues>
        8.2326613366603851e-02 -3.1169313192367554e-01</leafValues></_>
    <_>
      <internalNodes>
        0 -1 65634 -5.2113835699856281e-03</internalNodes>
      <leafValues>
        1.4251621067523956e-01 -1.7471653223037720e-01</leafValues></_>
    <_>
      <internalNodes>
        0 -1 73425 5.1370975561439991e-03</internalNodes>
      <leafValues>
        6.2708899378776550e-02 -3.9826661348342896e-01</leafValues></_>
    <_>
      <internalNodes>
        0 -1 68533 -5.9480676427483559e-03</internalNodes>
      <leafValues>
        -4.1397854685783386e-01 4.9118693917989731e-02</leafValues></_>
    <_>
      <internalNodes>
        0 -1 37797 -1.5139288734644651e-03</internalNodes>
      <leafValues>
        -4.4509586691856384e-01 4.5710854232311249e-02</leafValues></_>
    <_>
      <internalNodes>
        0 -1 48228 6.2190517783164978e-03</internalNodes>
      <leafValues>
        -6.6387847065925598e-02 3.7704148888587952e-01</leafValues></_>
    <_>
      <internalNodes>
        0 -1 46905 -3.1266286969184875e-03</internalNodes>
      <leafValues>
        2.1358218789100647e-01 -1.1417588591575623e-01</leafValues></_>
    <_>
      <internalNodes>
        0 -1 51693 -6.9261584430932999e-03</internalNodes>
      <leafValues>
        2.2378538548946381e-01 -1.0404078662395477e-01</leafValues></_>
    <_>
      <internalNodes>
        0 -1 52011 -1.8193307332694530e-03</internalNodes>
      <leafValues>
        2.5694015622138977e-01 -9.2876665294170380e-02</leafValues></_>
    <_>
      <internalNodes>
        0 -1 72216 4.1090148442890495e-05</internalNodes>
      <leafValues>
        -1.8170547485351562e-01 1.3441914319992065e-01</leafValues></_>
    <_>
      <internalNodes>
        0 -1 63759 2.0495797507464886e-03</internalNodes>
      <leafValues>
        -9.1102845966815948e-02 2.7513650059700012e-01</leafValues></_>
    <_>
      <internalNodes>
        0 -1 50420 -6.2823528423905373e-04</internalNodes>
      <leafValues>
        -3.0575117468833923e-01 7.7573843300342560e-02</leafValues></_>
    <_>
      <internalNodes>
        0 -1 267 -6.4428732730448246e-03</internalNodes>
      <leafValues>
        -4.6469077467918396e-01 4.1605513542890549e-02</leafValues></_>
    <_>
      <internalNodes>
        0 -1 60800 9.4226300716400146e-03</internalNodes>
      <leafValues>
        4.7270763665437698e-02 -4.1766005754470825e-01</leafValues></_>
    <_>
      <internalNodes>
        0 -1 1675 -5.3072283044457436e-03</internalNodes>
      <leafValues>
        -4.2975014448165894e-01 4.4980838894844055e-02</leafValues></_>
    <_>
      <internalNodes>
        0 -1 18786 2.4094199761748314e-03</internalNodes>
      <leafValues>
        -6.9244354963302612e-02 2.9987710714340210e-01</leafValues></_>
    <_>
      <internalNodes>
        0 -1 72780 2.4117777124047279e-02</internalNodes>
      <leafValues>
        -1.0897171497344971e-01 1.7970082163810730e-01</leafValues></_>
    <_>
      <internalNodes>
        0 -1 73762 6.4445673488080502e-03</internalNodes>
      <leafValues>
        -1.1701858788728714e-01 1.8727748095989227e-01</leafValues></_>
    <_>
      <internalNodes>
        0 -1 46619 -3.3361814916133881e-02</internalNodes>
      <leafValues>
        -3.5221141576766968e-01 5.7859107851982117e-02</leafValues></_>
    <_>
      <internalNodes>
        0 -1 33608 -4.5654267072677612e-02</internalNodes>
      <leafValues>
        -4.9170887470245361e-01 4.0819559246301651e-02</leafValues></_>
    <_>
      <internalNodes>
        0 -1 74950 -2.2461917251348495e-03</internalNodes>
      <leafValues>
        -3.6309042572975159e-01 5.3865101188421249e-02</leafValues></_>
    <_>
      <internalNodes>
        0 -1 11739 3.7544332444667816e-03</internalNodes>
      <leafValues>
        -6.4993180334568024e-02 3.1268319487571716e-01</leafValues></_>
    <_>
      <internalNodes>
        0 -1 53279 2.1054875105619431e-03</internalNodes>
      <leafValues>
        -1.0247265547513962e-01 1.8908138573169708e-01</leafValues></_>
    <_>
      <internalNodes>
        0 -1 48610 -8.1923324614763260e-03</internalNodes>
      <leafValues>
        4.0776318311691284e-01 -6.8671181797981262e-02</leafValues></_>
    <_>
      <internalNodes>
        0 -1 20698 -4.2758113704621792e-03</internalNodes>
      <leafValues>
        -3.6298778653144836e-01 6.1383709311485291e-02</leafValues></_>
    <_>
      <internalNodes>
        0 -1 56644 -1.0858891764655709e-03</internalNodes>
      <leafValues>
        -3.3177861571311951e-01 5.9112392365932465e-02</leafValues></_>
    <_>
      <internalNodes>
        0 -1 76472 -1.7190874132211320e-05</internalNodes>
      <leafValues>
        1.4460743963718414e-01 -1.4043003320693970e-01</leafValues></_>
    <_>
      <internalNodes>
        0 -1 76277 -1.6414074707427062e-05</internalNodes>
      <leafValues>
        1.0695166140794754e-01 -1.9763460755348206e-01</leafValues></_>
    <_>
      <internalNodes>
        0 -1 42792 1.9686857238411903e-02</internalNodes>
      <leafValues>
        3.6257158964872360e-02 -4.8556679487228394e-01</leafValues></_>
    <_>
      <internalNodes>
        0 -1 35268 -8.2348817959427834e-03</internalNodes>
      <leafValues>
        -6.0949182510375977e-01 2.9068224132061005e-02</leafValues></_>
    <_>
      <internalNodes>
        0 -1 15526 3.1019259244203568e-02</internalNodes>
      <leafValues>
        -3.8861174136400223e-02 5.2327603101730347e-01</leafValues></_>
    <_>
      <internalNodes>
        0 -1 35263 3.4851087257266045e-03</internalNodes>
      <leafValues>
        5.6145474314689636e-02 -3.7539407610893250e-01</leafValues></_>
    <_>
      <internalNodes>
        0 -1 50432 1.3092253357172012e-03</internalNodes>
      <leafValues>
        -1.2672922015190125e-01 1.5095260739326477e-01</leafValues></_>
    <_>
      <internalNodes>
        0 -1 36449 1.6125920414924622e-01</internalNodes>
      <leafValues>
        2.2447783499956131e-02 -8.4217381477355957e-01</leafValues></_>
    <_>
      <internalNodes>
        0 -1 31308 -5.6902072392404079e-03</internalNodes>
      <leafValues>
        5.0281018018722534e-01 -4.4041801244020462e-02</leafValues></_>
    <_>
      <internalNodes>
        0 -1 5305 1.7332838615402579e-04</internalNodes>
      <leafValues>
        1.0494494438171387e-01 -1.8748617172241211e-01</leafValues></_>
    <_>
      <internalNodes>
        0 -1 5690 2.6102570700459182e-04</internalNodes>
      <leafValues>
        9.2468500137329102e-02 -2.0131710171699524e-01</leafValues></_>
    <_>
      <internalNodes>
        0 -1 49188 -2.1559582091867924e-03</internalNodes>
      <leafValues>
        2.5869116187095642e-01 -7.0384703576564789e-02</leafValues></_>
    <_>
      <internalNodes>
        0 -1 35336 2.8888054657727480e-03</internalNodes>
      <leafValues>
        -1.5432365238666534e-01 1.2410445511341095e-01</leafValues></_>
    <_>
      <internalNodes>
        0 -1 45627 4.5909779146313667e-03</internalNodes>
      <leafValues>
        4.0774736553430557e-02 -4.4683778285980225e-01</leafValues></_>
    <_>
      <internalNodes>
        0 -1 38795 6.9509610533714294e-02</internalNodes>
      <leafValues>
        2.4871874600648880e-02 -6.7926007509231567e-01</leafValues></_>
    <_>
      <internalNodes>
        0 -1 77358 -6.1794929206371307e-04</internalNodes>
      <leafValues>
        -2.9795926809310913e-01 5.8493301272392273e-02</leafValues></_>
    <_>
      <internalNodes>
        0 -1 76391 2.0960573107004166e-02</internalNodes>
      <leafValues>
        -3.7262093275785446e-02 5.4406702518463135e-01</leafValues></_>
    <_>
      <internalNodes>
        0 -1 16464 -1.0603128373622894e-01</internalNodes>
      <leafValues>
        -4.6358412504196167e-01 4.4016111642122269e-02</leafValues></_>
    <_>
      <internalNodes>
        0 -1 14233 -4.2777135968208313e-02</internalNodes>
      <leafValues>
        2.4981957674026489e-01 -7.9187035560607910e-02</leafValues></_>
    <_>
      <internalNodes>
        0 -1 65230 -5.6928549893200397e-03</internalNodes>
      <leafValues>
        3.4445735812187195e-01 -5.5552624166011810e-02</leafValues></_>
    <_>
      <internalNodes>
        0 -1 61842 1.7331896815448999e-03</internalNodes>
      <leafValues>
        -1.0335960984230042e-01 2.1740674972534180e-01</leafValues></_>
    <_>
      <internalNodes>
        0 -1 23498 1.5003439330030233e-05</internalNodes>
      <leafValues>
        -1.5610273182392120e-01 1.2784470617771149e-01</leafValues></_>
    <_>
      <internalNodes>
        0 -1 58525 1.5342871192842722e-03</internalNodes>
      <leafValues>
        -9.0899191796779633e-02 1.9596113264560699e-01</leafValues></_>
    <_>
      <internalNodes>
        0 -1 14693 -4.5131826773285866e-03</internalNodes>
      <leafValues>
        1.7216290533542633e-01 -1.2313957512378693e-01</leafValues></_>
    <_>
      <internalNodes>
        0 -1 27985 -3.7213906645774841e-02</internalNodes>
      <leafValues>
        -7.3347359895706177e-01 2.4581396952271461e-02</leafValues></_>
    <_>
      <internalNodes>
        0 -1 71362 -1.7184045910835266e-01</internalNodes>
      <leafValues>
        -9.2578560113906860e-01 1.4488477259874344e-02</leafValues></_>
    <_>
      <internalNodes>
        0 -1 64930 7.3301941156387329e-03</internalNodes>
      <leafValues>
        2.1932063624262810e-02 -6.3289368152618408e-01</leafValues></_>
    <_>
      <internalNodes>
        0 -1 43541 -1.8084835028275847e-03</internalNodes>
      <leafValues>
        2.2188358008861542e-01 -7.6188437640666962e-02</leafValues></_>
    <_>
      <internalNodes>
        0 -1 72824 -2.0917765796184540e-03</internalNodes>
      <leafValues>
        -3.7046262621879578e-01 4.7432191669940948e-02</leafValues></_>
    <_>
      <internalNodes>
        0 -1 2225 1.0637944564223289e-02</internalNodes>
      <leafValues>
        1.7633855342864990e-02 -8.0199497938156128e-01</leafValues></_>
    <_>
      <internalNodes>
        0 -1 63256 4.9377856776118279e-03</internalNodes>
      <leafValues>
        -8.9799262583255768e-02 2.0201168954372406e-01</leafValues></_>
    <_>
      <internalNodes>
        0 -1 67958 1.7030160961439833e-05</internalNodes>
      <leafValues>
        -1.4659051597118378e-01 1.1466281861066818e-01</leafValues></_>
    <_>
      <internalNodes>
        0 -1 70101 -1.8235418945550919e-02</internalNodes>
      <leafValues>
        4.4511899352073669e-01 -4.6299111098051071e-02</leafValues></_>
    <_>
      <internalNodes>
        0 -1 70448 -8.2922005094587803e-04</internalNodes>
      <leafValues>
        -2.6471060514450073e-01 7.9854883253574371e-02</leafValues></_>
    <_>
      <internalNodes>
        0 -1 70240 1.9011061638593674e-02</internalNodes>
      <leafValues>
        -5.9115488082170486e-02 3.4230944514274597e-01</leafValues></_>
    <_>
      <internalNodes>
        0 -1 29097 -7.2045236825942993e-02</internalNodes>
      <leafValues>
        -4.9201226234436035e-01 5.0160065293312073e-02</leafValues></_>
    <_>
      <internalNodes>
        0 -1 63534 5.1164384931325912e-03</internalNodes>
      <leafValues>
        -8.0673083662986755e-02 2.3146536946296692e-01</leafValues></_></weakClassifiers></stage16>
</opencv_storage>
