<?xml version="1.0"?>
<opencv_storage>
<stage15>
  <maxWeakCount>37</maxWeakCount>
  <stageThreshold>-1.6009206771850586e+00</stageThreshold>
  <weakClassifiers>
    <_>
      <internalNodes>
        0 -1 60011 -1.6292846994474530e-03</internalNodes>
      <leafValues>
        -3.0516430735588074e-01 -6.6037738323211670e-01</leafValues></_>
    <_>
      <internalNodes>
        0 -1 54239 -2.0147853065282106e-03</internalNodes>
      <leafValues>
        6.5461076796054840e-02 -3.2323220372200012e-01</leafValues></_>
    <_>
      <internalNodes>
        0 -1 37802 6.1060274019837379e-03</internalNodes>
      <leafValues>
        -1.0892200469970703e-01 3.6429098248481750e-01</leafValues></_>
    <_>
      <internalNodes>
        0 -1 51996 -1.3838274171575904e-03</internalNodes>
      <leafValues>
        2.6745206117630005e-01 -1.3052292168140411e-01</leafValues></_>
    <_>
      <internalNodes>
        0 -1 21593 1.7349841073155403e-04</internalNodes>
      <leafValues>
        1.0974942892789841e-01 -3.1950420141220093e-01</leafValues></_>
    <_>
      <internalNodes>
        0 -1 65352 1.9413139671087265e-03</internalNodes>
      <leafValues>
        8.1146307289600372e-02 -5.3755933046340942e-01</leafValues></_>
    <_>
      <internalNodes>
        0 -1 34179 8.7842071661725640e-04</internalNodes>
      <leafValues>
        1.2476852536201477e-01 -3.0353277921676636e-01</leafValues></_>
    <_>
      <internalNodes>
        0 -1 39511 -6.6814071033149958e-04</internalNodes>
      <leafValues>
        -2.7089583873748779e-01 1.1299374699592590e-01</leafValues></_>
    <_>
      <internalNodes>
        0 -1 63102 1.8299588700756431e-03</internalNodes>
      <leafValues>
        -1.8066507577896118e-01 1.7244660854339600e-01</leafValues></_>
    <_>
      <internalNodes>
        0 -1 70441 -1.6243046047748066e-05</internalNodes>
      <leafValues>
        1.3993526995182037e-01 -2.4519969522953033e-01</leafValues></_>
    <_>
      <internalNodes>
        0 -1 44816 -1.2852210784330964e-03</internalNodes>
      <leafValues>
        2.9745286703109741e-01 -1.0793059319257736e-01</leafValues></_>
    <_>
      <internalNodes>
        0 -1 48735 -5.5960811674594879e-02</internalNodes>
      <leafValues>
        -7.5661051273345947e-01 4.1463412344455719e-02</leafValues></_>
    <_>
      <internalNodes>
        0 -1 49563 9.1058691032230854e-04</internalNodes>
      <leafValues>
        -1.6103547811508179e-01 2.1155516803264618e-01</leafValues></_>
    <_>
      <internalNodes>
        0 -1 34329 -1.1154571548104286e-02</internalNodes>
      <leafValues>
        3.0578237771987915e-01 -1.0322111845016479e-01</leafValues></_>
    <_>
      <internalNodes>
        0 -1 69573 -7.1176071651279926e-04</internalNodes>
      <leafValues>
        -3.4039250016212463e-01 1.0384067893028259e-01</leafValues></_>
    <_>
      <internalNodes>
        0 -1 62774 1.7060166224837303e-02</internalNodes>
      <leafValues>
        3.2123357057571411e-02 -8.7306320667266846e-01</leafValues></_>
    <_>
      <internalNodes>
        0 -1 66474 9.6514815231785178e-04</internalNodes>
      <leafValues>
        5.9264495968818665e-02 -4.4128307700157166e-01</leafValues></_>
    <_>
      <internalNodes>
        0 -1 43810 1.9153052708134055e-03</internalNodes>
      <leafValues>
        -8.8189601898193359e-02 3.6938208341598511e-01</leafValues></_>
    <_>
      <internalNodes>
        0 -1 32737 -3.5183720756322145e-03</internalNodes>
      <leafValues>
        3.3322384953498840e-01 -1.5353418886661530e-01</leafValues></_>
    <_>
      <internalNodes>
        0 -1 32934 6.2653946224600077e-04</internalNodes>
      <leafValues>
        8.3444677293300629e-02 -4.2450267076492310e-01</leafValues></_>
    <_>
      <internalNodes>
        0 -1 64899 -1.2544209603220224e-03</internalNodes>
      <leafValues>
        -6.8792593479156494e-01 4.1611209511756897e-02</leafValues></_>
    <_>
      <internalNodes>
        0 -1 56046 8.5155974375084043e-04</internalNodes>
      <leafValues>
        -1.1482781171798706e-01 2.9106399416923523e-01</leafValues></_>
    <_>
      <internalNodes>
        0 -1 51754 6.1419191770255566e-03</internalNodes>
      <leafValues>
        -3.2271426916122437e-01 1.0162255167961121e-01</leafValues></_>
    <_>
      <internalNodes>
        0 -1 38206 -1.9911632407456636e-03</internalNodes>
      <leafValues>
        2.4956990778446198e-01 -1.4165952801704407e-01</leafValues></_>
    <_>
      <internalNodes>
        0 -1 43577 3.6763797979801893e-03</internalNodes>
      <leafValues>
        -9.3252107501029968e-02 3.7100797891616821e-01</leafValues></_>
    <_>
      <internalNodes>
        0 -1 31174 8.0366362817585468e-04</internalNodes>
      <leafValues>
        1.0951398313045502e-01 -3.1695961952209473e-01</leafValues></_>
    <_>
      <internalNodes>
        0 -1 65304 3.4627804998308420e-03</internalNodes>
      <leafValues>
        5.4594971239566803e-02 -5.5815255641937256e-01</leafValues></_>
    <_>
      <internalNodes>
        0 -1 73379 -3.2269905204884708e-05</internalNodes>
      <leafValues>
        1.0480569303035736e-01 -3.0873933434486389e-01</leafValues></_>
    <_>
      <internalNodes>
        0 -1 78425 -5.5861077271401882e-04</internalNodes>
      <leafValues>
        1.9559137523174286e-01 -1.7445251345634460e-01</leafValues></_>
    <_>
      <internalNodes>
        0 -1 8018 4.2097824625670910e-03</internalNodes>
      <leafValues>
        6.7989207804203033e-02 -4.3095272779464722e-01</leafValues></_>
    <_>
      <internalNodes>
        0 -1 22235 -3.7744150031358004e-03</internalNodes>
      <leafValues>
        -4.3079018592834473e-01 7.4258215725421906e-02</leafValues></_>
    <_>
      <internalNodes>
        0 -1 42545 -1.3891349080950022e-03</internalNodes>
      <leafValues>
        2.8182706236839294e-01 -1.0907374322414398e-01</leafValues></_>
    <_>
      <internalNodes>
        0 -1 42168 3.1403868924826384e-03</internalNodes>
      <leafValues>
        -1.1435200273990631e-01 2.9466724395751953e-01</leafValues></_>
    <_>
      <internalNodes>
        0 -1 76659 2.5056120939552784e-03</internalNodes>
      <leafValues>
        4.8982962965965271e-02 -6.5122789144515991e-01</leafValues></_>
    <_>
      <internalNodes>
        0 -1 49202 8.2495370879769325e-03</internalNodes>
      <leafValues>
        -6.7994110286235809e-02 5.2111250162124634e-01</leafValues></_>
    <_>
      <internalNodes>
        0 -1 35869 -1.2212127447128296e-01</internalNodes>
      <leafValues>
        -8.7758564949035645e-01 4.0374401956796646e-02</leafValues></_>
    <_>
      <internalNodes>
        0 -1 39504 -5.8864452876150608e-04</internalNodes>
      <leafValues>
        -2.5430947542190552e-01 1.0046012699604034e-01</leafValues></_></weakClassifiers></stage15>
</opencv_storage>
