<?xml version="1.0"?>
<opencv_storage>
<stage6>
  <maxWeakCount>48</maxWeakCount>
  <stageThreshold>-1.5080904960632324e+00</stageThreshold>
  <weakClassifiers>
    <_>
      <internalNodes>
        0 -1 335404 7.7809337526559830e-03</internalNodes>
      <leafValues>
        -5.6745994091033936e-01 5.3454810380935669e-01</leafValues></_>
    <_>
      <internalNodes>
        0 -1 266237 1.4402380213141441e-02</internalNodes>
      <leafValues>
        -2.5984969735145569e-01 5.3020095825195312e-01</leafValues></_>
    <_>
      <internalNodes>
        0 -1 239941 1.3725170865654945e-02</internalNodes>
      <leafValues>
        -2.0656542479991913e-01 5.0496649742126465e-01</leafValues></_>
    <_>
      <internalNodes>
        0 -1 284803 5.2554007619619370e-02</internalNodes>
      <leafValues>
        9.2024751007556915e-02 -6.5753853321075439e-01</leafValues></_>
    <_>
      <internalNodes>
        0 -1 172852 4.9542440101504326e-03</internalNodes>
      <leafValues>
        -3.1450271606445312e-01 2.4943943321704865e-01</leafValues></_>
    <_>
      <internalNodes>
        0 -1 366934 -6.6108301281929016e-02</internalNodes>
      <leafValues>
        4.4429603219032288e-01 -1.7317625880241394e-01</leafValues></_>
    <_>
      <internalNodes>
        0 -1 382200 -4.5151059748604894e-04</internalNodes>
      <leafValues>
        -5.7230657339096069e-01 8.5707910358905792e-02</leafValues></_>
    <_>
      <internalNodes>
        0 -1 296257 -7.6543865725398064e-04</internalNodes>
      <leafValues>
        -6.4262807369232178e-01 8.8308297097682953e-02</leafValues></_>
    <_>
      <internalNodes>
        0 -1 295432 2.0713736303150654e-03</internalNodes>
      <leafValues>
        8.6962044239044189e-02 -7.3595255613327026e-01</leafValues></_>
    <_>
      <internalNodes>
        0 -1 279480 1.9026623340323567e-03</internalNodes>
      <leafValues>
        -1.2097533792257309e-01 4.5018702745437622e-01</leafValues></_>
    <_>
      <internalNodes>
        0 -1 55507 2.3172326385974884e-02</internalNodes>
      <leafValues>
        -1.5101468563079834e-01 3.2874748110771179e-01</leafValues></_>
    <_>
      <internalNodes>
        0 -1 377244 -5.0457927864044905e-04</internalNodes>
      <leafValues>
        -4.8797404766082764e-01 9.6612907946109772e-02</leafValues></_>
    <_>
      <internalNodes>
        0 -1 232896 2.7863690629601479e-03</internalNodes>
      <leafValues>
        -1.1413596570491791e-01 4.1243651509284973e-01</leafValues></_>
    <_>
      <internalNodes>
        0 -1 384 -7.8102573752403259e-02</internalNodes>
      <leafValues>
        5.0329822301864624e-01 -9.1238908469676971e-02</leafValues></_>
    <_>
      <internalNodes>
        0 -1 285345 -1.1677933856844902e-02</internalNodes>
      <leafValues>
        3.4360668063163757e-01 -1.0994751006364822e-01</leafValues></_>
    <_>
      <internalNodes>
        0 -1 349526 -1.9195838831365108e-03</internalNodes>
      <leafValues>
        -5.8434075117111206e-01 7.4032641947269440e-02</leafValues></_>
    <_>
      <internalNodes>
        0 -1 357078 -6.0531965573318303e-06</internalNodes>
      <leafValues>
        1.7281395196914673e-01 -1.9461865723133087e-01</leafValues></_>
    <_>
      <internalNodes>
        0 -1 217153 -1.2841351563110948e-03</internalNodes>
      <leafValues>
        2.5883483886718750e-01 -1.3700377941131592e-01</leafValues></_>
    <_>
      <internalNodes>
        0 -1 228644 -2.6954482309520245e-03</internalNodes>
      <leafValues>
        -6.3021814823150635e-01 5.9850845485925674e-02</leafValues></_>
    <_>
      <internalNodes>
        0 -1 318067 -6.4641476456017699e-06</internalNodes>
      <leafValues>
        1.9284451007843018e-01 -1.7197060585021973e-01</leafValues></_>
    <_>
      <internalNodes>
        0 -1 306060 -7.5102190021425486e-04</internalNodes>
      <leafValues>
        4.9940985441207886e-01 -7.5784564018249512e-02</leafValues></_>
    <_>
      <internalNodes>
        0 -1 178680 -5.5806465446949005e-02</internalNodes>
      <leafValues>
        -9.0585941076278687e-01 4.2464148253202438e-02</leafValues></_>
    <_>
      <internalNodes>
        0 -1 323611 -2.7346729766577482e-03</internalNodes>
      <leafValues>
        4.5400038361549377e-01 -7.1324497461318970e-02</leafValues></_>
    <_>
      <internalNodes>
        0 -1 275413 1.0034809820353985e-03</internalNodes>
      <leafValues>
        7.6666839420795441e-02 -4.3943652510643005e-01</leafValues></_>
    <_>
      <internalNodes>
        0 -1 390010 -3.6236119922250509e-04</internalNodes>
      <leafValues>
        -3.4186077117919922e-01 9.4193063676357269e-02</leafValues></_>
    <_>
      <internalNodes>
        0 -1 390214 -7.0357141339627560e-06</internalNodes>
      <leafValues>
        1.9867900013923645e-01 -1.5371614694595337e-01</leafValues></_>
    <_>
      <internalNodes>
        0 -1 330211 -1.2224582023918629e-03</internalNodes>
      <leafValues>
        -4.9340188503265381e-01 6.8887412548065186e-02</leafValues></_>
    <_>
      <internalNodes>
        0 -1 377212 -1.2008858611807227e-03</internalNodes>
      <leafValues>
        -4.4335785508155823e-01 6.5800569951534271e-02</leafValues></_>
    <_>
      <internalNodes>
        0 -1 184257 6.6715883804135956e-06</internalNodes>
      <leafValues>
        -1.7219121754169464e-01 1.6593112051486969e-01</leafValues></_>
    <_>
      <internalNodes>
        0 -1 200812 8.0543989315629005e-04</internalNodes>
      <leafValues>
        6.6017396748065948e-02 -4.8440453410148621e-01</leafValues></_>
    <_>
      <internalNodes>
        0 -1 27139 -4.9800932407379150e-01</internalNodes>
      <leafValues>
        6.8454968929290771e-01 -4.5205533504486084e-02</leafValues></_>
    <_>
      <internalNodes>
        0 -1 323824 1.6048219986259937e-03</internalNodes>
      <leafValues>
        -1.0616535693407059e-01 3.0437019467353821e-01</leafValues></_>
    <_>
      <internalNodes>
        0 -1 278148 6.5051589626818895e-04</internalNodes>
      <leafValues>
        -1.4626453816890717e-01 2.0690333843231201e-01</leafValues></_>
    <_>
      <internalNodes>
        0 -1 384320 1.8248800188302994e-03</internalNodes>
      <leafValues>
        5.6489907205104828e-02 -5.7117319107055664e-01</leafValues></_>
    <_>
      <internalNodes>
        0 -1 203086 3.6008134484291077e-03</internalNodes>
      <leafValues>
        -1.7023485898971558e-01 1.7478623986244202e-01</leafValues></_>
    <_>
      <internalNodes>
        0 -1 361463 1.2822831049561501e-03</internalNodes>
      <leafValues>
        -6.7073218524456024e-02 4.5017021894454956e-01</leafValues></_>
    <_>
      <internalNodes>
        0 -1 267814 2.4263230152428150e-03</internalNodes>
      <leafValues>
        4.3245408684015274e-02 -7.3565036058425903e-01</leafValues></_>
    <_>
      <internalNodes>
        0 -1 294185 -1.9718366675078869e-03</internalNodes>
      <leafValues>
        5.2745848894119263e-01 -5.7208169251680374e-02</leafValues></_>
    <_>
      <internalNodes>
        0 -1 199362 7.5055111665278673e-05</internalNodes>
      <leafValues>
        -1.6968141496181488e-01 1.6762240231037140e-01</leafValues></_>
    <_>
      <internalNodes>
        0 -1 104123 1.4654424786567688e-01</internalNodes>
      <leafValues>
        3.8027845323085785e-02 -7.7616125345230103e-01</leafValues></_>
    <_>
      <internalNodes>
        0 -1 302190 1.1984685063362122e-01</internalNodes>
      <leafValues>
        3.1545367091894150e-02 -1.6336094141006470e+00</leafValues></_>
    <_>
      <internalNodes>
        0 -1 138813 -1.3932050205767155e-03</internalNodes>
      <leafValues>
        -4.4921103119850159e-01 6.7099303007125854e-02</leafValues></_>
    <_>
      <internalNodes>
        0 -1 178847 -7.9969584476202726e-04</internalNodes>
      <leafValues>
        2.3258529603481293e-01 -1.2047544121742249e-01</leafValues></_>
    <_>
      <internalNodes>
        0 -1 51749 2.3019371926784515e-01</internalNodes>
      <leafValues>
        4.6046726405620575e-02 -7.6320099830627441e-01</leafValues></_>
    <_>
      <internalNodes>
        0 -1 384930 1.0410757735371590e-02</internalNodes>
      <leafValues>
        3.7968203425407410e-02 -1.0556000471115112e+00</leafValues></_>
    <_>
      <internalNodes>
        0 -1 294841 7.3723936111491639e-06</internalNodes>
      <leafValues>
        -1.6428352892398834e-01 2.0107378065586090e-01</leafValues></_>
    <_>
      <internalNodes>
        0 -1 130815 7.6253549195826054e-03</internalNodes>
      <leafValues>
        -1.0262151807546616e-01 2.8781351447105408e-01</leafValues></_>
    <_>
      <internalNodes>
        0 -1 380232 -1.2992629781365395e-03</internalNodes>
      <leafValues>
        -5.1953840255737305e-01 6.8694710731506348e-02</leafValues></_></weakClassifiers></stage6>
</opencv_storage>
