<?xml version="1.0"?>
<opencv_storage>
<stage7>
  <maxWeakCount>50</maxWeakCount>
  <stageThreshold>-1.5755712985992432e+00</stageThreshold>
  <weakClassifiers>
    <_>
      <internalNodes>
        0 -1 172172 1.9926037639379501e-02</internalNodes>
      <leafValues>
        -4.4798064231872559e-01 5.5735176801681519e-01</leafValues></_>
    <_>
      <internalNodes>
        0 -1 182172 2.2598996758460999e-02</internalNodes>
      <leafValues>
        -3.5466399788856506e-01 4.2229971289634705e-01</leafValues></_>
    <_>
      <internalNodes>
        0 -1 379637 -1.5235592611134052e-02</internalNodes>
      <leafValues>
        3.2743427157402039e-01 -3.1804856657981873e-01</leafValues></_>
    <_>
      <internalNodes>
        0 -1 294054 -6.8824337795376778e-03</internalNodes>
      <leafValues>
        3.2392880320549011e-01 -2.5877434015274048e-01</leafValues></_>
    <_>
      <internalNodes>
        0 -1 76578 2.2051889449357986e-02</internalNodes>
      <leafValues>
        -1.2967935204505920e-01 5.4799979925155640e-01</leafValues></_>
    <_>
      <internalNodes>
        0 -1 237651 4.5742257498204708e-03</internalNodes>
      <leafValues>
        -2.2665169835090637e-01 2.5933679938316345e-01</leafValues></_>
    <_>
      <internalNodes>
        0 -1 272458 7.1538820862770081e-02</internalNodes>
      <leafValues>
        6.3564516603946686e-02 -5.3974723815917969e-01</leafValues></_>
    <_>
      <internalNodes>
        0 -1 279652 2.3734117858111858e-03</internalNodes>
      <leafValues>
        -1.2029603868722916e-01 4.0172934532165527e-01</leafValues></_>
    <_>
      <internalNodes>
        0 -1 798 -2.5854450464248657e-01</internalNodes>
      <leafValues>
        6.1231952905654907e-01 -7.2500452399253845e-02</leafValues></_>
    <_>
      <internalNodes>
        0 -1 349985 -1.5469659047084861e-05</internalNodes>
      <leafValues>
        1.8327173590660095e-01 -2.6331636309623718e-01</leafValues></_>
    <_>
      <internalNodes>
        0 -1 386204 -6.1039841966703534e-04</internalNodes>
      <leafValues>
        -6.0228729248046875e-01 5.9955280274152756e-02</leafValues></_>
    <_>
      <internalNodes>
        0 -1 328753 -7.2626166911504697e-06</internalNodes>
      <leafValues>
        2.0036555826663971e-01 -2.0064362883567810e-01</leafValues></_>
    <_>
      <internalNodes>
        0 -1 279874 1.0124735999852419e-03</internalNodes>
      <leafValues>
        -1.2475313246250153e-01 3.0250367522239685e-01</leafValues></_>
    <_>
      <internalNodes>
        0 -1 138084 1.3141876552253962e-03</internalNodes>
      <leafValues>
        -1.6113620996475220e-01 2.4397413432598114e-01</leafValues></_>
    <_>
      <internalNodes>
        0 -1 377408 6.4317387295886874e-04</internalNodes>
      <leafValues>
        8.2532010972499847e-02 -6.4918380975723267e-01</leafValues></_>
    <_>
      <internalNodes>
        0 -1 321375 -2.6848446577787399e-04</internalNodes>
      <leafValues>
        -4.4485175609588623e-01 8.3112649619579315e-02</leafValues></_>
    <_>
      <internalNodes>
        0 -1 365139 1.0121867060661316e-02</internalNodes>
      <leafValues>
        4.8475444316864014e-02 -8.3895349502563477e-01</leafValues></_>
    <_>
      <internalNodes>
        0 -1 221046 1.9889259710907936e-03</internalNodes>
      <leafValues>
        -1.6488407552242279e-01 2.0899979770183563e-01</leafValues></_>
    <_>
      <internalNodes>
        0 -1 26379 -4.0787078440189362e-02</internalNodes>
      <leafValues>
        3.7128144502639771e-01 -1.0003527253866196e-01</leafValues></_>
    <_>
      <internalNodes>
        0 -1 313494 1.8706556875258684e-03</internalNodes>
      <leafValues>
        -9.1185025870800018e-02 3.7586909532546997e-01</leafValues></_>
    <_>
      <internalNodes>
        0 -1 208306 -8.2044852897524834e-03</internalNodes>
      <leafValues>
        2.8795894980430603e-01 -1.2079040706157684e-01</leafValues></_>
    <_>
      <internalNodes>
        0 -1 320712 1.2746299616992474e-03</internalNodes>
      <leafValues>
        5.7094402611255646e-02 -6.4496058225631714e-01</leafValues></_>
    <_>
      <internalNodes>
        0 -1 280119 1.3833863195031881e-03</internalNodes>
      <leafValues>
        -8.2158021628856659e-02 4.0157234668731689e-01</leafValues></_>
    <_>
      <internalNodes>
        0 -1 178641 -6.2532454729080200e-02</internalNodes>
      <leafValues>
        -7.6596856117248535e-01 4.5658484101295471e-02</leafValues></_>
    <_>
      <internalNodes>
        0 -1 265809 -1.2271371670067310e-03</internalNodes>
      <leafValues>
        3.5102871060371399e-01 -1.1938762664794922e-01</leafValues></_>
    <_>
      <internalNodes>
        0 -1 235832 1.1790257412940264e-03</internalNodes>
      <leafValues>
        5.9085298329591751e-02 -5.6765955686569214e-01</leafValues></_>
    <_>
      <internalNodes>
        0 -1 175979 -2.3775793612003326e-02</internalNodes>
      <leafValues>
        -8.1415992975234985e-01 4.4507421553134918e-02</leafValues></_>
    <_>
      <internalNodes>
        0 -1 294170 1.3545142719522119e-03</internalNodes>
      <leafValues>
        6.6852197051048279e-02 -4.5120829343795776e-01</leafValues></_>
    <_>
      <internalNodes>
        0 -1 160222 1.6502719372510910e-02</internalNodes>
      <leafValues>
        -7.0383645594120026e-02 4.3901997804641724e-01</leafValues></_>
    <_>
      <internalNodes>
        0 -1 364770 6.6411653278919403e-06</internalNodes>
      <leafValues>
        -1.7877233028411865e-01 1.6364720463752747e-01</leafValues></_>
    <_>
      <internalNodes>
        0 -1 366744 2.1614255383610725e-03</internalNodes>
      <leafValues>
        -1.3427062332630157e-01 2.0999658107757568e-01</leafValues></_>
    <_>
      <internalNodes>
        0 -1 273436 -3.2816920429468155e-03</internalNodes>
      <leafValues>
        2.5108399987220764e-01 -1.1842256784439087e-01</leafValues></_>
    <_>
      <internalNodes>
        0 -1 229024 -7.3131239041686058e-03</internalNodes>
      <leafValues>
        4.3803349137306213e-01 -7.8050762414932251e-02</leafValues></_>
    <_>
      <internalNodes>
        0 -1 250362 -4.0489614009857178e-02</internalNodes>
      <leafValues>
        2.6383745670318604e-01 -1.1415307968854904e-01</leafValues></_>
    <_>
      <internalNodes>
        0 -1 378355 -1.8412102945148945e-03</internalNodes>
      <leafValues>
        -5.8059734106063843e-01 5.8243032544851303e-02</leafValues></_>
    <_>
      <internalNodes>
        0 -1 293582 -2.3930096067488194e-03</internalNodes>
      <leafValues>
        5.5075937509536743e-01 -5.7608775794506073e-02</leafValues></_>
    <_>
      <internalNodes>
        0 -1 385956 -5.5329932365566492e-04</internalNodes>
      <leafValues>
        -3.7802174687385559e-01 8.2017958164215088e-02</leafValues></_>
    <_>
      <internalNodes>
        0 -1 212956 -7.1616477725910954e-06</internalNodes>
      <leafValues>
        1.7009863257408142e-01 -1.7387542128562927e-01</leafValues></_>
    <_>
      <internalNodes>
        0 -1 263610 4.9855541437864304e-03</internalNodes>
      <leafValues>
        4.3527081608772278e-02 -6.8349838256835938e-01</leafValues></_>
    <_>
      <internalNodes>
        0 -1 213702 1.4948858879506588e-03</internalNodes>
      <leafValues>
        -1.3987526297569275e-01 2.1807974576950073e-01</leafValues></_>
    <_>
      <internalNodes>
        0 -1 200345 -1.8500920385122299e-02</internalNodes>
      <leafValues>
        2.8221333026885986e-01 -9.8377428948879242e-02</leafValues></_>
    <_>
      <internalNodes>
        0 -1 335194 3.3945572795346379e-04</internalNodes>
      <leafValues>
        -2.6933088898658752e-01 1.0818354040384293e-01</leafValues></_>
    <_>
      <internalNodes>
        0 -1 46434 -2.9889070428907871e-03</internalNodes>
      <leafValues>
        1.9134029746055603e-01 -1.4426219463348389e-01</leafValues></_>
    <_>
      <internalNodes>
        0 -1 71241 -2.5713408831506968e-03</internalNodes>
      <leafValues>
        -4.8907566070556641e-01 6.0227606445550919e-02</leafValues></_>
    <_>
      <internalNodes>
        0 -1 9424 -7.2441915981471539e-03</internalNodes>
      <leafValues>
        5.0141197443008423e-01 -5.8939456939697266e-02</leafValues></_>
    <_>
      <internalNodes>
        0 -1 386370 -4.5498373219743371e-04</internalNodes>
      <leafValues>
        -3.6769083142280579e-01 7.9023331403732300e-02</leafValues></_>
    <_>
      <internalNodes>
        0 -1 377015 -1.3116861737216823e-05</internalNodes>
      <leafValues>
        1.6272239387035370e-01 -1.6997718811035156e-01</leafValues></_>
    <_>
      <internalNodes>
        0 -1 393418 5.9811044484376907e-03</internalNodes>
      <leafValues>
        -6.1884474009275436e-02 4.3488520383834839e-01</leafValues></_>
    <_>
      <internalNodes>
        0 -1 6486 1.1461821850389242e-03</internalNodes>
      <leafValues>
        6.7105866968631744e-02 -4.1540169715881348e-01</leafValues></_>
    <_>
      <internalNodes>
        0 -1 216657 2.4614168796688318e-03</internalNodes>
      <leafValues>
        -7.1130476891994476e-02 3.8568222522735596e-01</leafValues></_></weakClassifiers></stage7>
</opencv_storage>
