<?xml version="1.0"?>
<opencv_storage>
<stage14>
  <maxWeakCount>33</maxWeakCount>
  <stageThreshold>-3.3018052577972412e+00</stageThreshold>
  <weakClassifiers>
    <_>
      <internalNodes>
        0 -1 1265 -2111820801 -82482731 -1456363267 -1118728887
        -1148043394 -120542310 -207980037 -542575155</internalNodes>
      <leafValues>
        -7.3769885301589966e-01 5.8908653259277344e-01</leafValues></_>
    <_>
      <internalNodes>
        0 -1 2784 1900138995 -86306339 -1908073168 1909792059 1912967851
        -1430732662 -1641104454 -1999897089</internalNodes>
      <leafValues>
        -6.1774116754531860e-01 6.7722129821777344e-01</leafValues></_>
    <_>
      <internalNodes>
        0 -1 3524 -1148192592 -73238895 1996848085 -572457476
        -1100301316 -89264343 -1728488563 -6333348</internalNodes>
      <leafValues>
        -7.1776610612869263e-01 5.8133667707443237e-01</leafValues></_>
    <_>
      <internalNodes>
        0 -1 3808 -1649563375 1012062971 822729585 144692439 -359678848
        -359931790 -1429363824 -1428164645</internalNodes>
      <leafValues>
        -6.7288529872894287e-01 5.4396969079971313e-01</leafValues></_>
    <_>
      <internalNodes>
        0 -1 3546 2139081807 -576749397 -803988161 -1457532469
        -1165292544 -1284523762 -72656384 -1160070377</internalNodes>
      <leafValues>
        -8.1249493360519409e-01 4.4982102513313293e-01</leafValues></_>
    <_>
      <internalNodes>
        0 -1 2791 -708427024 1593395255 -331265812 73074367 -67554921
        -619770751 -370673245 1035507</internalNodes>
      <leafValues>
        -8.4589707851409912e-01 4.1587460041046143e-01</leafValues></_>
    <_>
      <internalNodes>
        0 -1 3895 -82052561 -1238309682 -1038738959 -226460776
        -993013536 -611728512 298833377 -594618136</internalNodes>
      <leafValues>
        -7.5756311416625977e-01 4.6267729997634888e-01</leafValues></_>
    <_>
      <internalNodes>
        0 -1 1545 -48896585 2071714301 -242097570 764255363 2013307543
        2066368682 1712366218 779091791</internalNodes>
      <leafValues>
        -7.4590623378753662e-01 5.0661277770996094e-01</leafValues></_>
    <_>
      <internalNodes>
        0 -1 3484 168692996 239600044 1914453463 445792652 1385323236
        -893871980 -1203522636 -95229472</internalNodes>
      <leafValues>
        -1.1368114948272705e+00 2.7543869614601135e-01</leafValues></_>
    <_>
      <internalNodes>
        0 -1 1625 -738308723 82827711 -760949217 541382521 -1722025467
        976968146 -336663804 -682102933</internalNodes>
      <leafValues>
        -6.6815876960754395e-01 4.9931502342224121e-01</leafValues></_>
    <_>
      <internalNodes>
        0 -1 3438 -640358736 -34803715 -1213415745 -1721237763
        -295374976 -10273418 -1421575 -1427226177</internalNodes>
      <leafValues>
        -5.3360569477081299e-01 6.1697000265121460e-01</leafValues></_>
    <_>
      <internalNodes>
        0 -1 3750 1266569777 -2077359685 -2038107660 1254899844
        1730859777 -1289078632 1602732544 -823615808</internalNodes>
      <leafValues>
        -9.2234140634536743e-01 3.3026325702667236e-01</leafValues></_>
    <_>
      <internalNodes>
        0 -1 3904 -1891640385 -1980776518 -553653327 2138963710
        -1347436614 -1376845897 390419933 -838929191</internalNodes>
      <leafValues>
        -5.0199216604232788e-01 6.2536865472793579e-01</leafValues></_>
    <_>
      <internalNodes>
        0 -1 2300 1217333254 726610968 271669710 713679299 1616976391
        1126399201 707504731 239858763</internalNodes>
      <leafValues>
        -8.5588437318801880e-01 4.0653857588768005e-01</leafValues></_>
    <_>
      <internalNodes>
        0 -1 2227 1886380192 -2055157500 -1874739024 -68085374
        -1869311823 -1614247766 -1827872333 -579878445</internalNodes>
      <leafValues>
        -6.3846278190612793e-01 4.6705254912376404e-01</leafValues></_>
    <_>
      <internalNodes>
        0 -1 1930 -148773238 -542520572 -1611776195 -1751420939
        2082649553 -814252033 -126484624 -1344406465</internalNodes>
      <leafValues>
        -4.3104842305183411e-01 7.0563483238220215e-01</leafValues></_>
    <_>
      <internalNodes>
        0 -1 420 -393218149 1152066008 -113217460 -862158252 1646485573
        1179708288 1504416532 1961751533</internalNodes>
      <leafValues>
        -9.0645074844360352e-01 3.3518376946449280e-01</leafValues></_>
    <_>
      <internalNodes>
        0 -1 1597 1885476352 1343278676 -1165716914 -1809276882
        189840980 1075912257 -234443286 1089305123</internalNodes>
      <leafValues>
        -1.1270130872726440e+00 2.6151010394096375e-01</leafValues></_>
    <_>
      <internalNodes>
        0 -1 2661 2102138028 -1653274228 163657808 1497465482 1282166201
        1536232647 279189216 1468216449</internalNodes>
      <leafValues>
        -1.0291688442230225e+00 2.5352919101715088e-01</leafValues></_>
    <_>
      <internalNodes>
        0 -1 2841 -1503250687 -1428323941 -544717297 672882335
        -1341929707 -1108611691 1510640711 -1616390367</internalNodes>
      <leafValues>
        -6.4521151781082153e-01 4.2869153618812561e-01</leafValues></_>
    <_>
      <internalNodes>
        0 -1 3287 -797838688 -1563668267 319902933 -976928545
        -1047402252 -158738270 -1826180632 586733535</internalNodes>
      <leafValues>
        -6.1092966794967651e-01 4.6284526586532593e-01</leafValues></_>
    <_>
      <internalNodes>
        0 -1 2775 -1667478031 -249278731 -1342259459 2132749502
        -62984752 -50696715 241960106 263925503</internalNodes>
      <leafValues>
        -5.0908905267715454e-01 5.3688800334930420e-01</leafValues></_>
    <_>
      <internalNodes>
        0 -1 3825 936605235 606765452 537933912 -328535915 2066453334
        436863627 140669808 -387936028</internalNodes>
      <leafValues>
        -8.8277542591094971e-01 3.1408917903900146e-01</leafValues></_>
    <_>
      <internalNodes>
        0 -1 2262 -420020512 -571576581 -536939150 1308619439 1877866359
        -1904248844 -1107890194 1055913467</internalNodes>
      <leafValues>
        -5.0027811527252197e-01 5.8140254020690918e-01</leafValues></_>
    <_>
      <internalNodes>
        0 -1 2283 -352407120 -761352589 2128330553 1408237182 -96145216
        -1997113743 1589044666 -545054126</internalNodes>
      <leafValues>
        -4.4756883382797241e-01 5.9275013208389282e-01</leafValues></_>
    <_>
      <internalNodes>
        0 -1 2200 -989998957 -2147069409 1514567293 1077467691
        -659388210 1023541328 -901601012 1426506156</internalNodes>
      <leafValues>
        -6.5037685632705688e-01 4.3372455239295959e-01</leafValues></_>
    <_>
      <internalNodes>
        0 -1 3147 1443582719 1893630503 -687783595 -1768009211
        -761167786 -89714541 -234706925 -1591618980</internalNodes>
      <leafValues>
        -5.1730978488922119e-01 4.9773928523063660e-01</leafValues></_>
    <_>
      <internalNodes>
        0 -1 1163 -398465065 -126632033 -152061117 -227872843 -12058682
        -1162709135 -1344307369 -3457067</internalNodes>
      <leafValues>
        -3.5056057572364807e-01 7.0661395788192749e-01</leafValues></_>
    <_>
      <internalNodes>
        0 -1 1608 -2101210782 -570813993 2670235 -61808335 138549256
        174721031 1392607402 -1084642579</internalNodes>
      <leafValues>
        -5.8111751079559326e-01 4.2163789272308350e-01</leafValues></_>
    <_>
      <internalNodes>
        0 -1 2158 1355848608 151097873 -939918319 1269470637 -613353072
        -960153471 -525116894 800796859</internalNodes>
      <leafValues>
        -6.9151741266250610e-01 3.6808493733406067e-01</leafValues></_>
    <_>
      <internalNodes>
        0 -1 3192 -867666192 532965303 -33628813 1567560869 -89876577
        -877789321 213786031 -1409344197</internalNodes>
      <leafValues>
        -4.8317107558250427e-01 5.5563753843307495e-01</leafValues></_>
    <_>
      <internalNodes>
        0 -1 762 1645307951 -2011377524 -116882737 -964390518 -805251987
        609226907 -1785663743 2008662619</internalNodes>
      <leafValues>
        -7.4220705032348633e-01 3.1058976054191589e-01</leafValues></_>
    <_>
      <internalNodes>
        0 -1 3910 2048020512 -767326113 -2113167226 -619937631
        -964680832 402755648 -218066984 774421448</internalNodes>
      <leafValues>
        -8.9617145061492920e-01 2.3301859200000763e-01</leafValues></_></weakClassifiers></stage14>
</opencv_storage>
