<?xml version="1.0"?>
<opencv_storage>
<stage10>
  <maxWeakCount>55</maxWeakCount>
  <stageThreshold>-7.5134840011596680e+00</stageThreshold>
  <weakClassifiers>
    <_>
      <internalNodes>
        0 -1 609 -40372737 -25408917 -547767121 -2105697 -119558401
        -208483077 -1148479155 -5507</internalNodes>
      <leafValues>
        -1.3833447694778442e+00 -1.7953321337699890e-02</leafValues></_>
    <_>
      <internalNodes>
        0 -1 3774 -13895685 -610848291 -1726481922 -538980417
        -1685128197 -1691615335 -68423452 -572597772</internalNodes>
      <leafValues>
        -8.1366401910781860e-01 6.5592420101165771e-01</leafValues></_>
    <_>
      <internalNodes>
        0 -1 2472 1573387220 1423282804 1890292949 -134667873 1569118444
        -1732380420 -106170148 -1078228738</internalNodes>
      <leafValues>
        -7.5085777044296265e-01 6.2528735399246216e-01</leafValues></_>
    <_>
      <internalNodes>
        0 -1 3847 1462577013 -192162861 -2003996451 -1679174949
        -245602643 -112496103 -39064628 -17826853</internalNodes>
      <leafValues>
        -7.6656442880630493e-01 6.0054636001586914e-01</leafValues></_>
    <_>
      <internalNodes>
        0 -1 2008 -11546033 -130886796 1476629917 -522741795 -142356649
        -59372687 -76948257 -119545893</internalNodes>
      <leafValues>
        -6.9264715909957886e-01 7.2238689661026001e-01</leafValues></_>
    <_>
      <internalNodes>
        0 -1 1909 -412946806 -309345811 1295067315 -547259930 200111363
        697981018 -745348123 -6554885</internalNodes>
      <leafValues>
        -8.9690935611724854e-01 4.4910243153572083e-01</leafValues></_>
    <_>
      <internalNodes>
        0 -1 3078 -126892332 -800698306 -573406913 -829267057 -134037284
        -279423429 -1094788386 -2002607124</internalNodes>
      <leafValues>
        -7.2185832262039185e-01 5.6257265806198120e-01</leafValues></_>
    <_>
      <internalNodes>
        0 -1 3710 -1343571405 1320571103 1159837979 -2116984682
        -1947238383 -779165632 -1966928496 -8416815</internalNodes>
      <leafValues>
        -7.4996781349182129e-01 5.8040481805801392e-01</leafValues></_>
    <_>
      <internalNodes>
        0 -1 63 -528641 542722110 1312937124 755601609 1375891893
        -1113911024 1099166464 -9619078</internalNodes>
      <leafValues>
        -7.4946784973144531e-01 5.1892769336700439e-01</leafValues></_>
    <_>
      <internalNodes>
        0 -1 2266 -40391215 2060521817 1437857952 937007578 -1206150214
        -526708334 -1283337664 -222627078</internalNodes>
      <leafValues>
        -6.4442515373229980e-01 6.3345700502395630e-01</leafValues></_>
    <_>
      <internalNodes>
        0 -1 3211 -68223041 -134496523 -67783 -75759876 1073686494
        -590337 -923831075 -1935911499</internalNodes>
      <leafValues>
        -5.7045912742614746e-01 7.6814204454421997e-01</leafValues></_>
    <_>
      <internalNodes>
        0 -1 2227 -666709366 -478014294 -1777347312 -11447980 -351419757
        1218611616 -1581145820 -111693268</internalNodes>
      <leafValues>
        -7.4933212995529175e-01 5.1960730552673340e-01</leafValues></_>
    <_>
      <internalNodes>
        0 -1 2997 -661138636 -1002438182 -788428704 -661008175 -87844223
        -1844969285 1787748072 -1996609334</internalNodes>
      <leafValues>
        -7.0372766256332397e-01 5.2037036418914795e-01</leafValues></_>
    <_>
      <internalNodes>
        0 -1 1950 -903991278 -90533360 520823190 -329284538 1915360913
        -1022684670 -523868559 1565742971</internalNodes>
      <leafValues>
        -8.9885675907135010e-01 3.8790202140808105e-01</leafValues></_>
    <_>
      <internalNodes>
        0 -1 3439 781733136 345764819 -418293329 153449691 1485799959
        -1114763157 -2001821025 -1358967913</internalNodes>
      <leafValues>
        -8.6463320255279541e-01 4.1198009252548218e-01</leafValues></_>
    <_>
      <internalNodes>
        0 -1 2608 -205588997 1056944073 -352321729 -550883413 2138299048
        -545390593 -67379480 -362646760</internalNodes>
      <leafValues>
        -5.4041749238967896e-01 6.6360300779342651e-01</leafValues></_>
    <_>
      <internalNodes>
        0 -1 2558 -211292244 -21561904 -1343258711 2059665405 -8552633
        -1621623947 -34603362 -295698501</internalNodes>
      <leafValues>
        -5.0589817762374878e-01 7.3656785488128662e-01</leafValues></_>
    <_>
      <internalNodes>
        0 -1 3610 -1303381101 -1938128500 430497657 -501508004
        -627396491 -1432776289 446233141 -341137724</internalNodes>
      <leafValues>
        -6.8868267536163330e-01 5.0447785854339600e-01</leafValues></_>
    <_>
      <internalNodes>
        0 -1 3371 463160181 -986316644 1359059391 -1878338040 1303056773
        -854425573 205749757 -184916636</internalNodes>
      <leafValues>
        -7.9668879508972168e-01 4.3257591128349304e-01</leafValues></_>
    <_>
      <internalNodes>
        0 -1 2716 1879172720 2140242008 -761063943 -748965592 15487140
        2046863520 -131789955 -1309688958</internalNodes>
      <leafValues>
        -7.0273435115814209e-01 4.9322608113288879e-01</leafValues></_>
    <_>
      <internalNodes>
        0 -1 730 -955324785 924013388 1073762536 1321975191 251704316
        -1528758024 1602398472 614153663</internalNodes>
      <leafValues>
        -7.0308226346969604e-01 5.1076698303222656e-01</leafValues></_>
    <_>
      <internalNodes>
        0 -1 1679 -232844502 1682936604 1645301981 538251804 -2113189028
        445287956 1804208211 864003015</internalNodes>
      <leafValues>
        -7.8967708349227905e-01 4.1517603397369385e-01</leafValues></_>
    <_>
      <internalNodes>
        0 -1 786 -997072664 -916354664 268555306 -1627324079 671617863
        -1148614062 -2147378367 2128205871</internalNodes>
      <leafValues>
        -1.0112836360931396e+00 2.9931554198265076e-01</leafValues></_>
    <_>
      <internalNodes>
        0 -1 2283 -1000191386 1557431312 1409597786 -1643212321
        -1315922512 1517471874 -1878566475 -1355079329</internalNodes>
      <leafValues>
        -6.1792641878128052e-01 5.3230112791061401e-01</leafValues></_>
    <_>
      <internalNodes>
        0 -1 3043 -492154275 -770563707 -226425549 386068751 -759144520
        556515720 -1459159112 115659766</internalNodes>
      <leafValues>
        -7.4340349435806274e-01 4.4032460451126099e-01</leafValues></_>
    <_>
      <internalNodes>
        0 -1 2259 -50347166 1055776438 -268517383 2102095613 -290325060
        -419470031 1333063128 -378067911</internalNodes>
      <leafValues>
        -4.9235606193542480e-01 6.6172802448272705e-01</leafValues></_>
    <_>
      <internalNodes>
        0 -1 174 -1884115419 -354638887 -995559211 -83066858 50354618
        1804116104 -15111949 1969191664</internalNodes>
      <leafValues>
        -5.9373468160629272e-01 5.0217688083648682e-01</leafValues></_>
    <_>
      <internalNodes>
        0 -1 3832 -238717981 1339523472 16842897 1145807726 -2119362396
        -134148094 -1968441035 -38732576</internalNodes>
      <leafValues>
        -7.2424978017807007e-01 4.0086144208908081e-01</leafValues></_>
    <_>
      <internalNodes>
        0 -1 829 283862543 -1174285956 1091625555 -32421165 1787374573
        -609910518 -1820103669 1584983029</internalNodes>
      <leafValues>
        -6.2775856256484985e-01 4.5364242792129517e-01</leafValues></_>
    <_>
      <internalNodes>
        0 -1 3348 -1626637609 584233048 -1055817250 -560565803
        -1302390763 -1966382920 -1029054093 -87260432</internalNodes>
      <leafValues>
        -6.6498416662216187e-01 3.9968240261077881e-01</leafValues></_>
    <_>
      <internalNodes>
        0 -1 849 -297600274 110364193 -1945773796 230765317 915446096
        -1094547055 1539378727 2108359563</internalNodes>
      <leafValues>
        -9.1390466690063477e-01 2.9324623942375183e-01</leafValues></_>
    <_>
      <internalNodes>
        0 -1 2485 -557099214 -1223376873 -2145791967 -216848384
        -790517281 -466091646 -364848741 -131415054</internalNodes>
      <leafValues>
        -5.3445988893508911e-01 5.1526999473571777e-01</leafValues></_>
    <_>
      <internalNodes>
        0 -1 53 1969733437 -154472714 -17432581 234749822 -135827492
        -25231363 -461373606 -607273318</internalNodes>
      <leafValues>
        -4.1719159483909607e-01 6.4756673574447632e-01</leafValues></_>
    <_>
      <internalNodes>
        0 -1 1879 -192700353 -115535728 291263634 1552110023 -259962847
        -654145470 1883361418 1545657370</internalNodes>
      <leafValues>
        -4.7996190190315247e-01 5.2589315176010132e-01</leafValues></_>
    <_>
      <internalNodes>
        0 -1 2748 1364457279 1414324248 -788462142 -3548546 805554846
        -560267096 1937801609 605531815</internalNodes>
      <leafValues>
        -4.7976815700531006e-01 4.8449409008026123e-01</leafValues></_>
    <_>
      <internalNodes>
        0 -1 3135 656354080 248129741 -934084539 -1084579816 1619135411
        940688514 -670947296 -1433042544</internalNodes>
      <leafValues>
        -8.1558620929718018e-01 2.8677842020988464e-01</leafValues></_>
    <_>
      <internalNodes>
        0 -1 3792 -754053001 -108948327 -1073676214 1367169031
        -121016509 -796360510 -1576752598 1490143766</internalNodes>
      <leafValues>
        -6.0350120067596436e-01 3.7822091579437256e-01</leafValues></_>
    <_>
      <internalNodes>
        0 -1 3964 -1815611991 1896087698 67113052 -639102888 1243813297
        -1021179839 -1043856971 -326778627</internalNodes>
      <leafValues>
        -5.1826977729797363e-01 4.1668781638145447e-01</leafValues></_>
    <_>
      <internalNodes>
        0 -1 2970 -1575425470 1175064648 268562776 -1869082384 596675298
        -1987903221 2033287332 1909648308</internalNodes>
      <leafValues>
        -7.1541458368301392e-01 3.0154135823249817e-01</leafValues></_>
    <_>
      <internalNodes>
        0 -1 2304 -87366574 -897396606 1149304971 211405184 990264608
        1900056875 -52909366 1684535435</internalNodes>
      <leafValues>
        -5.6543469429016113e-01 3.8719561696052551e-01</leafValues></_>
    <_>
      <internalNodes>
        0 -1 2080 -927401228 -288309174 -998079858 -1998137842
        1394313874 -2133882605 1200064050 -1621234106</internalNodes>
      <leafValues>
        -5.1322400569915771e-01 4.4710144400596619e-01</leafValues></_>
    <_>
      <internalNodes>
        0 -1 4 -1 -1 -268435457 -1 -1 -1 -8193 -1</internalNodes>
      <leafValues>
        -3.5363487899303436e-02 10.</leafValues></_>
    <_>
      <internalNodes>
        0 -1 450 0 131072 0 0 1024 32768 0 0</internalNodes>
      <leafValues>
        -4.6566157341003418e+00 2.2263948339968920e-03</leafValues></_>
    <_>
      <internalNodes>
        0 -1 2135 756088984 856002624 1073778975 -822007093 -745004859
        187218968 -2104968899 990327689</internalNodes>
      <leafValues>
        -6.2958574295043945e-01 3.0946543812751770e-01</leafValues></_>
    <_>
      <internalNodes>
        0 -1 3907 81475893 -2012106557 -1727704804 -1143895054
        -2117704100 -1920991224 1778860878 -44860644</internalNodes>
      <leafValues>
        -5.8124816417694092e-01 3.5111042857170105e-01</leafValues></_>
    <_>
      <internalNodes>
        0 -1 2180 -345539592 1530789618 -558497827 -1275592965
        1612206072 2146205566 1875959774 -62259233</internalNodes>
      <leafValues>
        -4.0748706459999084e-01 4.8397278785705566e-01</leafValues></_>
    <_>
      <internalNodes>
        0 -1 3524 -1287408663 -620687344 -2147122983 -581422912
        545323669 -896008183 -741889839 -54535984</internalNodes>
      <leafValues>
        -4.6621337532997131e-01 4.0498828887939453e-01</leafValues></_>
    <_>
      <internalNodes>
        0 -1 1931 -154220386 -349523700 302055635 -678459200 1090543730
        -1207369655 491115 1685944331</internalNodes>
      <leafValues>
        -5.5607491731643677e-01 3.5755378007888794e-01</leafValues></_>
    <_>
      <internalNodes>
        0 -1 1881 576116274 1261179221 8572954 1128759434 836214785
        -1290205184 -1664804201 970799972</internalNodes>
      <leafValues>
        -6.9660347700119019e-01 2.6035925745964050e-01</leafValues></_>
    <_>
      <internalNodes>
        0 -1 1949 -1 -1 -1 -1 -1 -1 -513 -2097153</internalNodes>
      <leafValues>
        -4.5337259769439697e-02 10.</leafValues></_>
    <_>
      <internalNodes>
        0 -1 3931 0 0 0 0 4194368 0 64 0</internalNodes>
      <leafValues>
        -4.5919213294982910e+00 2.0668196957558393e-03</leafValues></_>
    <_>
      <internalNodes>
        0 -1 1795 -703344097 2035063472 20529 -934749302 -472711110
        -366772153 -81372468 1552599144</internalNodes>
      <leafValues>
        -4.1850414872169495e-01 4.3930342793464661e-01</leafValues></_>
    <_>
      <internalNodes>
        0 -1 2479 -184554711 1957298173 -101613711 -243990727
        -1031801305 -327385130 2105016207 -1185808546</internalNodes>
      <leafValues>
        -3.5713487863540649e-01 5.2807986736297607e-01</leafValues></_>
    <_>
      <internalNodes>
        0 -1 925 1063003135 -1581154296 2084818969 -874407484 507736706
        194543747 -372809116 579795332</internalNodes>
      <leafValues>
        -5.5488753318786621e-01 3.5730490088462830e-01</leafValues></_>
    <_>
      <internalNodes>
        0 -1 2423 -14274813 -1074286620 1073741314 -445956274 -411592975
        -2148483 -141054785 -803571877</internalNodes>
      <leafValues>
        -3.8172763586044312e-01 5.3421294689178467e-01</leafValues></_></weakClassifiers></stage10>
</opencv_storage>
