<?xml version="1.0"?>
<opencv_storage>
<stage9>
  <maxWeakCount>100</maxWeakCount>
  <stageThreshold>-1.5376589775085449e+01</stageThreshold>
  <weakClassifiers>
    <_>
      <internalNodes>
        0 -1 1949 -201326597 -814942518 -406234221 -2494025 -792740941
        -336953288 -1278283277 -2098225</internalNodes>
      <leafValues>
        -1.3728988170623779e+00 -3.4389141947031021e-02</leafValues></_>
    <_>
      <internalNodes>
        0 -1 3857 1409252465 1929641679 1287378685 533066591 -1693557995
        -583380830 -124933460 -68158625</internalNodes>
      <leafValues>
        -8.0537515878677368e-01 5.7070815563201904e-01</leafValues></_>
    <_>
      <internalNodes>
        0 -1 2268 -69 485490687 -67125328 -38797321 -537010199
        -1912799249 -285230968 -624296229</internalNodes>
      <leafValues>
        -6.3030332326889038e-01 8.4088075160980225e-01</leafValues></_>
    <_>
      <internalNodes>
        0 -1 3774 2103162747 -201948933 -96220705 -137167874 -1429327965
        -1694004167 -7346443 -572877324</internalNodes>
      <leafValues>
        -8.3282148838043213e-01 5.4031747579574585e-01</leafValues></_>
    <_>
      <internalNodes>
        0 -1 845 -50331793 -1272643865 2147347979 -37568515 -11313569
        -13172738 -147592178 -117441025</internalNodes>
      <leafValues>
        -6.4094805717468262e-01 8.5488414764404297e-01</leafValues></_>
    <_>
      <internalNodes>
        0 -1 2409 1503244191 392110489 -1995842113 300628633 159646717
        1925583011 697002236 2080373055</internalNodes>
      <leafValues>
        -8.4439599514007568e-01 5.1778972148895264e-01</leafValues></_>
    <_>
      <internalNodes>
        0 -1 3210 -16846919 2146074622 -65539 -278069449 -151089163
        -8421507 -1652589123 -962040</internalNodes>
      <leafValues>
        -6.3107216358184814e-01 6.6084700822830200e-01</leafValues></_>
    <_>
      <internalNodes>
        0 -1 3147 234851703 177771388 -1855419983 1323209680 -980686617
        -836523872 -72886636 -269223180</internalNodes>
      <leafValues>
        -8.0524539947509766e-01 4.9444663524627686e-01</leafValues></_>
    <_>
      <internalNodes>
        0 -1 1931 2058781110 -474344926 -1069348386 -154763136
        1216767042 -1641835129 -1446027158 1717792852</internalNodes>
      <leafValues>
        -9.9429410696029663e-01 3.8277146220207214e-01</leafValues></_>
    <_>
      <internalNodes>
        0 -1 2178 -794966804 398057759 -468528629 228009563 -772709968
        -74773927 -1579093589 2131717003</internalNodes>
      <leafValues>
        -7.9976052045822144e-01 4.7922605276107788e-01</leafValues></_>
    <_>
      <internalNodes>
        0 -1 3559 -973091549 1499418963 -242501149 -37269350 -1682371070
        -259608505 -816805751 -902831561</internalNodes>
      <leafValues>
        -7.0224380493164062e-01 5.4176837205886841e-01</leafValues></_>
    <_>
      <internalNodes>
        0 -1 2008 -640682673 -592010954 1175945492 -396373567
        -1010309085 -97304475 -1953244945 -387978309</internalNodes>
      <leafValues>
        -6.0234445333480835e-01 6.4752507209777832e-01</leafValues></_>
    <_>
      <internalNodes>
        0 -1 2608 -226299909 97952922 -1031712197 -553107455 -1262247253
        -888451893 -623128375 -366839040</internalNodes>
      <leafValues>
        -6.4554464817047119e-01 6.3254868984222412e-01</leafValues></_>
    <_>
      <internalNodes>
        0 -1 3834 1809841395 -565075171 1090621821 503632086 -1835127965
        -234222577 1216928740 -9902612</internalNodes>
      <leafValues>
        -7.3254275321960449e-01 5.4182028770446777e-01</leafValues></_>
    <_>
      <internalNodes>
        0 -1 2236 -640684097 -637665283 -65992 -301989893 1168957112
        -640352271 -105450454 -96354998</internalNodes>
      <leafValues>
        -5.0414609909057617e-01 8.2519435882568359e-01</leafValues></_>
    <_>
      <internalNodes>
        0 -1 2523 -983500443 -1160447060 -419480669 1040056255
        -310409752 -319291401 -1476547908 -1413510933</internalNodes>
      <leafValues>
        -4.6855169534683228e-01 8.3664739131927490e-01</leafValues></_>
    <_>
      <internalNodes>
        0 -1 1494 -1016087945 -822402764 787462717 1006627583 2012935670
        -1099536642 1173833601 -13631645</internalNodes>
      <leafValues>
        -5.8898389339447021e-01 6.3002586364746094e-01</leafValues></_>
    <_>
      <internalNodes>
        0 -1 2835 -1127464257 -1474403423 -804448046 387641749
        -1476283856 442081313 -922494572 -1214211</internalNodes>
      <leafValues>
        -6.1248022317886353e-01 5.7083928585052490e-01</leafValues></_>
    <_>
      <internalNodes>
        0 -1 2799 -665337660 -787308160 17567952 1999968981 -1836860904
        -115240831 -1283343618 200827898</internalNodes>
      <leafValues>
        -6.0802632570266724e-01 5.7979291677474976e-01</leafValues></_>
    <_>
      <internalNodes>
        0 -1 2311 1858527961 -219316418 1862208503 -243576881
        -1216905408 2021554042 -1761813266 -411046149</internalNodes>
      <leafValues>
        -4.2929491400718689e-01 8.4364843368530273e-01</leafValues></_>
    <_>
      <internalNodes>
        0 -1 1831 -536891486 -1610633361 -1074794823 -282406994
        -16875626 536829949 1056958366 2068838351</internalNodes>
      <leafValues>
        -5.1575940847396851e-01 6.7608493566513062e-01</leafValues></_>
    <_>
      <internalNodes>
        0 -1 3962 -1193868377 -117058940 117952862 -612429553 -234264226
        -217439734 1762349221 -778468700</internalNodes>
      <leafValues>
        -7.1508133411407471e-01 5.3305953741073608e-01</leafValues></_>
    <_>
      <internalNodes>
        0 -1 2747 -2017005865 -2011200614 856916306 277037330 -649872924
        -642645375 1091289267 -1048314894</internalNodes>
      <leafValues>
        -6.5813475847244263e-01 5.1125186681747437e-01</leafValues></_>
    <_>
      <internalNodes>
        0 -1 3780 -331525632 1430896921 -993958854 -176979907 185147424
        -1474247999 992295990 1479013202</internalNodes>
      <leafValues>
        -8.3364969491958618e-01 3.5157656669616699e-01</leafValues></_>
    <_>
      <internalNodes>
        0 -1 3448 -1641152491 633897247 -934688303 1478160731 1638711489
        -1300020863 -1865759254 -1370566089</internalNodes>
      <leafValues>
        -6.2171357870101929e-01 4.6605750918388367e-01</leafValues></_>
    <_>
      <internalNodes>
        0 -1 2212 -1014314960 -587169636 402768128 -1088560611 159466124
        -247988085 -615258016 1210803072</internalNodes>
      <leafValues>
        -8.7435114383697510e-01 3.3689174056053162e-01</leafValues></_>
    <_>
      <internalNodes>
        0 -1 3249 1791445086 -99569613 103065 139231642 -905362936
        -368533504 -1567798691 -1365055008</internalNodes>
      <leafValues>
        -7.5428551435470581e-01 3.2949128746986389e-01</leafValues></_>
    <_>
      <internalNodes>
        0 -1 2005 -869352078 1083822224 71319645 1970073730 -376092407
        738230923 -1597774037 1693969366</internalNodes>
      <leafValues>
        -5.9063512086868286e-01 4.5967590808868408e-01</leafValues></_>
    <_>
      <internalNodes>
        0 -1 1275 -1601555905 795082887 -1022162475 -943087082
        1807903644 -1546846144 2039433410 2063892484</internalNodes>
      <leafValues>
        -6.2687814235687256e-01 4.1475540399551392e-01</leafValues></_>
    <_>
      <internalNodes>
        0 -1 3004 -723336935 1745015888 29561032 -2097126960 -1826938661
        -1197244369 -1593218173 -1904219966</internalNodes>
      <leafValues>
        -5.0479954481124878e-01 5.0396019220352173e-01</leafValues></_>
    <_>
      <internalNodes>
        0 -1 3493 -1480066063 1863512134 -1856912301 -607337574
        1384137319 -1028448112 -204318346 -994932012</internalNodes>
      <leafValues>
        -6.1685293912887573e-01 3.9712741971015930e-01</leafValues></_>
    <_>
      <internalNodes>
        0 -1 1532 2004281140 -703315684 89604337 1890193667 990598148
        -2013036521 823560898 -31227893</internalNodes>
      <leafValues>
        -7.2956395149230957e-01 3.3368331193923950e-01</leafValues></_>
    <_>
      <internalNodes>
        0 -1 3212 -1090519265 -67108882 -3 -135987471 1207934911
        -2013397033 1308618173 215442943</internalNodes>
      <leafValues>
        -4.3512865900993347e-01 6.3432276248931885e-01</leafValues></_>
    <_>
      <internalNodes>
        0 -1 1462 -1965768514 -260021859 -1870120638 -255459077
        386281629 1611700897 -1291220668 -1246551534</internalNodes>
      <leafValues>
        -6.3152450323104858e-01 3.8874912261962891e-01</leafValues></_>
    <_>
      <internalNodes>
        0 -1 3607 -1327792288 -888242159 285298752 -700710789 176383331
        -267812821 -909981376 -1247121321</internalNodes>
      <leafValues>
        -7.7688300609588623e-01 2.9332566261291504e-01</leafValues></_>
    <_>
      <internalNodes>
        0 -1 2364 1606759162 1568310537 1090633925 -1089736672
        -2003644028 -108486396 -108817781 1334038617</internalNodes>
      <leafValues>
        -5.1497948169708252e-01 4.4375824928283691e-01</leafValues></_>
    <_>
      <internalNodes>
        0 -1 3552 -427619561 957694769 -1602191014 1385185565 956989506
        2030178373 -924398703 -1693854743</internalNodes>
      <leafValues>
        -5.1757216453552246e-01 4.4384634494781494e-01</leafValues></_>
    <_>
      <internalNodes>
        0 -1 2720 1401354056 294818300 1895858278 -1223032019 1770848730
        1639022735 -125795849 -25010022</internalNodes>
      <leafValues>
        -5.6094694137573242e-01 4.3783912062644958e-01</leafValues></_>
    <_>
      <internalNodes>
        0 -1 1344 -675199857 1946722884 1074154523 586950442 -1952281790
        1652588585 -133485986 58980442</internalNodes>
      <leafValues>
        -7.3187929391860962e-01 3.0387702584266663e-01</leafValues></_>
    <_>
      <internalNodes>
        0 -1 2571 -699946208 -962000825 -2147483532 769630483 -536309600
        293634062 2038663432 1852809979</internalNodes>
      <leafValues>
        -5.5676525831222534e-01 4.3979242444038391e-01</leafValues></_>
    <_>
      <internalNodes>
        0 -1 3779 -209613877 -1571695163 -788457227 -111736752
        1770469615 1589873818 1225349369 1279127944</internalNodes>
      <leafValues>
        -5.0332868099212646e-01 4.9237111210823059e-01</leafValues></_>
    <_>
      <internalNodes>
        0 -1 1929 -107414365 700565826 285769923 -37645873 -1048424355
        1485346832 620982738 -607420000</internalNodes>
      <leafValues>
        -4.7048372030258179e-01 4.8434582352638245e-01</leafValues></_>
    <_>
      <internalNodes>
        0 -1 3357 -1735404957 18165850 -2079997485 -1260873592
        -375367413 -1702862717 1237564021 -1689538220</internalNodes>
      <leafValues>
        -5.8146560192108154e-01 3.7201592326164246e-01</leafValues></_>
    <_>
      <internalNodes>
        0 -1 2449 -1604824352 970064189 67141655 630526016 1356943568
        598247560 -182425461 2040210307</internalNodes>
      <leafValues>
        -7.3779106140136719e-01 2.9859980940818787e-01</leafValues></_>
    <_>
      <internalNodes>
        0 -1 2862 1877917691 -51552322 1065287646 247136247 1073446904
        -8193 803897338 -274014347</internalNodes>
      <leafValues>
        -4.1977119445800781e-01 5.3670012950897217e-01</leafValues></_>
    <_>
      <internalNodes>
        0 -1 2337 -398726833 -1978744560 -1543401330 -79146685 270008372
        654361032 453077057 -306494903</internalNodes>
      <leafValues>
        -6.0339391231536865e-01 3.7222591042518616e-01</leafValues></_>
    <_>
      <internalNodes>
        0 -1 3526 1189365708 -1283178352 -2130601505 -717216743
        -1290742593 -125663091 436872113 -1749151664</internalNodes>
      <leafValues>
        -6.0933965444564819e-01 3.5888963937759399e-01</leafValues></_>
    <_>
      <internalNodes>
        0 -1 2464 2119955056 -953122412 -2126429495 856227848
        -1377783432 -1337425906 -1734229784 -397825408</internalNodes>
      <leafValues>
        -5.8067637681961060e-01 3.8300299644470215e-01</leafValues></_>
    <_>
      <internalNodes>
        0 -1 1416 -1 -3 -1 -1 -4097 -1 -1 -4194305</internalNodes>
      <leafValues>
        -4.5839436352252960e-02 9.6266222000122070e+00</leafValues></_>
    <_>
      <internalNodes>
        0 -1 3479 0 33554432 0 4 0 0 33554432 0</internalNodes>
      <leafValues>
        -9.2326221466064453e+00 -4.9379393458366394e-02</leafValues></_>
    <_>
      <internalNodes>
        0 -1 2012 -707493554 -1063583676 -518323904 771904490
        -2129950656 937494544 1085509729 272878103</internalNodes>
      <leafValues>
        -8.5610353946685791e-01 3.1730183959007263e-01</leafValues></_>
    <_>
      <internalNodes>
        0 -1 2112 333256367 790077448 647158161 -1458315101 -1282760320
        -1962225144 1619077049 695424425</internalNodes>
      <leafValues>
        -5.9848397970199585e-01 3.5867151618003845e-01</leafValues></_>
    <_>
      <internalNodes>
        0 -1 2731 -857818142 -129720192 -654221999 -921321134 35717233
        -1341544264 -525823839 -394222933</internalNodes>
      <leafValues>
        -5.0812894105911255e-01 4.2708584666252136e-01</leafValues></_>
    <_>
      <internalNodes>
        0 -1 3476 -1353928043 181575816 -1065065263 -1101506155
        -1601699676 -2013232127 -1028929055 -121451904</internalNodes>
      <leafValues>
        -5.9086334705352783e-01 3.4289875626564026e-01</leafValues></_>
    <_>
      <internalNodes>
        0 -1 1950 -602524030 -239199616 558172480 -293665854 2244774
        -1559068282 -1341504936 504842843</internalNodes>
      <leafValues>
        -6.7402231693267822e-01 3.0749368667602539e-01</leafValues></_>
    <_>
      <internalNodes>
        0 -1 2119 -958496670 1110246278 -1735917404 1451327762
        1661139104 1209204751 1888072400 -1083858392</internalNodes>
      <leafValues>
        -6.4931362867355347e-01 3.0612221360206604e-01</leafValues></_>
    <_>
      <internalNodes>
        0 -1 3267 -933277134 1912832065 1929613640 264536241 1384288413
        662700433 -1448378136 -1976640814</internalNodes>
      <leafValues>
        -4.5382979512214661e-01 4.6588087081909180e-01</leafValues></_>
    <_>
      <internalNodes>
        0 -1 3967 -2141209989 1271578768 1073758675 -1677208956
        705392809 -925663096 155785522 -893390703</internalNodes>
      <leafValues>
        -4.7348925471305847e-01 3.9899909496307373e-01</leafValues></_>
    <_>
      <internalNodes>
        0 -1 2423 -418403294 1542938804 -2130629477 294174802 1628108853
        -669442024 1879165938 638241400</internalNodes>
      <leafValues>
        -5.2146911621093750e-01 3.7039503455162048e-01</leafValues></_>
    <_>
      <internalNodes>
        0 -1 2023 -1050951578 -1401269225 -1785149867 -2145844605
        1494407698 813766801 -670326621 677116627</internalNodes>
      <leafValues>
        -6.8568986654281616e-01 2.6116988062858582e-01</leafValues></_>
    <_>
      <internalNodes>
        0 -1 2841 -1999155064 1821610257 553992499 -232058609 1225449537
        -1699117048 -74887648 -15733489</internalNodes>
      <leafValues>
        -5.8394181728363037e-01 3.0299517512321472e-01</leafValues></_>
    <_>
      <internalNodes>
        0 -1 16 -1 -4097 -1 -1 -1 -1 -1 -1</internalNodes>
      <leafValues>
        -4.2806636542081833e-02 10.</leafValues></_>
    <_>
      <internalNodes>
        0 -1 428 541158304 5605714 419516840 235711514 562038065
        327834777 830482004 1152323632</internalNodes>
      <leafValues>
        -1.4730963706970215e+00 1.4668360352516174e-01</leafValues></_>
    <_>
      <internalNodes>
        0 -1 3396 -1282200592 -800800684 285278621 282759964 -1316330619
        -1970536279 881836192 -199925628</internalNodes>
      <leafValues>
        -7.7379989624023438e-01 2.7059891819953918e-01</leafValues></_>
    <_>
      <internalNodes>
        0 -1 2452 -883553382 1561744143 -805007332 97694226 738328666
        167772250 166752409 2080670314</internalNodes>
      <leafValues>
        -7.1500760316848755e-01 2.5465643405914307e-01</leafValues></_>
    <_>
      <internalNodes>
        0 -1 2283 -926199804 1448345614 69953 -1685966634 -796657260
        -804679512 1532156291 -207671218</internalNodes>
      <leafValues>
        -4.3701258301734924e-01 4.6113821864128113e-01</leafValues></_>
    <_>
      <internalNodes>
        0 -1 2638 984859676 -1680881199 1459950685 167970193 218139464
        2105550857 -91672067 709761940</internalNodes>
      <leafValues>
        -6.2708944082260132e-01 3.0848366022109985e-01</leafValues></_>
    <_>
      <internalNodes>
        0 -1 2079 -1730504138 1111638114 -935324272 1436172616
        1268920697 436392064 1242359841 2107618986</internalNodes>
      <leafValues>
        -5.1703429222106934e-01 3.5108804702758789e-01</leafValues></_>
    <_>
      <internalNodes>
        0 -1 1007 -242638833 404260281 -2147352488 -1869901567
        -1876524353 1394125510 -125785267 1634716917</internalNodes>
      <leafValues>
        -5.0000828504562378e-01 3.5583409667015076e-01</leafValues></_>
    <_>
      <internalNodes>
        0 -1 3564 56303630 1419232277 285278590 538263833 -801043455
        1375821838 -1440136456 -466917862</internalNodes>
      <leafValues>
        -6.1201024055480957e-01 2.8062978386878967e-01</leafValues></_>
    <_>
      <internalNodes>
        0 -1 1343 375349312 -523499506 285217372 -1655437155 1511107243
        2006892698 -2013058522 -114194066</internalNodes>
      <leafValues>
        -5.9939557313919067e-01 2.7823367714881897e-01</leafValues></_>
    <_>
      <internalNodes>
        0 -1 2486 -1074831373 -77332617 -17825872 2137243430 792653818
        -1540556046 -294148113 -893452685</internalNodes>
      <leafValues>
        -3.7945124506950378e-01 4.8162734508514404e-01</leafValues></_>
    <_>
      <internalNodes>
        0 -1 1659 -766356916 -637239294 -2130701044 1685434394 672813157
        -1022689280 -1951916017 1419978355</internalNodes>
      <leafValues>
        -6.6398578882217407e-01 2.8574696183204651e-01</leafValues></_>
    <_>
      <internalNodes>
        0 -1 3958 2078176019 -750681591 -2113846964 1494208973
        1745865349 698548513 -2146975255 -377683720</internalNodes>
      <leafValues>
        -5.0984936952590942e-01 3.6304691433906555e-01</leafValues></_>
    <_>
      <internalNodes>
        0 -1 604 -1 -1 -1 -1 -1 -1 -1 -16385</internalNodes>
      <leafValues>
        -3.3273097127676010e-02 10.</leafValues></_>
    <_>
      <internalNodes>
        0 -1 43 8192 0 0 0 0 0 0 0</internalNodes>
      <leafValues>
        -3.5353016853332520e+00 5.4083126597106457e-03</leafValues></_>
    <_>
      <internalNodes>
        0 -1 2575 1389155414 -266468975 1095041936 -561954018
        -1585250272 134942866 1082811692 -218109376</internalNodes>
      <leafValues>
        -5.0783884525299072e-01 3.6011034250259399e-01</leafValues></_>
    <_>
      <internalNodes>
        0 -1 1892 116029394 -66254440 -1560276215 -652083179 374581028
        -418381824 1617467783 773787659</internalNodes>
      <leafValues>
        -6.4210909605026245e-01 2.7166104316711426e-01</leafValues></_>
    <_>
      <internalNodes>
        0 -1 2129 -1148025166 -1224191906 -1862180339 -1588518768
        1099497677 -629112592 705255897 1537975704</internalNodes>
      <leafValues>
        -5.0150132179260254e-01 3.6217188835144043e-01</leafValues></_>
    <_>
      <internalNodes>
        0 -1 3099 2124006417 -2084433780 -1795042404 -1400598130
        -1601056629 26214552 277446812 1825038502</internalNodes>
      <leafValues>
        -5.1245218515396118e-01 3.6729231476783752e-01</leafValues></_>
    <_>
      <internalNodes>
        0 -1 2379 -18224502 451870126 2147417963 -403444105 2146697212
        -855836681 2147319245 -1180846275</internalNodes>
      <leafValues>
        -3.5773041844367981e-01 4.9236261844635010e-01</leafValues></_>
    <_>
      <internalNodes>
        0 -1 1777 1525672507 -68616194 -17829952 -1300889602 -570974219
        -579371153 -478709935 -168053385</internalNodes>
      <leafValues>
        -3.9539164304733276e-01 4.6219530701637268e-01</leafValues></_>
    <_>
      <internalNodes>
        0 -1 3348 797631909 686719483 16875798 -192503528 -502556560
        -593461228 -226448830 -51459356</internalNodes>
      <leafValues>
        -5.3706628084182739e-01 3.2873713970184326e-01</leafValues></_>
    <_>
      <internalNodes>
        0 -1 2799 -195634290 1899290509 -205063 1471319784 -16794127
        -277352459 -1749811778 -1430554661</internalNodes>
      <leafValues>
        -3.7283000349998474e-01 4.7603902220726013e-01</leafValues></_>
    <_>
      <internalNodes>
        0 -1 5 -1 -1 -1 -536870913 -1 -1 -1 -1</internalNodes>
      <leafValues>
        -1.1409816332161427e-02 10.</leafValues></_>
    <_>
      <internalNodes>
        0 -1 3512 -1337404009 1897234846 1120918 980423056 -1205374105
        2053210248 -368533100 -97402710</internalNodes>
      <leafValues>
        -5.1549595594406128e-01 3.4599775075912476e-01</leafValues></_>
    <_>
      <internalNodes>
        0 -1 3009 1702275584 287096372 -1342177294 1505296277 -8388674
        -461504521 1073741726 -1620344961</internalNodes>
      <leafValues>
        -3.7882056832313538e-01 4.9297788739204407e-01</leafValues></_>
    <_>
      <internalNodes>
        0 -1 1704 541982956 1349538379 1073762452 1808586322 1115894519
        -133332958 1895905384 1335341640</internalNodes>
      <leafValues>
        -5.3044426441192627e-01 3.5900801420211792e-01</leafValues></_>
    <_>
      <internalNodes>
        0 -1 3661 2039712559 1515754639 34780 -242030089 1208696858
        1284046888 1250646142 -29302124</internalNodes>
      <leafValues>
        -4.8204219341278076e-01 3.7204340100288391e-01</leafValues></_>
    <_>
      <internalNodes>
        0 -1 2347 1168019443 -1610744083 1341423496 1305870281
        1338335144 1073610751 -2928674 -656998443</internalNodes>
      <leafValues>
        -4.0274146199226379e-01 4.4608101248741150e-01</leafValues></_>
    <_>
      <internalNodes>
        0 -1 535 1589498766 -461160256 244063881 -93700013 63935077
        -741793792 1077133328 -1077442005</internalNodes>
      <leafValues>
        -5.7451575994491577e-01 3.0708992481231689e-01</leafValues></_>
    <_>
      <internalNodes>
        0 -1 2563 -661077296 1746059346 16928901 21336095 1476569090
        -2003173368 58753769 -544023589</internalNodes>
      <leafValues>
        -4.1231858730316162e-01 4.1289368271827698e-01</leafValues></_>
    <_>
      <internalNodes>
        0 -1 2737 1642060122 1908544914 33563480 2030363544 -897256454
        -591871790 1404267994 -225312556</internalNodes>
      <leafValues>
        -5.1485550403594971e-01 3.2702681422233582e-01</leafValues></_>
    <_>
      <internalNodes>
        0 -1 2004 -754794432 -1606774393 -1040088631 -707766117
        805316833 -641630080 1745553546 365131283</internalNodes>
      <leafValues>
        -4.5372635126113892e-01 3.7732154130935669e-01</leafValues></_>
    <_>
      <internalNodes>
        0 -1 1969 -786970434 -1511390398 -133885928 1574305802
        -1744101375 679641504 -2008940107 -77645573</internalNodes>
      <leafValues>
        -4.5021241903305054e-01 3.6075934767723083e-01</leafValues></_>
    <_>
      <internalNodes>
        0 -1 3651 1359458591 -653196859 -1140239909 -16477090
        -1954436909 2130847745 98501 -863006467</internalNodes>
      <leafValues>
        -4.2862334847450256e-01 3.9331927895545959e-01</leafValues></_>
    <_>
      <internalNodes>
        0 -1 1803 1729537000 558224464 420568068 1762245818 1191227093
        -1634564606 58891061 1003161642</internalNodes>
      <leafValues>
        -5.7067358493804932e-01 3.0395421385765076e-01</leafValues></_>
    <_>
      <internalNodes>
        0 -1 2116 538648194 -1023213419 -805238646 -1601802151 864747669
        957014033 2055430469 852648437</internalNodes>
      <leafValues>
        -7.7790135145187378e-01 1.9228860735893250e-01</leafValues></_>
    <_>
      <internalNodes>
        0 -1 2854 -671723141 -68997201 -33948289 2021456818 -872484921
        -4194561 1811392431 -888103913</internalNodes>
      <leafValues>
        -3.6602672934532166e-01 4.4876760244369507e-01</leafValues></_>
    <_>
      <internalNodes>
        0 -1 2198 1541799918 1465712638 -1905328515 -1611698313
        -2022606925 -679479297 196802493 1731983351</internalNodes>
      <leafValues>
        -3.6891517043113708e-01 4.3442785739898682e-01</leafValues></_></weakClassifiers></stage9>
</opencv_storage>
