<?xml version="1.0"?>
<opencv_storage>
<stage19>
  <maxWeakCount>100</maxWeakCount>
  <stageThreshold>-1.0995303153991699e+01</stageThreshold>
  <weakClassifiers>
    <_>
      <internalNodes>
        0 -1 1618 -306212947 1297732095 -1378397198 -82882481 355379635
        2038981018 -411145 -72623946</internalNodes>
      <leafValues>
        -1.5305364131927490e+00 -5.4188114404678345e-01</leafValues></_>
    <_>
      <internalNodes>
        0 -1 3652 -1308625413 -147457 -1 -69210115 -1510348801
        -1078394947 129597181 -593814115</internalNodes>
      <leafValues>
        -6.0187906026840210e-01 6.4772492647171021e-01</leafValues></_>
    <_>
      <internalNodes>
        0 -1 2495 -543475909 1977568149 -541116459 2012870917 -191692860
        -229869031 -233968808 -1207908072</internalNodes>
      <leafValues>
        -6.5310037136077881e-01 5.5141848325729370e-01</leafValues></_>
    <_>
      <internalNodes>
        0 -1 1913 2089778763 -398052961 639284039 978506655 2138787695
        -350879703 1667717703 -95159649</internalNodes>
      <leafValues>
        -7.3013502359390259e-01 4.8241171240806580e-01</leafValues></_>
    <_>
      <internalNodes>
        0 -1 3357 -1611006081 -1965469601 -1055262241 -434463270
        1802459751 -343153789 1929439860 -88346288</internalNodes>
      <leafValues>
        -7.5145882368087769e-01 4.2933791875839233e-01</leafValues></_>
    <_>
      <internalNodes>
        0 -1 3043 -898706212 -754555836 -1073612347 -551415329
        -1225862466 -540044981 -2145764168 -2000500540</internalNodes>
      <leafValues>
        -7.2320204973220825e-01 5.1816678047180176e-01</leafValues></_>
    <_>
      <internalNodes>
        0 -1 3661 1476340039 -70413101 -867636742 -744595109 2062239754
        2131558446 -852275842 2064671016</internalNodes>
      <leafValues>
        -8.8833045959472656e-01 3.2506558299064636e-01</leafValues></_>
    <_>
      <internalNodes>
        0 -1 2463 -778313566 -68788638 766841363 -706379859 1157088930
        1761574783 1970755467 -547422259</internalNodes>
      <leafValues>
        -5.2251142263412476e-01 6.7132622003555298e-01</leafValues></_>
    <_>
      <internalNodes>
        0 -1 3476 -1952188717 986352568 -710360079 -10789411 -1185363778
        -280362293 -349701419 -170992975</internalNodes>
      <leafValues>
        -5.9071177244186401e-01 5.6031900644302368e-01</leafValues></_>
    <_>
      <internalNodes>
        0 -1 2143 1115045410 -1070317179 330829899 1440125209 1556649904
        1189249046 1923605455 901231775</internalNodes>
      <leafValues>
        -9.8835754394531250e-01 3.2305914163589478e-01</leafValues></_>
    <_>
      <internalNodes>
        0 -1 2298 1934619582 -884029772 -1740558107 -1564246965
        -1279460604 -784027549 1946777961 1687013583</internalNodes>
      <leafValues>
        -7.2522330284118652e-01 4.4247227907180786e-01</leafValues></_>
    <_>
      <internalNodes>
        0 -1 3192 -58799231 943435634 -17109125 -1308950668 -805515498
        -16908499 -1476529784 -1208025158</internalNodes>
      <leafValues>
        -5.2351069450378418e-01 6.1257475614547729e-01</leafValues></_>
    <_>
      <internalNodes>
        0 -1 3960 -539004097 -1760994809 -782477020 -2651662 957052210
        -122961775 1392723044 -844193484</internalNodes>
      <leafValues>
        -7.2673958539962769e-01 4.2489290237426758e-01</leafValues></_>
    <_>
      <internalNodes>
        0 -1 2807 -856259440 1476058988 -1073778787 -71463371 -675297293
        -93095937 -151130631 -1350873501</internalNodes>
      <leafValues>
        -4.5101428031921387e-01 7.3106372356414795e-01</leafValues></_>
    <_>
      <internalNodes>
        0 -1 3015 -379850923 1593458608 -1342227917 -1178616456
        -537403527 -1073858626 -822135384 -1431572574</internalNodes>
      <leafValues>
        -4.3502029776573181e-01 7.4299657344818115e-01</leafValues></_>
    <_>
      <internalNodes>
        0 -1 3024 -1400918813 -1695646246 1526676197 28569579 1039654245
        -1358987459 -142772235 -1145047137</internalNodes>
      <leafValues>
        -4.9752166867256165e-01 6.3500320911407471e-01</leafValues></_>
    <_>
      <internalNodes>
        0 -1 2470 -1068506730 970113823 1074141718 1426567647 736268784
        -2108424124 -1009646104 1522235370</internalNodes>
      <leafValues>
        -6.1951333284378052e-01 4.6183431148529053e-01</leafValues></_>
    <_>
      <internalNodes>
        0 -1 3722 660565845 -1462537826 -1870547743 -234040808 464413920
        -536125438 309860932 -1714494688</internalNodes>
      <leafValues>
        -8.0307686328887939e-01 3.4765025973320007e-01</leafValues></_>
    <_>
      <internalNodes>
        0 -1 2004 -254907892 1401852679 -1055816201 -1814157774
        -292075483 -106886259 1477171963 745948767</internalNodes>
      <leafValues>
        -6.8334597349166870e-01 4.0675663948059082e-01</leafValues></_>
    <_>
      <internalNodes>
        0 -1 1002 997338975 -162625066 -650800674 633410078 -393500226
        -126844535 992225525 132431065</internalNodes>
      <leafValues>
        -6.0260605812072754e-01 4.6667957305908203e-01</leafValues></_>
    <_>
      <internalNodes>
        0 -1 2916 -1169252812 -1883450146 -1035273932 -1944071019
        545274063 -1879048032 160123627 1678311555</internalNodes>
      <leafValues>
        -6.6592144966125488e-01 4.1721782088279724e-01</leafValues></_>
    <_>
      <internalNodes>
        0 -1 2790 -250363056 214110629 1360259072 1882219464 -2146918383
        -1936588442 -1691174584 184282043</internalNodes>
      <leafValues>
        -9.0800559520721436e-01 2.8369656205177307e-01</leafValues></_>
    <_>
      <internalNodes>
        0 -1 2260 -505237930 -183319742 -719792874 -103632121 2072644553
        -606469374 545749979 -534251393</internalNodes>
      <leafValues>
        -4.8235547542572021e-01 5.2430069446563721e-01</leafValues></_>
    <_>
      <internalNodes>
        0 -1 1481 2133226153 -499080813 -1996256486 -1375304950
        1393258775 1149874307 -225240592 1145334214</internalNodes>
      <leafValues>
        -6.7796826362609863e-01 3.7625747919082642e-01</leafValues></_>
    <_>
      <internalNodes>
        0 -1 2655 1807665476 -499945554 -293606737 -34148564 -1892511852
        -34111633 -16485 -1287992501</internalNodes>
      <leafValues>
        -4.3907460570335388e-01 5.9718894958496094e-01</leafValues></_>
    <_>
      <internalNodes>
        0 -1 2274 -700333018 1587860226 135381152 1163334085 -1333648648
        1647558673 -1979524440 171942493</internalNodes>
      <leafValues>
        -6.8850702047348022e-01 3.5004597902297974e-01</leafValues></_>
    <_>
      <internalNodes>
        0 -1 3640 894776055 1556976486 -779575073 852658201 1677750320
        1511227591 455067856 -674834200</internalNodes>
      <leafValues>
        -6.1877518892288208e-01 3.9764446020126343e-01</leafValues></_>
    <_>
      <internalNodes>
        0 -1 2232 -839518219 -237110281 -289614084 -672272439 -478743183
        485555669 -67109127 1268897591</internalNodes>
      <leafValues>
        -4.5670920610427856e-01 5.6766790151596069e-01</leafValues></_>
    <_>
      <internalNodes>
        0 -1 139 1821646727 1876541533 -1877798166 -2137439746 831218273
        1548353548 2051032031 1171272324</internalNodes>
      <leafValues>
        -6.8797427415847778e-01 3.8506501913070679e-01</leafValues></_>
    <_>
      <internalNodes>
        0 -1 3776 1942609219 -1787396085 -1069198091 -765853603 53198573
        -510557546 801925625 -848375683</internalNodes>
      <leafValues>
        -5.3501284122467041e-01 4.7653546929359436e-01</leafValues></_>
    <_>
      <internalNodes>
        0 -1 2871 -219611716 2121170887 -4260045 1043201533 -1620018600
        -1073840132 -327184920 -1954877458</internalNodes>
      <leafValues>
        -4.6459263563156128e-01 5.5999332666397095e-01</leafValues></_>
    <_>
      <internalNodes>
        0 -1 1742 -26136705 2146334650 -1359122607 -69697 2139094642
        887422838 -1879883862 -801906697</internalNodes>
      <leafValues>
        -4.3245622515678406e-01 5.8772283792495728e-01</leafValues></_>
    <_>
      <internalNodes>
        0 -1 1597 -925223494 -1073708653 -704603923 -1241099640
        -1325199569 -1451098112 -1436030396 1327869516</internalNodes>
      <leafValues>
        -7.8468185663223267e-01 2.8029161691665649e-01</leafValues></_>
    <_>
      <internalNodes>
        0 -1 2853 -80031503 -16900116 1878818557 1543503549 -59441823
        -1048705 -807412304 -312584723</internalNodes>
      <leafValues>
        -4.4969132542610168e-01 5.1983696222305298e-01</leafValues></_>
    <_>
      <internalNodes>
        0 -1 387 813832590 726713627 1115739281 -821653115 288432886
        -945127024 2143714981 75297460</internalNodes>
      <leafValues>
        -6.4999604225158691e-01 3.2536783814430237e-01</leafValues></_>
    <_>
      <internalNodes>
        0 -1 2799 -730932496 1441975984 -272826400 1999867635 -33395
        -118099970 -1615069764 -67552003</internalNodes>
      <leafValues>
        -3.5350310802459717e-01 6.3168579339981079e-01</leafValues></_>
    <_>
      <internalNodes>
        0 -1 2889 -1704967800 1490452545 889295007 2035418990 -628497993
        -1572589548 -745768241 692730367</internalNodes>
      <leafValues>
        -4.7578504681587219e-01 4.6114009618759155e-01</leafValues></_>
    <_>
      <internalNodes>
        0 -1 2768 1862135579 -67379206 -364862 -415383706 -306
        1727004671 -10555529 686516215</internalNodes>
      <leafValues>
        -4.0746244788169861e-01 5.3028106689453125e-01</leafValues></_>
    <_>
      <internalNodes>
        0 -1 2327 1419127183 675729550 847348050 1061180173 1497053884
        697696427 445405204 326130690</internalNodes>
      <leafValues>
        -6.5899151563644409e-01 3.1500181555747986e-01</leafValues></_>
    <_>
      <internalNodes>
        0 -1 3249 1616189682 -221081325 -787639851 84903957 -1711027726
        -393707383 -1168938328 -1432159896</internalNodes>
      <leafValues>
        -4.8131504654884338e-01 4.4623365998268127e-01</leafValues></_>
    <_>
      <internalNodes>
        0 -1 2347 -806379897 -1627390225 -858489052 1573912552
        -288915552 1073610751 1015828319 -740819172</internalNodes>
      <leafValues>
        -4.1228717565536499e-01 5.3147017955780029e-01</leafValues></_>
    <_>
      <internalNodes>
        0 -1 1635 1035896253 1526114958 -654192627 -162508149 1351295964
        -410411004 587288636 -1796868774</internalNodes>
      <leafValues>
        -5.1684629917144775e-01 4.1989031434059143e-01</leafValues></_>
    <_>
      <internalNodes>
        0 -1 1360 788372671 757854141 1820258285 -536875405 2130687347
        -1208090625 -1342416936 1786771439</internalNodes>
      <leafValues>
        -3.9079698920249939e-01 5.4907035827636719e-01</leafValues></_>
    <_>
      <internalNodes>
        0 -1 3502 1448821079 -1711143931 1628475741 270303254 -632696064
        -1610407542 1858779252 -383996160</internalNodes>
      <leafValues>
        -7.4083089828491211e-01 2.8305247426033020e-01</leafValues></_>
    <_>
      <internalNodes>
        0 -1 1636 298300786 324928477 402669834 1474397210 -452808141
        -782188407 -2112739142 -663359000</internalNodes>
      <leafValues>
        -4.2952552437782288e-01 4.6270135045051575e-01</leafValues></_>
    <_>
      <internalNodes>
        0 -1 2523 -449970195 -53055566 -1090535517 1039003510 -41944648
        -1443364873 -169236 -1347446550</internalNodes>
      <leafValues>
        -3.3618509769439697e-01 5.7228493690490723e-01</leafValues></_>
    <_>
      <internalNodes>
        0 -1 1145 -961729777 -1223154525 1099268141 276187303 1137303622
        -620461950 616587897 -816841977</internalNodes>
      <leafValues>
        -4.5400229096412659e-01 4.4478321075439453e-01</leafValues></_>
    <_>
      <internalNodes>
        0 -1 275 -1524789956 -1538280715 -1056783415 -2145977646
        1254820762 1247888014 1789412016 -26693612</internalNodes>
      <leafValues>
        -5.3841358423233032e-01 3.5291507840156555e-01</leafValues></_>
    <_>
      <internalNodes>
        0 -1 3427 1418119254 -1711205923 -1853793879 -568491637
        -510506772 -780103359 1075366268 -1405172855</internalNodes>
      <leafValues>
        -4.1748049855232239e-01 4.3330347537994385e-01</leafValues></_>
    <_>
      <internalNodes>
        0 -1 2304 -811700722 653490666 -2139094898 247640463 1763163424
        1040648338 -1139922648 1847720707</internalNodes>
      <leafValues>
        -6.3406312465667725e-01 2.8453403711318970e-01</leafValues></_>
    <_>
      <internalNodes>
        0 -1 3965 -20972037 2101018613 -5 -20482 -1129341185 -269451273
        -1612761857 -905997825</internalNodes>
      <leafValues>
        -2.3269213736057281e-01 8.0655920505523682e-01</leafValues></_>
    <_>
      <internalNodes>
        0 -1 2153 1779008048 -1265497588 -1337818813 -674523060
        -1059615832 -611579896 -2008163643 721926724</internalNodes>
      <leafValues>
        -5.6753003597259521e-01 3.3107310533523560e-01</leafValues></_>
    <_>
      <internalNodes>
        0 -1 2113 1748593314 -916123135 1107341793 1402446601 1917630775
        185204801 300059339 -922233007</internalNodes>
      <leafValues>
        -4.8179954290390015e-01 3.4833824634552002e-01</leafValues></_>
    <_>
      <internalNodes>
        0 -1 3159 327086402 274598337 -896413255 -264354986 -211072855
        -1744142327 -1618847566 -1443046992</internalNodes>
      <leafValues>
        -4.7722247242927551e-01 3.5103622078895569e-01</leafValues></_>
    <_>
      <internalNodes>
        0 -1 3767 868430449 321339653 -2146828160 -963608308 2048585877
        -230473725 -527849119 1490083272</internalNodes>
      <leafValues>
        -7.6556688547134399e-01 2.0653498172760010e-01</leafValues></_>
    <_>
      <internalNodes>
        0 -1 2104 -638851401 14029711 1367376154 -1064206118 1879173365
        1208394002 -1325293439 -564834810</internalNodes>
      <leafValues>
        -4.5196214318275452e-01 3.7316805124282837e-01</leafValues></_>
    <_>
      <internalNodes>
        0 -1 3843 -538973678 -643890914 -1744757701 2111389711
        1939279920 -1610612415 1090574289 -618356257</internalNodes>
      <leafValues>
        -4.0443962812423706e-01 4.1639786958694458e-01</leafValues></_>
    <_>
      <internalNodes>
        0 -1 2988 -784083452 72515672 10653712 1112734265 -2142490592
        671793185 -2084375356 -1194374227</internalNodes>
      <leafValues>
        -6.3541525602340698e-01 2.7984902262687683e-01</leafValues></_>
    <_>
      <internalNodes>
        0 -1 26 0 0 536870912 0 0 0 0 0</internalNodes>
      <leafValues>
        -10. -5.5134883150458336e-03</leafValues></_>
    <_>
      <internalNodes>
        0 -1 2387 1464274458 487589393 -469754539 1574191505 203972993
        -220585984 -1973372723 732252826</internalNodes>
      <leafValues>
        -6.3775479793548584e-01 2.6020270586013794e-01</leafValues></_>
    <_>
      <internalNodes>
        0 -1 3541 -897383661 -251592575 -528363042 822198275 -1606242143
        -1979629052 -1022690597 -1365385513</internalNodes>
      <leafValues>
        -4.1102930903434753e-01 3.9632281661033630e-01</leafValues></_>
    <_>
      <internalNodes>
        0 -1 524 -658166263 -1622802263 -1056931229 -1076043591
        1426145771 -33062638 -1006172028 1772661998</internalNodes>
      <leafValues>
        -3.9084994792938232e-01 4.0826445817947388e-01</leafValues></_>
    <_>
      <internalNodes>
        0 -1 310 -536870913 -1 -1 -1 -1 -1 -1 -1</internalNodes>
      <leafValues>
        -1.8662417307496071e-02 10.</leafValues></_>
    <_>
      <internalNodes>
        0 -1 2596 1447291464 -1576992452 1073978604 973700016 100732928
        -1449975536 606126144 1527325032</internalNodes>
      <leafValues>
        -8.0904066562652588e-01 1.9397468864917755e-01</leafValues></_>
    <_>
      <internalNodes>
        0 -1 27 131072 0 0 0 0 0 0 0</internalNodes>
      <leafValues>
        -10. -2.7240097522735596e-02</leafValues></_>
    <_>
      <internalNodes>
        0 -1 2558 -1047467652 226888128 553719944 1826673297 1648364101
        1073913929 830623910 2068275675</internalNodes>
      <leafValues>
        -5.3720992803573608e-01 2.7784195542335510e-01</leafValues></_>
    <_>
      <internalNodes>
        0 -1 2412 1938972946 -640368055 1108476519 -213352318 1296075074
        -1942106053 298090730 -405438262</internalNodes>
      <leafValues>
        -5.2053141593933105e-01 2.8682693839073181e-01</leafValues></_>
    <_>
      <internalNodes>
        0 -1 2511 -1711042176 -783281586 -2147417840 -678342511
        143755416 -21495624 -611131238 1003455706</internalNodes>
      <leafValues>
        -3.8577049970626831e-01 4.2425876855850220e-01</leafValues></_>
    <_>
      <internalNodes>
        0 -1 828 1524301927 250989251 1974584204 305794500 2039576645
        1805158411 -485851019 503994769</internalNodes>
      <leafValues>
        -5.8263957500457764e-01 2.6084816455841064e-01</leafValues></_>
    <_>
      <internalNodes>
        0 -1 3135 655289008 -1903408456 -1055682537 -1994499900
        1888426149 -1430224503 -754296153 -540634972</internalNodes>
      <leafValues>
        -5.5473721027374268e-01 2.4981699883937836e-01</leafValues></_>
    <_>
      <internalNodes>
        0 -1 1855 -1246959821 1065468032 1459724867 -1759362944
        -1304407256 -142467062 -1981621112 1222841075</internalNodes>
      <leafValues>
        -4.3787091970443726e-01 3.3823806047439575e-01</leafValues></_>
    <_>
      <internalNodes>
        0 -1 2243 -250967830 -779779759 40272 -1122936830 808602242
        -1996414839 -125793733 772394205</internalNodes>
      <leafValues>
        -3.9927002787590027e-01 3.8512080907821655e-01</leafValues></_>
    <_>
      <internalNodes>
        0 -1 1148 1883692002 -374306539 285215846 -2091526674 940048411
        941627544 692220002 1968794970</internalNodes>
      <leafValues>
        -5.3376293182373047e-01 2.8021827340126038e-01</leafValues></_>
    <_>
      <internalNodes>
        0 -1 3396 -1967132428 -717170424 -1870424231 -1197698727
        -913651215 -7691831 -1058180951 -1088662371</internalNodes>
      <leafValues>
        -4.5778867602348328e-01 3.1753921508789062e-01</leafValues></_>
    <_>
      <internalNodes>
        0 -1 56 -1 -1 -1 -9 -1 -1 -1 -1</internalNodes>
      <leafValues>
        -2.5585327297449112e-02 10.</leafValues></_>
    <_>
      <internalNodes>
        0 -1 16 0 0 0 2097152 0 0 0 0</internalNodes>
      <leafValues>
        -4.3315114974975586e+00 1.2633212609216571e-03</leafValues></_>
    <_>
      <internalNodes>
        0 -1 2484 968611240 535499521 588333398 345983012 806217976
        -2135874631 160003234 -1564159542</internalNodes>
      <leafValues>
        -5.0131571292877197e-01 3.0842593312263489e-01</leafValues></_>
    <_>
      <internalNodes>
        0 -1 1349 -1841196601 -417951481 -788459094 753393627
        -1995839451 -637335489 -1031107941 -380255239</internalNodes>
      <leafValues>
        -4.4559726119041443e-01 3.2685610651969910e-01</leafValues></_>
    <_>
      <internalNodes>
        0 -1 3813 -1010182877 -1258026890 315737221 -1060183872
        468285552 -124223351 -2098840779 -934426623</internalNodes>
      <leafValues>
        -5.5814695358276367e-01 2.6127853989601135e-01</leafValues></_>
    <_>
      <internalNodes>
        0 -1 2731 1861732083 -172638226 -402752073 -84541445 -211695627
        -25296899 -151555532 -74858501</internalNodes>
      <leafValues>
        -3.1906700134277344e-01 4.5718386769294739e-01</leafValues></_>
    <_>
      <internalNodes>
        0 -1 2423 -13177088 2146922276 2147429903 1911193242 -411568462
        -10504322 -13113954 1515913035</internalNodes>
      <leafValues>
        -3.3973541855812073e-01 4.3638417124748230e-01</leafValues></_>
    <_>
      <internalNodes>
        0 -1 2142 1321112304 225812527 1610676771 -1024393071 2065910272
        1898119187 1510396558 1540386987</internalNodes>
      <leafValues>
        -6.0701847076416016e-01 2.3659336566925049e-01</leafValues></_>
    <_>
      <internalNodes>
        0 -1 2288 1383027560 1013340562 -1073653542 -1605330432
        -2146489306 1510197249 2013274252 2016568073</internalNodes>
      <leafValues>
        -7.4293464422225952e-01 1.8050424754619598e-01</leafValues></_>
    <_>
      <internalNodes>
        0 -1 2583 1466302994 -1979559543 16947664 -1660088167
        -1448161036 1520468616 281213267 934479099</internalNodes>
      <leafValues>
        -4.8054909706115723e-01 2.8787159919738770e-01</leafValues></_>
    <_>
      <internalNodes>
        0 -1 3779 -1886806781 -1387495405 -1929047683 -847179499
        1099332495 973622922 1275256063 145259711</internalNodes>
      <leafValues>
        -3.7732386589050293e-01 3.8231548666954041e-01</leafValues></_>
    <_>
      <internalNodes>
        0 -1 2904 -468286702 1976074879 -1810864700 575960792 1098959572
        1828716563 -1324815875 439539807</internalNodes>
      <leafValues>
        -4.8758229613304138e-01 2.8616085648536682e-01</leafValues></_>
    <_>
      <internalNodes>
        0 -1 132 1455833133 752636436 -1299513015 -2012397277
        -2017099751 2063794313 993394788 -1653735294</internalNodes>
      <leafValues>
        -6.4031350612640381e-01 2.2168624401092529e-01</leafValues></_>
    <_>
      <internalNodes>
        0 -1 3348 824767405 -1560276710 -2079812833 -1228504291
        941310487 -754540159 -637043865 -587270480</internalNodes>
      <leafValues>
        -5.1344591379165649e-01 2.7383103966712952e-01</leafValues></_>
    <_>
      <internalNodes>
        0 -1 2231 -205229088 301203190 -772435676 -64716806 -965384492
        -696385673 -587891205 -196610</internalNodes>
      <leafValues>
        -3.5548490285873413e-01 3.8824534416198730e-01</leafValues></_>
    <_>
      <internalNodes>
        0 -1 3961 -853646845 -1686028262 1367457986 2007666891
        -366216659 964731008 1510752744 -867837724</internalNodes>
      <leafValues>
        -4.8721355199813843e-01 2.9199782013893127e-01</leafValues></_>
    <_>
      <internalNodes>
        0 -1 2787 -110550280 547719314 17830284 -20685896 1485353381
        -2013200247 822813366 -1353768487</internalNodes>
      <leafValues>
        -4.4713172316551208e-01 3.3004191517829895e-01</leafValues></_>
    <_>
      <internalNodes>
        0 -1 1969 -787623190 -481656764 16847128 -137093055 17304015
        570982537 1518536754 -790080662</internalNodes>
      <leafValues>
        -5.0549632310867310e-01 2.6553404331207275e-01</leafValues></_>
    <_>
      <internalNodes>
        0 -1 829 348206675 180326476 -1207959137 547115803 991434015
        251838594 -1953684895 1064970529</internalNodes>
      <leafValues>
        -5.6338506937026978e-01 2.3084627091884613e-01</leafValues></_>
    <_>
      <internalNodes>
        0 -1 1863 1147390248 -1660616447 25302028 -1213038527 -354364128
        1478951048 -246984669 1369285321</internalNodes>
      <leafValues>
        -4.3843850493431091e-01 2.8856629133224487e-01</leafValues></_>
    <_>
      <internalNodes>
        0 -1 1394 -958192268 1007153247 -2130173581 -112648064 180578330
        1732400145 -2125808964 1021649765</internalNodes>
      <leafValues>
        -4.1070878505706787e-01 3.1075787544250488e-01</leafValues></_>
    <_>
      <internalNodes>
        0 -1 3925 251359236 -87322615 1073841087 369219931 118567424
        1484916867 -800574912 2069262698</internalNodes>
      <leafValues>
        -6.5154725313186646e-01 1.8850122392177582e-01</leafValues></_>
    <_>
      <internalNodes>
        0 -1 2675 -68963926 2065950623 -98966 -173870092 -403510383
        2004320247 -293841954 -67896737</internalNodes>
      <leafValues>
        -2.7197480201721191e-01 5.0297611951828003e-01</leafValues></_>
    <_>
      <internalNodes>
        0 -1 2514 285217114 1214251266 184897940 -1651703806 1141971164
        1643354248 -1606164020 -2137244916</internalNodes>
      <leafValues>
        -5.5680638551712036e-01 2.4690026044845581e-01</leafValues></_>
    <_>
      <internalNodes>
        0 -1 3414 -1036957985 -619151265 1368871371 -1675885798
        -662039996 310575243 -1284576544 -301795157</internalNodes>
      <leafValues>
        -3.9934766292572021e-01 3.3664086461067200e-01</leafValues></_>
    <_>
      <internalNodes>
        0 -1 2732 922542497 638714002 -1867349680 -1813311215 1174487425
        -917331325 -2142405988 159539898</internalNodes>
      <leafValues>
        -5.2420645952224731e-01 2.4508148431777954e-01</leafValues></_></weakClassifiers></stage19>
</opencv_storage>
