<?xml version="1.0"?>
<opencv_storage>
<stage12>
  <maxWeakCount>16</maxWeakCount>
  <stageThreshold>-1.0936583280563354e+00</stageThreshold>
  <weakClassifiers>
    <_>
      <internalNodes>
        0 -1 11323 -681580625 2102914831 -1753945458 -2359602 1198409417
        -4386865 1421217230 -137489</internalNodes>
      <leafValues>
        -3.2171583175659180e-01 4.8067393898963928e-01</leafValues></_>
    <_>
      <internalNodes>
        0 -1 17792 -8651268 -42822496 -843129347 -43297452 -541067784
        -71319559 -1610622039 -541109027</internalNodes>
      <leafValues>
        -3.4540262818336487e-01 3.9233326911926270e-01</leafValues></_>
    <_>
      <internalNodes>
        0 -1 19414 -34081021 -67108929 -416572634 -135528529 1409228554
        -12583118 -2061000052 -95420433</internalNodes>
      <leafValues>
        -3.3441081643104553e-01 3.7274712324142456e-01</leafValues></_>
    <_>
      <internalNodes>
        0 -1 10344 939488289 991539767 30741419 -1143369369 2094496972
        -1719088726 -489948950 -1157115170</internalNodes>
      <leafValues>
        -3.7599918246269226e-01 3.3977413177490234e-01</leafValues></_>
    <_>
      <internalNodes>
        0 -1 17076 -538971649 1162446483 -1993084705 229706467
        -1464072036 -1716846592 -1935701332 230657039</internalNodes>
      <leafValues>
        -3.5045841336250305e-01 3.2962852716445923e-01</leafValues></_>
    <_>
      <internalNodes>
        0 -1 16538 -690496547 1574463743 -1721780464 1363468781
        -285510918 151685288 1787542664 68942475</internalNodes>
      <leafValues>
        -3.1777793169021606e-01 3.4973171353340149e-01</leafValues></_>
    <_>
      <internalNodes>
        0 -1 2413 -201462033 -143465729 -918535158 273412146 -1416986035
        -95063777 -171390594 -252708353</internalNodes>
      <leafValues>
        -3.2245010137557983e-01 3.5013037919998169e-01</leafValues></_>
    <_>
      <internalNodes>
        0 -1 12885 -25172665 -759239090 -8585251 -125845785 -136905273
        -16797793 -26220729 -1570544636</internalNodes>
      <leafValues>
        -3.0791771411895752e-01 3.4382632374763489e-01</leafValues></_>
    <_>
      <internalNodes>
        0 -1 19705 -1093971037 -1360380230 268366769 1508630453
        -1091585861 -1462207002 1056673201 -576791316</internalNodes>
      <leafValues>
        -3.0639195442199707e-01 3.3232775330543518e-01</leafValues></_>
    <_>
      <internalNodes>
        0 -1 11991 1282352605 -925323363 -933876145 1336314513
        1679102288 -1274020495 587608368 252125889</internalNodes>
      <leafValues>
        -5.3624981641769409e-01 1.7743858695030212e-01</leafValues></_>
    <_>
      <internalNodes>
        0 -1 20311 -9475297 2077909463 -1601714084 1658770506 -623163904
        1580139347 -136128925 -1304233158</internalNodes>
      <leafValues>
        -3.9364987611770630e-01 2.6647430658340454e-01</leafValues></_>
    <_>
      <internalNodes>
        0 -1 14955 1415825079 834890744 10699548 234893826 -1068205858
        1682149823 1840830638 -799872856</internalNodes>
      <leafValues>
        -3.4201690554618835e-01 2.9943865537643433e-01</leafValues></_>
    <_>
      <internalNodes>
        0 -1 10560 798990880 -1199513600 923668757 -17910928 185316224
        -1131886464 705630404 -605085500</internalNodes>
      <leafValues>
        -4.0263584256172180e-01 2.4443142116069794e-01</leafValues></_>
    <_>
      <internalNodes>
        0 -1 11031 1155362442 1083720917 -1684607224 -2073540982
        1480718472 1780336729 1215141672 1008676786</internalNodes>
      <leafValues>
        -5.1848137378692627e-01 1.8949007987976074e-01</leafValues></_>
    <_>
      <internalNodes>
        0 -1 13525 -94437390 -1108208826 -58501 -1122561957 1537787121
        -1225194242 -223959060 -1984232033</internalNodes>
      <leafValues>
        -2.2974392771720886e-01 4.5102205872535706e-01</leafValues></_>
    <_>
      <internalNodes>
        0 -1 8732 -85989786 -1234188914 2013479487 -1332508649
        1270367244 78250148 -79105078 -784350777</internalNodes>
      <leafValues>
        -3.6191865801811218e-01 2.8717076778411865e-01</leafValues></_></weakClassifiers></stage12>
</opencv_storage>
