<?xml version="1.0"?>
<opencv_storage>
<stage4>
  <maxWeakCount>63</maxWeakCount>
  <stageThreshold>-7.4132580757141113e+00</stageThreshold>
  <weakClassifiers>
    <_>
      <internalNodes>
        0 -1 31112 585760771 -1061025 587146039 -35841 -1560892929
        -67125249 -1560301569 -4194369</internalNodes>
      <leafValues>
        -1.1130911111831665e+00 1.2696245908737183e+00</leafValues></_>
    <_>
      <internalNodes>
        0 -1 50241 1347481086 -708820772 -611591777 -1458036667
        -1069485348 -856627123 -106234369 -67374085</internalNodes>
      <leafValues>
        -9.7205668687820435e-01 8.2696688175201416e-01</leafValues></_>
    <_>
      <internalNodes>
        0 -1 61836 -277888069 -46473226 -2571 -38273804 92141053
        -1880623175 95294689 -838871724</internalNodes>
      <leafValues>
        -7.6855891942977905e-01 9.1001117229461670e-01</leafValues></_>
    <_>
      <internalNodes>
        0 -1 25157 -67240961 -603984897 494837819 187146811 -537219845
        -16891909 1652531755 -538204117</internalNodes>
      <leafValues>
        -6.4471787214279175e-01 9.3912011384963989e-01</leafValues></_>
    <_>
      <internalNodes>
        0 -1 65077 -559940289 1254593011 -1927717676 -117519090
        -136578009 -856450391 -237260443 -723518585</internalNodes>
      <leafValues>
        -8.6489516496658325e-01 6.6895467042922974e-01</leafValues></_>
    <_>
      <internalNodes>
        0 -1 33390 -654782800 1356125061 -458206959 299176258 -536761351
        -548267957 -1175773589 -1351919889</internalNodes>
      <leafValues>
        -8.4917908906936646e-01 5.7882338762283325e-01</leafValues></_>
    <_>
      <internalNodes>
        0 -1 65916 -169906917 532135895 351985570 -211323661 -159424752
        1535065967 2095830213 -10748337</internalNodes>
      <leafValues>
        -6.6723281145095825e-01 8.1716495752334595e-01</leafValues></_>
    <_>
      <internalNodes>
        0 -1 11924 -251683414 1922229258 -1045225104 -1342035326
        -1162782339 2032142442 -587573491 -94896701</internalNodes>
      <leafValues>
        -7.9664897918701172e-01 6.3990926742553711e-01</leafValues></_>
    <_>
      <internalNodes>
        0 -1 49160 814250781 941679288 1577179259 -1838383094 172525745
        -69674990 227127804 -1893201672</internalNodes>
      <leafValues>
        -7.3915129899978638e-01 6.6438943147659302e-01</leafValues></_>
    <_>
      <internalNodes>
        0 -1 52753 268163189 -345325635 -33795 -1174765766 -1417937411
        -65571 117166060 -924176300</internalNodes>
      <leafValues>
        -6.7110812664031982e-01 6.9437414407730103e-01</leafValues></_>
    <_>
      <internalNodes>
        0 -1 49764 -284828557 -615099989 1440273407 -552680105
        -120935961 -634779538 -612335567 -513671120</internalNodes>
      <leafValues>
        -6.6537374258041382e-01 6.8729239702224731e-01</leafValues></_>
    <_>
      <internalNodes>
        0 -1 55365 1457491950 -1663330453 755544506 -264621538
        1409568991 -775712610 -373576968 -195389190</internalNodes>
      <leafValues>
        -6.5050548315048218e-01 6.5657228231430054e-01</leafValues></_>
    <_>
      <internalNodes>
        0 -1 64250 -1173918187 -832613474 17883613 -1868770356
        -1559590293 -617882485 -91263772 -1361422284</internalNodes>
      <leafValues>
        -7.5847852230072021e-01 5.4671341180801392e-01</leafValues></_>
    <_>
      <internalNodes>
        0 -1 61292 -690104029 860716127 -2075098236 -1193196513
        293991225 671352859 -1609594455 -1427338349</internalNodes>
      <leafValues>
        -6.3115841150283813e-01 6.3580048084259033e-01</leafValues></_>
    <_>
      <internalNodes>
        0 -1 42272 -132249057 1012633861 -804810339 237302040 1583960419
        633061630 1833901026 -123044428</internalNodes>
      <leafValues>
        -7.1641349792480469e-01 5.5852961540222168e-01</leafValues></_>
    <_>
      <internalNodes>
        0 -1 34344 -787461 1540896695 1010795785 828446303 -546028036
        -577692548 -463730500 -593835813</internalNodes>
      <leafValues>
        -4.3409359455108643e-01 8.9331161975860596e-01</leafValues></_>
    <_>
      <internalNodes>
        0 -1 57577 -1442804329 -841950992 -2143284907 -275462939
        -1073368839 -1080358454 -930763271 -1371274923</internalNodes>
      <leafValues>
        -5.9591192007064819e-01 6.2051177024841309e-01</leafValues></_>
    <_>
      <internalNodes>
        0 -1 48422 -657486753 1609334525 -26152963 259480793 1815090584
        -297552721 549313759 1938924703</internalNodes>
      <leafValues>
        -4.8926213383674622e-01 7.7310520410537720e-01</leafValues></_>
    <_>
      <internalNodes>
        0 -1 12251 -757098833 868988315 -1033615358 1620996208
        -2040039145 409763841 -636769563 1936981356</internalNodes>
      <leafValues>
        -6.4115047454833984e-01 5.7752269506454468e-01</leafValues></_>
    <_>
      <internalNodes>
        0 -1 67455 -168863121 2078509338 -1744594910 975336 -1693619710
        910208019 -745962349 -817643077</internalNodes>
      <leafValues>
        -5.5951625108718872e-01 6.8326812982559204e-01</leafValues></_>
    <_>
      <internalNodes>
        0 -1 47341 1857574616 -325445608 -721300492 -1176626871
        -1459447620 429582491 731519032 175846397</internalNodes>
      <leafValues>
        -7.0749187469482422e-01 5.2382928133010864e-01</leafValues></_>
    <_>
      <internalNodes>
        0 -1 55348 -1437707164 -401128064 1233146103 -938983066
        -502390784 -1121671144 -553203450 -266283658</internalNodes>
      <leafValues>
        -7.9118621349334717e-01 4.2110547423362732e-01</leafValues></_>
    <_>
      <internalNodes>
        0 -1 18694 -573677 1869852602 -1628472434 311586611 -1592826
        -578913411 -1621325915 -101466628</internalNodes>
      <leafValues>
        -5.0332671403884888e-01 7.1722513437271118e-01</leafValues></_>
    <_>
      <internalNodes>
        0 -1 31692 1189525471 -1816272897 -1158299724 -260931650
        2019751825 1106574589 989818773 -668872785</internalNodes>
      <leafValues>
        -5.0990021228790283e-01 6.6057485342025757e-01</leafValues></_>
    <_>
      <internalNodes>
        0 -1 21573 1315370502 1004701615 -1418268937 -232329345
        -25408228 -1073911809 -51062145 -596669229</internalNodes>
      <leafValues>
        -5.3329467773437500e-01 6.0473525524139404e-01</leafValues></_>
    <_>
      <internalNodes>
        0 -1 62584 653465609 1784615162 -1609043493 -749658042
        -1962217468 -99974392 -1452812059 -1108727723</internalNodes>
      <leafValues>
        -5.9976357221603394e-01 5.1156759262084961e-01</leafValues></_>
    <_>
      <internalNodes>
        0 -1 39976 1449519714 -1879732489 -2030782735 -1382183360
        1993629311 -134252546 654169839 2100019194</internalNodes>
      <leafValues>
        -5.3593748807907104e-01 5.8568644523620605e-01</leafValues></_>
    <_>
      <internalNodes>
        0 -1 57140 -1953712793 -1601650606 -939454153 -1354092392
        -1181777600 -73916414 -1458619772 -1076922300</internalNodes>
      <leafValues>
        -5.7439184188842773e-01 5.3697866201400757e-01</leafValues></_>
    <_>
      <internalNodes>
        0 -1 38238 -785477749 393262933 535064116 -2018197533 -731910420
        -8914961 -270131517 -306254386</internalNodes>
      <leafValues>
        -4.4725793600082397e-01 7.0572739839553833e-01</leafValues></_>
    <_>
      <internalNodes>
        0 -1 17084 1659624050 -684613850 -272629955 -1086855554
        1048043347 -1367539850 1937112910 -688161687</internalNodes>
      <leafValues>
        -4.6571591496467590e-01 6.0699445009231567e-01</leafValues></_>
    <_>
      <internalNodes>
        0 -1 66280 -1370801559 -1599008386 -796307212 -754589163
        -1514036670 178493474 2081444596 317212801</internalNodes>
      <leafValues>
        -7.3209017515182495e-01 4.1359776258468628e-01</leafValues></_>
    <_>
      <internalNodes>
        0 -1 16304 -372483552 176460179 -1005104709 -466038650 386093257
        -1434154581 -921969903 -990618667</internalNodes>
      <leafValues>
        -7.7521938085556030e-01 3.5602185130119324e-01</leafValues></_>
    <_>
      <internalNodes>
        0 -1 49607 -1072820047 541752219 25611677 2004965754 788793924
        -359939711 836768109 -2081637500</internalNodes>
      <leafValues>
        -5.9333890676498413e-01 4.5237120985984802e-01</leafValues></_>
    <_>
      <internalNodes>
        0 -1 64373 1272405430 -1731866783 158380497 1984110784 405462001
        -2104622838 1158873525 -865273451</internalNodes>
      <leafValues>
        -5.8662718534469604e-01 4.5280185341835022e-01</leafValues></_>
    <_>
      <internalNodes>
        0 -1 2103 -831029709 171070211 1073856669 -2112732975
        -1070332451 -618510271 -1475476488 1757415534</internalNodes>
      <leafValues>
        -5.5853188037872314e-01 4.4822967052459717e-01</leafValues></_>
    <_>
      <internalNodes>
        0 -1 53405 697300740 1880318870 -2078076147 -1798956709
        -931103851 -1928737132 553748603 860807574</internalNodes>
      <leafValues>
        -5.8775788545608521e-01 3.9193943142890930e-01</leafValues></_>
    <_>
      <internalNodes>
        0 -1 48966 -1615923135 590250398 1476434831 -1078251243
        -396737584 748848027 -2146488611 13246656</internalNodes>
      <leafValues>
        -5.9813195466995239e-01 3.8369116187095642e-01</leafValues></_>
    <_>
      <internalNodes>
        0 -1 30693 -388799118 -56414013 1376031067 -800221181 -385627468
        1216448522 -499002523 -561290368</internalNodes>
      <leafValues>
        -4.8781618475914001e-01 4.7682800889015198e-01</leafValues></_>
    <_>
      <internalNodes>
        0 -1 62172 -1 -1 1879048183 -1 -1 -1 -8193 -1</internalNodes>
      <leafValues>
        -2.8129762038588524e-02 8.3920383453369141e+00</leafValues></_>
    <_>
      <internalNodes>
        0 -1 55769 545260441 -2002192005 -1014934273 315937175 650781322
        -75345527 -1601994004 -1369535507</internalNodes>
      <leafValues>
        -6.1152797937393188e-01 3.7307596206665039e-01</leafValues></_>
    <_>
      <internalNodes>
        0 -1 43514 22725656 -1464582111 805524059 38404096 2053302640
        -1877225384 -1671050617 -560735499</internalNodes>
      <leafValues>
        -6.1618036031723022e-01 3.6929941177368164e-01</leafValues></_>
    <_>
      <internalNodes>
        0 -1 44718 38007343 1560629441 -238564031 1067000113 1095790819
        -1634164606 1020154331 -1844585853</internalNodes>
      <leafValues>
        -4.4351375102996826e-01 5.2591943740844727e-01</leafValues></_>
    <_>
      <internalNodes>
        0 -1 50869 -545259521 -536870913 -1 -1 -1 -1 -1 -1</internalNodes>
      <leafValues>
        -1.2403421103954315e-02 10.</leafValues></_>
    <_>
      <internalNodes>
        0 -1 52622 -1940755566 474472518 -1301210992 2120455111
        406866054 -1064533878 -2121296190 -1460454298</internalNodes>
      <leafValues>
        -5.4134500026702881e-01 4.0262243151664734e-01</leafValues></_>
    <_>
      <internalNodes>
        0 -1 49720 1178493160 1300291637 318830064 1402192899 -909929688
        -616988446 1770160718 1480546096</internalNodes>
      <leafValues>
        -6.2998378276824951e-01 3.7861254811286926e-01</leafValues></_>
    <_>
      <internalNodes>
        0 -1 37227 1866016402 1447390220 41943326 -1886298112 23787120
        -587185619 851689515 2019953666</internalNodes>
      <leafValues>
        -6.6466772556304932e-01 3.1637534499168396e-01</leafValues></_>
    <_>
      <internalNodes>
        0 -1 38729 8388608 0 0 0 536936448 0 0 0</internalNodes>
      <leafValues>
        -8.7509288787841797e+00 -7.2872464079409838e-04</leafValues></_>
    <_>
      <internalNodes>
        0 -1 63804 -525174265 433627263 -636922906 54703949 1384999256
        553853265 332626584 1786440016</internalNodes>
      <leafValues>
        -5.5463957786560059e-01 3.7797173857688904e-01</leafValues></_>
    <_>
      <internalNodes>
        0 -1 37738 -1026220222 -1938681840 1075073168 -558624618
        420051044 -1609891708 -1549534000 -793734776</internalNodes>
      <leafValues>
        -5.6100708246231079e-01 3.6823937296867371e-01</leafValues></_>
    <_>
      <internalNodes>
        0 -1 12394 -1 -1 -1 -2097153 -1 -1 -1 -262145</internalNodes>
      <leafValues>
        -3.7119302898645401e-02 10.</leafValues></_>
    <_>
      <internalNodes>
        0 -1 46880 1173087781 575062028 -1071546157 -402209941
        -1143260558 976125960 -248990763 -340175</internalNodes>
      <leafValues>
        -4.9928122758865356e-01 4.2468717694282532e-01</leafValues></_>
    <_>
      <internalNodes>
        0 -1 35153 2026145043 -637164778 -1840904831 466157696
        -527687944 1904267483 -1826414570 162116483</internalNodes>
      <leafValues>
        -5.1524549722671509e-01 4.1588848829269409e-01</leafValues></_>
    <_>
      <internalNodes>
        0 -1 1003 -214449021 -131765646 -1426133122 -1587347603
        1415478832 -1139868297 -1235222929 1751635434</internalNodes>
      <leafValues>
        -3.8107645511627197e-01 5.2775990962982178e-01</leafValues></_>
    <_>
      <internalNodes>
        0 -1 57243 -1461484363 -650166657 -285280514 2130591679
        -1224798856 -1090519188 -991106824 -415633809</internalNodes>
      <leafValues>
        -3.8990691304206848e-01 5.2465957403182983e-01</leafValues></_>
    <_>
      <internalNodes>
        0 -1 32870 -272715787 -625275205 -65865 872210419 -1124076355
        -34111749 1879019469 800869559</internalNodes>
      <leafValues>
        -4.2911767959594727e-01 4.6793392300605774e-01</leafValues></_>
    <_>
      <internalNodes>
        0 -1 7181 -1 -1 -1 -1 -1 -2049 -1 -257</internalNodes>
      <leafValues>
        -2.3211268708109856e-02 10.</leafValues></_>
    <_>
      <internalNodes>
        0 -1 23 0 0 256 0 0 16777216 0 0</internalNodes>
      <leafValues>
        -8.9587116241455078e+00 3.7577745970338583e-03</leafValues></_>
    <_>
      <internalNodes>
        0 -1 64789 -168559349 935165868 -21187141 758118268 2121642774
        -403177669 1476319161 -119687661</internalNodes>
      <leafValues>
        -3.2888266444206238e-01 5.8945578336715698e-01</leafValues></_>
    <_>
      <internalNodes>
        0 -1 42561 1381376811 491880640 -1861990989 905982296 21102845
        1718132928 -1333638237 -73782568</internalNodes>
      <leafValues>
        -4.5969152450561523e-01 4.4140762090682983e-01</leafValues></_>
    <_>
      <internalNodes>
        0 -1 63674 783995887 -138715416 -1074006145 2146227900 496979963
        -1359200291 -1510091012 -883237655</internalNodes>
      <leafValues>
        -3.9691278338432312e-01 5.1005619764328003e-01</leafValues></_>
    <_>
      <internalNodes>
        0 -1 47786 817581861 116282140 -1744712209 -623770489
        -1983883183 -386300977 35018514 -1249375682</internalNodes>
      <leafValues>
        -5.6145346164703369e-01 3.5044869780540466e-01</leafValues></_>
    <_>
      <internalNodes>
        0 -1 12031 -212438434 2100725634 -1023255412 1654136962
        1487553188 -892335601 -366458406 1145479271</internalNodes>
      <leafValues>
        -5.7294481992721558e-01 3.1123188138008118e-01</leafValues></_>
    <_>
      <internalNodes>
        0 -1 34681 -1074527221 -5378245 -1359020553 854261626 2139090516
        -17465473 1451030253 -1367378569</internalNodes>
      <leafValues>
        -4.1626212000846863e-01 4.4131535291671753e-01</leafValues></_></weakClassifiers></stage4>
</opencv_storage>
