<?xml version="1.0"?>
<opencv_storage>
<stage17>
  <maxWeakCount>65</maxWeakCount>
  <stageThreshold>-2.4848003387451172e+00</stageThreshold>
  <weakClassifiers>
    <_>
      <internalNodes>
        0 -1 298912 -3.9747338742017746e-03</internalNodes>
      <leafValues>
        6.4191722869873047e-01 -6.4191722869873047e-01</leafValues></_>
    <_>
      <internalNodes>
        0 -1 305848 -2.4130367673933506e-03</internalNodes>
      <leafValues>
        4.6029093861579895e-01 -4.6029093861579895e-01</leafValues></_>
    <_>
      <internalNodes>
        0 -1 384328 6.7290426231920719e-03</internalNodes>
      <leafValues>
        -4.1609185934066772e-01 4.1609185934066772e-01</leafValues></_>
    <_>
      <internalNodes>
        0 -1 295241 8.9276758953928947e-03</internalNodes>
      <leafValues>
        -3.7492507696151733e-01 3.7492507696151733e-01</leafValues></_>
    <_>
      <internalNodes>
        0 -1 86140 6.7926896736025810e-03</internalNodes>
      <leafValues>
        -3.5273125767707825e-01 3.5273125767707825e-01</leafValues></_>
    <_>
      <internalNodes>
        0 -1 242747 7.7753812074661255e-03</internalNodes>
      <leafValues>
        -3.4486475586891174e-01 3.4486475586891174e-01</leafValues></_>
    <_>
      <internalNodes>
        0 -1 132430 8.3952948451042175e-02</internalNodes>
      <leafValues>
        -3.6844566464424133e-01 3.6844566464424133e-01</leafValues></_>
    <_>
      <internalNodes>
        0 -1 383140 6.4936990384012461e-04</internalNodes>
      <leafValues>
        3.1713187694549561e-01 -3.1713187694549561e-01</leafValues></_>
    <_>
      <internalNodes>
        0 -1 4572 -1.8966317176818848e-01</internalNodes>
      <leafValues>
        3.5562777519226074e-01 -3.5562777519226074e-01</leafValues></_>
    <_>
      <internalNodes>
        0 -1 257178 -4.9262596294283867e-03</internalNodes>
      <leafValues>
        3.3915781974792480e-01 -3.3915781974792480e-01</leafValues></_>
    <_>
      <internalNodes>
        0 -1 306987 5.1133171655237675e-04</internalNodes>
      <leafValues>
        -3.4355196356773376e-01 3.4355196356773376e-01</leafValues></_>
    <_>
      <internalNodes>
        0 -1 378191 -1.4168617781251669e-05</internalNodes>
      <leafValues>
        3.3578869700431824e-01 -3.3578869700431824e-01</leafValues></_>
    <_>
      <internalNodes>
        0 -1 293687 2.5512033607810736e-04</internalNodes>
      <leafValues>
        -3.0990844964981079e-01 3.0990844964981079e-01</leafValues></_>
    <_>
      <internalNodes>
        0 -1 294022 7.5128057505935431e-04</internalNodes>
      <leafValues>
        -3.0842670798301697e-01 3.0842670798301697e-01</leafValues></_>
    <_>
      <internalNodes>
        0 -1 290057 -8.5851992480456829e-05</internalNodes>
      <leafValues>
        -3.1474563479423523e-01 3.1474563479423523e-01</leafValues></_>
    <_>
      <internalNodes>
        0 -1 323946 6.3591252546757460e-04</internalNodes>
      <leafValues>
        -3.2616665959358215e-01 3.2616665959358215e-01</leafValues></_>
    <_>
      <internalNodes>
        0 -1 364058 -7.3575135320425034e-04</internalNodes>
      <leafValues>
        -2.8766506910324097e-01 2.8766506910324097e-01</leafValues></_>
    <_>
      <internalNodes>
        0 -1 324026 -2.1985610947012901e-03</internalNodes>
      <leafValues>
        3.8107234239578247e-01 -3.8107234239578247e-01</leafValues></_>
    <_>
      <internalNodes>
        0 -1 119920 1.5820801490917802e-04</internalNodes>
      <leafValues>
        3.1425407528877258e-01 -3.1425407528877258e-01</leafValues></_>
    <_>
      <internalNodes>
        0 -1 22407 -2.1441790461540222e-01</internalNodes>
      <leafValues>
        3.1977531313896179e-01 -3.1977531313896179e-01</leafValues></_>
    <_>
      <internalNodes>
        0 -1 358132 8.1247952766716480e-04</internalNodes>
      <leafValues>
        3.1086531281471252e-01 -3.1086531281471252e-01</leafValues></_>
    <_>
      <internalNodes>
        0 -1 24363 -5.6785207241773605e-02</internalNodes>
      <leafValues>
        3.6327809095382690e-01 -3.6327809095382690e-01</leafValues></_>
    <_>
      <internalNodes>
        0 -1 390736 -6.5975286997854710e-04</internalNodes>
      <leafValues>
        3.0404266715049744e-01 -3.0404266715049744e-01</leafValues></_>
    <_>
      <internalNodes>
        0 -1 520 4.8303257673978806e-02</internalNodes>
      <leafValues>
        -3.2210010290145874e-01 3.2210010290145874e-01</leafValues></_>
    <_>
      <internalNodes>
        0 -1 364731 8.1671722000464797e-04</internalNodes>
      <leafValues>
        3.2268533110618591e-01 -3.2268533110618591e-01</leafValues></_>
    <_>
      <internalNodes>
        0 -1 333980 -6.4138998277485371e-04</internalNodes>
      <leafValues>
        3.1134128570556641e-01 -3.1134128570556641e-01</leafValues></_>
    <_>
      <internalNodes>
        0 -1 261582 1.5778995584696531e-03</internalNodes>
      <leafValues>
        -3.0975234508514404e-01 3.0975234508514404e-01</leafValues></_>
    <_>
      <internalNodes>
        0 -1 231085 -5.0611060578376055e-04</internalNodes>
      <leafValues>
        2.7411422133445740e-01 -2.7411422133445740e-01</leafValues></_>
    <_>
      <internalNodes>
        0 -1 26642 -4.8319991677999496e-02</internalNodes>
      <leafValues>
        2.9840514063835144e-01 -2.9840514063835144e-01</leafValues></_>
    <_>
      <internalNodes>
        0 -1 289361 -7.9966634511947632e-03</internalNodes>
      <leafValues>
        -3.1917667388916016e-01 3.1917667388916016e-01</leafValues></_>
    <_>
      <internalNodes>
        0 -1 210751 -2.0294124260544777e-03</internalNodes>
      <leafValues>
        3.1703647971153259e-01 -3.1703647971153259e-01</leafValues></_>
    <_>
      <internalNodes>
        0 -1 14473 9.1684976359829307e-04</internalNodes>
      <leafValues>
        3.2529821991920471e-01 -3.2529821991920471e-01</leafValues></_>
    <_>
      <internalNodes>
        0 -1 209080 2.7857283130288124e-03</internalNodes>
      <leafValues>
        -3.0949699878692627e-01 3.0949699878692627e-01</leafValues></_>
    <_>
      <internalNodes>
        0 -1 382088 -1.1688927188515663e-03</internalNodes>
      <leafValues>
        3.0931442975997925e-01 -3.0931442975997925e-01</leafValues></_>
    <_>
      <internalNodes>
        0 -1 118298 -3.5669196222443134e-05</internalNodes>
      <leafValues>
        -2.7276825904846191e-01 2.7276825904846191e-01</leafValues></_>
    <_>
      <internalNodes>
        0 -1 323650 -3.7067234516143799e-02</internalNodes>
      <leafValues>
        3.2373079657554626e-01 -3.2373079657554626e-01</leafValues></_>
    <_>
      <internalNodes>
        0 -1 297058 6.9013412576168776e-04</internalNodes>
      <leafValues>
        3.2573804259300232e-01 -3.2573804259300232e-01</leafValues></_>
    <_>
      <internalNodes>
        0 -1 324969 -2.1691212896257639e-04</internalNodes>
      <leafValues>
        2.9876714944839478e-01 -2.9876714944839478e-01</leafValues></_>
    <_>
      <internalNodes>
        0 -1 203200 -1.4557689428329468e-04</internalNodes>
      <leafValues>
        -2.7372807264328003e-01 2.7372807264328003e-01</leafValues></_>
    <_>
      <internalNodes>
        0 -1 335825 5.3881725762039423e-04</internalNodes>
      <leafValues>
        -3.1715476512908936e-01 3.1715476512908936e-01</leafValues></_>
    <_>
      <internalNodes>
        0 -1 320007 7.3735014302656054e-04</internalNodes>
      <leafValues>
        2.6549634337425232e-01 -2.6549634337425232e-01</leafValues></_>
    <_>
      <internalNodes>
        0 -1 108939 -3.0324500985443592e-03</internalNodes>
      <leafValues>
        3.2323357462882996e-01 -3.2323357462882996e-01</leafValues></_>
    <_>
      <internalNodes>
        0 -1 292827 -5.7605770416557789e-04</internalNodes>
      <leafValues>
        -2.7652201056480408e-01 2.7652201056480408e-01</leafValues></_>
    <_>
      <internalNodes>
        0 -1 258304 -7.8746443614363670e-04</internalNodes>
      <leafValues>
        3.1471475958824158e-01 -3.1471475958824158e-01</leafValues></_>
    <_>
      <internalNodes>
        0 -1 392800 -1.5440395145560615e-05</internalNodes>
      <leafValues>
        2.8139013051986694e-01 -2.8139013051986694e-01</leafValues></_>
    <_>
      <internalNodes>
        0 -1 358694 5.6427961681038141e-04</internalNodes>
      <leafValues>
        -3.1067258119583130e-01 3.1067258119583130e-01</leafValues></_>
    <_>
      <internalNodes>
        0 -1 289757 5.2792567294090986e-04</internalNodes>
      <leafValues>
        -2.9165288805961609e-01 2.9165288805961609e-01</leafValues></_>
    <_>
      <internalNodes>
        0 -1 208274 -4.2025912553071976e-03</internalNodes>
      <leafValues>
        2.9694917798042297e-01 -2.9694917798042297e-01</leafValues></_>
    <_>
      <internalNodes>
        0 -1 374198 1.8794276984408498e-03</internalNodes>
      <leafValues>
        2.8681832551956177e-01 -2.8681832551956177e-01</leafValues></_>
    <_>
      <internalNodes>
        0 -1 214983 2.0247390493750572e-03</internalNodes>
      <leafValues>
        -3.5762429237365723e-01 3.5762429237365723e-01</leafValues></_>
    <_>
      <internalNodes>
        0 -1 387247 3.2364833168685436e-04</internalNodes>
      <leafValues>
        2.9557594656944275e-01 -2.9557594656944275e-01</leafValues></_>
    <_>
      <internalNodes>
        0 -1 341097 -1.4009065926074982e-03</internalNodes>
      <leafValues>
        2.9795262217521667e-01 -2.9795262217521667e-01</leafValues></_>
    <_>
      <internalNodes>
        0 -1 351434 -5.3627649322152138e-04</internalNodes>
      <leafValues>
        -2.8158655762672424e-01 2.8158655762672424e-01</leafValues></_>
    <_>
      <internalNodes>
        0 -1 265843 1.6187637811526656e-03</internalNodes>
      <leafValues>
        -3.0965012311935425e-01 3.0965012311935425e-01</leafValues></_>
    <_>
      <internalNodes>
        0 -1 320389 -3.0841261614114046e-03</internalNodes>
      <leafValues>
        2.9572615027427673e-01 -2.9572615027427673e-01</leafValues></_>
    <_>
      <internalNodes>
        0 -1 305724 7.2673894464969635e-05</internalNodes>
      <leafValues>
        -2.8849467635154724e-01 2.8849467635154724e-01</leafValues></_>
    <_>
      <internalNodes>
        0 -1 29185 1.5581831336021423e-01</internalNodes>
      <leafValues>
        -3.0626547336578369e-01 3.0626547336578369e-01</leafValues></_>
    <_>
      <internalNodes>
        0 -1 291261 3.8023591041564941e-03</internalNodes>
      <leafValues>
        3.3147263526916504e-01 -3.3147263526916504e-01</leafValues></_>
    <_>
      <internalNodes>
        0 -1 248818 4.3904880294576287e-04</internalNodes>
      <leafValues>
        -2.9179683327674866e-01 2.9179683327674866e-01</leafValues></_>
    <_>
      <internalNodes>
        0 -1 263668 3.9850823668530211e-05</internalNodes>
      <leafValues>
        2.9234933853149414e-01 -2.9234933853149414e-01</leafValues></_>
    <_>
      <internalNodes>
        0 -1 263114 3.2608157489448786e-03</internalNodes>
      <leafValues>
        -2.9428097605705261e-01 2.9428097605705261e-01</leafValues></_>
    <_>
      <internalNodes>
        0 -1 161050 8.2365442067384720e-03</internalNodes>
      <leafValues>
        -2.8362891077995300e-01 2.8362891077995300e-01</leafValues></_>
    <_>
      <internalNodes>
        0 -1 56774 1.5985728532541543e-04</internalNodes>
      <leafValues>
        3.0562919378280640e-01 -3.0562919378280640e-01</leafValues></_>
    <_>
      <internalNodes>
        0 -1 310635 2.4071258667390794e-04</internalNodes>
      <leafValues>
        -2.7772089838981628e-01 2.7772089838981628e-01</leafValues></_>
    <_>
      <internalNodes>
        0 -1 243599 1.0860341601073742e-02</internalNodes>
      <leafValues>
        2.5956276059150696e-01 -2.5956276059150696e-01</leafValues></_></weakClassifiers></stage17>
</opencv_storage>
