<?xml version="1.0"?>
<opencv_storage>
<stage11>
  <maxWeakCount>40</maxWeakCount>
  <stageThreshold>-2.7374939918518066e+00</stageThreshold>
  <weakClassifiers>
    <_>
      <internalNodes>
        0 -1 98540 3.3943615853786469e-02</internalNodes>
      <leafValues>
        -7.0312231779098511e-01 7.0312231779098511e-01</leafValues></_>
    <_>
      <internalNodes>
        0 -1 171473 5.6207370944321156e-03</internalNodes>
      <leafValues>
        -4.7862234711647034e-01 4.7862234711647034e-01</leafValues></_>
    <_>
      <internalNodes>
        0 -1 378180 -1.7109900363720953e-04</internalNodes>
      <leafValues>
        5.2375543117523193e-01 -5.2375543117523193e-01</leafValues></_>
    <_>
      <internalNodes>
        0 -1 288072 2.4579716846346855e-03</internalNodes>
      <leafValues>
        -4.6009764075279236e-01 4.6009764075279236e-01</leafValues></_>
    <_>
      <internalNodes>
        0 -1 387489 4.7953715547919273e-03</internalNodes>
      <leafValues>
        -4.2960271239280701e-01 4.2960271239280701e-01</leafValues></_>
    <_>
      <internalNodes>
        0 -1 340989 9.4633622211404145e-05</internalNodes>
      <leafValues>
        -3.8958165049552917e-01 3.8958165049552917e-01</leafValues></_>
    <_>
      <internalNodes>
        0 -1 26774 -7.8043550252914429e-02</internalNodes>
      <leafValues>
        3.9335978031158447e-01 -3.9335978031158447e-01</leafValues></_>
    <_>
      <internalNodes>
        0 -1 365748 1.5098415315151215e-03</internalNodes>
      <leafValues>
        4.1769143939018250e-01 -4.1769143939018250e-01</leafValues></_>
    <_>
      <internalNodes>
        0 -1 249457 1.9734648521989584e-03</internalNodes>
      <leafValues>
        -4.4942402839660645e-01 4.4942402839660645e-01</leafValues></_>
    <_>
      <internalNodes>
        0 -1 392670 -1.2654491001740098e-05</internalNodes>
      <leafValues>
        3.6720612645149231e-01 -3.6720612645149231e-01</leafValues></_>
    <_>
      <internalNodes>
        0 -1 38279 3.5107159614562988e-01</internalNodes>
      <leafValues>
        -4.3445271253585815e-01 4.3445271253585815e-01</leafValues></_>
    <_>
      <internalNodes>
        0 -1 60562 1.7553225159645081e-02</internalNodes>
      <leafValues>
        -4.0378066897392273e-01 4.0378066897392273e-01</leafValues></_>
    <_>
      <internalNodes>
        0 -1 99105 -1.2809706851840019e-02</internalNodes>
      <leafValues>
        3.8748550415039062e-01 -3.8748550415039062e-01</leafValues></_>
    <_>
      <internalNodes>
        0 -1 335270 -1.5022052684798837e-03</internalNodes>
      <leafValues>
        3.6363038420677185e-01 -3.6363038420677185e-01</leafValues></_>
    <_>
      <internalNodes>
        0 -1 293547 3.9624574128538370e-04</internalNodes>
      <leafValues>
        -3.6371666193008423e-01 3.6371666193008423e-01</leafValues></_>
    <_>
      <internalNodes>
        0 -1 392418 -4.5252390555106103e-04</internalNodes>
      <leafValues>
        -3.5384032130241394e-01 3.5384032130241394e-01</leafValues></_>
    <_>
      <internalNodes>
        0 -1 25542 -7.4770294129848480e-02</internalNodes>
      <leafValues>
        4.3544089794158936e-01 -4.3544089794158936e-01</leafValues></_>
    <_>
      <internalNodes>
        0 -1 350187 -1.0759958531707525e-03</internalNodes>
      <leafValues>
        -3.8718569278717041e-01 3.8718569278717041e-01</leafValues></_>
    <_>
      <internalNodes>
        0 -1 280084 5.2243564277887344e-04</internalNodes>
      <leafValues>
        -3.8076391816139221e-01 3.8076391816139221e-01</leafValues></_>
    <_>
      <internalNodes>
        0 -1 70340 1.3191276229918003e-04</internalNodes>
      <leafValues>
        3.5489833354949951e-01 -3.5489833354949951e-01</leafValues></_>
    <_>
      <internalNodes>
        0 -1 58336 -2.8983946889638901e-02</internalNodes>
      <leafValues>
        3.9738532900810242e-01 -3.9738532900810242e-01</leafValues></_>
    <_>
      <internalNodes>
        0 -1 70340 -1.1714988067978993e-04</internalNodes>
      <leafValues>
        -3.5296362638473511e-01 3.5296362638473511e-01</leafValues></_>
    <_>
      <internalNodes>
        0 -1 55669 4.1499208658933640e-02</internalNodes>
      <leafValues>
        -3.8576957583427429e-01 3.8576957583427429e-01</leafValues></_>
    <_>
      <internalNodes>
        0 -1 76290 8.8898595422506332e-03</internalNodes>
      <leafValues>
        -3.9829683303833008e-01 3.9829683303833008e-01</leafValues></_>
    <_>
      <internalNodes>
        0 -1 375123 3.0498029664158821e-03</internalNodes>
      <leafValues>
        -3.4027990698814392e-01 3.4027990698814392e-01</leafValues></_>
    <_>
      <internalNodes>
        0 -1 263669 -1.5673822490498424e-03</internalNodes>
      <leafValues>
        3.8884633779525757e-01 -3.8884633779525757e-01</leafValues></_>
    <_>
      <internalNodes>
        0 -1 278348 -1.3564121218223590e-05</internalNodes>
      <leafValues>
        3.6831244826316833e-01 -3.6831244826316833e-01</leafValues></_>
    <_>
      <internalNodes>
        0 -1 278093 5.3909549023956060e-04</internalNodes>
      <leafValues>
        -3.9376053214073181e-01 3.9376053214073181e-01</leafValues></_>
    <_>
      <internalNodes>
        0 -1 340454 -1.4685366768389940e-03</internalNodes>
      <leafValues>
        -3.7619727849960327e-01 3.7619727849960327e-01</leafValues></_>
    <_>
      <internalNodes>
        0 -1 187721 -1.1676078662276268e-02</internalNodes>
      <leafValues>
        3.5716721415519714e-01 -3.5716721415519714e-01</leafValues></_>
    <_>
      <internalNodes>
        0 -1 348466 -1.5562266344204545e-04</internalNodes>
      <leafValues>
        -3.7703499197959900e-01 3.7703499197959900e-01</leafValues></_>
    <_>
      <internalNodes>
        0 -1 174128 -1.4549580402672291e-02</internalNodes>
      <leafValues>
        3.7337118387222290e-01 -3.7337118387222290e-01</leafValues></_>
    <_>
      <internalNodes>
        0 -1 378515 -2.6422280352562666e-03</internalNodes>
      <leafValues>
        -3.4908550977706909e-01 3.4908550977706909e-01</leafValues></_>
    <_>
      <internalNodes>
        0 -1 230375 -2.4298666976392269e-03</internalNodes>
      <leafValues>
        3.9240124821662903e-01 -3.9240124821662903e-01</leafValues></_>
    <_>
      <internalNodes>
        0 -1 377015 -1.5298432117560878e-05</internalNodes>
      <leafValues>
        3.5690957307815552e-01 -3.5690957307815552e-01</leafValues></_>
    <_>
      <internalNodes>
        0 -1 212969 -1.4215020928531885e-03</internalNodes>
      <leafValues>
        3.4374031424522400e-01 -3.4374031424522400e-01</leafValues></_>
    <_>
      <internalNodes>
        0 -1 303961 -2.1091544476803392e-04</internalNodes>
      <leafValues>
        -3.6989262700080872e-01 3.6989262700080872e-01</leafValues></_>
    <_>
      <internalNodes>
        0 -1 287171 2.8625065460801125e-03</internalNodes>
      <leafValues>
        -3.4927290678024292e-01 3.4927290678024292e-01</leafValues></_>
    <_>
      <internalNodes>
        0 -1 386828 8.0145796528086066e-04</internalNodes>
      <leafValues>
        3.6562371253967285e-01 -3.6562371253967285e-01</leafValues></_>
    <_>
      <internalNodes>
        0 -1 335244 5.0105468835681677e-04</internalNodes>
      <leafValues>
        -3.9611959457397461e-01 3.9611959457397461e-01</leafValues></_></weakClassifiers></stage11>
</opencv_storage>
