<?xml version="1.0"?>
<opencv_storage>
<stage16>
  <maxWeakCount>39</maxWeakCount>
  <stageThreshold>-1.4948742389678955e+00</stageThreshold>
  <weakClassifiers>
    <_>
      <internalNodes>
        0 -1 287315 -5.1732629071921110e-04</internalNodes>
      <leafValues>
        6.9037258625030518e-02 -4.8453265428543091e-01</leafValues></_>
    <_>
      <internalNodes>
        0 -1 295210 -7.0862332358956337e-03</internalNodes>
      <leafValues>
        3.2622030377388000e-01 -1.8555140495300293e-01</leafValues></_>
    <_>
      <internalNodes>
        0 -1 394227 -5.4139281928655691e-06</internalNodes>
      <leafValues>
        1.7507506906986237e-01 -3.2229289412498474e-01</leafValues></_>
    <_>
      <internalNodes>
        0 -1 293924 -1.9269365584477782e-03</internalNodes>
      <leafValues>
        3.9184874296188354e-01 -1.4236623048782349e-01</leafValues></_>
    <_>
      <internalNodes>
        0 -1 378598 -4.5793848112225533e-03</internalNodes>
      <leafValues>
        2.2241418063640594e-01 -2.8682124614715576e-01</leafValues></_>
    <_>
      <internalNodes>
        0 -1 185884 -1.2495286762714386e-02</internalNodes>
      <leafValues>
        1.4596243202686310e-01 -3.2194206118583679e-01</leafValues></_>
    <_>
      <internalNodes>
        0 -1 260542 -5.0551381718832999e-05</internalNodes>
      <leafValues>
        1.8176193535327911e-01 -2.5356358289718628e-01</leafValues></_>
    <_>
      <internalNodes>
        0 -1 136923 -6.8259301770012826e-05</internalNodes>
      <leafValues>
        -3.1957238912582397e-01 1.3790862262248993e-01</leafValues></_>
    <_>
      <internalNodes>
        0 -1 391453 7.0391474764619488e-06</internalNodes>
      <leafValues>
        -2.7380380034446716e-01 1.4663681387901306e-01</leafValues></_>
    <_>
      <internalNodes>
        0 -1 337891 1.6390000237151980e-03</internalNodes>
      <leafValues>
        4.5196134597063065e-02 -7.4333804845809937e-01</leafValues></_>
    <_>
      <internalNodes>
        0 -1 334782 8.4591301856562495e-04</internalNodes>
      <leafValues>
        -1.1845710128545761e-01 3.0438762903213501e-01</leafValues></_>
    <_>
      <internalNodes>
        0 -1 320702 3.4080052864737809e-04</internalNodes>
      <leafValues>
        9.3206577003002167e-02 -5.0887006521224976e-01</leafValues></_>
    <_>
      <internalNodes>
        0 -1 203150 5.4457997903227806e-03</internalNodes>
      <leafValues>
        -1.1157999932765961e-01 3.8443797826766968e-01</leafValues></_>
    <_>
      <internalNodes>
        0 -1 196810 -3.5690154880285263e-02</internalNodes>
      <leafValues>
        5.0531256198883057e-01 -7.0671193301677704e-02</leafValues></_>
    <_>
      <internalNodes>
        0 -1 77085 3.1193347647786140e-02</internalNodes>
      <leafValues>
        -1.2718948721885681e-01 3.5623192787170410e-01</leafValues></_>
    <_>
      <internalNodes>
        0 -1 287003 4.3974602594971657e-03</internalNodes>
      <leafValues>
        -5.0042128562927246e-01 8.1074178218841553e-02</leafValues></_>
    <_>
      <internalNodes>
        0 -1 115673 2.2002740297466516e-03</internalNodes>
      <leafValues>
        -1.1938942968845367e-01 3.7370514869689941e-01</leafValues></_>
    <_>
      <internalNodes>
        0 -1 389646 3.4824473550543189e-04</internalNodes>
      <leafValues>
        8.9007772505283356e-02 -4.9682036042213440e-01</leafValues></_>
    <_>
      <internalNodes>
        0 -1 306683 4.7246224130503833e-04</internalNodes>
      <leafValues>
        -1.2020894140005112e-01 3.4866568446159363e-01</leafValues></_>
    <_>
      <internalNodes>
        0 -1 337915 -2.9881342779844999e-03</internalNodes>
      <leafValues>
        -8.4662818908691406e-01 6.5295837819576263e-02</leafValues></_>
    <_>
      <internalNodes>
        0 -1 227064 2.5348465889692307e-02</internalNodes>
      <leafValues>
        1.0073158144950867e-01 -3.9201015233993530e-01</leafValues></_>
    <_>
      <internalNodes>
        0 -1 277600 4.2927433969452977e-04</internalNodes>
      <leafValues>
        -1.3445517420768738e-01 3.0894026160240173e-01</leafValues></_>
    <_>
      <internalNodes>
        0 -1 118722 -1.1146650649607182e-04</internalNodes>
      <leafValues>
        -3.5707727074623108e-01 1.1020724475383759e-01</leafValues></_>
    <_>
      <internalNodes>
        0 -1 358456 -1.6635338397463784e-05</internalNodes>
      <leafValues>
        1.2944397330284119e-01 -2.8346842527389526e-01</leafValues></_>
    <_>
      <internalNodes>
        0 -1 178792 -9.2777470126748085e-03</internalNodes>
      <leafValues>
        2.8399279713630676e-01 -1.3573507964611053e-01</leafValues></_>
    <_>
      <internalNodes>
        0 -1 348705 5.2461899816989899e-02</internalNodes>
      <leafValues>
        3.8671102374792099e-02 -1.0534217357635498e+00</leafValues></_>
    <_>
      <internalNodes>
        0 -1 344121 1.0179192759096622e-03</internalNodes>
      <leafValues>
        -1.1133443564176559e-01 3.1587058305740356e-01</leafValues></_>
    <_>
      <internalNodes>
        0 -1 242520 -3.4576323814690113e-03</internalNodes>
      <leafValues>
        3.0495706200599670e-01 -1.1940357834100723e-01</leafValues></_>
    <_>
      <internalNodes>
        0 -1 190046 8.8410109281539917e-02</internalNodes>
      <leafValues>
        4.0968276560306549e-02 -1.7162934541702271e+00</leafValues></_>
    <_>
      <internalNodes>
        0 -1 356992 1.3521183282136917e-03</internalNodes>
      <leafValues>
        4.2249519377946854e-02 -1.0404001474380493e+00</leafValues></_>
    <_>
      <internalNodes>
        0 -1 350134 2.0293015986680984e-03</internalNodes>
      <leafValues>
        -9.7011677920818329e-02 3.6251798272132874e-01</leafValues></_>
    <_>
      <internalNodes>
        0 -1 384948 1.9787210039794445e-03</internalNodes>
      <leafValues>
        5.6958492845296860e-02 -6.5076750516891479e-01</leafValues></_>
    <_>
      <internalNodes>
        0 -1 308232 -5.8014057576656342e-03</internalNodes>
      <leafValues>
        -7.8828907012939453e-01 4.9648590385913849e-02</leafValues></_>
    <_>
      <internalNodes>
        0 -1 291949 2.5715451920405030e-04</internalNodes>
      <leafValues>
        -1.2238054722547531e-01 2.9050287604331970e-01</leafValues></_>
    <_>
      <internalNodes>
        0 -1 383266 -6.1169357650214806e-06</internalNodes>
      <leafValues>
        2.0205751061439514e-01 -1.6999614238739014e-01</leafValues></_>
    <_>
      <internalNodes>
        0 -1 387098 5.9305084505467676e-06</internalNodes>
      <leafValues>
        -2.1561117470264435e-01 1.7672292888164520e-01</leafValues></_>
    <_>
      <internalNodes>
        0 -1 116115 1.1030475434381515e-04</internalNodes>
      <leafValues>
        1.2455535680055618e-01 -2.8243589401245117e-01</leafValues></_>
    <_>
      <internalNodes>
        0 -1 383263 -7.0391474764619488e-06</internalNodes>
      <leafValues>
        1.3664467632770538e-01 -2.6519894599914551e-01</leafValues></_>
    <_>
      <internalNodes>
        0 -1 176602 -2.7536642737686634e-03</internalNodes>
      <leafValues>
        2.1734106540679932e-01 -1.6783122718334198e-01</leafValues></_></weakClassifiers></stage16>
</opencv_storage>
