<?xml version="1.0"?>
<opencv_storage>
<stage17>
  <maxWeakCount>37</maxWeakCount>
  <stageThreshold>-1.3842320442199707e+00</stageThreshold>
  <weakClassifiers>
    <_>
      <internalNodes>
        0 -1 305381 1.1024331906810403e-03</internalNodes>
      <leafValues>
        -5.3214699029922485e-01 1.6526738181710243e-02</leafValues></_>
    <_>
      <internalNodes>
        0 -1 210075 -3.3473316580057144e-03</internalNodes>
      <leafValues>
        2.8801691532135010e-01 -2.2919869422912598e-01</leafValues></_>
    <_>
      <internalNodes>
        0 -1 320474 2.3096472024917603e-02</internalNodes>
      <leafValues>
        -2.1920910477638245e-01 2.6501828432083130e-01</leafValues></_>
    <_>
      <internalNodes>
        0 -1 372495 -1.4468302251771092e-03</internalNodes>
      <leafValues>
        1.5630277991294861e-01 -2.7282619476318359e-01</leafValues></_>
    <_>
      <internalNodes>
        0 -1 291266 1.5526684001088142e-02</internalNodes>
      <leafValues>
        1.2039659172296524e-01 -4.9090173840522766e-01</leafValues></_>
    <_>
      <internalNodes>
        0 -1 381957 -1.2030252037220635e-05</internalNodes>
      <leafValues>
        1.7495931684970856e-01 -2.6597580313682556e-01</leafValues></_>
    <_>
      <internalNodes>
        0 -1 266295 1.0364481713622808e-03</internalNodes>
      <leafValues>
        -1.6260011494159698e-01 2.5521576404571533e-01</leafValues></_>
    <_>
      <internalNodes>
        0 -1 373607 3.4989053383469582e-03</internalNodes>
      <leafValues>
        5.2462346851825714e-02 -7.2580647468566895e-01</leafValues></_>
    <_>
      <internalNodes>
        0 -1 199241 4.9654975533485413e-02</internalNodes>
      <leafValues>
        -1.0329955071210861e-01 3.6348760128021240e-01</leafValues></_>
    <_>
      <internalNodes>
        0 -1 51773 -1.9316853582859039e-01</internalNodes>
      <leafValues>
        3.6765101552009583e-01 -1.4167723059654236e-01</leafValues></_>
    <_>
      <internalNodes>
        0 -1 393327 1.3215920189395547e-03</internalNodes>
      <leafValues>
        -1.7734953761100769e-01 2.1184331178665161e-01</leafValues></_>
    <_>
      <internalNodes>
        0 -1 209148 4.2527453042566776e-03</internalNodes>
      <leafValues>
        -1.4187137782573700e-01 3.0631506443023682e-01</leafValues></_>
    <_>
      <internalNodes>
        0 -1 120707 9.7523093223571777e-02</internalNodes>
      <leafValues>
        -6.7085042595863342e-02 5.8383661508560181e-01</leafValues></_>
    <_>
      <internalNodes>
        0 -1 231209 -2.1950051188468933e-02</internalNodes>
      <leafValues>
        -8.2957535982131958e-01 4.7412242740392685e-02</leafValues></_>
    <_>
      <internalNodes>
        0 -1 285889 -8.6289708269760013e-04</internalNodes>
      <leafValues>
        2.0115122199058533e-01 -1.9345381855964661e-01</leafValues></_>
    <_>
      <internalNodes>
        0 -1 243284 -1.9818949513137341e-03</internalNodes>
      <leafValues>
        3.5379457473754883e-01 -1.1234746128320694e-01</leafValues></_>
    <_>
      <internalNodes>
        0 -1 377244 3.7053896812722087e-04</internalNodes>
      <leafValues>
        6.5773814916610718e-02 -6.8751621246337891e-01</leafValues></_>
    <_>
      <internalNodes>
        0 -1 265940 2.8234669007360935e-03</internalNodes>
      <leafValues>
        -9.3757078051567078e-02 3.9285784959793091e-01</leafValues></_>
    <_>
      <internalNodes>
        0 -1 306431 3.2417528564110398e-04</internalNodes>
      <leafValues>
        -1.5693049132823944e-01 2.6439484953880310e-01</leafValues></_>
    <_>
      <internalNodes>
        0 -1 293192 2.1770803723484278e-03</internalNodes>
      <leafValues>
        4.0929861366748810e-02 -1.0969589948654175e+00</leafValues></_>
    <_>
      <internalNodes>
        0 -1 389245 -6.8076577736064792e-04</internalNodes>
      <leafValues>
        -8.1289315223693848e-01 5.2952989935874939e-02</leafValues></_>
    <_>
      <internalNodes>
        0 -1 293209 -3.7710715550929308e-03</internalNodes>
      <leafValues>
        -8.7398540973663330e-01 4.7604676336050034e-02</leafValues></_>
    <_>
      <internalNodes>
        0 -1 51187 -1.0243095457553864e-02</internalNodes>
      <leafValues>
        2.6309037208557129e-01 -1.3106508553028107e-01</leafValues></_>
    <_>
      <internalNodes>
        0 -1 364731 -2.0738039165735245e-03</internalNodes>
      <leafValues>
        -1.0652091503143311e+00 4.5878656208515167e-02</leafValues></_>
    <_>
      <internalNodes>
        0 -1 335242 -7.7907729428261518e-04</internalNodes>
      <leafValues>
        2.6912453770637512e-01 -1.2271385639905930e-01</leafValues></_>
    <_>
      <internalNodes>
        0 -1 324737 1.2440045829862356e-03</internalNodes>
      <leafValues>
        -1.0964586585760117e-01 4.1050809621810913e-01</leafValues></_>
    <_>
      <internalNodes>
        0 -1 244970 -2.1914131939411163e-03</internalNodes>
      <leafValues>
        -8.1130701303482056e-01 4.9169503152370453e-02</leafValues></_>
    <_>
      <internalNodes>
        0 -1 188760 1.3302197679877281e-02</internalNodes>
      <leafValues>
        -9.5418699085712433e-02 4.3349394202232361e-01</leafValues></_>
    <_>
      <internalNodes>
        0 -1 127236 -1.1251927353441715e-03</internalNodes>
      <leafValues>
        1.5625704824924469e-01 -2.4451778829097748e-01</leafValues></_>
    <_>
      <internalNodes>
        0 -1 59519 -2.7732725720852613e-04</internalNodes>
      <leafValues>
        -3.5125106573104858e-01 1.0858679562807083e-01</leafValues></_>
    <_>
      <internalNodes>
        0 -1 209519 4.2867362499237061e-02</internalNodes>
      <leafValues>
        4.2529810220003128e-02 -9.8534405231475830e-01</leafValues></_>
    <_>
      <internalNodes>
        0 -1 182876 2.9344982467591763e-03</internalNodes>
      <leafValues>
        7.8061401844024658e-02 -4.4816559553146362e-01</leafValues></_>
    <_>
      <internalNodes>
        0 -1 355728 -7.8698835568502545e-04</internalNodes>
      <leafValues>
        2.7665811777114868e-01 -1.2098585814237595e-01</leafValues></_>
    <_>
      <internalNodes>
        0 -1 250037 -2.7264602482318878e-02</internalNodes>
      <leafValues>
        -6.3903993368148804e-01 5.6561131030321121e-02</leafValues></_>
    <_>
      <internalNodes>
        0 -1 394674 -4.9551739357411861e-04</internalNodes>
      <leafValues>
        1.8427132070064545e-01 -1.8415246903896332e-01</leafValues></_>
    <_>
      <internalNodes>
        0 -1 245775 1.0915857274085283e-03</internalNodes>
      <leafValues>
        -2.8163999319076538e-01 1.2078592926263809e-01</leafValues></_>
    <_>
      <internalNodes>
        0 -1 264121 8.1278313882648945e-04</internalNodes>
      <leafValues>
        -1.0459242016077042e-01 3.3629408478736877e-01</leafValues></_></weakClassifiers></stage17>
</opencv_storage>
