<?xml version="1.0"?>
<opencv_storage>
<stage0>
  <maxWeakCount>15</maxWeakCount>
  <stageThreshold>-4.5803642272949219e+00</stageThreshold>
  <weakClassifiers>
    <_>
      <internalNodes>
        0 -1 190429 3.0241552740335464e-02</internalNodes>
      <leafValues>
        -1.4208588600158691e+00 9.6055942773818970e-01</leafValues></_>
    <_>
      <internalNodes>
        0 -1 378684 -1.3568085618317127e-02</internalNodes>
      <leafValues>
        8.7742465734481812e-01 -1.1985428333282471e+00</leafValues></_>
    <_>
      <internalNodes>
        0 -1 308674 1.8782168626785278e-02</internalNodes>
      <leafValues>
        -8.0570363998413086e-01 9.2274999618530273e-01</leafValues></_>
    <_>
      <internalNodes>
        0 -1 371745 1.5746859135106206e-03</internalNodes>
      <leafValues>
        3.8126915693283081e-01 -1.5755709409713745e+00</leafValues></_>
    <_>
      <internalNodes>
        0 -1 386720 -1.0331331286579370e-03</internalNodes>
      <leafValues>
        -1.7568564414978027e+00 3.1496042013168335e-01</leafValues></_>
    <_>
      <internalNodes>
        0 -1 365542 -3.3691723365336657e-04</internalNodes>
      <leafValues>
        4.8129981756210327e-01 -9.8092877864837646e-01</leafValues></_>
    <_>
      <internalNodes>
        0 -1 372344 1.6669537872076035e-03</internalNodes>
      <leafValues>
        2.7701014280319214e-01 -1.3377717733383179e+00</leafValues></_>
    <_>
      <internalNodes>
        0 -1 378011 -1.7475612694397569e-03</internalNodes>
      <leafValues>
        -1.5119264125823975e+00 2.2882784903049469e-01</leafValues></_>
    <_>
      <internalNodes>
        0 -1 51161 -9.3151420354843140e-02</internalNodes>
      <leafValues>
        1.4931318759918213e+00 -3.1278553605079651e-01</leafValues></_>
    <_>
      <internalNodes>
        0 -1 89036 2.2656651213765144e-02</internalNodes>
      <leafValues>
        -4.6741002798080444e-01 9.8562264442443848e-01</leafValues></_>
    <_>
      <internalNodes>
        0 -1 206064 -1.0661659762263298e-02</internalNodes>
      <leafValues>
        5.6063741445541382e-01 -6.5231293439865112e-01</leafValues></_>
    <_>
      <internalNodes>
        0 -1 145200 -1.8565680086612701e-01</internalNodes>
      <leafValues>
        1.2293542623519897e+00 -3.5245025157928467e-01</leafValues></_>
    <_>
      <internalNodes>
        0 -1 159837 4.2891919612884521e-02</internalNodes>
      <leafValues>
        -2.8125387430191040e-01 1.0546512603759766e+00</leafValues></_>
    <_>
      <internalNodes>
        0 -1 184499 -1.3850636780261993e-02</internalNodes>
      <leafValues>
        8.6134320497512817e-01 -3.9567822217941284e-01</leafValues></_>
    <_>
      <internalNodes>
        0 -1 301359 3.5600380506366491e-03</internalNodes>
      <leafValues>
        -3.7673518061637878e-01 7.2486543655395508e-01</leafValues></_></weakClassifiers></stage0>
</opencv_storage>
