<?xml version="1.0"?>
<opencv_storage>
<stage16>
  <maxWeakCount>97</maxWeakCount>
  <stageThreshold>-3.8727178573608398e+00</stageThreshold>
  <weakClassifiers>
    <_>
      <internalNodes>
        0 -1 241667 4.4745849445462227e-03</internalNodes>
      <leafValues>
        -5.7405138015747070e-01 6.6715115308761597e-01</leafValues></_>
    <_>
      <internalNodes>
        0 -1 341045 -6.9350172998383641e-04</internalNodes>
      <leafValues>
        5.0077760219573975e-01 -5.4788130521774292e-01</leafValues></_>
    <_>
      <internalNodes>
        0 -1 170830 1.3479593209922314e-02</internalNodes>
      <leafValues>
        -7.6412522792816162e-01 2.9951682686805725e-01</leafValues></_>
    <_>
      <internalNodes>
        0 -1 284836 6.6707180812954903e-03</internalNodes>
      <leafValues>
        -7.3416388034820557e-01 2.8369343280792236e-01</leafValues></_>
    <_>
      <internalNodes>
        0 -1 317835 -9.0256542898714542e-04</internalNodes>
      <leafValues>
        2.9298040270805359e-01 -6.7084109783172607e-01</leafValues></_>
    <_>
      <internalNodes>
        0 -1 379643 -1.9198166206479073e-02</internalNodes>
      <leafValues>
        3.3980077505111694e-01 -6.1805433034896851e-01</leafValues></_>
    <_>
      <internalNodes>
        0 -1 383351 -6.8046083470107988e-06</internalNodes>
      <leafValues>
        2.8263485431671143e-01 -5.9960657358169556e-01</leafValues></_>
    <_>
      <internalNodes>
        0 -1 291199 -1.1965101584792137e-03</internalNodes>
      <leafValues>
        3.0126902461051941e-01 -5.0895041227340698e-01</leafValues></_>
    <_>
      <internalNodes>
        0 -1 81043 1.1077745258808136e-01</internalNodes>
      <leafValues>
        -2.3218770325183868e-01 6.9870787858963013e-01</leafValues></_>
    <_>
      <internalNodes>
        0 -1 76772 -5.8212995529174805e-02</internalNodes>
      <leafValues>
        8.0915468931198120e-01 -1.9558230042457581e-01</leafValues></_>
    <_>
      <internalNodes>
        0 -1 300444 5.9702987782657146e-03</internalNodes>
      <leafValues>
        -9.5697051286697388e-01 1.7026513814926147e-01</leafValues></_>
    <_>
      <internalNodes>
        0 -1 386730 -9.3640538398176432e-04</internalNodes>
      <leafValues>
        -1.2716394662857056e+00 8.1932343542575836e-02</leafValues></_>
    <_>
      <internalNodes>
        0 -1 263130 -8.0868694931268692e-04</internalNodes>
      <leafValues>
        3.7612220644950867e-01 -3.5730797052383423e-01</leafValues></_>
    <_>
      <internalNodes>
        0 -1 377400 2.6460769586265087e-03</internalNodes>
      <leafValues>
        9.2753194272518158e-02 -1.1999528408050537e+00</leafValues></_>
    <_>
      <internalNodes>
        0 -1 265459 -1.8902032170444727e-03</internalNodes>
      <leafValues>
        5.9752368927001953e-01 -2.2302755713462830e-01</leafValues></_>
    <_>
      <internalNodes>
        0 -1 279839 1.3314299285411835e-03</internalNodes>
      <leafValues>
        -2.6064765453338623e-01 5.7882797718048096e-01</leafValues></_>
    <_>
      <internalNodes>
        0 -1 314701 3.8994960486888885e-03</internalNodes>
      <leafValues>
        1.0604129731655121e-01 -1.2038352489471436e+00</leafValues></_>
    <_>
      <internalNodes>
        0 -1 373053 5.1262765191495419e-03</internalNodes>
      <leafValues>
        -3.0939447879791260e-01 3.8094145059585571e-01</leafValues></_>
    <_>
      <internalNodes>
        0 -1 386641 3.8441584911197424e-04</internalNodes>
      <leafValues>
        7.8209899365901947e-02 -1.5401971340179443e+00</leafValues></_>
    <_>
      <internalNodes>
        0 -1 241926 2.0849166437983513e-02</internalNodes>
      <leafValues>
        1.4938455820083618e-01 -7.5667589902877808e-01</leafValues></_>
    <_>
      <internalNodes>
        0 -1 277386 2.2639283910393715e-02</internalNodes>
      <leafValues>
        1.4975205063819885e-01 -7.2464925050735474e-01</leafValues></_>
    <_>
      <internalNodes>
        0 -1 277706 1.5240625943988562e-03</internalNodes>
      <leafValues>
        -1.9785116612911224e-01 5.9272158145904541e-01</leafValues></_>
    <_>
      <internalNodes>
        0 -1 370695 -1.0323229944333434e-03</internalNodes>
      <leafValues>
        -1.3520845174789429e+00 8.1179492175579071e-02</leafValues></_>
    <_>
      <internalNodes>
        0 -1 371158 -5.5809655350458343e-06</internalNodes>
      <leafValues>
        2.7436700463294983e-01 -3.8964009284973145e-01</leafValues></_>
    <_>
      <internalNodes>
        0 -1 259074 -9.9484319798648357e-04</internalNodes>
      <leafValues>
        6.2696349620819092e-01 -1.8469496071338654e-01</leafValues></_>
    <_>
      <internalNodes>
        0 -1 185711 -5.2820285782217979e-03</internalNodes>
      <leafValues>
        3.0787611007690430e-01 -3.7872052192687988e-01</leafValues></_>
    <_>
      <internalNodes>
        0 -1 383353 1.3446735465549864e-05</internalNodes>
      <leafValues>
        -3.2980373501777649e-01 3.0992513895034790e-01</leafValues></_>
    <_>
      <internalNodes>
        0 -1 318625 1.5554988756775856e-02</internalNodes>
      <leafValues>
        8.5464537143707275e-02 -1.1155811548233032e+00</leafValues></_>
    <_>
      <internalNodes>
        0 -1 377003 -1.3961624354124069e-03</internalNodes>
      <leafValues>
        -1.1651475429534912e+00 7.8160293400287628e-02</leafValues></_>
    <_>
      <internalNodes>
        0 -1 306396 -6.7564379423856735e-04</internalNodes>
      <leafValues>
        5.5802625417709351e-01 -1.9994154572486877e-01</leafValues></_>
    <_>
      <internalNodes>
        0 -1 319148 -1.9035981968045235e-03</internalNodes>
      <leafValues>
        -1.1103483438491821e+00 8.9868895709514618e-02</leafValues></_>
    <_>
      <internalNodes>
        0 -1 294986 -8.2409214228391647e-03</internalNodes>
      <leafValues>
        6.2702918052673340e-01 -1.6754759848117828e-01</leafValues></_>
    <_>
      <internalNodes>
        0 -1 294909 3.1779729761183262e-03</internalNodes>
      <leafValues>
        -2.5241181254386902e-01 4.3380534648895264e-01</leafValues></_>
    <_>
      <internalNodes>
        0 -1 7961 -1.0384374763816595e-03</internalNodes>
      <leafValues>
        -8.4859186410903931e-01 1.1064967513084412e-01</leafValues></_>
    <_>
      <internalNodes>
        0 -1 308227 -5.7699675671756268e-03</internalNodes>
      <leafValues>
        -1.2096873521804810e+00 7.5453840196132660e-02</leafValues></_>
    <_>
      <internalNodes>
        0 -1 9361 6.1336992075666785e-05</internalNodes>
      <leafValues>
        2.0169675350189209e-01 -4.6771880984306335e-01</leafValues></_>
    <_>
      <internalNodes>
        0 -1 317001 3.7950646947138011e-04</internalNodes>
      <leafValues>
        -1.6224969923496246e-01 6.0751318931579590e-01</leafValues></_>
    <_>
      <internalNodes>
        0 -1 332157 1.4574166852980852e-03</internalNodes>
      <leafValues>
        1.0047677159309387e-01 -9.2403513193130493e-01</leafValues></_>
    <_>
      <internalNodes>
        0 -1 160174 2.2789286449551582e-03</internalNodes>
      <leafValues>
        7.6069422066211700e-02 -1.1344252824783325e+00</leafValues></_>
    <_>
      <internalNodes>
        0 -1 353240 8.0872816033661366e-04</internalNodes>
      <leafValues>
        -2.6845407485961914e-01 3.6101248860359192e-01</leafValues></_>
    <_>
      <internalNodes>
        0 -1 235547 2.4484868627041578e-03</internalNodes>
      <leafValues>
        -1.8854397535324097e-01 5.3054225444793701e-01</leafValues></_>
    <_>
      <internalNodes>
        0 -1 259142 -2.2972924634814262e-03</internalNodes>
      <leafValues>
        5.9869503974914551e-01 -1.6169716417789459e-01</leafValues></_>
    <_>
      <internalNodes>
        0 -1 240753 -1.0579233057796955e-03</internalNodes>
      <leafValues>
        5.0524795055389404e-01 -2.1995459496974945e-01</leafValues></_>
    <_>
      <internalNodes>
        0 -1 319148 2.5481129996478558e-03</internalNodes>
      <leafValues>
        9.5484852790832520e-02 -1.0796275138854980e+00</leafValues></_>
    <_>
      <internalNodes>
        0 -1 343508 -5.7035377249121666e-03</internalNodes>
      <leafValues>
        -1.3659933805465698e+00 5.7123538106679916e-02</leafValues></_>
    <_>
      <internalNodes>
        0 -1 280523 1.3632643967866898e-03</internalNodes>
      <leafValues>
        -2.2513209283351898e-01 4.1715532541275024e-01</leafValues></_>
    <_>
      <internalNodes>
        0 -1 294185 -6.9997645914554596e-04</internalNodes>
      <leafValues>
        5.1699507236480713e-01 -2.1735370159149170e-01</leafValues></_>
    <_>
      <internalNodes>
        0 -1 393585 -1.3216234037827235e-05</internalNodes>
      <leafValues>
        2.2503009438514709e-01 -4.0102142095565796e-01</leafValues></_>
    <_>
      <internalNodes>
        0 -1 366878 -1.4758972683921456e-03</internalNodes>
      <leafValues>
        -9.3043792247772217e-01 9.0002492070198059e-02</leafValues></_>
    <_>
      <internalNodes>
        0 -1 235630 9.1520603746175766e-03</internalNodes>
      <leafValues>
        6.2645331025123596e-02 -1.2810394763946533e+00</leafValues></_>
    <_>
      <internalNodes>
        0 -1 334364 2.2126107942312956e-03</internalNodes>
      <leafValues>
        -1.8239225447177887e-01 5.2407956123352051e-01</leafValues></_>
    <_>
      <internalNodes>
        0 -1 299752 -1.5197980683296919e-03</internalNodes>
      <leafValues>
        4.4409829378128052e-01 -2.4192272126674652e-01</leafValues></_>
    <_>
      <internalNodes>
        0 -1 235489 1.0675258934497833e-02</internalNodes>
      <leafValues>
        5.4932981729507446e-02 -1.4737443923950195e+00</leafValues></_>
    <_>
      <internalNodes>
        0 -1 293059 -2.6292987167835236e-02</internalNodes>
      <leafValues>
        -7.1198797225952148e-01 1.1166837066411972e-01</leafValues></_>
    <_>
      <internalNodes>
        0 -1 213679 -9.0721836313605309e-03</internalNodes>
      <leafValues>
        6.3393718004226685e-01 -1.4229112863540649e-01</leafValues></_>
    <_>
      <internalNodes>
        0 -1 228333 3.4230540040880442e-04</internalNodes>
      <leafValues>
        -3.7141594290733337e-01 2.2173881530761719e-01</leafValues></_>
    <_>
      <internalNodes>
        0 -1 123186 7.0106722414493561e-03</internalNodes>
      <leafValues>
        -1.7944802343845367e-01 5.1812976598739624e-01</leafValues></_>
    <_>
      <internalNodes>
        0 -1 274774 -1.1997404508292675e-03</internalNodes>
      <leafValues>
        -8.8292777538299561e-01 9.5433548092842102e-02</leafValues></_>
    <_>
      <internalNodes>
        0 -1 278289 9.7222928889095783e-04</internalNodes>
      <leafValues>
        -2.1433632075786591e-01 4.1409909725189209e-01</leafValues></_>
    <_>
      <internalNodes>
        0 -1 159032 9.5697952201589942e-04</internalNodes>
      <leafValues>
        -2.9922381043434143e-01 3.4597295522689819e-01</leafValues></_>
    <_>
      <internalNodes>
        0 -1 383140 -4.3486530194059014e-04</internalNodes>
      <leafValues>
        -6.9006484746932983e-01 1.2638297677040100e-01</leafValues></_>
    <_>
      <internalNodes>
        0 -1 378386 5.9024069923907518e-04</internalNodes>
      <leafValues>
        -2.5483235716819763e-01 3.1768286228179932e-01</leafValues></_>
    <_>
      <internalNodes>
        0 -1 365963 -1.7741877585649490e-02</internalNodes>
      <leafValues>
        -1.1371487379074097e+00 7.5080603361129761e-02</leafValues></_>
    <_>
      <internalNodes>
        0 -1 264121 1.0860513430088758e-03</internalNodes>
      <leafValues>
        -1.4794792234897614e-01 6.0015559196472168e-01</leafValues></_>
    <_>
      <internalNodes>
        0 -1 249524 4.6667526476085186e-04</internalNodes>
      <leafValues>
        -2.9836595058441162e-01 2.7415362000465393e-01</leafValues></_>
    <_>
      <internalNodes>
        0 -1 274912 2.5024213828146458e-03</internalNodes>
      <leafValues>
        1.0197666287422180e-01 -8.1834864616394043e-01</leafValues></_>
    <_>
      <internalNodes>
        0 -1 379500 -2.3928313748911023e-04</internalNodes>
      <leafValues>
        -5.6981468200683594e-01 1.3165724277496338e-01</leafValues></_>
    <_>
      <internalNodes>
        0 -1 335675 -5.9038288891315460e-03</internalNodes>
      <leafValues>
        -9.6232837438583374e-01 7.9271435737609863e-02</leafValues></_>
    <_>
      <internalNodes>
        0 -1 194778 -5.0462619401514530e-03</internalNodes>
      <leafValues>
        3.9221090078353882e-01 -2.0326364040374756e-01</leafValues></_>
    <_>
      <internalNodes>
        0 -1 345347 -2.8621149249374866e-04</internalNodes>
      <leafValues>
        4.9335637688636780e-01 -1.6039939224720001e-01</leafValues></_>
    <_>
      <internalNodes>
        0 -1 380732 2.7251872234046459e-03</internalNodes>
      <leafValues>
        -2.9001715779304504e-01 2.6355871558189392e-01</leafValues></_>
    <_>
      <internalNodes>
        0 -1 339822 4.6590247075073421e-04</internalNodes>
      <leafValues>
        -1.5048746764659882e-01 5.4327219724655151e-01</leafValues></_>
    <_>
      <internalNodes>
        0 -1 58901 -3.3098810911178589e-01</internalNodes>
      <leafValues>
        9.7104662656784058e-01 -9.0558975934982300e-02</leafValues></_>
    <_>
      <internalNodes>
        0 -1 375492 -9.7613669931888580e-03</internalNodes>
      <leafValues>
        1.2865066528320312e+00 -6.4691402018070221e-02</leafValues></_>
    <_>
      <internalNodes>
        0 -1 141068 1.4057902619242668e-02</internalNodes>
      <leafValues>
        -1.7088826000690460e-01 4.6273443102836609e-01</leafValues></_>
    <_>
      <internalNodes>
        0 -1 248869 4.7564557753503323e-03</internalNodes>
      <leafValues>
        8.9806877076625824e-02 -8.0906260013580322e-01</leafValues></_>
    <_>
      <internalNodes>
        0 -1 377365 -1.3089878484606743e-04</internalNodes>
      <leafValues>
        -5.1241844892501831e-01 1.4182668924331665e-01</leafValues></_>
    <_>
      <internalNodes>
        0 -1 319280 2.2619940340518951e-02</internalNodes>
      <leafValues>
        -1.7166312038898468e-01 4.9429345130920410e-01</leafValues></_>
    <_>
      <internalNodes>
        0 -1 271850 -1.2217678595334291e-03</internalNodes>
      <leafValues>
        3.5509043931961060e-01 -1.9779469072818756e-01</leafValues></_>
    <_>
      <internalNodes>
        0 -1 256725 5.7917628437280655e-03</internalNodes>
      <leafValues>
        -1.4355060458183289e-01 6.0516053438186646e-01</leafValues></_>
    <_>
      <internalNodes>
        0 -1 308122 -6.2942318618297577e-04</internalNodes>
      <leafValues>
        -7.6440143585205078e-01 9.8437778651714325e-02</leafValues></_>
    <_>
      <internalNodes>
        0 -1 48930 -5.1631155656650662e-04</internalNodes>
      <leafValues>
        -3.8739618659019470e-01 1.8086819350719452e-01</leafValues></_>
    <_>
      <internalNodes>
        0 -1 346563 1.7379641576553695e-05</internalNodes>
      <leafValues>
        -2.6928815245628357e-01 2.5425964593887329e-01</leafValues></_>
    <_>
      <internalNodes>
        0 -1 272909 6.6318605095148087e-03</internalNodes>
      <leafValues>
        7.4482582509517670e-02 -8.6480653285980225e-01</leafValues></_>
    <_>
      <internalNodes>
        0 -1 382326 -5.5809655350458343e-06</internalNodes>
      <leafValues>
        2.0425805449485779e-01 -3.4249931573867798e-01</leafValues></_>
    <_>
      <internalNodes>
        0 -1 170911 4.7357894480228424e-02</internalNodes>
      <leafValues>
        7.8623622655868530e-02 -8.9435917139053345e-01</leafValues></_>
    <_>
      <internalNodes>
        0 -1 177597 3.1709130853414536e-03</internalNodes>
      <leafValues>
        -1.0483382642269135e-01 7.1555978059768677e-01</leafValues></_>
    <_>
      <internalNodes>
        0 -1 332956 1.1386715341359377e-03</internalNodes>
      <leafValues>
        -1.5925078094005585e-01 4.6136236190795898e-01</leafValues></_>
    <_>
      <internalNodes>
        0 -1 333045 -3.1707137823104858e-03</internalNodes>
      <leafValues>
        9.6098542213439941e-01 -8.8463023304939270e-02</leafValues></_>
    <_>
      <internalNodes>
        0 -1 2742 -1.5110478270798922e-03</internalNodes>
      <leafValues>
        -5.6555712223052979e-01 1.3691505789756775e-01</leafValues></_>
    <_>
      <internalNodes>
        0 -1 32899 -1.6758708283305168e-02</internalNodes>
      <leafValues>
        -9.8340034484863281e-01 6.4253352582454681e-02</leafValues></_>
    <_>
      <internalNodes>
        0 -1 337046 1.5501464949920774e-03</internalNodes>
      <leafValues>
        8.0144308507442474e-02 -7.6313471794128418e-01</leafValues></_>
    <_>
      <internalNodes>
        0 -1 388993 -3.2393094152212143e-03</internalNodes>
      <leafValues>
        -1.1267247200012207e+00 5.5885411798954010e-02</leafValues></_>
    <_>
      <internalNodes>
        0 -1 237289 -5.6319250725209713e-03</internalNodes>
      <leafValues>
        2.5797954201698303e-01 -2.6954883337020874e-01</leafValues></_>
    <_>
      <internalNodes>
        0 -1 58849 -2.8769997879862785e-04</internalNodes>
      <leafValues>
        2.3206545412540436e-01 -2.8488630056381226e-01</leafValues></_>
    <_>
      <internalNodes>
        0 -1 377667 -4.2957125697284937e-04</internalNodes>
      <leafValues>
        -8.7605541944503784e-01 6.9436363875865936e-02</leafValues></_>
    <_>
      <internalNodes>
        0 -1 273346 -7.0874567609280348e-04</internalNodes>
      <leafValues>
        3.8212409615516663e-01 -1.6616521775722504e-01</leafValues></_></weakClassifiers></stage16>
</opencv_storage>
